svm_type c_svc
kernel_type rbf
gamma 0.0014925373134328358
nr_class 2
total_sv 4190
rho 0.04929036611864635
label 1 -1
nr_sv 2086 2104
SV
1.0 43:4.0 45:4.0 158:2.0 404:2.0 602:2.0 635:2.0 
1.0 64:2.0 71:2.0 307:2.0 359:2.0 458:2.0 
1.0 465:2.0 555:2.0 596:2.0 
1.0 17:4.0 24:2.0 45:2.0 53:2.0 97:2.0 100:2.0 117:2.0 119:2.0 147:4.0 182:2.0 237:2.0 306:2.0 357:2.0 404:2.0 530:2.0 537:4.0 592:2.0 
1.0 376:2.0 
1.0 327:2.0 
1.0 2:4.0 53:2.0 404:2.0 
1.0 42:2.0 45:2.0 77:2.0 164:2.0 384:2.0 579:2.0 
1.0 71:2.0 278:2.0 404:1.0 406:2.0 427:1.0 467:2.0 537:2.0 596:2.0 
1.0 2:4.0 12:2.0 143:2.0 259:4.0 278:2.0 315:2.0 385:2.0 603:2.0 
1.0 
1.0 45:2.0 71:1.0 294:2.0 557:2.0 592:2.0 617:1.0 
0.7838796759671665 109:2.0 124:1.0 313:2.0 458:2.0 576:2.0 
1.0 14:2.0 176:2.0 580:1.0 660:1.0 
1.0 70:2.0 93:1.0 176:2.0 452:2.0 
1.0 42:2.0 43:2.0 265:2.0 465:2.0 587:2.0 
1.0 2:4.0 109:2.0 130:1.0 192:2.0 278:2.0 357:1.0 376:2.0 397:2.0 404:2.0 416:2.0 458:2.0 525:2.0 557:2.0 
1.0 33:2.0 71:2.0 172:2.0 182:2.0 192:2.0 278:2.0 404:1.0 427:1.0 596:4.0 
1.0 39:2.0 71:2.0 263:2.0 404:2.0 405:2.0 595:4.0 610:2.0 
1.0 486:4.0 
1.0 667:2.0 
1.0 178:2.0 
1.0 12:2.0 71:2.0 
1.0 91:2.0 109:2.0 278:2.0 384:2.0 457:2.0 557:2.0 648:2.0 
1.0 94:2.0 278:2.0 424:2.0 
1.0 424:2.0 461:2.0 666:2.0 
1.0 
1.0 2:2.0 48:3.0 55:2.0 71:4.0 79:2.0 101:2.0 109:1.0 124:4.0 137:2.0 158:2.0 234:1.0 235:4.0 252:2.0 278:6.0 295:2.0 354:2.0 398:2.0 404:12.0 458:2.0 478:4.0 515:2.0 537:4.0 596:2.0 636:2.0 
1.0 94:2.0 440:2.0 490:2.0 565:2.0 
1.0 240:2.0 469:2.0 493:2.0 
1.0 15:2.0 194:2.0 404:2.0 595:2.0 
1.0 94:2.0 257:2.0 
1.0 2:2.0 24:2.0 48:1.0 71:2.0 109:3.0 189:2.0 234:1.0 277:2.0 278:6.0 292:2.0 357:2.0 364:2.0 406:2.0 444:2.0 467:1.0 557:2.0 596:2.0 640:1.0 
1.0 59:2.0 60:2.0 102:2.0 278:2.0 302:2.0 376:2.0 404:2.0 555:2.0 
1.0 240:2.0 477:2.0 579:2.0 
1.0 71:2.0 172:2.0 232:2.0 278:2.0 483:2.0 557:2.0 
1.0 33:2.0 148:2.0 357:2.0 384:2.0 401:2.0 455:2.0 461:2.0 
1.0 446:2.0 529:2.0 615:1.0 
1.0 579:2.0 
1.0 
1.0 178:4.0 445:2.0 
1.0 48:2.0 71:2.0 404:2.0 424:2.0 500:2.0 537:2.0 598:2.0 
1.0 48:2.0 71:2.0 115:2.0 158:2.0 265:2.0 278:2.0 397:2.0 557:2.0 590:2.0 610:2.0 613:2.0 
1.0 42:4.0 45:4.0 71:4.0 97:2.0 120:2.0 278:2.0 304:2.0 398:2.0 507:1.0 579:2.0 614:2.0 649:6.0 665:3.0 
1.0 43:2.0 45:4.0 109:2.0 
1.0 61:2.0 437:2.0 
0.3592785467182581 2:2.0 71:4.0 198:2.0 278:2.0 280:2.0 434:2.0 478:2.0 507:2.0 557:2.0 598:2.0 620:2.0 
1.0 498:2.0 527:2.0 
1.0 71:2.0 100:2.0 407:2.0 595:2.0 
1.0 2:2.0 43:2.0 45:2.0 48:2.0 115:2.0 137:4.0 172:2.0 278:2.0 308:2.0 376:2.0 404:2.0 427:2.0 537:2.0 543:2.0 558:2.0 590:2.0 610:2.0 
0.29328290442390403 42:4.0 71:2.0 99:2.0 100:2.0 109:4.0 117:2.0 139:2.0 148:2.0 247:2.0 306:8.0 436:2.0 502:2.0 545:4.0 572:8.0 610:2.0 619:4.0 
1.0 458:2.0 
1.0 69:2.0 
1.0 158:2.0 375:2.0 404:2.0 
1.0 71:2.0 172:2.0 465:2.0 
1.0 165:2.0 546:2.0 
0.2663758593587196 3:1.0 269:2.0 465:2.0 590:2.0 614:2.0 628:2.0 
1.0 55:2.0 94:2.0 98:2.0 133:2.0 202:2.0 225:2.0 278:2.0 285:2.0 404:2.0 417:2.0 
1.0 41:2.0 45:2.0 74:2.0 109:2.0 117:2.0 140:2.0 268:2.0 404:4.0 530:2.0 572:4.0 589:2.0 596:2.0 610:2.0 619:2.0 
1.0 71:2.0 172:2.0 282:2.0 404:2.0 
1.0 41:2.0 42:4.0 43:10.0 45:8.0 192:2.0 275:2.0 404:2.0 
0.27314613203915383 71:42.0 143:14.0 
1.0 41:2.0 42:2.0 45:6.0 275:2.0 554:2.0 555:2.0 633:2.0 
1.0 16:2.0 117:2.0 165:2.0 193:2.0 199:2.0 240:2.0 421:2.0 539:2.0 557:2.0 614:2.0 651:2.0 
1.0 48:2.0 71:2.0 102:2.0 158:2.0 307:1.0 404:2.0 557:2.0 602:2.0 
1.0 
1.0 42:4.0 43:2.0 45:2.0 79:2.0 109:2.0 186:2.0 283:2.0 477:2.0 519:2.0 589:4.0 599:2.0 633:2.0 
1.0 79:2.0 178:2.0 239:2.0 404:2.0 599:2.0 637:2.0 
1.0 
1.0 16:2.0 133:2.0 404:1.0 435:3.0 
1.0 41:2.0 43:2.0 109:1.0 158:2.0 234:1.0 235:4.0 557:2.0 592:2.0 640:1.0 
1.0 40:2.0 42:2.0 43:2.0 109:2.0 115:1.0 169:4.0 178:2.0 235:2.0 255:2.0 294:2.0 357:2.0 460:2.0 468:2.0 498:2.0 508:2.0 616:2.0 640:1.0 
1.0 226:2.0 480:2.0 
1.0 
0.34926144414459237 94:2.0 278:2.0 308:2.0 636:2.0 
1.0 7:2.0 164:2.0 249:2.0 
1.0 178:2.0 599:2.0 
1.0 212:1.0 226:2.0 
1.0 2:2.0 97:2.0 138:2.0 158:2.0 426:2.0 458:2.0 572:2.0 
1.0 48:1.0 109:3.0 234:1.0 572:2.0 592:2.0 
1.0 71:4.0 81:2.0 133:2.0 177:2.0 230:1.0 331:2.0 357:3.0 399:2.0 401:2.0 404:3.0 427:1.0 538:2.0 561:2.0 575:2.0 579:2.0 595:2.0 
1.0 79:2.0 608:2.0 
1.0 109:2.0 235:2.0 241:2.0 393:2.0 404:2.0 661:2.0 
1.0 2:2.0 192:2.0 437:2.0 
1.0 2:4.0 185:2.0 314:2.0 580:2.0 
1.0 539:2.0 
1.0 69:2.0 
1.0 172:2.0 398:2.0 413:2.0 
1.0 68:2.0 71:2.0 232:2.0 619:6.0 
1.0 178:2.0 210:2.0 471:2.0 543:2.0 
1.0 666:2.0 
1.0 113:2.0 381:2.0 615:2.0 
1.0 270:4.0 404:3.0 430:2.0 622:2.0 637:1.0 
1.0 
1.0 120:2.0 
1.0 
1.0 71:2.0 100:2.0 247:2.0 404:2.0 463:2.0 599:2.0 
1.0 464:2.0 557:2.0 608:2.0 
1.0 401:1.0 600:1.0 
1.0 2:2.0 24:2.0 48:1.0 70:2.0 71:2.0 102:2.0 109:1.0 124:2.0 151:2.0 160:2.0 194:4.0 198:2.0 207:2.0 214:2.0 227:2.0 234:1.0 252:2.0 256:2.0 306:2.0 321:2.0 384:2.0 404:2.0 408:2.0 457:2.0 458:6.0 465:2.0 515:2.0 579:2.0 595:2.0 596:2.0 615:2.0 633:2.0 656:2.0 
1.0 41:2.0 42:2.0 43:2.0 
1.0 71:2.0 557:2.0 592:2.0 596:2.0 
1.0 393:64.0 
1.0 2:8.0 14:2.0 17:2.0 42:2.0 70:2.0 98:2.0 109:2.0 111:4.0 113:2.0 183:2.0 193:2.0 250:4.0 278:6.0 292:2.0 308:2.0 401:2.0 404:2.0 537:2.0 572:2.0 582:2.0 594:2.0 
1.0 172:2.0 178:2.0 
1.0 48:1.0 109:1.0 234:1.0 292:2.0 391:2.0 404:2.0 555:2.0 
0.22736945813632392 2:2.0 45:8.0 109:2.0 139:2.0 265:2.0 
1.0 282:2.0 404:2.0 545:2.0 
1.0 284:2.0 
1.0 186:2.0 265:2.0 
1.0 178:4.0 516:2.0 
1.0 41:4.0 42:2.0 45:10.0 129:2.0 158:2.0 172:2.0 230:2.0 306:4.0 330:2.0 335:2.0 357:2.0 398:2.0 471:2.0 498:6.0 505:2.0 616:6.0 659:2.0 
1.0 134:2.0 292:2.0 384:2.0 458:2.0 
1.0 92:2.0 141:2.0 294:2.0 
1.0 233:2.0 558:2.0 
1.0 71:4.0 404:2.0 407:4.0 496:2.0 557:2.0 595:2.0 623:2.0 
1.0 1:2.0 2:2.0 41:6.0 43:4.0 45:4.0 48:4.0 64:2.0 69:2.0 71:2.0 100:2.0 124:4.0 152:2.0 153:6.0 159:2.0 178:8.0 230:2.0 241:2.0 282:2.0 294:2.0 315:2.0 349:2.0 401:2.0 404:4.0 448:2.0 537:2.0 636:2.0 
1.0 182:2.0 235:2.0 404:4.0 457:4.0 502:2.0 557:2.0 589:2.0 627:2.0 
1.0 2:2.0 463:2.0 
1.0 2:2.0 463:2.0 
1.0 2:4.0 205:2.0 537:2.0 592:2.0 
1.0 2:2.0 48:1.0 109:1.0 182:2.0 234:1.0 327:2.0 404:2.0 465:4.0 592:2.0 
1.0 205:2.0 655:2.0 
1.0 164:2.0 199:2.0 235:2.0 529:2.0 
1.0 468:2.0 
1.0 2:2.0 13:2.0 41:2.0 45:2.0 71:2.0 94:2.0 100:2.0 133:2.0 224:2.0 230:2.0 262:2.0 308:2.0 
1.0 109:2.0 219:1.0 265:2.0 292:2.0 404:3.0 457:2.0 505:1.0 597:2.0 
1.0 120:2.0 180:2.0 366:2.0 458:2.0 545:2.0 
1.0 71:2.0 100:2.0 278:2.0 502:2.0 
1.0 67:2.0 115:2.0 176:2.0 366:4.0 384:2.0 445:2.0 491:2.0 537:2.0 592:2.0 641:2.0 
0.10902037531643935 3:2.0 12:4.0 41:4.0 42:8.0 43:2.0 45:6.0 70:4.0 71:10.0 73:2.0 81:2.0 97:2.0 102:2.0 124:2.0 140:2.0 148:2.0 235:2.0 237:4.0 278:2.0 315:2.0 331:2.0 349:2.0 366:2.0 404:8.0 429:2.0 441:2.0 456:2.0 477:2.0 539:4.0 572:12.0 579:10.0 582:2.0 623:4.0 651:4.0 652:2.0 
1.0 43:4.0 51:2.0 71:2.0 109:2.0 278:2.0 404:2.0 633:2.0 637:2.0 
1.0 33:2.0 41:2.0 42:4.0 43:14.0 45:8.0 60:2.0 111:2.0 124:2.0 235:4.0 237:2.0 262:2.0 272:2.0 278:2.0 304:2.0 327:2.0 349:2.0 357:6.0 401:4.0 404:2.0 421:4.0 450:2.0 455:2.0 460:2.0 572:4.0 579:2.0 585:2.0 599:2.0 619:2.0 655:2.0 
1.0 7:2.0 24:2.0 42:2.0 43:2.0 318:2.0 341:2.0 404:2.0 421:2.0 572:2.0 648:2.0 
1.0 2:4.0 3:2.0 25:2.0 31:6.0 33:2.0 42:2.0 43:2.0 45:2.0 68:2.0 71:3.0 73:2.0 97:2.0 99:2.0 113:4.0 124:2.0 139:2.0 140:4.0 145:2.0 146:2.0 172:2.0 176:2.0 241:4.0 261:2.0 278:6.0 287:2.0 306:2.0 307:2.0 314:2.0 342:2.0 357:2.0 401:4.0 404:8.0 406:6.0 407:4.0 413:2.0 448:2.0 458:2.0 480:2.0 610:2.0 618:1.0 622:2.0 628:2.0 635:2.0 642:2.0 664:2.0 
1.0 33:2.0 97:2.0 117:2.0 226:2.0 235:2.0 285:2.0 366:2.0 401:2.0 404:2.0 410:2.0 537:4.0 545:2.0 572:2.0 592:2.0 600:1.0 619:2.0 648:2.0 652:2.0 
1.0 64:2.0 71:2.0 261:2.0 357:2.0 
1.0 14:2.0 97:2.0 130:1.0 228:1.0 357:1.0 458:2.0 
1.0 14:2.0 375:2.0 376:2.0 404:2.0 
1.0 71:2.0 241:2.0 263:2.0 508:2.0 
1.0 237:2.0 404:2.0 475:2.0 537:2.0 572:2.0 589:2.0 599:2.0 
1.0 97:2.0 124:2.0 271:2.0 366:4.0 411:2.0 493:2.0 496:2.0 633:2.0 
1.0 16:2.0 24:2.0 66:2.0 98:2.0 107:4.0 193:4.0 235:2.0 278:2.0 355:2.0 356:1.0 366:2.0 397:2.0 404:1.0 427:1.0 465:2.0 497:2.0 538:2.0 637:2.0 659:1.0 
1.0 16:2.0 24:2.0 66:2.0 98:2.0 107:4.0 193:4.0 235:2.0 278:2.0 355:2.0 356:1.0 366:2.0 397:2.0 404:1.0 427:1.0 465:2.0 497:2.0 538:2.0 637:2.0 659:1.0 
1.0 17:4.0 21:2.0 41:2.0 42:2.0 68:2.0 71:2.0 115:2.0 384:2.0 496:2.0 595:2.0 596:2.0 637:6.0 
1.0 71:2.0 
1.0 401:2.0 596:2.0 
1.0 304:2.0 308:2.0 
1.0 
1.0 
1.0 17:2.0 43:2.0 45:4.0 64:2.0 79:2.0 124:2.0 421:2.0 555:2.0 
1.0 50:2.0 293:2.0 468:2.0 640:2.0 
1.0 41:2.0 42:2.0 43:4.0 45:2.0 48:3.0 71:2.0 109:1.0 234:1.0 262:4.0 327:2.0 349:2.0 357:2.0 364:2.0 404:2.0 445:2.0 537:2.0 589:2.0 592:2.0 628:2.0 635:2.0 
1.0 376:2.0 
1.0 71:2.0 115:2.0 404:1.0 417:1.0 457:2.0 
1.0 71:2.0 75:2.0 250:4.0 278:2.0 
1.0 2:4.0 14:2.0 42:2.0 43:6.0 45:6.0 48:1.0 79:2.0 118:2.0 153:2.0 178:2.0 193:2.0 241:2.0 263:2.0 292:2.0 319:2.0 404:2.0 424:2.0 458:4.0 465:6.0 471:2.0 572:2.0 575:2.0 596:1.0 619:2.0 635:2.0 637:2.0 
1.0 178:2.0 292:4.0 458:2.0 
1.0 48:1.0 130:1.0 137:2.0 357:2.0 427:1.0 458:2.0 555:2.0 572:2.0 
1.0 
1.0 71:2.0 282:2.0 
1.0 
1.0 2:2.0 12:2.0 81:2.0 308:2.0 404:2.0 456:2.0 458:2.0 468:2.0 614:1.0 
1.0 35:2.0 117:2.0 265:2.0 282:2.0 404:2.0 
1.0 2:2.0 68:2.0 87:2.0 117:2.0 133:2.0 172:2.0 241:2.0 282:2.0 557:2.0 
1.0 92:2.0 109:2.0 404:2.0 
1.0 41:2.0 51:2.0 57:2.0 58:2.0 71:2.0 97:2.0 404:2.0 538:2.0 575:2.0 
1.0 92:2.0 109:2.0 115:2.0 
1.0 2:2.0 16:2.0 41:2.0 43:2.0 45:2.0 64:2.0 71:2.0 98:2.0 133:2.0 207:2.0 261:2.0 278:2.0 280:2.0 294:2.0 309:2.0 384:2.0 394:2.0 404:2.0 424:2.0 457:2.0 465:2.0 503:2.0 507:2.0 537:2.0 543:2.0 564:2.0 596:2.0 601:2.0 637:2.0 
1.0 
1.0 71:4.0 178:2.0 232:2.0 292:2.0 305:2.0 308:2.0 357:2.0 381:6.0 385:2.0 404:2.0 458:2.0 477:2.0 536:2.0 603:2.0 665:2.0 670:2.0 
1.0 12:2.0 192:2.0 241:4.0 287:2.0 404:2.0 537:2.0 563:2.0 610:2.0 
1.0 141:2.0 376:2.0 458:2.0 572:2.0 
1.0 109:2.0 278:2.0 404:2.0 457:2.0 463:2.0 557:2.0 628:2.0 
1.0 
1.0 
1.0 2:2.0 121:2.0 139:1.0 148:2.0 240:2.0 241:2.0 308:4.0 355:4.0 404:2.0 406:1.0 596:2.0 635:1.0 
1.0 
1.0 48:2.0 71:2.0 97:2.0 147:2.0 189:2.0 250:2.0 468:2.0 592:2.0 667:2.0 
1.0 2:4.0 12:2.0 57:2.0 71:2.0 262:2.0 423:2.0 534:2.0 592:2.0 
1.0 219:2.0 
1.0 
1.0 2:4.0 14:2.0 109:2.0 230:2.0 233:2.0 241:2.0 250:2.0 278:2.0 404:1.0 435:1.0 474:2.0 502:4.0 537:2.0 592:2.0 600:1.0 619:2.0 
1.0 2:4.0 14:2.0 109:2.0 230:2.0 233:2.0 241:2.0 250:2.0 278:2.0 404:1.0 435:1.0 474:2.0 502:4.0 537:2.0 592:2.0 600:1.0 619:2.0 
1.0 219:2.0 
1.0 410:2.0 498:2.0 572:2.0 616:2.0 
1.0 24:2.0 67:2.0 68:2.0 153:2.0 241:2.0 278:2.0 284:2.0 406:2.0 537:2.0 557:2.0 631:2.0 
1.0 100:2.0 102:2.0 316:2.0 636:2.0 
1.0 48:2.0 109:2.0 158:2.0 357:2.0 373:2.0 381:2.0 458:4.0 
1.0 
1.0 
1.0 2:2.0 24:2.0 41:2.0 45:2.0 64:2.0 70:2.0 113:2.0 124:2.0 141:2.0 144:2.0 152:2.0 219:1.0 241:2.0 292:2.0 309:2.0 370:2.0 374:2.0 401:2.0 404:1.0 445:2.0 458:2.0 505:1.0 526:2.0 551:2.0 572:2.0 592:2.0 630:2.0 
1.0 102:2.0 
1.0 
1.0 2:2.0 42:2.0 48:2.0 68:2.0 92:2.0 109:2.0 158:2.0 270:8.0 317:4.0 404:2.0 495:2.0 641:2.0 
1.0 219:2.0 
1.0 42:2.0 43:6.0 45:4.0 75:2.0 172:2.0 393:2.0 614:2.0 628:2.0 
1.0 
1.0 100:2.0 113:2.0 461:2.0 557:2.0 572:2.0 
1.0 2:2.0 41:4.0 42:4.0 45:4.0 70:2.0 72:2.0 109:2.0 111:2.0 141:2.0 145:2.0 225:2.0 265:2.0 359:2.0 401:2.0 404:4.0 406:2.0 466:2.0 519:2.0 535:2.0 555:2.0 596:2.0 610:2.0 
1.0 313:2.0 357:2.0 572:2.0 
1.0 43:2.0 97:2.0 114:2.0 117:2.0 138:3.0 193:2.0 210:2.0 250:2.0 306:2.0 397:2.0 402:2.0 437:2.0 461:2.0 468:2.0 537:2.0 
1.0 282:4.0 
1.0 2:2.0 153:2.0 241:2.0 295:2.0 458:2.0 465:2.0 496:2.0 547:2.0 552:2.0 610:2.0 642:2.0 
1.0 71:2.0 
1.0 42:2.0 45:2.0 48:4.0 109:2.0 158:2.0 400:2.0 404:2.0 445:2.0 537:4.0 648:2.0 
1.0 24:2.0 41:2.0 45:2.0 71:2.0 109:2.0 151:2.0 158:2.0 172:2.0 218:2.0 256:2.0 261:2.0 537:2.0 558:2.0 
0.3745313093389443 2:7.0 9:4.0 14:2.0 33:2.0 34:2.0 41:10.0 42:4.0 43:6.0 45:6.0 49:2.0 68:2.0 70:2.0 71:6.0 72:4.0 87:4.0 99:4.0 116:5.0 117:4.0 124:2.0 143:2.0 153:1.0 178:2.0 205:2.0 207:2.0 241:4.0 247:2.0 252:2.0 278:2.0 292:2.0 299:2.0 304:2.0 306:2.0 307:2.0 369:6.0 376:2.0 384:2.0 388:2.0 401:2.0 404:2.0 413:2.0 445:2.0 457:2.0 466:4.0 477:4.0 480:6.0 489:2.0 508:4.0 515:2.0 521:2.0 530:2.0 537:2.0 545:2.0 555:2.0 572:14.0 596:6.0 599:2.0 637:2.0 661:2.0 662:2.0 670:2.0 
1.0 43:2.0 71:2.0 133:2.0 404:2.0 458:2.0 543:2.0 
1.0 2:2.0 24:2.0 100:2.0 109:2.0 137:2.0 263:2.0 319:2.0 457:2.0 465:2.0 552:2.0 598:2.0 610:2.0 
1.0 113:2.0 343:2.0 530:2.0 
1.0 2:2.0 24:2.0 68:2.0 141:2.0 270:4.0 278:1.0 292:2.0 309:2.0 322:2.0 357:2.0 404:2.0 426:2.0 458:1.0 530:2.0 537:2.0 668:2.0 
1.0 463:2.0 
1.0 71:2.0 
1.0 71:2.0 
1.0 59:2.0 69:2.0 
1.0 100:2.0 109:1.0 234:1.0 555:2.0 640:1.0 
1.0 165:2.0 193:2.0 278:2.0 623:2.0 
1.0 41:2.0 71:2.0 249:2.0 610:2.0 
1.0 140:2.0 158:2.0 401:1.0 410:2.0 
1.0 9:2.0 33:1.0 41:12.0 42:6.0 43:16.0 45:10.0 59:4.0 60:2.0 70:2.0 71:2.0 98:2.0 109:4.0 141:2.0 145:2.0 169:2.0 186:2.0 202:4.0 208:2.0 265:2.0 306:2.0 322:2.0 331:2.0 357:2.0 391:2.0 401:10.0 426:2.0 430:2.0 439:4.0 455:2.0 457:2.0 458:4.0 461:2.0 508:2.0 537:2.0 572:2.0 586:2.0 598:2.0 618:2.0 628:4.0 635:2.0 637:2.0 639:2.0 643:2.0 670:2.0 
1.0 100:2.0 139:2.0 228:1.0 243:2.0 537:2.0 
0.9437754903268489 0:2.0 2:7.0 12:2.0 36:2.0 41:12.0 42:4.0 43:8.0 45:8.0 47:2.0 48:2.0 54:4.0 66:8.0 68:2.0 70:6.0 72:2.0 75:2.0 84:2.0 90:2.0 97:8.0 99:2.0 102:6.0 108:2.0 113:2.0 117:4.0 124:14.0 130:2.0 135:2.0 139:4.0 141:4.0 145:4.0 148:2.0 152:2.0 173:2.0 178:2.0 183:2.0 191:2.0 192:4.0 202:1.0 230:2.0 235:2.0 241:17.0 251:2.0 271:1.0 272:2.0 278:3.0 283:4.0 292:2.0 293:1.0 302:2.0 306:10.0 309:12.0 317:2.0 319:2.0 323:2.0 324:2.0 357:10.0 376:2.0 379:2.0 384:2.0 388:2.0 389:2.0 401:4.0 404:14.0 406:2.0 407:6.0 409:4.0 412:2.0 423:2.0 427:2.0 436:2.0 445:2.0 458:5.0 466:2.0 468:2.0 469:2.0 477:2.0 480:2.0 483:2.0 494:2.0 502:2.0 503:4.0 515:10.0 520:1.0 524:2.0 530:4.0 534:2.0 537:4.0 544:4.0 549:2.0 552:2.0 629:2.0 633:2.0 636:2.0 657:2.0 665:2.0 
1.0 42:2.0 45:4.0 69:2.0 
1.0 
1.0 31:2.0 41:2.0 43:2.0 45:2.0 71:2.0 109:2.0 202:2.0 219:2.0 237:2.0 247:2.0 404:4.0 456:2.0 477:2.0 537:2.0 550:4.0 
1.0 2:2.0 33:2.0 75:2.0 117:2.0 148:2.0 237:2.0 357:4.0 380:2.0 398:2.0 404:5.0 427:1.0 489:2.0 530:4.0 596:2.0 615:2.0 637:2.0 
1.0 2:2.0 308:2.0 404:2.0 529:2.0 550:2.0 636:2.0 
1.0 2:4.0 41:2.0 42:2.0 43:2.0 45:8.0 48:1.0 51:2.0 109:1.0 139:2.0 234:1.0 465:2.0 502:2.0 590:2.0 591:2.0 648:2.0 
0.8429049068546285 133:2.0 244:2.0 303:1.0 357:2.0 369:1.0 468:2.0 
1.0 75:2.0 99:2.0 404:2.0 619:2.0 
1.0 97:2.0 172:2.0 338:2.0 404:2.0 553:2.0 559:2.0 
1.0 1:2.0 2:2.0 17:2.0 49:2.0 71:2.0 97:2.0 99:2.0 124:1.0 182:2.0 265:2.0 278:2.0 292:4.0 331:2.0 369:2.0 380:2.0 419:2.0 429:2.0 458:2.0 498:2.0 530:2.0 544:2.0 553:2.0 557:2.0 558:2.0 599:2.0 637:2.0 661:2.0 
1.0 553:2.0 
1.0 60:2.0 
1.0 2:2.0 17:2.0 42:2.0 43:4.0 45:2.0 58:2.0 64:2.0 71:2.0 92:2.0 137:2.0 193:2.0 216:2.0 244:2.0 259:2.0 299:2.0 308:2.0 404:2.0 445:2.0 537:2.0 572:2.0 596:2.0 610:2.0 
1.0 158:2.0 313:2.0 557:2.0 
1.0 45:4.0 71:2.0 100:2.0 137:2.0 278:2.0 404:2.0 502:2.0 555:4.0 572:2.0 592:2.0 596:1.0 635:2.0 670:2.0 
1.0 42:4.0 45:6.0 71:2.0 99:2.0 345:2.0 427:4.0 572:2.0 
1.0 43:2.0 45:2.0 321:2.0 534:2.0 
0.9480861942737474 55:2.0 102:4.0 247:2.0 252:2.0 384:2.0 438:2.0 458:2.0 463:2.0 496:2.0 515:2.0 519:2.0 557:2.0 633:2.0 
1.0 71:2.0 241:2.0 477:2.0 572:2.0 641:2.0 
1.0 2:2.0 117:4.0 241:2.0 307:4.0 317:2.0 357:2.0 399:2.0 401:2.0 404:2.0 445:2.0 502:2.0 537:2.0 550:2.0 585:2.0 
1.0 71:2.0 218:2.0 357:2.0 
1.0 71:2.0 158:2.0 572:2.0 
1.0 29:2.0 45:2.0 133:4.0 141:2.0 369:2.0 504:2.0 592:2.0 599:2.0 628:2.0 
1.0 43:2.0 45:2.0 68:2.0 71:2.0 76:2.0 99:2.0 100:2.0 109:3.0 112:2.0 129:2.0 137:2.0 224:2.0 234:1.0 259:2.0 357:7.0 401:2.0 404:5.0 427:1.0 456:2.0 557:2.0 572:4.0 579:2.0 596:2.0 599:2.0 640:1.0 
1.0 2:2.0 9:2.0 41:4.0 42:4.0 43:2.0 45:10.0 51:2.0 97:2.0 99:4.0 141:4.0 155:2.0 173:2.0 241:2.0 262:2.0 265:2.0 278:2.0 298:2.0 336:2.0 359:2.0 366:4.0 384:2.0 404:4.0 436:2.0 446:2.0 465:2.0 480:2.0 510:2.0 535:2.0 537:2.0 550:2.0 553:2.0 582:2.0 598:2.0 599:2.0 601:2.0 
1.0 
1.0 33:2.0 153:2.0 293:2.0 338:2.0 
1.0 182:2.0 293:2.0 306:2.0 338:2.0 
1.0 
1.0 71:2.0 
1.0 
1.0 14:2.0 71:2.0 153:1.0 537:2.0 596:2.0 619:2.0 
1.0 313:2.0 463:2.0 572:2.0 
1.0 12:2.0 41:2.0 42:2.0 43:2.0 48:2.0 61:2.0 71:2.0 102:2.0 133:6.0 183:4.0 193:2.0 228:1.0 241:6.0 278:6.0 304:2.0 355:6.0 361:2.0 404:4.0 405:4.0 523:2.0 530:2.0 537:4.0 555:2.0 601:2.0 614:2.0 633:2.0 
0.6543041271235343 71:2.0 113:2.0 304:2.0 
0.02504746566559369 60:4.0 81:2.0 226:2.0 404:2.0 407:2.0 445:2.0 557:2.0 631:2.0 
1.0 2:4.0 17:2.0 64:2.0 70:2.0 71:2.0 113:2.0 193:2.0 235:2.0 241:2.0 278:2.0 283:2.0 295:2.0 306:2.0 384:2.0 404:2.0 465:2.0 529:2.0 530:2.0 571:2.0 610:4.0 631:2.0 
1.0 486:2.0 
1.0 2:2.0 7:2.0 17:2.0 71:2.0 100:2.0 133:2.0 276:2.0 357:2.0 384:2.0 404:9.0 461:2.0 477:2.0 538:2.0 545:2.0 555:2.0 557:2.0 590:2.0 
1.0 2:2.0 14:2.0 41:4.0 107:2.0 133:2.0 319:2.0 404:4.0 406:2.0 580:2.0 614:2.0 619:2.0 628:2.0 663:2.0 
1.0 2:2.0 11:2.0 42:2.0 69:2.0 79:2.0 85:2.0 100:2.0 240:2.0 404:2.0 555:2.0 580:2.0 
1.0 71:2.0 169:2.0 
1.0 2:4.0 12:2.0 99:2.0 100:2.0 142:2.0 146:4.0 278:2.0 305:2.0 317:2.0 327:2.0 357:2.0 437:2.0 478:2.0 498:2.0 532:2.0 537:2.0 557:2.0 639:2.0 
0.4079012513875223 2:2.0 14:2.0 17:2.0 33:2.0 48:2.0 71:6.0 76:2.0 97:1.0 108:2.0 113:2.0 133:2.0 158:2.0 175:2.0 193:2.0 230:4.0 235:2.0 262:2.0 282:2.0 306:2.0 330:2.0 337:2.0 404:6.0 441:2.0 455:1.0 458:4.0 502:4.0 507:4.0 530:2.0 537:2.0 555:2.0 599:2.0 619:2.0 637:4.0 641:2.0 670:2.0 
1.0 2:2.0 100:2.0 109:2.0 183:2.0 384:4.0 404:2.0 445:2.0 461:2.0 474:2.0 642:2.0 
0.6679960995909422 102:2.0 113:2.0 172:2.0 178:2.0 235:2.0 241:2.0 287:4.0 376:2.0 398:2.0 401:2.0 404:4.0 420:2.0 478:2.0 543:2.0 637:2.0 
1.0 71:2.0 94:2.0 100:2.0 405:2.0 555:2.0 568:2.0 
1.0 
1.0 17:2.0 278:2.0 492:2.0 596:2.0 
1.0 
1.0 42:2.0 288:2.0 306:2.0 401:2.0 441:2.0 498:2.0 507:2.0 616:2.0 665:2.0 
1.0 48:2.0 71:1.0 100:2.0 237:1.0 295:2.0 427:2.0 465:2.0 537:2.0 563:2.0 635:2.0 
1.0 59:2.0 60:2.0 69:2.0 
1.0 64:2.0 282:2.0 
1.0 
1.0 
1.0 43:4.0 71:2.0 117:2.0 139:2.0 141:2.0 240:2.0 302:2.0 357:2.0 404:4.0 425:2.0 474:4.0 537:2.0 570:1.0 652:2.0 
1.0 14:2.0 43:4.0 45:2.0 404:1.0 435:1.0 438:2.0 461:2.0 493:2.0 545:2.0 
1.0 14:4.0 109:2.0 292:2.0 357:2.0 404:2.0 458:2.0 530:2.0 537:2.0 545:2.0 
1.0 43:2.0 45:2.0 71:4.0 109:2.0 227:2.0 263:2.0 308:2.0 364:2.0 384:2.0 404:4.0 458:2.0 489:2.0 641:2.0 
1.0 16:2.0 39:2.0 41:4.0 42:10.0 71:8.0 103:1.0 112:2.0 115:2.0 129:4.0 139:2.0 192:2.0 214:2.0 232:2.0 267:2.0 278:6.0 292:2.0 338:2.0 382:2.0 401:4.0 404:2.0 413:2.0 441:2.0 498:4.0 507:4.0 572:2.0 582:6.0 585:2.0 614:4.0 616:4.0 619:2.0 625:2.0 640:2.0 648:4.0 659:4.0 665:2.0 
1.0 353:2.0 637:2.0 
1.0 
1.0 
1.0 71:2.0 286:2.0 292:2.0 381:2.0 391:2.0 598:2.0 
0.10019754943848812 2:2.0 42:2.0 45:2.0 70:2.0 71:2.0 107:2.0 111:2.0 172:2.0 225:2.0 284:2.0 325:2.0 352:2.0 401:4.0 445:2.0 488:2.0 548:2.0 550:2.0 572:4.0 665:2.0 
1.0 31:2.0 71:2.0 97:2.0 404:2.0 445:2.0 530:2.0 646:2.0 651:2.0 
1.0 130:1.0 217:2.0 226:2.0 451:2.0 458:2.0 
1.0 69:2.0 404:2.0 457:2.0 458:2.0 465:2.0 628:2.0 665:2.0 
1.0 71:2.0 304:2.0 401:2.0 
1.0 55:2.0 519:2.0 608:2.0 
1.0 71:2.0 158:2.0 371:2.0 384:2.0 404:2.0 
1.0 2:4.0 70:2.0 79:2.0 141:2.0 187:2.0 349:2.0 358:2.0 404:2.0 458:2.0 537:2.0 596:2.0 
1.0 71:2.0 158:2.0 241:2.0 313:2.0 
1.0 182:2.0 477:2.0 575:2.0 610:2.0 619:2.0 
1.0 24:2.0 71:2.0 163:2.0 235:2.0 241:2.0 347:2.0 374:2.0 404:2.0 445:2.0 575:2.0 
1.0 71:2.0 
1.0 70:2.0 109:2.0 235:2.0 357:2.0 404:2.0 
1.0 41:2.0 43:2.0 54:2.0 97:2.0 144:2.0 406:1.0 599:4.0 
1.0 109:1.0 138:2.0 234:1.0 393:2.0 640:1.0 
1.0 12:2.0 48:1.0 109:1.0 141:2.0 234:1.0 
1.0 142:1.0 278:2.0 537:2.0 
1.0 42:2.0 45:4.0 71:2.0 142:2.0 226:2.0 241:2.0 446:2.0 457:2.0 637:2.0 
1.0 0:2.0 12:2.0 385:2.0 572:2.0 614:2.0 
1.0 376:2.0 
1.0 2:2.0 41:2.0 42:2.0 43:2.0 226:2.0 278:2.0 424:2.0 568:2.0 572:2.0 
1.0 122:1.0 282:2.0 404:1.0 537:2.0 
1.0 14:2.0 117:1.0 205:2.0 268:1.0 278:2.0 308:2.0 357:2.0 372:1.0 582:2.0 
1.0 
1.0 
1.0 
1.0 376:2.0 
1.0 2:4.0 17:4.0 41:2.0 42:4.0 45:2.0 71:2.0 109:2.0 156:4.0 319:2.0 349:2.0 372:2.0 384:2.0 455:2.0 535:2.0 536:2.0 552:2.0 631:2.0 
0.8882253966680225 17:2.0 97:2.0 138:4.0 139:2.0 142:2.0 169:2.0 228:2.0 240:2.0 304:2.0 306:2.0 327:2.0 371:2.0 373:4.0 384:2.0 468:2.0 478:2.0 552:4.0 555:2.0 618:2.0 622:2.0 631:2.0 637:2.0 
1.0 120:2.0 191:2.0 369:2.0 373:2.0 
1.0 138:2.0 235:2.0 278:2.0 313:2.0 373:2.0 404:2.0 409:4.0 543:2.0 555:2.0 614:2.0 635:2.0 
1.0 40:1.0 68:2.0 99:2.0 124:2.0 214:2.0 229:2.0 357:2.0 373:2.0 404:2.0 486:2.0 619:2.0 
0.088574128950229 2:6.0 17:4.0 41:2.0 42:2.0 43:4.0 45:2.0 64:4.0 99:2.0 102:2.0 113:2.0 137:2.0 142:6.0 148:2.0 169:2.0 176:2.0 193:4.0 207:2.0 226:2.0 228:2.0 237:2.0 240:2.0 241:6.0 244:2.0 262:2.0 278:10.0 283:2.0 285:8.0 293:2.0 306:2.0 308:8.0 349:4.0 357:4.0 371:2.0 373:4.0 404:10.0 406:2.0 413:2.0 429:2.0 438:2.0 439:2.0 441:4.0 457:2.0 462:2.0 465:2.0 471:2.0 505:4.0 508:2.0 537:4.0 543:2.0 552:8.0 563:2.0 591:2.0 596:2.0 607:2.0 612:2.0 614:11.0 619:6.0 628:4.0 
1.0 42:2.0 43:2.0 83:2.0 109:2.0 137:6.0 165:1.0 237:2.0 278:2.0 404:3.0 522:1.0 572:2.0 596:2.0 610:2.0 
1.0 138:2.0 373:2.0 409:2.0 477:2.0 563:2.0 
0.05796794946942407 2:2.0 71:2.0 279:2.0 285:2.0 373:2.0 457:4.0 552:2.0 581:2.0 628:2.0 657:4.0 
1.0 55:2.0 373:2.0 529:2.0 570:2.0 
0.21230153373161018 55:2.0 113:2.0 417:2.0 
0.6996336249800459 2:13.0 17:6.0 33:2.0 42:6.0 43:14.0 45:12.0 64:2.0 70:2.0 71:2.0 94:3.0 109:2.0 117:2.0 124:2.0 142:6.0 153:1.0 164:2.0 169:2.0 198:2.0 240:8.0 241:2.0 244:2.0 263:4.0 278:4.0 285:4.0 309:2.0 319:2.0 373:4.0 384:4.0 401:4.0 404:6.0 406:2.0 407:2.0 409:6.0 418:2.0 439:8.0 455:2.0 458:2.0 477:2.0 535:2.0 537:8.0 552:18.0 560:1.0 571:2.0 572:2.0 610:2.0 619:4.0 637:2.0 
1.0 409:2.0 439:2.0 477:2.0 
1.0 71:2.0 247:2.0 477:2.0 572:2.0 
1.0 120:2.0 424:2.0 457:2.0 
0.92329047391584 71:2.0 276:2.0 371:2.0 
1.0 141:2.0 153:2.0 220:2.0 560:2.0 
0.7349230179476168 109:2.0 186:2.0 477:2.0 530:2.0 661:2.0 
1.0 557:2.0 
1.0 35:2.0 48:2.0 282:2.0 545:2.0 
1.0 
1.0 48:2.0 404:2.0 
1.0 
1.0 
1.0 186:2.0 219:1.0 320:2.0 404:1.0 505:1.0 555:2.0 
1.0 
1.0 134:2.0 513:2.0 
1.0 
1.0 31:2.0 278:2.0 504:2.0 
1.0 2:2.0 71:2.0 101:2.0 237:2.0 304:2.0 351:4.0 404:2.0 406:2.0 421:2.0 
1.0 2:2.0 31:2.0 100:1.0 141:2.0 237:2.0 241:4.0 265:2.0 343:2.0 349:2.0 384:2.0 404:2.0 537:2.0 587:2.0 635:2.0 642:2.0 
1.0 2:2.0 100:2.0 265:2.0 445:2.0 477:2.0 530:2.0 572:2.0 
1.0 2:4.0 98:2.0 133:2.0 278:2.0 
1.0 64:2.0 158:2.0 182:2.0 278:2.0 349:2.0 477:2.0 557:2.0 
1.0 17:2.0 477:2.0 557:2.0 627:2.0 
1.0 33:2.0 109:2.0 507:2.0 627:2.0 
1.0 71:2.0 
1.0 
1.0 70:2.0 
1.0 17:2.0 68:2.0 71:2.0 113:2.0 458:2.0 557:2.0 
1.0 134:2.0 141:2.0 373:2.0 384:2.0 480:2.0 
1.0 71:2.0 371:2.0 496:2.0 665:2.0 666:2.0 
1.0 71:2.0 98:2.0 
1.0 178:2.0 240:2.0 468:2.0 
1.0 158:2.0 315:1.0 407:2.0 537:2.0 
1.0 
1.0 71:2.0 404:2.0 555:2.0 
1.0 
1.0 42:2.0 45:2.0 51:2.0 275:2.0 
1.0 
1.0 186:2.0 519:2.0 587:2.0 
1.0 0:1.0 2:2.0 71:2.0 75:2.0 76:2.0 79:2.0 117:2.0 124:2.0 126:2.0 129:2.0 192:2.0 230:2.0 235:6.0 254:2.0 275:2.0 278:8.0 306:2.0 320:2.0 342:2.0 357:2.0 401:2.0 404:1.0 406:4.0 427:1.0 438:2.0 440:2.0 498:2.0 538:2.0 557:2.0 596:2.0 619:2.0 637:2.0 
1.0 2:2.0 3:2.0 16:2.0 24:2.0 41:4.0 42:6.0 43:12.0 45:8.0 48:1.0 68:2.0 69:4.0 70:4.0 71:10.0 97:2.0 109:4.0 130:2.0 137:6.0 146:2.0 158:2.0 172:2.0 175:2.0 182:2.0 192:8.0 193:2.0 226:2.0 232:1.0 235:4.0 261:1.0 278:8.0 280:2.0 292:6.0 315:2.0 342:2.0 357:2.0 384:2.0 401:4.0 404:8.0 426:2.0 427:5.0 449:2.0 465:2.0 478:2.0 491:2.0 507:2.0 527:2.0 557:2.0 579:4.0 596:4.0 633:2.0 637:3.0 640:2.0 641:2.0 
1.0 99:2.0 178:4.0 315:2.0 458:2.0 477:4.0 636:2.0 
1.0 41:2.0 45:4.0 109:2.0 241:2.0 
1.0 71:2.0 102:2.0 176:2.0 278:2.0 280:2.0 507:2.0 
1.0 172:2.0 192:2.0 243:2.0 287:2.0 306:2.0 384:8.0 599:2.0 
1.0 1:2.0 23:4.0 60:2.0 70:3.0 71:2.0 178:6.0 183:4.0 202:2.0 218:4.0 233:2.0 235:4.0 237:2.0 247:2.0 285:2.0 391:2.0 404:2.0 421:2.0 457:2.0 462:2.0 466:2.0 478:2.0 502:2.0 537:4.0 549:1.0 575:2.0 592:4.0 628:2.0 637:2.0 641:2.0 648:2.0 
1.0 166:2.0 220:2.0 226:2.0 404:1.0 661:1.0 
1.0 2:6.0 117:2.0 193:2.0 235:2.0 404:2.0 587:2.0 
1.0 398:2.0 667:2.0 
1.0 14:2.0 
1.0 23:6.0 64:2.0 97:2.0 102:2.0 111:4.0 113:2.0 158:2.0 261:2.0 375:2.0 376:2.0 393:2.0 401:4.0 404:2.0 537:2.0 572:2.0 605:2.0 
1.0 1:2.0 71:2.0 278:2.0 355:2.0 376:2.0 
1.0 71:2.0 
1.0 51:2.0 
1.0 2:2.0 33:3.0 42:2.0 43:2.0 45:8.0 48:1.0 81:2.0 90:2.0 115:5.0 202:2.0 226:2.0 237:2.0 391:2.0 404:2.0 456:4.0 467:2.0 498:2.0 507:4.0 527:2.0 555:2.0 663:2.0 
1.0 68:2.0 406:2.0 458:2.0 528:2.0 592:2.0 631:2.0 
1.0 2:4.0 3:2.0 48:2.0 59:2.0 70:2.0 89:2.0 97:2.0 102:2.0 103:2.0 117:2.0 158:2.0 178:2.0 204:2.0 220:2.0 230:2.0 234:2.0 332:2.0 357:2.0 373:2.0 377:2.0 397:2.0 399:4.0 458:2.0 486:2.0 513:2.0 528:2.0 539:4.0 580:2.0 596:2.0 607:2.0 619:2.0 637:2.0 648:6.0 
1.0 385:2.0 391:2.0 572:4.0 
1.0 15:2.0 113:2.0 192:2.0 320:2.0 543:2.0 
1.0 172:2.0 404:2.0 
1.0 158:2.0 376:2.0 404:2.0 610:2.0 
1.0 17:2.0 48:1.0 71:2.0 109:1.0 234:1.0 404:2.0 
1.0 14:2.0 71:2.0 247:2.0 357:2.0 458:2.0 530:2.0 667:2.0 
0.3040957228763979 14:2.0 48:1.0 51:2.0 70:2.0 109:3.0 153:2.0 182:2.0 193:2.0 234:1.0 241:2.0 249:2.0 278:2.0 292:4.0 455:2.0 458:4.0 530:2.0 537:2.0 538:2.0 568:2.0 569:2.0 580:2.0 635:2.0 667:2.0 
0.14267342885830445 2:2.0 43:2.0 45:4.0 113:2.0 143:2.0 178:2.0 235:2.0 312:2.0 327:2.0 404:2.0 463:2.0 465:2.0 
1.0 3:1.0 17:2.0 109:2.0 458:2.0 
1.0 2:2.0 43:2.0 45:4.0 164:2.0 283:2.0 404:2.0 555:2.0 579:2.0 595:2.0 
1.0 59:2.0 
1.0 
1.0 424:2.0 529:2.0 667:2.0 
0.04661934558549632 70:2.0 109:2.0 115:2.0 424:2.0 
1.0 71:2.0 172:2.0 496:4.0 539:2.0 637:2.0 
1.0 48:1.0 109:1.0 234:1.0 596:2.0 631:2.0 
1.0 2:2.0 57:2.0 58:2.0 144:2.0 241:2.0 424:2.0 
1.0 79:2.0 420:2.0 619:2.0 
1.0 376:2.0 
1.0 133:2.0 381:2.0 404:2.0 424:2.0 599:2.0 
1.0 2:2.0 337:2.0 483:2.0 544:2.0 545:2.0 
1.0 463:2.0 545:2.0 
1.0 2:2.0 142:2.0 235:2.0 238:2.0 364:2.0 404:2.0 561:2.0 592:2.0 640:2.0 
1.0 2:2.0 41:2.0 100:2.0 109:2.0 132:4.0 158:2.0 247:4.0 404:2.0 598:2.0 610:2.0 
1.0 68:2.0 71:1.0 124:2.0 595:2.0 
1.0 
1.0 59:2.0 60:2.0 69:4.0 
1.0 226:2.0 286:2.0 398:2.0 
1.0 477:2.0 
1.0 182:2.0 298:2.0 
1.0 100:2.0 109:2.0 137:2.0 194:2.0 241:2.0 530:2.0 537:2.0 599:2.0 635:2.0 648:2.0 
1.0 158:2.0 
1.0 71:4.0 192:2.0 275:2.0 308:2.0 404:2.0 543:2.0 
1.0 3:2.0 45:4.0 265:2.0 269:2.0 
1.0 193:2.0 250:2.0 
1.0 417:2.0 
1.0 42:2.0 43:2.0 48:1.0 109:1.0 234:1.0 
1.0 71:4.0 241:2.0 
1.0 1:2.0 2:2.0 142:2.0 401:2.0 404:4.0 457:2.0 555:2.0 
1.0 165:2.0 193:2.0 308:2.0 
1.0 2:2.0 395:2.0 480:2.0 
1.0 33:2.0 342:2.0 455:2.0 
1.0 2:2.0 71:2.0 91:2.0 202:2.0 252:2.0 515:2.0 
1.0 7:2.0 502:2.0 
1.0 461:2.0 
1.0 543:2.0 
1.0 12:2.0 425:2.0 599:2.0 
1.0 71:2.0 98:2.0 228:2.0 278:2.0 304:2.0 399:2.0 401:6.0 404:2.0 537:2.0 555:2.0 628:2.0 
1.0 393:2.0 537:2.0 591:2.0 
1.0 41:2.0 42:2.0 43:2.0 45:2.0 71:2.0 357:2.0 366:2.0 637:2.0 
1.0 20:2.0 92:2.0 100:2.0 102:2.0 109:4.0 141:2.0 151:2.0 181:2.0 209:2.0 218:2.0 256:2.0 404:4.0 457:2.0 530:2.0 537:2.0 561:2.0 599:2.0 637:2.0 
1.0 100:2.0 148:2.0 192:6.0 648:2.0 
1.0 2:2.0 226:2.0 241:2.0 404:2.0 635:2.0 
1.0 69:2.0 
1.0 134:2.0 218:2.0 293:2.0 404:1.0 457:2.0 467:1.0 545:2.0 596:2.0 
0.7094905267225567 2:2.0 12:2.0 42:2.0 45:4.0 71:6.0 117:2.0 158:2.0 183:4.0 218:2.0 237:4.0 308:2.0 327:2.0 404:6.0 507:2.0 557:2.0 596:2.0 622:4.0 628:2.0 664:2.0 
1.0 42:2.0 158:2.0 292:2.0 349:2.0 401:2.0 420:2.0 458:4.0 570:1.0 599:2.0 628:2.0 648:2.0 
0.041078602167121156 2:4.0 20:4.0 23:2.0 36:1.0 41:2.0 42:2.0 43:2.0 45:2.0 117:2.0 141:2.0 183:2.0 207:2.0 212:2.0 226:2.0 261:2.0 285:2.0 343:2.0 347:2.0 365:2.0 384:4.0 407:2.0 478:2.0 550:2.0 577:1.0 599:4.0 602:2.0 627:2.0 628:4.0 637:2.0 
1.0 278:2.0 280:2.0 445:2.0 507:2.0 555:2.0 
1.0 90:2.0 99:2.0 224:2.0 239:2.0 278:2.0 343:2.0 537:2.0 
1.0 2:2.0 71:2.0 109:2.0 469:2.0 592:4.0 
1.0 
1.0 
1.0 31:2.0 71:4.0 138:2.0 306:2.0 458:2.0 
1.0 2:2.0 308:2.0 404:1.0 415:2.0 459:1.0 496:2.0 531:2.0 564:1.0 
1.0 32:2.0 71:2.0 192:2.0 319:2.0 
0.4803702478900721 519:2.0 529:2.0 666:2.0 
1.0 182:2.0 303:2.0 477:2.0 
1.0 182:2.0 643:2.0 
1.0 71:2.0 197:2.0 294:2.0 385:2.0 441:2.0 623:2.0 
1.0 92:2.0 158:2.0 278:4.0 292:2.0 294:2.0 303:2.0 404:2.0 537:2.0 615:2.0 
1.0 150:1.0 333:2.0 393:2.0 404:1.0 544:1.0 572:2.0 609:2.0 
1.0 
1.0 2:2.0 70:2.0 109:1.0 120:2.0 138:2.0 234:1.0 357:2.0 618:2.0 640:1.0 
1.0 
1.0 12:2.0 71:2.0 384:2.0 424:2.0 
1.0 109:1.0 234:1.0 393:2.0 530:2.0 589:2.0 640:1.0 
1.0 
1.0 75:2.0 113:2.0 116:2.0 230:2.0 283:2.0 292:2.0 349:2.0 357:6.0 384:2.0 397:2.0 401:2.0 404:3.0 427:1.0 457:2.0 458:2.0 480:4.0 483:2.0 
1.0 2:2.0 45:2.0 68:2.0 71:2.0 117:2.0 124:2.0 148:2.0 240:2.0 292:2.0 333:2.0 404:4.0 458:2.0 460:2.0 635:2.0 
1.0 41:6.0 42:6.0 43:2.0 70:2.0 73:2.0 137:2.0 158:2.0 169:2.0 208:2.0 270:4.0 285:2.0 322:2.0 366:2.0 384:2.0 394:2.0 404:2.0 419:2.0 457:4.0 502:2.0 537:2.0 556:2.0 599:2.0 642:2.0 648:2.0 
1.0 191:2.0 217:2.0 394:2.0 469:2.0 
1.0 105:2.0 208:2.0 545:2.0 
1.0 2:2.0 18:2.0 24:2.0 31:2.0 42:4.0 43:10.0 45:6.0 63:2.0 99:2.0 100:2.0 124:2.0 137:2.0 158:4.0 175:2.0 179:2.0 180:2.0 261:2.0 265:2.0 278:4.0 292:2.0 294:4.0 328:2.0 333:2.0 357:2.0 404:4.0 405:2.0 445:4.0 465:2.0 471:2.0 555:2.0 563:2.0 580:1.0 599:6.0 602:2.0 610:4.0 660:1.0 
1.0 42:4.0 43:4.0 70:2.0 182:2.0 208:2.0 404:1.0 417:1.0 557:2.0 572:2.0 586:2.0 
1.0 2:2.0 42:2.0 43:2.0 45:6.0 208:2.0 271:2.0 284:2.0 285:2.0 292:2.0 376:2.0 380:2.0 458:2.0 469:2.0 558:2.0 599:2.0 610:2.0 
1.0 2:8.0 16:2.0 18:2.0 33:2.0 41:2.0 59:2.0 64:4.0 70:2.0 71:6.0 102:2.0 108:2.0 117:8.0 124:2.0 139:2.0 151:2.0 153:1.0 158:2.0 172:2.0 207:2.0 226:2.0 241:2.0 256:2.0 270:4.0 275:2.0 278:2.0 304:2.0 347:2.0 357:2.0 383:2.0 397:2.0 404:6.0 406:4.0 427:2.0 458:10.0 477:2.0 498:2.0 543:2.0 555:2.0 557:2.0 572:2.0 599:4.0 607:2.0 614:2.0 616:2.0 628:4.0 640:2.0 667:2.0 
0.366460426485005 1:2.0 2:2.0 18:2.0 19:2.0 41:2.0 42:2.0 43:4.0 45:8.0 64:2.0 71:2.0 109:2.0 113:2.0 116:2.0 117:2.0 149:2.0 158:2.0 178:2.0 203:2.0 225:2.0 235:2.0 241:2.0 244:1.0 261:2.0 262:2.0 285:2.0 298:2.0 322:2.0 342:2.0 349:2.0 357:2.0 384:2.0 394:4.0 404:2.0 465:2.0 477:2.0 557:4.0 596:2.0 597:2.0 610:2.0 631:2.0 635:2.0 640:1.0 641:2.0 661:2.0 
1.0 48:1.0 84:1.0 182:2.0 226:2.0 
1.0 239:2.0 384:2.0 445:2.0 465:2.0 667:2.0 
1.0 232:2.0 513:2.0 579:2.0 
1.0 
1.0 
1.0 29:2.0 57:2.0 115:2.0 537:2.0 590:4.0 592:2.0 
1.0 172:2.0 182:2.0 537:2.0 592:4.0 
1.0 319:2.0 404:2.0 555:2.0 
1.0 71:2.0 
1.0 12:4.0 306:2.0 404:4.0 407:4.0 457:4.0 544:2.0 
1.0 113:2.0 498:2.0 
1.0 43:4.0 64:2.0 71:2.0 241:4.0 338:2.0 401:2.0 438:2.0 496:2.0 610:2.0 
1.0 2:2.0 14:2.0 45:2.0 71:2.0 
1.0 71:2.0 141:2.0 174:2.0 313:2.0 357:4.0 404:2.0 458:2.0 
1.0 2:2.0 33:4.0 42:2.0 71:2.0 124:4.0 137:2.0 228:1.0 278:2.0 308:2.0 404:4.0 406:2.0 438:2.0 496:2.0 555:2.0 
1.0 1:2.0 42:2.0 43:4.0 45:6.0 48:2.0 137:4.0 158:2.0 308:2.0 424:2.0 564:2.0 572:2.0 
1.0 14:2.0 42:4.0 43:2.0 68:2.0 182:2.0 260:2.0 357:2.0 404:2.0 515:4.0 
1.0 14:2.0 532:2.0 545:2.0 635:2.0 
1.0 24:2.0 71:4.0 109:2.0 117:4.0 267:2.0 278:2.0 502:2.0 572:2.0 625:2.0 648:2.0 
1.0 2:2.0 71:2.0 235:2.0 243:2.0 537:2.0 592:2.0 
1.0 180:2.0 452:2.0 550:2.0 
1.0 140:1.0 550:2.0 610:2.0 
1.0 376:2.0 585:2.0 
1.0 
1.0 48:2.0 109:1.0 158:2.0 234:1.0 252:2.0 515:2.0 596:1.0 
1.0 71:2.0 187:2.0 241:2.0 555:2.0 596:2.0 
1.0 84:2.0 308:2.0 537:2.0 572:2.0 610:2.0 
0.9173552749402543 2:2.0 41:4.0 42:4.0 43:2.0 45:8.0 48:2.0 98:2.0 117:2.0 158:2.0 265:2.0 306:2.0 308:2.0 322:2.0 376:2.0 399:2.0 461:2.0 465:2.0 
1.0 17:2.0 109:2.0 235:2.0 545:2.0 627:2.0 
1.0 226:2.0 469:2.0 
1.0 106:2.0 237:2.0 247:2.0 507:2.0 
1.0 109:1.0 234:1.0 640:1.0 
1.0 14:2.0 61:2.0 70:4.0 97:2.0 140:2.0 186:2.0 232:2.0 357:4.0 458:6.0 462:2.0 619:2.0 637:2.0 
1.0 14:2.0 71:2.0 79:2.0 116:1.0 218:2.0 529:2.0 
1.0 292:2.0 458:2.0 
1.0 
1.0 
1.0 
1.0 42:2.0 45:4.0 57:4.0 100:2.0 235:2.0 237:2.0 239:2.0 251:4.0 255:2.0 397:2.0 402:2.0 404:8.0 487:2.0 572:4.0 627:2.0 
1.0 457:2.0 590:2.0 
1.0 42:8.0 109:2.0 172:2.0 267:2.0 330:2.0 357:2.0 
1.0 1:2.0 2:2.0 42:4.0 45:4.0 68:2.0 70:2.0 71:2.0 97:2.0 113:2.0 141:2.0 192:2.0 207:2.0 240:2.0 241:2.0 278:2.0 357:2.0 384:2.0 499:2.0 519:2.0 537:4.0 547:2.0 570:1.0 648:4.0 
1.0 172:2.0 351:2.0 463:2.0 
1.0 7:2.0 107:2.0 228:2.0 
1.0 117:2.0 139:2.0 580:2.0 
1.0 71:2.0 404:2.0 
1.0 
0.7021520356214546 1:2.0 41:2.0 42:4.0 43:2.0 71:4.0 193:2.0 262:2.0 276:2.0 287:2.0 404:2.0 456:2.0 535:2.0 543:8.0 557:2.0 610:2.0 635:2.0 
1.0 270:2.0 404:2.0 457:2.0 589:2.0 
1.0 15:2.0 124:2.0 292:2.0 304:2.0 404:2.0 
1.0 1:2.0 14:2.0 42:4.0 43:4.0 45:6.0 97:2.0 190:2.0 270:4.0 276:2.0 308:2.0 330:2.0 404:4.0 456:2.0 463:2.0 465:2.0 520:1.0 572:2.0 596:1.0 599:2.0 610:2.0 
1.0 109:2.0 141:2.0 170:2.0 193:2.0 226:2.0 404:2.0 530:2.0 610:2.0 
1.0 327:2.0 
1.0 2:6.0 42:2.0 45:4.0 46:2.0 83:2.0 
1.0 17:2.0 68:2.0 109:2.0 138:2.0 
1.0 
1.0 71:4.0 138:2.0 404:2.0 
1.0 313:2.0 
1.0 0:2.0 
1.0 2:6.0 14:2.0 46:2.0 112:2.0 202:2.0 278:2.0 318:2.0 327:2.0 357:4.0 404:2.0 445:2.0 628:2.0 
1.0 115:2.0 164:2.0 405:2.0 498:2.0 667:2.0 
1.0 2:2.0 94:2.0 493:2.0 641:2.0 
1.0 176:2.0 596:2.0 
1.0 71:2.0 97:2.0 109:4.0 117:2.0 124:2.0 247:2.0 258:2.0 278:2.0 280:2.0 404:2.0 477:2.0 496:2.0 507:2.0 567:2.0 
1.0 71:2.0 134:2.0 237:2.0 278:2.0 283:2.0 404:2.0 445:2.0 457:2.0 507:2.0 666:2.0 
1.0 282:4.0 355:2.0 404:2.0 
1.0 17:2.0 21:2.0 109:2.0 241:2.0 374:2.0 555:2.0 
1.0 12:2.0 64:2.0 69:2.0 100:2.0 127:2.0 134:2.0 175:2.0 226:2.0 234:2.0 249:2.0 265:2.0 376:2.0 404:2.0 445:2.0 455:2.0 530:2.0 537:2.0 
1.0 226:2.0 570:2.0 
1.0 2:2.0 42:2.0 43:4.0 45:2.0 70:2.0 94:2.0 109:2.0 170:2.0 172:2.0 190:2.0 192:4.0 280:2.0 322:2.0 404:2.0 458:2.0 557:4.0 630:4.0 
1.0 219:2.0 376:2.0 
1.0 71:4.0 404:2.0 597:2.0 622:2.0 
1.0 392:2.0 
1.0 71:2.0 220:2.0 
1.0 2:2.0 42:4.0 43:2.0 69:2.0 98:2.0 194:2.0 241:2.0 270:4.0 278:2.0 458:2.0 477:2.0 555:2.0 
1.0 
1.0 41:2.0 42:4.0 43:10.0 45:12.0 77:2.0 79:2.0 101:1.0 158:2.0 204:2.0 226:2.0 235:2.0 241:6.0 331:2.0 424:2.0 445:2.0 555:2.0 572:2.0 581:2.0 610:2.0 670:2.0 
1.0 71:2.0 404:2.0 445:2.0 656:2.0 
1.0 
1.0 33:2.0 41:6.0 43:6.0 45:12.0 109:2.0 117:4.0 153:4.0 193:4.0 230:2.0 241:4.0 278:2.0 293:1.0 313:2.0 396:2.0 404:2.0 410:2.0 424:2.0 445:2.0 502:2.0 532:2.0 536:2.0 543:2.0 545:2.0 572:4.0 615:2.0 637:2.0 
1.0 41:2.0 43:2.0 45:2.0 68:2.0 117:2.0 166:2.0 175:2.0 186:2.0 228:1.0 237:2.0 241:6.0 349:4.0 404:2.0 445:2.0 458:2.0 575:6.0 637:2.0 648:2.0 
0.9570862101245089 2:2.0 14:2.0 27:2.0 42:6.0 45:8.0 102:2.0 120:2.0 140:2.0 158:2.0 270:4.0 278:2.0 338:2.0 357:2.0 479:2.0 504:2.0 555:2.0 589:2.0 619:2.0 
1.0 41:4.0 42:2.0 43:2.0 45:4.0 130:1.0 172:4.0 241:4.0 304:2.0 434:2.0 438:4.0 563:2.0 572:1.0 614:2.0 635:1.0 
1.0 158:2.0 186:2.0 223:2.0 278:1.0 361:4.0 458:1.0 538:2.0 542:2.0 598:2.0 635:3.0 
1.0 70:2.0 71:6.0 117:2.0 194:2.0 217:2.0 278:2.0 344:2.0 349:2.0 357:2.0 362:2.0 433:2.0 458:2.0 508:2.0 648:2.0 670:1.0 
1.0 3:2.0 12:2.0 59:2.0 138:2.0 480:2.0 590:2.0 
1.0 71:2.0 
1.0 1:2.0 2:2.0 12:4.0 24:2.0 41:2.0 42:6.0 71:2.0 79:2.0 83:2.0 124:4.0 239:2.0 278:2.0 347:2.0 357:2.0 510:2.0 530:1.0 575:2.0 599:2.0 610:2.0 641:2.0 
1.0 2:6.0 43:4.0 45:2.0 48:2.0 70:2.0 77:2.0 109:2.0 139:2.0 241:2.0 278:2.0 458:2.0 530:2.0 538:2.0 635:2.0 665:2.0 
1.0 2:2.0 41:2.0 45:2.0 68:6.0 71:2.0 99:2.0 100:2.0 109:2.0 160:2.0 172:2.0 176:2.0 178:4.0 192:2.0 220:2.0 292:2.0 304:4.0 308:2.0 357:2.0 384:2.0 392:2.0 397:2.0 401:2.0 404:2.0 453:2.0 458:2.0 465:2.0 477:2.0 487:2.0 490:12.0 572:2.0 575:2.0 628:2.0 632:2.0 635:2.0 
1.0 98:4.0 100:2.0 178:2.0 205:2.0 261:2.0 366:2.0 404:2.0 537:2.0 555:2.0 596:2.0 628:4.0 665:2.0 
1.0 2:2.0 42:2.0 45:2.0 71:2.0 97:2.0 169:2.0 306:2.0 456:2.0 457:2.0 458:2.0 480:2.0 
1.0 2:2.0 12:2.0 16:2.0 261:2.0 366:2.0 465:2.0 545:2.0 546:2.0 
0.335804857591835 109:2.0 142:2.0 183:2.0 235:2.0 241:2.0 404:1.0 
1.0 2:2.0 24:2.0 54:2.0 278:2.0 304:2.0 330:2.0 531:2.0 550:2.0 600:1.0 665:2.0 
1.0 608:2.0 
1.0 
1.0 48:1.0 109:1.0 234:1.0 428:2.0 575:2.0 628:2.0 
0.538509881323003 124:2.0 151:2.0 234:2.0 256:2.0 401:2.0 575:6.0 
1.0 48:2.0 79:2.0 455:2.0 472:2.0 493:2.0 635:2.0 639:2.0 
1.0 41:2.0 42:6.0 43:10.0 45:4.0 48:1.0 109:3.0 234:1.0 241:2.0 572:2.0 575:2.0 
1.0 48:3.0 124:2.0 241:2.0 357:1.0 404:2.0 445:2.0 555:2.0 637:1.0 
1.0 48:2.0 158:2.0 294:2.0 376:2.0 
1.0 2:2.0 182:2.0 247:2.0 347:2.0 404:2.0 406:2.0 477:4.0 575:2.0 
1.0 49:2.0 109:2.0 278:2.0 357:2.0 
1.0 99:2.0 235:2.0 333:2.0 635:2.0 
1.0 496:2.0 555:2.0 
1.0 
1.0 0:2.0 1:2.0 31:2.0 100:4.0 182:2.0 341:4.0 384:2.0 555:2.0 
1.0 124:2.0 176:2.0 241:2.0 302:2.0 404:2.0 423:2.0 537:2.0 560:2.0 619:2.0 
1.0 2:2.0 397:4.0 404:1.0 427:1.0 430:2.0 453:4.0 537:2.0 599:2.0 619:2.0 
1.0 42:2.0 43:2.0 59:4.0 64:2.0 117:2.0 124:8.0 140:2.0 159:2.0 226:2.0 292:2.0 293:2.0 302:2.0 306:4.0 333:2.0 397:6.0 401:2.0 407:6.0 425:2.0 427:2.0 441:2.0 446:2.0 585:2.0 590:2.0 599:1.0 603:2.0 610:2.0 670:2.0 
1.0 2:2.0 18:2.0 43:2.0 45:2.0 71:2.0 81:1.0 117:2.0 119:2.0 166:2.0 212:1.0 262:2.0 294:2.0 302:2.0 349:2.0 404:1.0 427:1.0 458:2.0 471:2.0 488:2.0 498:4.0 543:2.0 557:2.0 614:1.0 663:1.0 
0.287431692625137 42:2.0 43:4.0 68:2.0 265:2.0 279:2.0 349:2.0 628:2.0 
1.0 
1.0 17:2.0 138:2.0 183:2.0 235:2.0 241:2.0 293:1.0 401:1.0 404:2.0 462:1.0 538:1.0 545:2.0 588:2.0 
1.0 2:1.0 42:2.0 45:2.0 100:2.0 109:2.0 124:2.0 153:2.0 404:2.0 461:2.0 563:2.0 572:2.0 575:2.0 657:2.0 
1.0 404:2.0 
1.0 164:2.0 174:2.0 306:2.0 461:2.0 502:2.0 
1.0 43:2.0 45:2.0 259:2.0 295:2.0 357:2.0 615:2.0 
1.0 43:2.0 45:2.0 120:2.0 404:2.0 637:2.0 
1.0 40:1.0 124:2.0 477:2.0 498:2.0 610:2.0 
1.0 71:2.0 306:2.0 421:2.0 438:2.0 458:2.0 657:2.0 
1.0 0:2.0 42:4.0 43:2.0 45:6.0 183:2.0 293:2.0 306:2.0 318:2.0 475:2.0 527:2.0 572:2.0 662:2.0 
1.0 2:6.0 9:2.0 12:2.0 14:2.0 42:8.0 43:6.0 45:12.0 81:2.0 113:2.0 114:4.0 137:4.0 194:2.0 235:2.0 244:2.0 259:2.0 278:2.0 292:2.0 299:2.0 302:4.0 320:2.0 329:4.0 336:2.0 357:2.0 392:2.0 404:2.0 445:2.0 457:2.0 458:2.0 467:2.0 474:2.0 507:4.0 518:2.0 537:2.0 543:4.0 565:4.0 572:4.0 582:2.0 585:2.0 631:2.0 649:2.0 665:4.0 
1.0 41:2.0 42:2.0 43:4.0 45:8.0 70:2.0 71:2.0 97:4.0 98:4.0 101:2.0 177:2.0 306:6.0 308:4.0 349:2.0 357:4.0 385:2.0 404:4.0 456:2.0 458:2.0 537:4.0 565:4.0 572:2.0 596:2.0 614:2.0 628:2.0 648:2.0 655:2.0 663:2.0 665:2.0 
1.0 2:2.0 31:2.0 71:4.0 97:2.0 144:2.0 172:2.0 241:2.0 369:2.0 404:2.0 437:2.0 458:2.0 483:2.0 535:2.0 
1.0 294:2.0 417:2.0 457:2.0 477:2.0 579:2.0 
1.0 42:2.0 43:2.0 113:2.0 
1.0 42:2.0 43:2.0 295:2.0 477:2.0 
1.0 172:2.0 614:2.0 
1.0 2:2.0 235:2.0 278:2.0 299:2.0 357:2.0 401:2.0 404:1.0 427:1.0 445:2.0 458:2.0 537:2.0 579:4.0 
1.0 234:2.0 404:2.0 458:2.0 
1.0 41:2.0 42:2.0 43:2.0 113:2.0 530:2.0 
1.0 109:2.0 371:2.0 404:2.0 530:2.0 602:2.0 610:2.0 
1.0 24:2.0 68:2.0 89:2.0 109:2.0 115:2.0 142:2.0 265:2.0 295:2.0 374:2.0 398:2.0 404:2.0 426:2.0 458:4.0 507:2.0 
1.0 2:4.0 12:2.0 17:4.0 42:4.0 43:2.0 48:2.0 55:2.0 59:2.0 60:2.0 71:2.0 102:2.0 137:2.0 148:2.0 192:26.0 237:2.0 241:2.0 244:2.0 249:2.0 278:8.0 298:2.0 320:2.0 357:2.0 397:2.0 438:2.0 455:2.0 530:2.0 537:2.0 572:2.0 643:2.0 
1.0 2:2.0 45:4.0 68:2.0 106:2.0 407:2.0 631:4.0 
1.0 113:2.0 260:2.0 
1.0 75:2.0 235:2.0 404:2.0 530:2.0 531:2.0 537:2.0 
1.0 71:2.0 164:2.0 424:2.0 592:2.0 
1.0 
1.0 603:2.0 659:2.0 664:2.0 
1.0 2:2.0 117:2.0 175:2.0 270:4.0 357:4.0 463:2.0 640:1.0 
1.0 376:2.0 
1.0 327:2.0 404:2.0 486:2.0 
1.0 183:2.0 384:2.0 
1.0 71:2.0 619:2.0 
1.0 
1.0 2:2.0 12:2.0 71:2.0 117:2.0 198:2.0 255:2.0 268:2.0 342:2.0 429:2.0 508:2.0 
1.0 
1.0 71:2.0 100:4.0 109:2.0 183:2.0 248:2.0 263:2.0 327:2.0 394:2.0 480:2.0 529:2.0 609:2.0 
1.0 2:2.0 24:2.0 51:2.0 59:4.0 141:2.0 166:4.0 263:2.0 331:2.0 404:2.0 421:2.0 458:4.0 466:2.0 
1.0 55:6.0 63:2.0 283:2.0 292:2.0 458:2.0 572:2.0 610:2.0 623:2.0 
1.0 42:4.0 45:4.0 81:2.0 98:2.0 401:2.0 590:2.0 
1.0 42:2.0 45:4.0 71:2.0 115:2.0 158:2.0 275:2.0 
1.0 42:2.0 45:4.0 71:2.0 158:2.0 
1.0 71:2.0 376:2.0 572:2.0 627:2.0 
1.0 222:2.0 226:2.0 457:2.0 
1.0 327:2.0 
1.0 61:2.0 71:4.0 404:2.0 405:2.0 651:2.0 
1.0 
1.0 41:2.0 43:6.0 45:8.0 84:1.0 158:2.0 172:2.0 192:2.0 243:2.0 247:4.0 278:1.0 404:1.0 424:1.0 458:1.0 572:4.0 596:2.0 
1.0 71:2.0 
1.0 12:2.0 48:1.0 71:2.0 178:2.0 215:2.0 293:2.0 537:2.0 
1.0 71:2.0 247:2.0 404:2.0 557:2.0 
1.0 327:2.0 
1.0 2:2.0 12:2.0 241:2.0 393:2.0 543:2.0 572:2.0 591:2.0 
1.0 270:4.0 
1.0 45:4.0 138:2.0 292:2.0 458:2.0 592:2.0 635:2.0 637:2.0 
1.0 17:2.0 445:2.0 555:2.0 
1.0 241:2.0 404:2.0 445:2.0 555:2.0 
1.0 234:2.0 
1.0 24:2.0 37:2.0 43:2.0 55:4.0 68:2.0 102:2.0 105:2.0 208:2.0 226:2.0 271:2.0 316:2.0 342:2.0 402:2.0 404:4.0 476:2.0 543:2.0 550:4.0 560:2.0 599:2.0 619:2.0 
1.0 2:2.0 68:2.0 71:2.0 73:2.0 112:2.0 113:2.0 158:2.0 255:2.0 260:2.0 278:2.0 302:2.0 314:2.0 338:2.0 404:2.0 423:2.0 458:2.0 459:2.0 550:2.0 
1.0 2:4.0 26:2.0 41:2.0 50:2.0 94:4.0 111:2.0 113:2.0 141:2.0 190:2.0 193:2.0 230:2.0 241:2.0 275:2.0 278:2.0 357:2.0 404:2.0 457:2.0 520:2.0 601:4.0 605:2.0 657:2.0 664:1.0 
1.0 14:2.0 100:2.0 102:2.0 327:2.0 357:2.0 590:2.0 662:2.0 665:2.0 
1.0 192:2.0 292:2.0 
1.0 42:2.0 43:4.0 45:2.0 59:4.0 60:2.0 71:4.0 141:2.0 142:2.0 178:2.0 240:2.0 306:2.0 349:2.0 384:2.0 404:2.0 648:2.0 
1.0 42:2.0 43:4.0 45:2.0 59:4.0 60:2.0 71:4.0 141:2.0 142:2.0 178:2.0 240:2.0 306:2.0 349:2.0 384:2.0 404:2.0 648:2.0 
1.0 43:2.0 68:2.0 109:2.0 292:2.0 357:2.0 458:2.0 530:2.0 537:2.0 
1.0 2:4.0 71:2.0 234:2.0 404:2.0 
1.0 2:2.0 48:1.0 79:2.0 247:2.0 294:2.0 298:2.0 369:2.0 424:2.0 498:2.0 579:2.0 632:2.0 661:1.0 
1.0 59:2.0 
1.0 2:2.0 338:2.0 373:2.0 465:2.0 
1.0 
1.0 48:1.0 109:1.0 234:1.0 
1.0 70:2.0 292:2.0 357:2.0 397:2.0 404:3.0 416:2.0 427:1.0 458:4.0 498:2.0 
1.0 98:2.0 133:2.0 202:1.0 241:2.0 278:1.0 322:2.0 458:1.0 555:2.0 594:4.0 
1.0 2:2.0 48:1.0 71:4.0 98:2.0 176:2.0 193:2.0 218:2.0 241:2.0 244:1.0 278:3.0 355:2.0 357:2.0 371:4.0 404:2.0 406:2.0 438:2.0 458:1.0 465:2.0 560:2.0 577:1.0 580:2.0 628:2.0 655:2.0 
1.0 205:2.0 
1.0 10:2.0 71:2.0 458:2.0 532:2.0 582:2.0 
1.0 69:2.0 
1.0 141:2.0 306:2.0 404:2.0 
1.0 42:2.0 43:2.0 53:2.0 241:2.0 392:2.0 404:2.0 589:2.0 602:2.0 628:2.0 
1.0 3:2.0 45:4.0 64:2.0 265:2.0 269:2.0 
1.0 
1.0 375:2.0 
1.0 
1.0 109:2.0 172:2.0 404:2.0 614:2.0 
1.0 
1.0 
1.0 14:2.0 501:2.0 560:2.0 
1.0 17:2.0 278:1.0 308:4.0 458:1.0 589:2.0 633:2.0 
1.0 
1.0 41:2.0 45:2.0 433:2.0 
1.0 1:2.0 2:2.0 41:4.0 42:2.0 45:2.0 68:2.0 102:2.0 117:2.0 194:4.0 244:2.0 314:2.0 357:2.0 385:2.0 404:4.0 456:2.0 458:2.0 529:2.0 563:2.0 572:2.0 599:2.0 
0.8000479507290624 3:1.0 139:2.0 308:2.0 366:2.0 391:2.0 458:2.0 530:2.0 537:2.0 636:2.0 
1.0 327:2.0 657:2.0 
1.0 404:2.0 
1.0 2:2.0 65:1.0 71:2.0 100:2.0 133:2.0 240:2.0 278:2.0 295:2.0 349:1.0 366:4.0 474:2.0 670:2.0 
1.0 2:4.0 3:2.0 24:2.0 40:1.0 48:1.0 97:2.0 99:2.0 109:1.0 117:2.0 234:1.0 241:3.0 261:2.0 322:2.0 354:1.0 366:4.0 385:2.0 402:2.0 404:4.0 406:2.0 561:2.0 599:2.0 637:2.0 648:2.0 
1.0 109:2.0 218:2.0 241:2.0 351:2.0 458:2.0 537:2.0 
1.0 42:2.0 45:2.0 295:2.0 384:2.0 579:2.0 
1.0 33:2.0 109:1.0 137:2.0 234:1.0 401:2.0 640:1.0 
1.0 105:2.0 198:2.0 278:2.0 357:2.0 376:2.0 530:2.0 566:4.0 610:4.0 630:2.0 
1.0 327:2.0 
1.0 45:6.0 97:2.0 117:4.0 124:2.0 160:2.0 170:2.0 384:2.0 404:2.0 572:2.0 579:6.0 607:2.0 641:2.0 
1.0 2:6.0 41:2.0 42:6.0 43:4.0 45:6.0 49:2.0 66:2.0 71:2.0 81:2.0 92:2.0 97:2.0 102:2.0 107:2.0 109:2.0 183:4.0 186:2.0 192:4.0 198:2.0 208:2.0 212:1.0 214:2.0 278:2.0 357:2.0 401:2.0 404:10.0 427:2.0 433:2.0 434:2.0 456:1.0 458:6.0 537:2.0 543:10.0 548:2.0 555:2.0 557:2.0 580:2.0 596:1.0 599:2.0 639:2.0 640:1.0 648:2.0 663:3.0 
1.0 98:2.0 100:2.0 109:2.0 401:2.0 628:2.0 
1.0 60:2.0 71:2.0 401:2.0 622:2.0 
1.0 2:4.0 14:2.0 42:2.0 45:2.0 48:2.0 64:2.0 70:2.0 94:2.0 97:4.0 102:2.0 137:4.0 172:2.0 207:1.0 250:2.0 296:2.0 404:3.0 405:2.0 406:2.0 427:3.0 477:2.0 530:2.0 
1.0 0:2.0 12:2.0 21:4.0 45:2.0 66:2.0 71:2.0 79:2.0 97:2.0 109:2.0 117:2.0 140:2.0 176:4.0 178:2.0 182:2.0 192:4.0 194:2.0 195:2.0 226:2.0 237:6.0 241:4.0 247:2.0 261:2.0 278:2.0 292:4.0 306:5.0 337:2.0 338:4.0 349:2.0 376:2.0 401:2.0 404:6.0 408:2.0 415:2.0 428:2.0 433:2.0 441:2.0 445:2.0 448:2.0 458:10.0 494:2.0 502:2.0 513:2.0 535:4.0 543:2.0 572:6.0 588:2.0 596:2.0 601:2.0 622:2.0 628:2.0 633:2.0 640:2.0 
1.0 71:2.0 224:2.0 513:2.0 
1.0 69:2.0 
1.0 3:8.0 14:2.0 80:2.0 107:2.0 111:2.0 117:2.0 120:2.0 139:2.0 141:2.0 180:2.0 241:2.0 261:3.0 292:2.0 293:1.0 299:1.0 351:2.0 376:2.0 385:2.0 404:1.0 406:2.0 413:2.0 528:2.0 547:2.0 563:6.0 586:2.0 596:2.0 599:2.0 602:2.0 610:2.0 619:2.0 
1.0 2:2.0 14:2.0 48:2.0 90:2.0 91:1.0 99:1.0 113:2.0 219:2.0 278:2.0 306:2.0 545:2.0 550:6.0 599:2.0 
1.0 31:2.0 41:18.0 42:4.0 43:18.0 48:2.0 49:2.0 52:4.0 70:2.0 71:2.0 76:2.0 84:2.0 97:4.0 132:2.0 140:2.0 141:2.0 146:2.0 176:4.0 192:6.0 207:2.0 241:2.0 266:2.0 292:2.0 302:2.0 306:4.0 317:2.0 327:2.0 357:6.0 367:2.0 404:8.0 407:4.0 410:2.0 426:2.0 427:2.0 458:6.0 469:2.0 498:2.0 507:2.0 513:2.0 599:8.0 601:4.0 628:2.0 646:2.0 
1.0 318:2.0 
1.0 68:4.0 106:2.0 109:2.0 404:2.0 572:2.0 
1.0 97:2.0 109:2.0 304:2.0 610:2.0 
1.0 33:2.0 41:2.0 42:2.0 43:2.0 45:6.0 109:1.0 224:2.0 234:1.0 309:2.0 366:2.0 537:2.0 640:1.0 
1.0 42:2.0 43:2.0 60:2.0 
1.0 100:2.0 176:2.0 235:2.0 241:2.0 309:2.0 539:2.0 544:2.0 555:2.0 637:2.0 
1.0 570:1.0 599:2.0 
1.0 238:4.0 401:2.0 404:2.0 474:2.0 
1.0 24:2.0 42:2.0 43:6.0 109:2.0 192:2.0 275:2.0 278:2.0 349:2.0 352:2.0 404:2.0 421:2.0 436:2.0 457:2.0 557:4.0 558:2.0 589:2.0 599:2.0 
1.0 43:4.0 138:2.0 140:2.0 192:2.0 194:2.0 261:2.0 270:4.0 276:2.0 278:2.0 288:4.0 306:2.0 320:2.0 342:2.0 351:2.0 357:2.0 376:2.0 391:4.0 401:1.0 404:4.0 441:2.0 456:2.0 498:2.0 507:2.0 
1.0 
1.0 134:2.0 249:2.0 468:2.0 
1.0 
1.0 
1.0 404:2.0 537:2.0 
0.48596673475506086 2:2.0 376:2.0 384:2.0 513:2.0 
1.0 97:2.0 342:2.0 404:4.0 458:2.0 572:2.0 
1.0 60:2.0 69:2.0 
1.0 43:2.0 217:2.0 330:2.0 376:2.0 
1.0 2:4.0 81:2.0 100:4.0 142:2.0 158:2.0 226:2.0 235:2.0 278:2.0 308:3.0 351:2.0 404:3.0 442:2.0 505:1.0 530:1.0 555:2.0 655:2.0 
1.0 71:2.0 384:2.0 
1.0 
1.0 134:2.0 
1.0 71:2.0 183:2.0 241:2.0 278:4.0 404:2.0 
1.0 194:2.0 306:2.0 385:2.0 468:2.0 507:2.0 619:2.0 623:2.0 665:2.0 
1.0 182:2.0 599:2.0 
1.0 66:2.0 146:2.0 172:2.0 241:2.0 270:2.0 282:6.0 404:6.0 516:2.0 537:4.0 619:2.0 654:2.0 
1.0 97:2.0 284:2.0 
1.0 71:2.0 210:2.0 237:2.0 278:2.0 335:2.0 401:2.0 404:4.0 406:2.0 469:2.0 599:2.0 642:2.0 
1.0 
1.0 
1.0 2:2.0 42:2.0 45:2.0 55:2.0 69:2.0 208:2.0 345:2.0 407:2.0 418:2.0 510:2.0 
1.0 71:2.0 144:2.0 641:2.0 
1.0 71:2.0 172:2.0 280:2.0 404:2.0 507:2.0 555:2.0 
0.20781322635002708 35:2.0 71:2.0 560:2.0 
1.0 48:1.0 71:2.0 100:2.0 102:2.0 109:1.0 230:2.0 234:1.0 357:2.0 
1.0 94:2.0 
1.0 
1.0 24:2.0 42:2.0 43:2.0 71:2.0 81:2.0 111:2.0 241:4.0 355:4.0 406:2.0 599:2.0 
1.0 529:2.0 614:2.0 
1.0 43:8.0 94:2.0 109:2.0 241:2.0 278:2.0 306:2.0 619:2.0 
1.0 41:6.0 192:2.0 292:2.0 320:2.0 397:2.0 399:2.0 
1.0 16:2.0 42:2.0 43:8.0 102:4.0 144:2.0 304:2.0 376:2.0 404:4.0 427:1.0 438:2.0 519:2.0 529:2.0 592:2.0 628:2.0 
1.0 241:4.0 393:4.0 635:4.0 
1.0 71:2.0 404:2.0 
1.0 45:2.0 71:2.0 111:2.0 140:2.0 404:2.0 445:2.0 595:2.0 
1.0 530:2.0 555:2.0 
1.0 
1.0 2:2.0 48:1.0 94:2.0 100:2.0 109:1.0 178:2.0 191:2.0 234:1.0 441:2.0 445:2.0 537:2.0 555:2.0 592:2.0 
1.0 115:2.0 151:2.0 192:2.0 256:2.0 325:2.0 498:2.0 645:2.0 
1.0 49:2.0 58:2.0 109:2.0 129:2.0 137:4.0 406:4.0 441:2.0 537:2.0 582:2.0 619:2.0 
0.8106754501889234 24:2.0 71:2.0 111:2.0 115:2.0 124:2.0 141:2.0 278:2.0 344:2.0 349:2.0 404:4.0 441:2.0 457:2.0 465:2.0 480:2.0 537:2.0 555:4.0 572:2.0 589:2.0 622:2.0 665:2.0 
1.0 2:2.0 64:2.0 71:4.0 207:1.0 228:2.0 233:2.0 292:2.0 384:2.0 458:2.0 471:2.0 488:2.0 498:2.0 601:2.0 666:2.0 
0.32430513222965535 1:2.0 41:2.0 45:2.0 94:2.0 182:2.0 289:2.0 601:2.0 
1.0 
1.0 142:2.0 240:2.0 292:2.0 308:2.0 458:2.0 563:2.0 
1.0 2:2.0 14:2.0 292:2.0 327:2.0 357:4.0 604:2.0 
1.0 2:2.0 42:2.0 43:4.0 45:6.0 117:1.0 170:2.0 372:1.0 376:2.0 502:2.0 
0.1582454794753791 2:2.0 12:2.0 41:4.0 45:8.0 48:4.0 70:2.0 71:2.0 102:2.0 107:2.0 109:2.0 136:2.0 137:2.0 190:2.0 208:2.0 214:2.0 261:2.0 278:4.0 295:2.0 304:2.0 306:6.0 308:2.0 309:2.0 327:2.0 330:2.0 369:2.0 404:2.0 419:2.0 477:2.0 502:4.0 515:2.0 520:4.0 537:8.0 543:2.0 572:2.0 619:2.0 635:2.0 641:2.0 
1.0 41:2.0 42:2.0 45:8.0 94:2.0 99:2.0 192:2.0 241:2.0 275:2.0 357:2.0 404:2.0 
1.0 1:4.0 2:6.0 24:2.0 32:2.0 41:6.0 42:6.0 43:8.0 45:12.0 49:2.0 50:2.0 64:6.0 70:2.0 71:4.0 74:2.0 82:2.0 87:2.0 97:4.0 117:2.0 135:2.0 136:2.0 137:2.0 139:2.0 140:2.0 141:2.0 183:2.0 202:4.0 208:1.0 211:2.0 218:2.0 228:3.0 235:2.0 238:2.0 241:4.0 258:2.0 304:2.0 306:2.0 316:2.0 369:2.0 374:2.0 404:3.0 418:2.0 427:1.0 458:2.0 463:2.0 508:2.0 527:2.0 538:2.0 541:2.0 596:2.0 599:2.0 601:2.0 
1.0 0:2.0 2:2.0 9:2.0 24:2.0 42:2.0 43:6.0 45:2.0 55:2.0 71:4.0 82:6.0 109:2.0 116:2.0 117:6.0 137:2.0 148:2.0 149:2.0 176:2.0 186:2.0 237:2.0 241:2.0 278:2.0 394:4.0 397:2.0 401:1.0 404:13.0 427:1.0 429:2.0 441:2.0 458:2.0 467:2.0 477:2.0 507:2.0 537:4.0 539:1.0 596:2.0 599:2.0 610:2.0 614:2.0 635:2.0 637:6.0 648:2.0 
1.0 12:2.0 33:6.0 37:2.0 41:8.0 42:10.0 43:8.0 45:14.0 71:6.0 208:2.0 214:2.0 232:2.0 267:2.0 304:4.0 342:14.0 361:2.0 487:2.0 572:2.0 585:2.0 596:2.0 
1.0 24:2.0 102:2.0 404:2.0 465:2.0 537:2.0 
1.0 2:2.0 81:2.0 106:2.0 217:2.0 366:2.0 371:2.0 401:2.0 419:2.0 657:2.0 
1.0 2:2.0 17:2.0 41:4.0 42:4.0 43:4.0 45:4.0 48:2.0 64:2.0 65:2.0 71:2.0 139:2.0 140:2.0 143:2.0 202:2.0 270:4.0 278:2.0 366:2.0 401:2.0 404:3.0 428:2.0 438:2.0 465:2.0 506:2.0 509:1.0 527:2.0 537:2.0 538:2.0 553:2.0 572:2.0 599:2.0 633:4.0 670:2.0 
1.0 2:3.0 16:2.0 41:4.0 42:2.0 43:6.0 45:10.0 70:2.0 71:6.0 98:2.0 99:2.0 100:2.0 115:2.0 130:2.0 148:2.0 164:2.0 176:2.0 186:2.0 192:2.0 205:2.0 208:12.0 240:2.0 241:3.0 250:2.0 285:1.0 304:4.0 308:2.0 397:2.0 404:12.0 415:2.0 448:2.0 471:2.0 501:2.0 503:2.0 532:2.0 537:2.0 552:2.0 560:2.0 572:6.0 580:2.0 614:2.0 619:2.0 628:2.0 635:2.0 641:2.0 
1.0 42:2.0 43:2.0 109:2.0 241:2.0 278:2.0 376:2.0 401:2.0 488:2.0 496:2.0 498:2.0 
1.0 43:2.0 45:2.0 68:2.0 208:2.0 292:2.0 306:2.0 404:1.0 592:2.0 645:1.0 
1.0 48:2.0 100:2.0 109:2.0 208:2.0 237:2.0 241:2.0 295:2.0 438:2.0 555:2.0 635:2.0 
1.0 31:2.0 42:2.0 109:2.0 193:2.0 208:2.0 241:2.0 364:2.0 401:2.0 404:2.0 410:2.0 537:2.0 572:2.0 
1.0 2:6.0 9:2.0 24:4.0 33:2.0 64:2.0 66:2.0 71:4.0 83:2.0 138:2.0 241:2.0 261:2.0 270:4.0 278:2.0 306:6.0 347:2.0 366:2.0 376:4.0 381:2.0 384:2.0 404:8.0 407:2.0 445:2.0 458:4.0 465:2.0 537:2.0 555:2.0 572:5.0 596:2.0 599:4.0 604:2.0 670:2.0 
1.0 176:2.0 265:2.0 404:2.0 
1.0 
0.05848899849025192 14:2.0 41:2.0 42:4.0 43:4.0 45:12.0 69:2.0 81:2.0 83:2.0 86:2.0 97:4.0 100:2.0 109:2.0 139:2.0 149:4.0 208:3.0 219:2.0 234:2.0 241:2.0 255:2.0 278:4.0 295:2.0 307:1.0 322:2.0 366:4.0 385:2.0 404:4.0 406:2.0 417:2.0 448:2.0 451:2.0 465:6.0 555:4.0 590:2.0 599:6.0 614:4.0 619:2.0 623:2.0 628:2.0 631:2.0 665:6.0 
1.0 2:2.0 126:2.0 208:2.0 235:2.0 241:2.0 298:2.0 
1.0 14:2.0 461:2.0 663:2.0 
1.0 2:2.0 15:2.0 16:2.0 33:6.0 41:2.0 42:6.0 43:2.0 45:8.0 48:1.0 71:4.0 87:4.0 100:2.0 148:2.0 177:2.0 185:2.0 186:2.0 192:4.0 204:2.0 241:2.0 292:6.0 398:2.0 404:2.0 455:2.0 494:2.0 537:4.0 543:2.0 557:2.0 572:2.0 596:3.0 640:2.0 648:2.0 665:2.0 
1.0 68:2.0 109:2.0 404:2.0 405:2.0 508:2.0 
1.0 71:2.0 95:2.0 384:2.0 
1.0 42:2.0 45:4.0 292:2.0 404:2.0 420:2.0 637:2.0 
1.0 219:2.0 
1.0 68:2.0 71:2.0 193:2.0 351:2.0 445:2.0 619:2.0 635:2.0 640:2.0 
1.0 
0.6891479292803628 0:2.0 12:2.0 14:2.0 33:2.0 42:2.0 43:6.0 45:2.0 48:2.0 55:2.0 60:2.0 71:6.0 79:2.0 115:2.0 117:2.0 137:2.0 148:6.0 162:2.0 169:2.0 183:2.0 219:2.0 226:2.0 241:4.0 308:4.0 314:2.0 357:2.0 369:2.0 371:12.0 401:2.0 404:4.0 477:2.0 498:20.0 519:2.0 538:2.0 543:2.0 550:2.0 557:2.0 572:2.0 575:2.0 597:2.0 610:2.0 614:2.0 628:2.0 637:2.0 640:2.0 
1.0 102:2.0 117:2.0 138:2.0 153:2.0 171:2.0 
1.0 
1.0 94:2.0 465:2.0 496:2.0 597:2.0 
1.0 265:2.0 
1.0 134:2.0 384:4.0 445:2.0 
1.0 12:2.0 24:2.0 83:2.0 90:2.0 100:2.0 102:2.0 278:6.0 292:2.0 295:2.0 381:2.0 429:2.0 438:2.0 494:2.0 555:4.0 580:2.0 637:2.0 
1.0 2:2.0 17:2.0 48:2.0 109:2.0 193:2.0 241:2.0 417:2.0 438:2.0 445:2.0 572:2.0 641:2.0 
1.0 185:2.0 232:2.0 241:2.0 369:2.0 477:2.0 
1.0 41:4.0 45:4.0 165:2.0 193:2.0 278:2.0 555:2.0 557:2.0 572:2.0 596:2.0 
1.0 57:2.0 115:2.0 228:1.0 417:2.0 445:2.0 638:2.0 
1.0 293:2.0 530:2.0 
1.0 43:2.0 45:2.0 64:2.0 193:2.0 265:2.0 
1.0 12:2.0 22:2.0 23:2.0 33:2.0 41:2.0 42:4.0 43:6.0 45:4.0 94:2.0 113:2.0 172:4.0 183:2.0 202:4.0 219:1.0 225:2.0 237:2.0 245:2.0 278:2.0 287:4.0 299:2.0 304:2.0 308:2.0 330:2.0 371:2.0 391:2.0 404:1.0 457:2.0 505:1.0 572:2.0 599:2.0 610:4.0 
1.0 2:4.0 43:6.0 45:6.0 71:4.0 407:2.0 432:2.0 532:2.0 537:2.0 
1.0 
1.0 2:2.0 7:2.0 465:2.0 608:2.0 
1.0 144:2.0 237:2.0 630:2.0 
1.0 44:2.0 68:2.0 71:2.0 265:2.0 319:2.0 404:2.0 421:2.0 434:2.0 457:4.0 589:2.0 601:2.0 
1.0 15:2.0 43:2.0 45:4.0 237:2.0 278:2.0 532:2.0 537:2.0 
1.0 17:2.0 186:2.0 537:2.0 596:2.0 
1.0 2:2.0 14:2.0 68:2.0 79:2.0 100:4.0 105:2.0 158:2.0 212:1.0 327:2.0 332:2.0 357:4.0 404:2.0 408:2.0 413:2.0 480:2.0 530:2.0 555:2.0 663:1.0 
1.0 2:4.0 33:2.0 41:8.0 42:6.0 43:4.0 45:10.0 48:1.0 71:2.0 98:2.0 109:1.0 117:2.0 121:2.0 124:2.0 133:2.0 158:2.0 234:1.0 458:2.0 572:4.0 635:2.0 639:2.0 
1.0 42:2.0 45:2.0 270:4.0 
1.0 42:4.0 43:4.0 45:2.0 269:2.0 602:2.0 
1.0 2:2.0 41:2.0 42:2.0 285:2.0 384:2.0 557:4.0 635:2.0 
1.0 70:4.0 71:2.0 306:2.0 317:2.0 530:2.0 
1.0 2:2.0 17:6.0 20:4.0 41:2.0 45:2.0 117:2.0 158:2.0 537:2.0 592:2.0 
1.0 1:2.0 71:4.0 232:2.0 498:2.0 556:2.0 610:4.0 
1.0 33:2.0 102:2.0 162:1.0 404:1.0 519:1.0 557:2.0 572:2.0 590:2.0 
1.0 43:2.0 45:2.0 48:1.0 109:1.0 158:2.0 234:1.0 404:2.0 575:2.0 641:2.0 
1.0 54:2.0 172:2.0 287:2.0 404:2.0 445:2.0 496:2.0 
1.0 146:2.0 194:2.0 241:2.0 284:2.0 498:2.0 
1.0 24:2.0 
1.0 42:2.0 43:2.0 46:2.0 48:1.0 51:1.0 87:4.0 102:2.0 109:1.0 139:2.0 148:2.0 192:2.0 234:1.0 235:4.0 241:2.0 261:2.0 278:2.0 337:2.0 369:2.0 404:3.0 427:1.0 477:2.0 591:1.0 601:1.0 640:1.0 
1.0 
1.0 278:2.0 404:1.0 427:1.0 555:2.0 596:2.0 
1.0 12:2.0 71:4.0 86:2.0 117:2.0 124:2.0 148:4.0 176:2.0 186:2.0 313:2.0 384:4.0 401:2.0 404:8.0 445:4.0 493:2.0 502:2.0 555:2.0 557:2.0 596:3.0 598:2.0 610:2.0 619:6.0 637:4.0 639:2.0 640:1.0 
1.0 69:2.0 
1.0 393:2.0 
1.0 2:2.0 42:2.0 43:2.0 70:2.0 102:2.0 142:2.0 232:2.0 404:2.0 445:2.0 477:2.0 557:2.0 
1.0 2:2.0 182:2.0 
1.0 2:2.0 182:2.0 
1.0 42:4.0 43:4.0 45:8.0 208:2.0 255:2.0 308:2.0 432:2.0 468:2.0 572:4.0 
1.0 14:2.0 545:2.0 
1.0 71:2.0 493:2.0 
1.0 71:2.0 667:2.0 
1.0 17:2.0 43:2.0 45:2.0 66:2.0 113:2.0 124:2.0 241:2.0 278:2.0 292:2.0 294:2.0 315:2.0 374:4.0 445:2.0 458:2.0 537:2.0 557:2.0 583:2.0 
1.0 2:2.0 298:2.0 404:2.0 445:2.0 557:2.0 
1.0 97:2.0 230:2.0 330:2.0 404:2.0 407:2.0 
1.0 16:2.0 109:2.0 261:2.0 278:2.0 502:2.0 
1.0 32:2.0 98:2.0 193:4.0 219:2.0 278:2.0 438:2.0 445:2.0 465:8.0 537:2.0 
1.0 12:2.0 43:4.0 45:4.0 70:2.0 117:2.0 124:3.0 148:2.0 228:1.0 232:1.0 306:2.0 388:2.0 404:7.0 435:1.0 438:2.0 455:2.0 576:2.0 
1.0 61:2.0 71:2.0 111:2.0 268:2.0 401:2.0 537:2.0 572:2.0 
1.0 21:2.0 41:2.0 42:4.0 70:2.0 71:2.0 109:2.0 138:2.0 235:2.0 465:4.0 477:2.0 547:2.0 
1.0 226:2.0 357:2.0 
1.0 17:2.0 42:2.0 43:2.0 45:6.0 109:4.0 186:2.0 241:2.0 406:2.0 502:2.0 637:2.0 640:2.0 
1.0 70:2.0 158:2.0 178:2.0 275:4.0 278:2.0 349:2.0 404:2.0 590:2.0 596:2.0 665:4.0 
1.0 138:2.0 153:2.0 158:2.0 292:2.0 405:2.0 458:2.0 652:2.0 
1.0 45:2.0 
1.0 109:1.0 234:1.0 640:1.0 
1.0 627:2.0 635:2.0 
1.0 54:2.0 124:2.0 226:2.0 404:2.0 410:2.0 
1.0 95:2.0 469:2.0 
1.0 278:2.0 308:2.0 357:2.0 468:2.0 
1.0 2:2.0 48:2.0 182:2.0 
1.0 102:2.0 342:2.0 
1.0 17:2.0 375:2.0 404:2.0 
1.0 1:2.0 41:2.0 42:2.0 220:2.0 226:2.0 458:2.0 478:2.0 539:2.0 627:2.0 
1.0 94:2.0 142:2.0 
1.0 2:4.0 14:2.0 41:2.0 42:2.0 43:6.0 45:6.0 226:2.0 278:2.0 458:2.0 545:2.0 557:2.0 670:2.0 
1.0 2:2.0 41:2.0 43:2.0 45:8.0 477:2.0 493:2.0 555:2.0 572:2.0 575:2.0 579:2.0 
1.0 105:2.0 138:2.0 178:2.0 235:2.0 257:2.0 
1.0 2:2.0 70:2.0 97:2.0 135:2.0 169:2.0 304:2.0 306:2.0 458:6.0 537:6.0 579:2.0 
1.0 12:2.0 71:2.0 235:2.0 237:2.0 319:2.0 404:1.0 436:2.0 627:2.0 637:1.0 
1.0 71:2.0 404:2.0 438:2.0 619:2.0 
1.0 113:2.0 191:2.0 278:2.0 285:4.0 503:2.0 
1.0 2:2.0 71:4.0 171:2.0 404:2.0 
1.0 55:2.0 192:2.0 529:2.0 635:2.0 666:2.0 
1.0 71:2.0 
1.0 7:2.0 14:2.0 102:2.0 
1.0 134:2.0 445:2.0 530:2.0 
1.0 71:2.0 
1.0 421:2.0 457:2.0 
0.5474665164544309 2:2.0 43:2.0 45:2.0 48:2.0 54:2.0 100:2.0 155:2.0 158:2.0 247:2.0 285:2.0 355:2.0 366:6.0 401:2.0 404:2.0 406:2.0 448:2.0 515:2.0 530:2.0 535:2.0 555:4.0 557:6.0 571:2.0 572:2.0 637:2.0 640:1.0 
1.0 113:2.0 121:2.0 462:2.0 
1.0 109:2.0 278:2.0 404:2.0 
1.0 69:2.0 
1.0 3:2.0 155:2.0 225:2.0 585:2.0 
1.0 270:4.0 572:2.0 
1.0 2:2.0 35:2.0 282:2.0 401:2.0 404:2.0 602:2.0 
1.0 2:2.0 458:2.0 499:2.0 
1.0 
1.0 7:2.0 40:1.0 182:2.0 401:2.0 610:2.0 619:2.0 649:1.0 
1.0 14:2.0 32:2.0 56:2.0 572:2.0 
1.0 2:4.0 70:2.0 71:6.0 100:4.0 153:4.0 193:2.0 384:2.0 463:2.0 589:2.0 599:2.0 
1.0 2:2.0 186:2.0 
1.0 172:2.0 327:2.0 404:2.0 438:2.0 478:2.0 519:2.0 530:2.0 537:6.0 592:2.0 596:2.0 
1.0 384:2.0 424:2.0 469:2.0 667:2.0 
1.0 43:2.0 45:2.0 60:2.0 
1.0 
1.0 48:1.0 109:1.0 234:1.0 404:2.0 537:2.0 
1.0 2:2.0 24:2.0 42:2.0 64:2.0 82:2.0 109:2.0 170:2.0 235:2.0 237:2.0 278:2.0 404:4.0 422:4.0 493:2.0 557:2.0 576:2.0 628:2.0 
1.0 133:2.0 579:2.0 651:2.0 663:2.0 
1.0 17:2.0 141:2.0 241:2.0 502:2.0 555:2.0 635:2.0 
1.0 109:1.0 234:1.0 640:1.0 
0.32240725635515527 2:2.0 24:2.0 48:1.0 114:2.0 120:2.0 214:2.0 222:2.0 237:2.0 240:4.0 244:1.0 251:2.0 263:2.0 292:2.0 351:2.0 404:2.0 420:2.0 430:2.0 457:2.0 557:2.0 599:2.0 
1.0 109:1.0 191:2.0 234:1.0 261:2.0 640:1.0 
1.0 14:2.0 109:2.0 142:2.0 278:4.0 380:2.0 457:2.0 545:2.0 628:2.0 
1.0 71:2.0 158:2.0 458:2.0 539:2.0 582:2.0 
1.0 43:2.0 69:2.0 233:2.0 252:2.0 357:2.0 515:2.0 670:2.0 
1.0 228:1.0 241:2.0 557:2.0 628:4.0 
1.0 43:2.0 45:2.0 64:2.0 306:2.0 461:2.0 477:2.0 599:2.0 
1.0 2:2.0 192:2.0 397:2.0 404:2.0 445:2.0 537:2.0 
1.0 14:2.0 70:2.0 153:1.0 186:2.0 269:2.0 304:2.0 321:2.0 404:2.0 505:2.0 530:4.0 545:2.0 579:2.0 602:2.0 608:2.0 628:2.0 
1.0 2:4.0 42:2.0 43:4.0 45:4.0 48:4.0 49:2.0 60:4.0 70:2.0 100:2.0 102:2.0 117:2.0 130:2.0 137:6.0 141:2.0 146:2.0 163:2.0 234:2.0 243:2.0 250:2.0 287:2.0 294:2.0 376:2.0 404:2.0 426:2.0 456:2.0 460:2.0 496:2.0 537:4.0 544:2.0 599:4.0 
1.0 24:8.0 41:2.0 42:2.0 43:2.0 97:4.0 124:2.0 148:2.0 172:2.0 201:2.0 232:1.0 261:2.0 270:8.0 278:2.0 376:2.0 397:2.0 404:3.0 455:2.0 572:2.0 579:2.0 637:1.0 642:2.0 
1.0 48:2.0 113:2.0 158:2.0 175:2.0 375:2.0 599:2.0 
1.0 69:4.0 
1.0 
1.0 
1.0 97:6.0 615:2.0 
1.0 172:2.0 590:2.0 635:2.0 
1.0 148:2.0 308:2.0 371:2.0 458:2.0 
1.0 45:2.0 60:2.0 71:2.0 199:2.0 282:2.0 376:2.0 404:2.0 
1.0 
1.0 
1.0 
1.0 71:2.0 84:2.0 537:2.0 
1.0 29:2.0 43:2.0 97:2.0 208:2.0 239:2.0 423:2.0 457:2.0 534:2.0 601:2.0 
1.0 12:2.0 59:2.0 69:2.0 124:2.0 148:2.0 178:6.0 261:2.0 467:2.0 529:2.0 537:2.0 
1.0 327:2.0 
1.0 41:4.0 42:2.0 45:2.0 47:2.0 97:2.0 109:2.0 158:2.0 265:2.0 294:1.0 306:2.0 308:2.0 327:2.0 404:2.0 458:2.0 475:2.0 496:2.0 506:1.0 515:2.0 530:6.0 640:1.0 
1.0 17:2.0 109:2.0 371:2.0 
1.0 172:2.0 287:2.0 330:2.0 596:2.0 
1.0 
1.0 35:2.0 282:2.0 404:4.0 555:2.0 
1.0 178:2.0 192:2.0 220:2.0 
1.0 48:1.0 109:1.0 130:2.0 137:2.0 178:4.0 186:2.0 192:2.0 234:1.0 278:2.0 292:2.0 308:2.0 475:2.0 596:2.0 
1.0 48:1.0 109:1.0 234:1.0 278:2.0 399:2.0 
1.0 
0.6309368311507146 94:2.0 176:2.0 289:2.0 384:2.0 532:2.0 
1.0 9:2.0 68:2.0 91:2.0 100:2.0 215:2.0 282:2.0 302:2.0 404:2.0 545:2.0 560:2.0 604:2.0 644:2.0 
1.0 97:2.0 219:2.0 369:2.0 371:2.0 401:2.0 
1.0 
1.0 41:2.0 109:2.0 117:2.0 145:2.0 158:2.0 169:2.0 171:2.0 178:2.0 237:2.0 240:2.0 298:2.0 457:2.0 477:2.0 515:2.0 534:2.0 640:2.0 
1.0 164:2.0 241:2.0 243:2.0 478:2.0 
1.0 54:2.0 71:2.0 404:4.0 519:2.0 534:2.0 599:2.0 
1.0 457:2.0 628:2.0 
1.0 41:2.0 45:4.0 48:1.0 
1.0 2:2.0 41:2.0 45:2.0 70:2.0 71:2.0 
1.0 628:2.0 
1.0 
1.0 2:2.0 48:2.0 186:2.0 247:2.0 384:4.0 417:2.0 493:2.0 654:2.0 
1.0 421:2.0 457:2.0 636:2.0 
1.0 342:2.0 637:2.0 
1.0 
0.8016165052365285 71:2.0 282:2.0 291:2.0 479:2.0 662:2.0 
1.0 323:2.0 404:2.0 445:2.0 634:2.0 662:1.0 
1.0 71:2.0 100:2.0 109:2.0 261:2.0 267:2.0 317:2.0 404:2.0 
1.0 71:2.0 100:2.0 292:2.0 404:4.0 555:2.0 648:2.0 
1.0 265:2.0 
1.0 138:2.0 158:2.0 235:2.0 241:2.0 262:2.0 384:2.0 468:2.0 537:2.0 563:2.0 610:2.0 648:2.0 
1.0 71:2.0 
1.0 68:2.0 109:2.0 404:2.0 
1.0 357:2.0 376:2.0 
1.0 237:2.0 285:2.0 599:2.0 
1.0 97:2.0 156:2.0 628:2.0 
1.0 241:2.0 278:2.0 572:2.0 610:2.0 635:2.0 
1.0 71:2.0 165:2.0 193:2.0 
1.0 14:2.0 33:2.0 41:8.0 42:10.0 43:10.0 45:18.0 214:4.0 294:2.0 304:2.0 306:2.0 338:4.0 342:2.0 398:2.0 401:2.0 406:2.0 458:2.0 498:4.0 579:2.0 616:4.0 623:2.0 665:4.0 
1.0 69:4.0 
1.0 
1.0 48:2.0 71:4.0 113:2.0 169:2.0 292:2.0 327:2.0 406:2.0 458:4.0 582:4.0 635:2.0 637:2.0 
1.0 164:2.0 278:2.0 404:1.0 427:1.0 641:2.0 642:2.0 
1.0 24:2.0 369:2.0 404:2.0 405:2.0 506:2.0 548:2.0 557:2.0 648:2.0 
1.0 41:2.0 42:2.0 43:6.0 45:16.0 60:8.0 64:2.0 102:2.0 124:2.0 148:4.0 172:2.0 262:2.0 293:2.0 535:2.0 578:2.0 579:8.0 619:2.0 628:2.0 
1.0 17:2.0 71:2.0 134:2.0 172:2.0 
1.0 45:2.0 87:2.0 202:2.0 445:2.0 498:2.0 508:2.0 555:2.0 
1.0 2:2.0 6:2.0 70:2.0 71:2.0 137:2.0 139:2.0 178:2.0 202:2.0 278:2.0 333:2.0 374:2.0 384:2.0 402:2.0 404:4.0 540:2.0 
1.0 
1.0 
1.0 250:2.0 500:2.0 
1.0 57:2.0 
1.0 193:1.0 278:2.0 357:1.0 376:2.0 537:2.0 546:2.0 
1.0 43:2.0 45:2.0 404:2.0 589:2.0 
1.0 2:4.0 12:2.0 41:8.0 43:4.0 45:10.0 133:2.0 183:2.0 202:2.0 208:1.0 247:6.0 249:2.0 250:6.0 290:2.0 406:4.0 421:2.0 457:2.0 465:2.0 480:2.0 507:2.0 530:2.0 550:2.0 564:2.0 579:2.0 586:2.0 620:2.0 649:2.0 
1.0 
1.0 29:2.0 42:2.0 43:2.0 68:2.0 248:2.0 357:2.0 375:2.0 380:2.0 404:1.0 435:1.0 
1.0 12:2.0 226:2.0 237:2.0 294:4.0 596:2.0 
1.0 226:2.0 376:2.0 543:2.0 628:2.0 633:2.0 
1.0 113:2.0 344:2.0 
0.9687977936779351 46:2.0 54:2.0 70:1.0 222:2.0 226:2.0 235:2.0 241:2.0 445:4.0 455:2.0 457:4.0 458:2.0 537:2.0 549:1.0 592:2.0 639:2.0 
1.0 17:6.0 275:6.0 
1.0 376:2.0 599:2.0 
1.0 239:2.0 477:2.0 557:2.0 
1.0 41:2.0 43:4.0 45:6.0 71:2.0 117:2.0 232:2.0 292:2.0 295:2.0 401:2.0 404:1.0 407:2.0 427:1.0 445:2.0 455:2.0 575:2.0 579:4.0 595:2.0 610:2.0 633:2.0 
1.0 17:2.0 113:2.0 
1.0 71:2.0 165:2.0 193:2.0 292:2.0 458:2.0 
1.0 14:2.0 162:1.0 308:2.0 319:2.0 404:3.0 519:1.0 545:2.0 547:2.0 635:2.0 
1.0 12:2.0 109:2.0 178:2.0 478:2.0 557:2.0 592:2.0 
1.0 265:2.0 
1.0 381:2.0 404:2.0 
1.0 
1.0 45:2.0 108:2.0 111:2.0 151:2.0 192:12.0 230:2.0 256:2.0 555:2.0 
1.0 2:2.0 42:4.0 45:2.0 71:2.0 117:2.0 135:2.0 262:2.0 324:2.0 337:2.0 376:2.0 401:2.0 404:2.0 465:2.0 537:2.0 538:2.0 541:2.0 648:1.0 
1.0 54:2.0 70:4.0 176:2.0 205:4.0 293:2.0 379:2.0 404:2.0 499:2.0 537:2.0 596:2.0 640:1.0 
1.0 71:2.0 
0.8512306170105028 12:2.0 97:2.0 202:2.0 265:2.0 302:2.0 342:2.0 349:2.0 357:2.0 499:2.0 507:1.0 508:1.0 555:2.0 
1.0 68:2.0 115:2.0 140:2.0 153:2.0 214:6.0 278:2.0 304:2.0 306:4.0 317:2.0 330:4.0 357:2.0 401:2.0 441:2.0 487:2.0 507:2.0 537:2.0 572:2.0 610:2.0 623:4.0 670:2.0 
1.0 3:2.0 41:2.0 42:2.0 43:4.0 54:2.0 57:2.0 117:2.0 198:2.0 241:2.0 306:2.0 322:2.0 357:2.0 401:4.0 461:2.0 534:2.0 537:2.0 
1.0 17:2.0 41:2.0 42:2.0 43:2.0 71:2.0 124:2.0 278:2.0 280:2.0 294:4.0 295:2.0 306:2.0 308:2.0 384:2.0 401:2.0 404:2.0 477:2.0 502:2.0 507:2.0 636:2.0 639:2.0 
1.0 55:2.0 71:2.0 109:2.0 172:2.0 186:4.0 219:2.0 237:2.0 278:2.0 280:2.0 336:2.0 371:2.0 404:4.0 406:2.0 507:2.0 555:2.0 614:2.0 
1.0 2:2.0 12:2.0 42:8.0 43:2.0 45:4.0 50:2.0 124:2.0 276:6.0 306:2.0 357:2.0 401:2.0 417:2.0 441:2.0 498:2.0 555:2.0 572:8.0 579:2.0 640:1.0 661:1.0 
0.9733134759473365 2:20.0 7:2.0 12:4.0 24:2.0 26:2.0 37:2.0 48:1.0 58:2.0 64:2.0 70:2.0 71:6.0 77:2.0 94:2.0 102:6.0 111:2.0 124:2.0 138:2.0 140:4.0 146:2.0 148:2.0 149:4.0 172:2.0 176:2.0 178:4.0 186:6.0 190:2.0 191:2.0 192:2.0 208:2.0 214:2.0 226:2.0 228:4.0 233:2.0 237:2.0 241:30.0 257:2.0 261:1.0 271:2.0 278:14.0 285:16.0 292:12.0 294:2.0 304:2.0 314:2.0 330:8.0 357:6.0 366:16.0 377:2.0 384:2.0 404:3.0 406:2.0 407:2.0 435:1.0 438:2.0 445:2.0 458:4.0 462:2.0 463:4.0 475:2.0 502:2.0 508:4.0 509:6.0 537:6.0 538:2.0 543:4.0 548:2.0 557:2.0 570:2.0 572:2.0 586:2.0 595:2.0 598:2.0 599:14.0 601:2.0 603:2.0 614:2.0 619:2.0 622:4.0 630:2.0 636:2.0 648:1.0 668:2.0 670:2.0 
1.0 144:2.0 445:2.0 488:2.0 630:2.0 
1.0 17:2.0 41:2.0 42:2.0 43:2.0 51:2.0 71:2.0 109:2.0 241:2.0 294:2.0 295:2.0 361:2.0 404:2.0 488:2.0 519:2.0 537:2.0 639:2.0 
1.0 
1.0 99:2.0 
1.0 17:2.0 235:2.0 404:2.0 637:2.0 
1.0 92:2.0 294:2.0 404:2.0 637:2.0 
1.0 2:2.0 42:2.0 43:4.0 45:4.0 71:2.0 94:2.0 
1.0 24:2.0 71:2.0 97:2.0 156:2.0 
1.0 71:2.0 292:2.0 375:2.0 404:2.0 458:2.0 
1.0 
1.0 
1.0 45:4.0 71:2.0 259:2.0 404:2.0 
0.6799271359148853 12:2.0 43:6.0 117:2.0 193:2.0 330:2.0 355:2.0 537:2.0 555:2.0 572:2.0 589:2.0 
1.0 42:2.0 43:4.0 100:2.0 278:2.0 280:2.0 292:2.0 294:2.0 295:2.0 308:2.0 445:2.0 457:4.0 488:2.0 507:2.0 537:2.0 555:2.0 628:2.0 
1.0 2:2.0 24:2.0 45:2.0 94:2.0 100:2.0 109:2.0 112:2.0 137:2.0 244:2.0 298:2.0 371:4.0 404:1.0 427:1.0 445:2.0 557:2.0 596:4.0 
1.0 17:2.0 109:2.0 
1.0 141:2.0 342:2.0 
1.0 
1.0 71:4.0 113:2.0 158:2.0 404:2.0 477:2.0 500:2.0 530:2.0 610:2.0 
1.0 
1.0 178:2.0 235:2.0 497:2.0 539:2.0 555:2.0 592:2.0 641:2.0 
1.0 14:2.0 75:2.0 102:2.0 237:2.0 391:1.0 404:2.0 474:2.0 498:4.0 543:2.0 596:2.0 616:2.0 619:2.0 
1.0 41:2.0 43:4.0 45:6.0 109:2.0 357:2.0 438:2.0 441:2.0 463:2.0 477:2.0 579:2.0 589:2.0 665:2.0 
1.0 69:2.0 71:2.0 458:2.0 
1.0 
1.0 12:2.0 71:2.0 124:1.0 232:1.0 294:4.0 
1.0 14:2.0 193:2.0 545:2.0 
1.0 2:2.0 12:4.0 24:4.0 33:2.0 41:10.0 42:4.0 43:40.0 45:24.0 46:2.0 48:5.0 54:2.0 57:2.0 70:4.0 71:5.0 83:2.0 86:2.0 93:1.0 98:2.0 102:2.0 109:21.0 113:18.0 130:1.0 141:2.0 145:2.0 158:4.0 166:6.0 170:2.0 176:2.0 178:2.0 182:2.0 194:2.0 198:6.0 208:10.0 214:2.0 228:1.0 232:2.0 234:3.0 278:1.0 292:2.0 294:2.0 304:2.0 306:1.0 322:4.0 357:5.0 364:2.0 384:2.0 401:4.0 404:6.0 407:2.0 420:2.0 438:2.0 445:4.0 458:7.0 476:2.0 477:2.0 496:2.0 499:2.0 543:2.0 545:2.0 551:2.0 555:6.0 557:8.0 572:8.0 599:2.0 601:2.0 628:2.0 630:4.0 633:2.0 637:2.0 640:2.0 641:2.0 662:2.0 
1.0 
1.0 
1.0 
1.0 
0.08180365531899193 7:2.0 42:2.0 43:2.0 45:2.0 49:2.0 71:4.0 102:2.0 153:2.0 230:2.0 278:2.0 436:2.0 458:2.0 480:2.0 566:2.0 579:2.0 
1.0 97:2.0 100:4.0 109:2.0 139:2.0 158:2.0 228:1.0 262:2.0 295:2.0 298:2.0 304:2.0 555:2.0 
1.0 164:2.0 468:2.0 
1.0 64:2.0 71:2.0 265:2.0 445:2.0 478:2.0 557:2.0 592:2.0 
1.0 97:2.0 237:2.0 376:2.0 404:2.0 637:2.0 
1.0 
1.0 421:2.0 457:2.0 
1.0 278:2.0 287:2.0 535:2.0 543:2.0 610:2.0 
1.0 176:2.0 306:2.0 
1.0 45:6.0 109:2.0 241:4.0 445:2.0 457:2.0 477:2.0 589:2.0 635:2.0 
1.0 42:2.0 54:2.0 134:2.0 266:2.0 293:2.0 401:2.0 469:2.0 477:2.0 
1.0 33:2.0 71:2.0 238:2.0 306:2.0 404:2.0 
1.0 70:2.0 71:2.0 404:2.0 
1.0 
1.0 327:2.0 357:2.0 458:2.0 
1.0 265:2.0 
1.0 24:2.0 
1.0 2:4.0 24:2.0 97:2.0 
1.0 241:2.0 282:2.0 404:4.0 537:2.0 555:2.0 
1.0 
1.0 71:4.0 337:2.0 364:2.0 404:2.0 537:2.0 575:2.0 604:2.0 
1.0 2:2.0 133:2.0 204:2.0 230:2.0 249:2.0 337:2.0 404:2.0 455:2.0 525:2.0 641:2.0 667:2.0 
1.0 14:2.0 25:2.0 100:4.0 109:4.0 250:2.0 265:2.0 401:2.0 572:4.0 
1.0 2:2.0 94:2.0 183:2.0 278:2.0 283:2.0 384:2.0 491:2.0 596:2.0 
1.0 165:2.0 193:2.0 
1.0 178:2.0 468:2.0 563:2.0 
1.0 60:2.0 
1.0 
1.0 42:4.0 43:6.0 45:12.0 71:2.0 147:2.0 285:2.0 368:2.0 380:2.0 572:2.0 
1.0 270:4.0 599:2.0 
1.0 14:2.0 376:2.0 619:2.0 
1.0 
1.0 2:2.0 240:2.0 403:2.0 
1.0 71:2.0 404:2.0 498:2.0 
1.0 71:2.0 111:2.0 275:2.0 404:2.0 
1.0 362:2.0 
0.9133574723308192 71:58.0 
1.0 2:2.0 636:2.0 
1.0 45:8.0 109:2.0 158:2.0 
1.0 2:2.0 84:2.0 144:2.0 205:4.0 292:2.0 404:2.0 543:2.0 548:2.0 606:2.0 630:2.0 
1.0 71:2.0 
0.9318004248218337 555:60.0 
1.0 2:8.0 42:2.0 45:4.0 70:2.0 71:2.0 97:4.0 111:2.0 117:2.0 136:2.0 204:2.0 263:2.0 268:2.0 338:2.0 342:8.0 404:8.0 455:2.0 530:2.0 531:2.0 555:2.0 580:2.0 619:2.0 626:6.0 633:2.0 668:4.0 
1.0 198:2.0 404:2.0 
1.0 0:2.0 2:4.0 17:2.0 24:6.0 31:2.0 42:16.0 43:20.0 45:60.0 48:1.0 53:2.0 55:6.0 59:4.0 65:2.0 68:2.0 70:2.0 71:8.0 73:2.0 79:2.0 81:4.0 83:10.0 84:2.0 99:2.0 100:2.0 102:2.0 109:8.0 114:2.0 117:2.0 121:2.0 124:2.0 127:2.0 138:4.0 139:2.0 141:2.0 146:2.0 148:2.0 149:8.0 153:1.0 158:6.0 160:2.0 182:4.0 185:2.0 237:2.0 241:4.0 261:3.0 278:2.0 292:2.0 306:2.0 322:2.0 347:2.0 349:2.0 352:2.0 357:2.0 366:4.0 381:2.0 384:2.0 393:2.0 394:2.0 397:4.0 399:2.0 401:2.0 404:25.0 406:4.0 409:2.0 410:2.0 421:4.0 427:5.0 433:2.0 435:1.0 438:2.0 441:4.0 450:2.0 458:20.0 466:2.0 467:2.0 478:4.0 488:2.0 502:2.0 507:6.0 528:2.0 530:2.0 537:26.0 543:2.0 547:2.0 553:2.0 555:6.0 561:2.0 562:2.0 563:2.0 572:8.0 579:2.0 595:4.0 596:4.0 598:2.0 599:2.0 600:1.0 610:2.0 623:2.0 628:2.0 643:2.0 645:2.0 648:2.0 649:2.0 656:8.0 665:2.0 667:2.0 
1.0 48:1.0 357:1.0 404:4.0 553:2.0 637:1.0 
1.0 125:2.0 138:2.0 158:2.0 241:2.0 349:2.0 366:2.0 394:2.0 404:3.0 417:1.0 457:2.0 631:2.0 637:2.0 
1.0 42:2.0 43:4.0 45:8.0 55:2.0 79:2.0 92:2.0 141:2.0 166:2.0 186:2.0 357:2.0 399:2.0 404:4.0 421:2.0 519:2.0 599:2.0 623:2.0 665:2.0 
1.0 41:6.0 45:6.0 64:6.0 70:2.0 71:2.0 192:2.0 265:2.0 322:2.0 399:2.0 404:3.0 427:1.0 637:2.0 
1.0 14:2.0 219:2.0 304:2.0 380:2.0 
1.0 428:2.0 538:2.0 
1.0 71:2.0 100:2.0 153:2.0 220:2.0 292:2.0 342:2.0 631:2.0 
1.0 0:4.0 2:8.0 12:2.0 16:2.0 17:2.0 41:30.0 42:24.0 43:28.0 44:4.0 45:40.0 48:2.0 55:12.0 64:2.0 68:4.0 69:8.0 70:6.0 71:6.0 73:4.0 79:4.0 81:2.0 100:2.0 101:2.0 117:8.0 124:6.0 131:2.0 138:2.0 139:2.0 141:4.0 146:2.0 149:2.0 159:2.0 181:2.0 186:2.0 187:2.0 202:6.0 204:4.0 207:4.0 208:2.0 228:4.0 241:2.0 249:2.0 265:2.0 278:7.0 285:4.0 294:3.0 296:4.0 304:2.0 306:4.0 308:2.0 322:2.0 326:2.0 340:4.0 357:6.0 366:18.0 371:2.0 376:2.0 380:4.0 396:1.0 401:4.0 402:2.0 404:7.0 406:6.0 407:2.0 421:6.0 458:3.0 466:2.0 471:2.0 477:2.0 488:2.0 496:2.0 498:2.0 506:1.0 532:4.0 537:14.0 539:2.0 555:4.0 572:16.0 589:4.0 595:4.0 596:2.0 597:2.0 609:2.0 610:6.0 619:6.0 620:2.0 623:2.0 640:2.0 658:2.0 
0.2963973751321574 2:12.0 12:2.0 16:2.0 17:2.0 24:2.0 26:2.0 31:2.0 41:4.0 42:6.0 43:6.0 45:6.0 48:2.0 64:4.0 70:2.0 71:8.0 75:2.0 80:2.0 83:2.0 94:2.0 100:2.0 109:4.0 153:2.0 178:8.0 191:2.0 202:2.0 218:2.0 241:3.0 244:2.0 278:4.0 282:2.0 283:6.0 285:4.0 292:2.0 298:2.0 305:2.0 309:2.0 315:2.0 357:4.0 366:2.0 369:2.0 397:2.0 404:3.0 406:2.0 407:2.0 427:1.0 429:2.0 445:2.0 450:2.0 465:2.0 467:2.0 496:2.0 524:2.0 538:2.0 555:2.0 557:2.0 572:4.0 595:2.0 596:6.0 599:10.0 619:2.0 637:2.0 641:4.0 
1.0 42:2.0 45:2.0 68:4.0 70:2.0 71:2.0 102:2.0 109:4.0 117:2.0 121:2.0 139:1.0 176:2.0 178:2.0 241:2.0 261:2.0 292:2.0 295:2.0 357:2.0 364:2.0 394:2.0 404:2.0 406:1.0 458:2.0 496:2.0 557:2.0 572:2.0 610:2.0 640:2.0 
1.0 41:4.0 42:2.0 45:2.0 53:2.0 100:2.0 117:2.0 141:2.0 202:2.0 208:2.0 251:2.0 262:2.0 278:1.0 291:2.0 309:2.0 367:2.0 401:2.0 404:2.0 406:2.0 458:1.0 528:2.0 535:2.0 555:2.0 557:6.0 572:2.0 614:2.0 633:2.0 665:2.0 
1.0 41:4.0 42:16.0 43:4.0 45:8.0 
1.0 43:2.0 45:2.0 91:1.0 99:1.0 109:1.0 172:2.0 234:1.0 287:2.0 402:2.0 404:2.0 589:4.0 637:2.0 640:1.0 
1.0 2:2.0 26:2.0 68:2.0 73:2.0 226:2.0 241:4.0 285:2.0 477:2.0 578:4.0 599:2.0 
1.0 371:2.0 445:2.0 513:2.0 
1.0 12:2.0 33:2.0 42:2.0 43:6.0 70:2.0 172:4.0 265:2.0 278:2.0 304:2.0 317:4.0 357:2.0 385:4.0 401:2.0 404:2.0 406:2.0 441:2.0 458:2.0 507:1.0 537:2.0 623:2.0 
1.0 12:2.0 404:2.0 
1.0 191:2.0 265:2.0 
1.0 12:2.0 100:4.0 238:2.0 319:2.0 330:2.0 342:4.0 384:2.0 400:2.0 404:2.0 427:2.0 477:4.0 480:4.0 555:4.0 596:2.0 
1.0 42:2.0 43:2.0 45:2.0 109:1.0 138:2.0 234:1.0 235:1.0 384:2.0 455:2.0 561:1.0 628:2.0 640:1.0 
1.0 2:2.0 48:2.0 282:2.0 
1.0 225:2.0 295:2.0 404:2.0 
1.0 68:2.0 130:2.0 369:2.0 404:2.0 560:2.0 
1.0 
1.0 186:2.0 496:2.0 
1.0 7:2.0 42:2.0 45:10.0 60:2.0 71:2.0 100:2.0 102:2.0 130:2.0 137:4.0 190:2.0 236:2.0 292:4.0 306:2.0 308:2.0 401:6.0 407:2.0 441:2.0 458:2.0 477:2.0 537:2.0 596:2.0 
1.0 45:2.0 
1.0 92:2.0 109:2.0 112:2.0 384:2.0 404:2.0 424:2.0 477:2.0 537:2.0 572:2.0 
1.0 
1.0 71:2.0 172:2.0 614:2.0 
1.0 2:5.0 14:2.0 24:2.0 32:2.0 42:2.0 56:2.0 68:2.0 71:2.0 102:2.0 117:4.0 139:2.0 195:2.0 207:2.0 218:2.0 222:2.0 244:2.0 384:2.0 404:2.0 465:2.0 543:2.0 602:2.0 
1.0 3:2.0 14:2.0 43:2.0 45:8.0 55:2.0 60:2.0 132:2.0 327:2.0 376:2.0 404:2.0 530:4.0 557:2.0 602:2.0 
1.0 2:2.0 265:2.0 404:2.0 550:2.0 
1.0 165:2.0 193:2.0 417:2.0 508:2.0 529:2.0 530:2.0 610:2.0 649:2.0 
1.0 71:4.0 83:2.0 142:4.0 278:2.0 292:2.0 404:2.0 498:2.0 641:2.0 
1.0 71:2.0 261:2.0 270:4.0 
1.0 2:1.0 71:2.0 404:2.0 598:2.0 
1.0 102:2.0 
1.0 
1.0 71:2.0 
1.0 32:2.0 42:2.0 43:2.0 45:4.0 142:4.0 158:4.0 244:4.0 283:2.0 404:2.0 458:2.0 477:2.0 537:2.0 557:2.0 589:2.0 628:2.0 
1.0 2:2.0 57:2.0 71:2.0 292:2.0 458:2.0 637:2.0 
1.0 182:2.0 496:2.0 
1.0 14:2.0 71:2.0 212:1.0 663:1.0 
1.0 48:2.0 54:2.0 70:2.0 71:2.0 94:2.0 97:2.0 108:2.0 176:2.0 404:2.0 538:2.0 
1.0 48:1.0 241:2.0 262:2.0 278:4.0 308:2.0 313:2.0 356:1.0 404:3.0 596:5.0 598:1.0 659:1.0 660:2.0 
1.0 16:2.0 71:2.0 458:2.0 
1.0 42:2.0 141:2.0 158:2.0 169:4.0 306:2.0 458:4.0 582:2.0 637:2.0 667:2.0 
1.0 
1.0 2:2.0 57:2.0 208:1.0 
1.0 41:4.0 43:2.0 45:6.0 71:2.0 109:2.0 478:2.0 
0.14278541419620788 16:2.0 31:2.0 43:2.0 44:4.0 45:2.0 71:2.0 109:5.0 137:2.0 165:2.0 191:2.0 193:4.0 209:2.0 234:1.0 270:4.0 292:2.0 404:2.0 458:2.0 530:2.0 572:2.0 627:2.0 640:1.0 641:2.0 665:2.0 
1.0 
1.0 69:2.0 
1.0 52:2.0 278:2.0 
1.0 69:2.0 
1.0 55:2.0 144:2.0 423:2.0 534:2.0 564:2.0 586:2.0 630:2.0 
0.4673443361458936 2:2.0 42:2.0 71:2.0 124:2.0 176:2.0 193:2.0 293:2.0 404:2.0 407:2.0 411:2.0 595:2.0 
1.0 2:2.0 9:2.0 12:2.0 37:2.0 71:2.0 146:2.0 241:2.0 293:2.0 354:2.0 404:4.0 407:2.0 474:2.0 614:2.0 
1.0 71:2.0 292:2.0 640:2.0 
1.0 33:2.0 172:2.0 306:2.0 437:2.0 455:4.0 665:2.0 
1.0 54:2.0 102:2.0 219:2.0 
1.0 68:2.0 109:2.0 124:1.0 351:2.0 401:2.0 465:2.0 627:4.0 
1.0 2:2.0 41:2.0 45:2.0 53:2.0 91:1.0 99:1.0 102:2.0 109:2.0 173:2.0 218:2.0 278:2.0 342:2.0 467:2.0 535:4.0 610:2.0 
1.0 37:2.0 102:2.0 205:2.0 208:2.0 380:2.0 441:2.0 507:2.0 572:2.0 599:2.0 619:2.0 629:2.0 646:4.0 
1.0 43:2.0 45:6.0 186:2.0 214:2.0 257:2.0 327:2.0 465:2.0 
1.0 41:2.0 42:4.0 43:2.0 45:8.0 68:2.0 71:6.0 115:2.0 141:2.0 242:2.0 384:2.0 445:2.0 
1.0 71:2.0 
1.0 
1.0 42:2.0 70:2.0 71:2.0 94:2.0 98:2.0 124:2.0 133:4.0 183:2.0 202:2.0 207:2.0 241:2.0 263:2.0 277:2.0 319:2.0 374:2.0 384:2.0 404:2.0 465:6.0 517:4.0 560:2.0 591:2.0 614:2.0 628:2.0 
1.0 158:2.0 506:2.0 
1.0 42:2.0 43:2.0 137:2.0 207:2.0 384:2.0 401:2.0 404:2.0 501:2.0 
1.0 43:2.0 45:4.0 71:6.0 72:2.0 431:2.0 641:2.0 
1.0 369:2.0 
1.0 71:2.0 438:2.0 572:2.0 
1.0 71:2.0 
1.0 43:2.0 45:4.0 71:2.0 292:2.0 458:2.0 465:2.0 643:2.0 
1.0 24:2.0 70:2.0 71:2.0 98:2.0 109:2.0 176:2.0 278:2.0 306:2.0 357:2.0 397:2.0 404:3.0 435:1.0 594:4.0 610:2.0 628:2.0 633:2.0 
1.0 241:2.0 406:2.0 
1.0 2:2.0 71:1.0 97:2.0 135:2.0 241:2.0 306:2.0 401:2.0 402:2.0 404:2.0 595:6.0 
1.0 124:2.0 141:2.0 425:2.0 483:2.0 570:1.0 
1.0 12:2.0 109:2.0 243:2.0 323:2.0 515:2.0 537:2.0 592:2.0 634:2.0 
1.0 137:2.0 226:2.0 
1.0 250:2.0 292:2.0 308:2.0 357:2.0 458:2.0 
1.0 41:2.0 42:6.0 45:4.0 124:4.0 619:2.0 
1.0 42:2.0 43:2.0 45:4.0 158:2.0 247:2.0 393:2.0 477:4.0 618:2.0 
1.0 
1.0 
1.0 192:2.0 278:2.0 397:2.0 
1.0 375:2.0 
1.0 
1.0 79:2.0 298:2.0 
1.0 43:2.0 250:2.0 265:2.0 293:2.0 304:2.0 404:2.0 543:2.0 546:2.0 628:2.0 
1.0 108:2.0 216:2.0 308:2.0 458:2.0 620:2.0 
1.0 241:2.0 
1.0 204:2.0 417:2.0 666:2.0 667:2.0 
1.0 17:2.0 41:2.0 42:2.0 43:2.0 97:2.0 109:2.0 186:2.0 308:2.0 384:2.0 404:2.0 529:2.0 596:2.0 637:2.0 
1.0 71:2.0 100:2.0 109:2.0 371:2.0 519:2.0 
1.0 31:2.0 71:2.0 237:2.0 309:2.0 513:2.0 537:2.0 592:2.0 
1.0 2:4.0 41:2.0 43:4.0 45:4.0 71:2.0 202:2.0 306:2.0 308:4.0 404:2.0 465:2.0 557:2.0 592:2.0 594:2.0 
1.0 172:2.0 385:2.0 401:2.0 
1.0 2:2.0 56:2.0 172:2.0 207:2.0 220:2.0 241:2.0 313:2.0 
1.0 117:2.0 192:2.0 193:2.0 530:4.0 
1.0 15:2.0 71:2.0 97:2.0 158:2.0 176:2.0 186:2.0 241:6.0 261:2.0 292:2.0 351:2.0 376:2.0 404:2.0 440:2.0 445:2.0 480:2.0 568:2.0 657:2.0 
1.0 
1.0 49:2.0 53:4.0 183:2.0 237:2.0 241:2.0 263:2.0 277:1.0 278:2.0 287:2.0 404:4.0 530:2.0 535:2.0 641:2.0 
1.0 106:2.0 142:2.0 261:2.0 270:4.0 306:2.0 404:1.0 427:1.0 478:2.0 628:2.0 
1.0 
1.0 48:2.0 71:4.0 91:1.0 99:1.0 100:2.0 109:1.0 176:2.0 234:1.0 237:2.0 640:1.0 641:2.0 
1.0 69:2.0 
1.0 182:2.0 496:2.0 
1.0 
1.0 631:2.0 
1.0 109:2.0 278:2.0 
1.0 249:2.0 455:2.0 493:2.0 550:2.0 578:1.0 
1.0 308:1.0 397:2.0 404:1.0 489:2.0 505:1.0 619:2.0 
1.0 151:2.0 218:2.0 256:2.0 278:2.0 582:2.0 619:2.0 622:2.0 
1.0 355:2.0 530:2.0 589:2.0 
1.0 
1.0 2:2.0 142:2.0 572:2.0 628:2.0 
1.0 13:2.0 24:2.0 71:4.0 202:2.0 237:2.0 278:2.0 
1.0 133:2.0 158:2.0 292:2.0 404:1.0 427:1.0 458:2.0 579:2.0 
1.0 69:4.0 
1.0 530:2.0 580:2.0 
1.0 84:2.0 241:2.0 308:2.0 313:2.0 529:2.0 
1.0 
1.0 614:2.0 
1.0 
1.0 
1.0 43:4.0 45:4.0 70:2.0 109:3.0 124:2.0 234:1.0 235:2.0 241:2.0 278:6.0 357:2.0 404:2.0 543:2.0 572:8.0 601:2.0 614:2.0 628:2.0 640:1.0 
1.0 41:2.0 45:2.0 48:1.0 71:2.0 109:1.0 234:1.0 280:2.0 306:2.0 507:2.0 602:2.0 
1.0 71:2.0 
1.0 12:2.0 43:2.0 117:2.0 247:2.0 249:2.0 477:2.0 599:2.0 608:2.0 
1.0 1:2.0 41:2.0 43:2.0 308:2.0 357:1.0 404:2.0 406:2.0 477:2.0 537:2.0 579:2.0 640:2.0 
1.0 71:2.0 401:2.0 404:2.0 468:2.0 477:2.0 537:2.0 
1.0 41:2.0 45:6.0 70:2.0 109:2.0 124:2.0 171:2.0 241:2.0 313:2.0 477:2.0 502:2.0 557:2.0 635:2.0 
1.0 71:2.0 102:2.0 295:2.0 404:2.0 406:2.0 
1.0 182:2.0 
1.0 42:2.0 45:4.0 117:2.0 138:2.0 158:2.0 235:2.0 247:2.0 308:1.0 404:1.0 472:2.0 505:1.0 555:2.0 599:2.0 633:2.0 
1.0 
1.0 468:2.0 602:2.0 
1.0 41:2.0 43:2.0 71:4.0 192:2.0 275:2.0 376:2.0 496:4.0 
1.0 
1.0 3:2.0 138:2.0 158:2.0 405:2.0 458:2.0 
1.0 71:4.0 130:1.0 278:2.0 292:2.0 572:2.0 
1.0 71:2.0 398:2.0 
1.0 71:4.0 169:2.0 292:2.0 404:2.0 437:2.0 610:2.0 
1.0 113:2.0 160:2.0 557:2.0 
1.0 
1.0 71:2.0 140:2.0 219:2.0 244:2.0 404:2.0 458:2.0 572:2.0 620:2.0 648:4.0 
1.0 
1.0 
1.0 41:6.0 42:6.0 43:4.0 45:6.0 111:2.0 130:1.0 148:2.0 169:2.0 171:2.0 193:2.0 270:8.0 357:1.0 404:6.0 550:2.0 572:2.0 
1.0 270:4.0 404:2.0 
1.0 24:2.0 550:2.0 
1.0 68:2.0 138:2.0 241:2.0 262:2.0 349:2.0 404:2.0 538:2.0 550:2.0 557:2.0 
1.0 2:2.0 100:2.0 111:2.0 172:2.0 234:1.0 247:2.0 278:1.0 292:2.0 458:1.0 637:2.0 
1.0 375:2.0 404:1.0 463:2.0 550:2.0 
1.0 2:2.0 56:2.0 68:2.0 87:2.0 141:2.0 230:2.0 367:2.0 527:2.0 596:2.0 619:2.0 
1.0 42:2.0 71:2.0 109:2.0 158:2.0 192:30.0 572:2.0 
1.0 294:2.0 458:2.0 555:2.0 
1.0 2:2.0 7:2.0 71:1.0 81:2.0 124:2.0 140:2.0 278:2.0 292:2.0 385:2.0 539:2.0 633:2.0 
0.9330987484368422 14:2.0 94:2.0 102:2.0 261:2.0 306:4.0 327:2.0 357:2.0 550:2.0 601:4.0 
1.0 41:2.0 42:2.0 45:4.0 278:4.0 294:2.0 355:2.0 357:2.0 465:2.0 537:2.0 545:2.0 637:2.0 
1.0 566:2.0 
1.0 
1.0 42:2.0 45:4.0 71:2.0 97:2.0 192:2.0 317:2.0 357:2.0 401:2.0 404:2.0 458:2.0 509:2.0 527:2.0 631:2.0 670:2.0 
0.8195817593601881 45:4.0 71:2.0 102:2.0 241:2.0 349:2.0 529:2.0 602:2.0 
1.0 1:2.0 2:2.0 42:2.0 45:4.0 48:1.0 71:2.0 109:1.0 124:2.0 202:2.0 234:1.0 278:2.0 405:2.0 
1.0 182:2.0 278:2.0 292:2.0 
1.0 
1.0 2:2.0 14:2.0 71:2.0 109:2.0 148:2.0 186:2.0 193:2.0 245:2.0 278:4.0 384:2.0 404:2.0 488:2.0 544:2.0 557:4.0 591:2.0 596:2.0 607:2.0 637:2.0 655:2.0 670:2.0 
1.0 43:2.0 59:2.0 60:6.0 69:4.0 
0.35343670309558467 43:2.0 45:4.0 60:2.0 68:2.0 109:2.0 117:2.0 477:2.0 596:2.0 599:4.0 615:2.0 
1.0 109:2.0 158:2.0 404:2.0 
1.0 164:2.0 529:2.0 
1.0 71:2.0 530:2.0 
1.0 241:2.0 404:2.0 
1.0 2:2.0 631:2.0 
1.0 12:2.0 33:6.0 42:2.0 43:2.0 55:2.0 86:2.0 95:1.0 109:3.0 114:2.0 117:2.0 121:2.0 124:4.0 153:2.0 176:2.0 234:1.0 237:4.0 241:4.0 267:4.0 278:4.0 283:2.0 295:2.0 304:2.0 314:2.0 325:2.0 371:2.0 391:1.0 402:2.0 404:5.0 431:2.0 455:2.0 459:1.0 461:2.0 477:2.0 498:2.0 515:2.0 519:2.0 530:2.0 538:2.0 581:2.0 586:2.0 612:2.0 631:2.0 640:1.0 
1.0 43:4.0 198:2.0 239:1.0 404:2.0 458:2.0 530:2.0 545:2.0 600:2.0 
1.0 60:2.0 
1.0 41:2.0 43:6.0 45:4.0 97:2.0 117:2.0 128:2.0 129:2.0 192:2.0 261:1.0 325:2.0 357:2.0 397:2.0 404:6.0 470:2.0 485:2.0 520:1.0 537:2.0 572:4.0 596:1.0 610:2.0 640:1.0 
1.0 
1.0 2:2.0 91:1.0 99:1.0 283:2.0 302:2.0 642:2.0 659:2.0 
1.0 15:2.0 45:2.0 71:2.0 109:2.0 402:2.0 404:6.0 425:2.0 428:2.0 640:1.0 
1.0 
1.0 
1.0 17:2.0 33:2.0 109:2.0 369:2.0 465:2.0 
1.0 284:2.0 619:2.0 631:2.0 
1.0 424:2.0 
1.0 14:2.0 545:2.0 
1.0 2:2.0 43:4.0 45:8.0 71:2.0 124:2.0 158:2.0 192:2.0 230:2.0 308:2.0 397:2.0 575:2.0 615:2.0 
1.0 42:2.0 60:2.0 69:2.0 
1.0 71:2.0 376:2.0 401:1.0 404:2.0 
1.0 48:1.0 51:2.0 79:2.0 109:1.0 158:2.0 234:1.0 404:4.0 477:2.0 535:2.0 537:2.0 
1.0 26:2.0 71:4.0 109:2.0 111:2.0 124:2.0 153:1.0 158:2.0 178:2.0 192:4.0 261:2.0 278:2.0 280:2.0 292:2.0 294:2.0 295:2.0 351:2.0 357:2.0 380:2.0 397:2.0 404:4.0 407:2.0 427:2.0 476:2.0 477:2.0 507:2.0 590:2.0 610:2.0 
1.0 124:4.0 378:1.0 477:2.0 557:2.0 596:2.0 
1.0 14:2.0 20:2.0 357:2.0 458:4.0 477:2.0 651:2.0 
1.0 20:2.0 176:2.0 
1.0 71:2.0 75:2.0 94:2.0 100:2.0 102:2.0 117:2.0 404:4.0 433:2.0 
1.0 20:2.0 241:2.0 330:4.0 342:2.0 631:2.0 
1.0 134:2.0 194:2.0 457:2.0 
1.0 2:1.0 48:1.0 71:2.0 100:2.0 137:2.0 241:2.0 261:2.0 278:2.0 292:2.0 294:1.0 295:2.0 301:2.0 384:2.0 397:2.0 404:2.0 458:2.0 491:2.0 506:1.0 555:4.0 557:2.0 642:2.0 
1.0 2:4.0 42:2.0 51:2.0 91:1.0 99:3.0 124:4.0 239:2.0 404:2.0 445:2.0 458:2.0 515:2.0 579:2.0 618:2.0 
1.0 
1.0 2:2.0 43:2.0 84:2.0 91:1.0 99:1.0 153:2.0 306:2.0 502:2.0 570:2.0 618:2.0 
1.0 369:2.0 438:2.0 
1.0 
1.0 24:2.0 158:2.0 557:2.0 589:2.0 
1.0 307:2.0 
1.0 295:2.0 313:2.0 458:2.0 637:4.0 
1.0 2:4.0 24:2.0 33:2.0 43:2.0 45:4.0 56:2.0 60:2.0 64:10.0 68:2.0 75:2.0 94:2.0 99:2.0 100:2.0 102:2.0 109:4.0 112:4.0 138:2.0 141:2.0 151:2.0 158:4.0 172:2.0 178:4.0 189:4.0 198:2.0 207:2.0 218:2.0 241:4.0 250:6.0 256:2.0 262:2.0 278:2.0 292:6.0 306:2.0 322:2.0 327:2.0 357:6.0 376:1.0 382:2.0 384:2.0 387:4.0 401:2.0 404:6.0 410:2.0 420:2.0 423:4.0 434:2.0 458:8.0 482:2.0 494:2.0 496:2.0 498:2.0 502:2.0 530:2.0 531:3.0 536:2.0 545:2.0 555:2.0 557:4.0 561:2.0 570:2.0 572:2.0 596:2.0 610:8.0 641:2.0 651:2.0 
1.0 2:2.0 17:2.0 71:2.0 102:2.0 117:2.0 250:2.0 261:4.0 304:2.0 401:2.0 407:2.0 458:2.0 463:2.0 595:2.0 633:2.0 
1.0 17:2.0 48:3.0 84:1.0 148:2.0 208:2.0 542:2.0 599:4.0 637:2.0 
1.0 17:4.0 42:8.0 43:6.0 45:6.0 71:2.0 369:2.0 384:2.0 404:4.0 445:2.0 513:2.0 555:2.0 572:4.0 
1.0 71:2.0 287:2.0 394:2.0 404:4.0 543:2.0 
1.0 139:2.0 278:2.0 292:2.0 327:2.0 357:4.0 404:2.0 471:2.0 
1.0 42:2.0 45:2.0 54:2.0 71:2.0 115:2.0 130:1.0 306:2.0 399:2.0 458:2.0 619:2.0 637:2.0 641:2.0 662:2.0 
1.0 71:2.0 404:4.0 532:2.0 
1.0 70:2.0 71:6.0 172:2.0 186:2.0 357:2.0 404:2.0 655:2.0 
1.0 42:2.0 43:4.0 45:2.0 71:2.0 265:2.0 376:2.0 458:1.0 572:4.0 579:2.0 633:2.0 665:2.0 670:2.0 
1.0 134:2.0 666:2.0 
1.0 215:2.0 304:2.0 
1.0 79:2.0 92:2.0 109:2.0 241:2.0 384:2.0 592:2.0 
1.0 33:2.0 43:2.0 45:4.0 50:2.0 168:2.0 193:2.0 537:2.0 572:2.0 579:4.0 
1.0 48:1.0 109:1.0 234:1.0 404:2.0 555:2.0 
1.0 330:2.0 398:2.0 614:2.0 
1.0 12:6.0 14:2.0 33:4.0 37:2.0 74:2.0 86:2.0 97:2.0 117:2.0 124:2.0 272:2.0 278:2.0 292:2.0 306:4.0 318:2.0 382:2.0 385:2.0 401:2.0 407:2.0 468:2.0 487:4.0 507:4.0 543:2.0 579:4.0 619:2.0 644:2.0 
1.0 81:2.0 306:4.0 445:2.0 570:1.0 614:2.0 
1.0 109:1.0 234:1.0 313:2.0 319:2.0 513:2.0 591:2.0 596:2.0 640:1.0 
1.0 2:2.0 3:2.0 7:2.0 33:2.0 42:2.0 45:4.0 141:2.0 168:2.0 342:2.0 378:1.0 384:4.0 445:2.0 538:2.0 590:2.0 665:2.0 
1.0 68:2.0 70:2.0 71:2.0 81:2.0 140:2.0 172:2.0 214:6.0 226:2.0 278:6.0 292:2.0 304:2.0 327:2.0 398:2.0 401:2.0 413:2.0 456:2.0 640:2.0 
1.0 41:4.0 45:6.0 71:2.0 96:1.0 100:2.0 117:2.0 151:2.0 230:2.0 256:2.0 496:2.0 635:2.0 637:2.0 
1.0 2:2.0 12:2.0 71:2.0 116:4.0 308:2.0 404:2.0 610:2.0 
1.0 48:1.0 109:1.0 234:1.0 241:2.0 404:2.0 465:2.0 524:2.0 631:2.0 
1.0 68:2.0 70:2.0 109:1.0 234:1.0 278:2.0 487:2.0 506:2.0 640:1.0 
1.0 2:4.0 3:2.0 48:1.0 53:2.0 71:2.0 97:6.0 102:2.0 241:5.0 261:1.0 285:3.0 438:2.0 446:2.0 458:2.0 468:2.0 553:2.0 572:2.0 637:2.0 
1.0 
1.0 42:2.0 45:2.0 71:2.0 117:4.0 208:1.0 228:1.0 241:2.0 247:2.0 267:2.0 272:2.0 278:2.0 283:2.0 295:2.0 306:2.0 345:2.0 422:2.0 477:2.0 524:2.0 537:2.0 538:2.0 555:2.0 561:2.0 572:2.0 623:2.0 635:2.0 
1.0 71:2.0 
1.0 40:1.0 42:4.0 43:8.0 48:1.0 64:2.0 71:2.0 81:2.0 109:1.0 234:1.0 244:2.0 278:2.0 347:2.0 404:2.0 462:2.0 502:2.0 516:2.0 553:2.0 572:1.0 619:2.0 635:1.0 652:2.0 
1.0 43:8.0 71:2.0 75:4.0 97:2.0 100:2.0 109:2.0 137:2.0 278:2.0 347:2.0 404:2.0 441:2.0 531:2.0 542:2.0 553:8.0 577:1.0 
1.0 2:4.0 12:2.0 33:2.0 41:2.0 42:2.0 45:2.0 48:2.0 71:12.0 81:1.0 109:2.0 117:4.0 169:2.0 182:2.0 250:2.0 278:4.0 283:2.0 292:2.0 308:1.0 347:2.0 357:2.0 361:2.0 376:1.0 377:2.0 392:2.0 401:2.0 404:13.0 441:2.0 460:2.0 500:2.0 502:2.0 505:1.0 526:1.0 530:2.0 532:2.0 537:2.0 553:2.0 557:2.0 590:2.0 595:2.0 618:2.0 637:2.0 648:2.0 
1.0 307:2.0 347:2.0 404:2.0 527:2.0 529:2.0 553:2.0 557:2.0 
1.0 42:2.0 43:2.0 71:4.0 169:4.0 208:2.0 278:4.0 404:2.0 545:2.0 579:2.0 637:2.0 
1.0 68:2.0 180:2.0 347:2.0 524:2.0 
1.0 42:2.0 43:2.0 45:2.0 71:2.0 347:2.0 404:4.0 406:2.0 557:2.0 
1.0 
1.0 14:2.0 64:2.0 193:2.0 347:4.0 401:4.0 461:2.0 553:2.0 571:2.0 610:2.0 619:2.0 
1.0 3:2.0 43:2.0 45:4.0 68:2.0 399:2.0 438:2.0 
1.0 241:2.0 405:2.0 
1.0 71:2.0 
1.0 2:4.0 12:4.0 41:6.0 43:6.0 45:6.0 70:2.0 71:4.0 109:2.0 124:2.0 139:1.0 140:2.0 145:2.0 153:2.0 158:2.0 178:4.0 185:2.0 212:1.0 214:2.0 226:2.0 241:2.0 261:2.0 265:2.0 272:2.0 278:15.0 292:2.0 302:2.0 306:2.0 308:2.0 357:8.0 369:2.0 381:2.0 384:2.0 398:4.0 401:2.0 404:16.0 406:1.0 427:2.0 458:5.0 477:2.0 502:4.0 507:2.0 516:4.0 519:2.0 531:2.0 552:2.0 557:10.0 572:2.0 585:2.0 596:2.0 599:4.0 619:2.0 635:1.0 649:2.0 656:6.0 663:1.0 
1.0 520:2.0 662:2.0 
1.0 2:2.0 71:2.0 165:2.0 193:2.0 218:4.0 235:2.0 247:2.0 278:2.0 342:2.0 384:4.0 406:2.0 530:2.0 543:2.0 555:2.0 557:2.0 619:2.0 628:2.0 641:2.0 
0.4651428007124133 2:2.0 71:2.0 134:2.0 176:2.0 241:2.0 252:2.0 278:2.0 480:2.0 515:2.0 548:2.0 
1.0 2:2.0 538:2.0 
1.0 393:2.0 619:2.0 
1.0 120:2.0 519:2.0 
1.0 2:6.0 198:2.0 236:2.0 355:2.0 391:4.0 397:2.0 404:2.0 498:2.0 505:2.0 507:4.0 572:2.0 596:2.0 
1.0 2:4.0 3:2.0 14:2.0 33:6.0 41:6.0 42:6.0 43:22.0 45:26.0 71:5.0 83:4.0 87:1.0 97:2.0 102:4.0 109:4.0 117:4.0 153:2.0 170:2.0 176:2.0 194:4.0 235:2.0 238:2.0 241:3.0 245:4.0 278:3.0 290:4.0 292:2.0 304:4.0 342:4.0 349:2.0 363:2.0 384:6.0 385:2.0 404:2.0 417:1.0 421:4.0 450:1.0 458:11.0 471:2.0 479:2.0 487:2.0 538:2.0 555:4.0 572:4.0 577:2.0 601:2.0 628:6.0 632:2.0 642:2.0 
1.0 2:4.0 24:2.0 40:1.0 42:6.0 43:4.0 45:8.0 99:2.0 141:2.0 152:2.0 193:4.0 207:2.0 247:2.0 308:2.0 357:2.0 384:2.0 404:6.0 421:2.0 457:2.0 543:2.0 545:2.0 594:2.0 596:2.0 601:2.0 649:3.0 
1.0 100:2.0 109:2.0 572:2.0 
1.0 12:2.0 235:2.0 241:2.0 458:2.0 477:2.0 642:2.0 
1.0 151:2.0 256:2.0 278:2.0 404:2.0 427:2.0 645:2.0 
1.0 93:2.0 176:2.0 208:2.0 376:2.0 404:2.0 
1.0 2:2.0 17:2.0 42:4.0 43:2.0 45:2.0 97:2.0 139:2.0 304:4.0 438:2.0 455:2.0 477:2.0 537:2.0 555:2.0 615:2.0 
1.0 451:2.0 
1.0 232:2.0 278:2.0 304:2.0 357:2.0 438:2.0 
0.24998618096576888 2:2.0 42:2.0 43:4.0 45:4.0 79:2.0 91:1.0 99:1.0 109:2.0 138:2.0 207:2.0 228:2.0 237:2.0 241:2.0 273:2.0 278:2.0 401:2.0 404:2.0 424:2.0 445:2.0 556:2.0 590:2.0 596:2.0 615:2.0 623:2.0 630:2.0 668:2.0 
1.0 43:2.0 70:2.0 100:2.0 109:4.0 176:2.0 298:2.0 352:2.0 404:2.0 502:2.0 637:2.0 
1.0 2:2.0 41:2.0 43:2.0 45:2.0 70:2.0 97:2.0 193:2.0 249:2.0 302:2.0 477:2.0 631:2.0 
1.0 48:1.0 86:2.0 109:1.0 234:1.0 241:2.0 
1.0 2:2.0 102:4.0 117:2.0 124:2.0 139:2.0 141:2.0 401:2.0 477:2.0 595:4.0 633:2.0 640:2.0 
1.0 2:2.0 71:2.0 278:2.0 467:2.0 
1.0 2:2.0 17:2.0 41:2.0 109:2.0 
1.0 43:2.0 45:4.0 
1.0 192:2.0 219:2.0 404:2.0 
1.0 105:2.0 294:2.0 404:2.0 496:2.0 545:2.0 619:2.0 
1.0 124:2.0 445:2.0 
1.0 2:6.0 42:4.0 45:4.0 94:2.0 117:2.0 124:2.0 193:2.0 404:2.0 426:2.0 457:2.0 601:2.0 631:2.0 648:2.0 
1.0 71:2.0 144:2.0 357:2.0 630:2.0 
1.0 42:2.0 71:2.0 404:2.0 610:2.0 
1.0 
1.0 42:6.0 45:2.0 94:2.0 206:2.0 252:2.0 457:2.0 465:2.0 515:2.0 530:2.0 
1.0 0:6.0 42:6.0 45:4.0 55:4.0 79:2.0 109:2.0 171:2.0 226:2.0 241:8.0 278:2.0 308:2.0 319:2.0 364:2.0 371:4.0 384:2.0 404:6.0 415:2.0 426:2.0 445:2.0 480:4.0 505:2.0 545:2.0 558:2.0 572:4.0 649:2.0 
1.0 60:4.0 
1.0 14:2.0 21:2.0 109:2.0 138:2.0 292:2.0 445:2.0 458:2.0 
1.0 27:2.0 292:2.0 458:2.0 519:2.0 537:2.0 
1.0 71:4.0 100:2.0 169:2.0 287:2.0 321:4.0 404:2.0 407:2.0 428:2.0 595:8.0 
1.0 68:2.0 327:2.0 
1.0 2:4.0 71:2.0 267:2.0 557:2.0 610:2.0 
1.0 41:2.0 
1.0 109:2.0 115:2.0 169:2.0 498:2.0 637:2.0 
1.0 12:4.0 23:4.0 42:2.0 45:2.0 87:2.0 94:2.0 109:2.0 113:2.0 136:2.0 241:4.0 256:2.0 259:2.0 278:2.0 404:2.0 457:2.0 537:2.0 572:2.0 586:2.0 619:2.0 
1.0 81:2.0 97:2.0 106:2.0 458:2.0 
1.0 71:2.0 282:2.0 
1.0 43:4.0 45:4.0 71:2.0 100:2.0 117:2.0 192:2.0 193:6.0 199:2.0 357:2.0 407:2.0 458:2.0 537:2.0 582:2.0 648:2.0 
1.0 42:2.0 45:2.0 
1.0 42:14.0 43:12.0 163:2.0 259:2.0 306:2.0 369:2.0 401:2.0 404:2.0 434:2.0 520:1.0 530:2.0 636:2.0 670:2.0 
1.0 71:2.0 
1.0 42:2.0 45:2.0 218:2.0 232:2.0 260:2.0 278:2.0 313:2.0 319:2.0 543:2.0 595:2.0 
1.0 100:2.0 109:2.0 
0.42881522756332724 71:2.0 308:2.0 532:4.0 
1.0 45:4.0 137:2.0 404:2.0 463:2.0 596:2.0 600:1.0 610:2.0 
1.0 71:2.0 78:2.0 185:2.0 
1.0 139:2.0 596:2.0 601:2.0 610:2.0 
1.0 2:2.0 133:2.0 465:2.0 537:2.0 618:2.0 
1.0 182:2.0 329:2.0 
1.0 178:2.0 308:2.0 
1.0 329:2.0 631:2.0 
1.0 43:2.0 190:2.0 193:2.0 
1.0 94:2.0 141:2.0 237:2.0 287:2.0 289:2.0 404:2.0 667:2.0 
1.0 2:2.0 43:2.0 45:2.0 97:2.0 278:4.0 
1.0 42:2.0 357:2.0 401:2.0 404:2.0 458:2.0 619:2.0 670:2.0 
1.0 71:4.0 79:2.0 139:2.0 146:2.0 262:2.0 275:2.0 349:2.0 404:2.0 596:2.0 614:2.0 632:2.0 
1.0 69:2.0 
1.0 298:2.0 384:2.0 404:2.0 458:2.0 
1.0 2:4.0 68:2.0 80:2.0 86:2.0 100:2.0 102:2.0 270:4.0 283:6.0 314:2.0 326:4.0 342:2.0 357:2.0 366:4.0 381:2.0 399:2.0 404:1.0 435:1.0 500:4.0 537:4.0 548:2.0 557:2.0 599:2.0 610:2.0 635:2.0 640:2.0 642:2.0 
1.0 2:2.0 48:1.0 57:2.0 109:1.0 234:1.0 313:2.0 404:2.0 557:2.0 572:2.0 
1.0 57:4.0 100:2.0 235:2.0 237:2.0 239:2.0 251:4.0 255:2.0 404:6.0 487:2.0 627:2.0 
1.0 45:2.0 306:2.0 401:2.0 404:2.0 557:2.0 
0.10729441515905759 247:2.0 327:2.0 402:4.0 404:2.0 405:2.0 545:2.0 591:2.0 
1.0 51:2.0 142:2.0 319:2.0 535:2.0 610:2.0 
1.0 71:2.0 404:2.0 
1.0 41:2.0 42:4.0 43:2.0 45:2.0 71:2.0 100:2.0 109:2.0 192:2.0 278:2.0 292:2.0 357:2.0 404:4.0 458:2.0 555:2.0 557:2.0 561:4.0 572:2.0 582:2.0 595:2.0 610:2.0 
1.0 71:4.0 278:2.0 292:2.0 572:2.0 
1.0 14:4.0 24:2.0 42:6.0 43:6.0 48:2.0 50:2.0 97:2.0 112:2.0 117:2.0 140:2.0 150:2.0 212:6.0 214:6.0 237:2.0 247:4.0 276:4.0 278:2.0 342:2.0 404:1.0 406:2.0 410:2.0 435:1.0 441:2.0 458:2.0 465:2.0 487:2.0 492:2.0 498:8.0 537:4.0 539:2.0 543:2.0 545:2.0 555:2.0 577:2.0 580:2.0 599:4.0 616:2.0 619:14.0 623:2.0 659:2.0 
1.0 79:2.0 529:2.0 
1.0 42:2.0 43:2.0 109:1.0 234:1.0 404:6.0 405:2.0 640:1.0 
1.0 70:2.0 71:2.0 97:2.0 113:2.0 241:2.0 306:2.0 404:4.0 457:2.0 557:2.0 602:2.0 614:4.0 
1.0 2:2.0 17:2.0 70:1.0 100:2.0 109:2.0 139:2.0 306:2.0 345:2.0 384:2.0 433:2.0 445:2.0 477:2.0 530:2.0 545:2.0 549:1.0 555:2.0 557:2.0 599:2.0 602:2.0 635:2.0 
1.0 162:1.0 199:2.0 404:3.0 498:2.0 519:1.0 572:2.0 614:2.0 616:2.0 
1.0 100:2.0 219:2.0 247:2.0 424:2.0 575:2.0 
1.0 17:2.0 42:2.0 64:2.0 97:2.0 117:2.0 139:2.0 241:2.0 265:2.0 282:2.0 438:2.0 560:2.0 
1.0 
1.0 43:2.0 141:2.0 237:2.0 404:2.0 635:2.0 
1.0 2:2.0 70:2.0 306:2.0 383:2.0 385:2.0 
1.0 235:2.0 357:2.0 537:2.0 627:2.0 
1.0 51:2.0 477:2.0 
0.258054084850321 71:4.0 142:4.0 230:4.0 240:2.0 278:2.0 
1.0 421:2.0 457:2.0 
1.0 130:2.0 172:2.0 404:1.0 427:2.0 498:2.0 642:2.0 645:1.0 
1.0 83:2.0 196:2.0 243:2.0 530:2.0 628:4.0 
0.5415214311029004 220:2.0 226:2.0 477:2.0 
1.0 71:2.0 641:2.0 
1.0 358:2.0 628:2.0 
1.0 393:2.0 
1.0 393:2.0 
1.0 393:2.0 
1.0 48:1.0 95:2.0 109:1.0 234:1.0 384:2.0 
1.0 71:2.0 177:2.0 194:2.0 278:2.0 306:4.0 376:2.0 401:2.0 413:2.0 596:2.0 666:2.0 
1.0 327:2.0 357:2.0 
1.0 71:2.0 357:2.0 458:2.0 648:2.0 
1.0 278:2.0 280:2.0 507:2.0 555:2.0 
1.0 71:2.0 79:2.0 94:2.0 100:2.0 109:2.0 278:2.0 295:2.0 298:2.0 304:2.0 382:2.0 502:2.0 535:2.0 
1.0 24:2.0 241:2.0 455:2.0 457:2.0 537:2.0 
1.0 26:2.0 97:2.0 146:2.0 385:2.0 
1.0 193:2.0 250:2.0 530:2.0 
1.0 49:2.0 169:2.0 207:2.0 225:2.0 265:2.0 278:2.0 376:2.0 502:1.0 635:2.0 637:2.0 
0.6921171244906138 0:12.0 2:12.0 3:4.0 7:2.0 9:2.0 28:2.0 41:4.0 42:16.0 43:6.0 45:10.0 52:2.0 55:6.0 68:4.0 70:2.0 71:8.0 83:2.0 99:2.0 103:2.0 109:2.0 114:2.0 117:2.0 123:2.0 137:2.0 141:2.0 170:2.0 182:2.0 183:2.0 192:2.0 202:2.0 225:2.0 226:2.0 228:1.0 230:2.0 241:8.0 242:2.0 244:2.0 261:1.0 270:4.0 278:4.0 283:2.0 292:2.0 303:2.0 304:4.0 309:2.0 327:2.0 338:2.0 343:2.0 349:2.0 357:6.0 371:2.0 380:2.0 401:8.0 404:8.0 406:2.0 418:2.0 438:2.0 443:2.0 445:2.0 457:2.0 463:2.0 543:2.0 572:20.0 579:2.0 596:6.0 600:2.0 601:4.0 610:2.0 614:4.0 619:2.0 623:2.0 628:2.0 629:2.0 635:2.0 637:2.0 640:5.0 670:2.0 
1.0 55:2.0 375:2.0 564:2.0 566:2.0 
1.0 2:2.0 71:1.0 116:4.0 278:2.0 404:4.0 555:2.0 637:2.0 
1.0 0:2.0 116:2.0 138:2.0 169:2.0 304:2.0 308:2.0 404:2.0 
1.0 12:2.0 24:2.0 31:2.0 43:2.0 45:18.0 92:2.0 105:2.0 115:2.0 116:24.0 144:1.0 158:2.0 166:4.0 169:2.0 186:2.0 193:2.0 205:2.0 222:2.0 235:2.0 266:2.0 273:2.0 285:2.0 295:2.0 308:2.0 313:2.0 317:2.0 357:2.0 367:2.0 376:2.0 380:2.0 404:4.0 448:2.0 544:2.0 545:2.0 547:2.0 557:2.0 576:2.0 580:2.0 598:2.0 601:4.0 610:2.0 636:2.0 642:2.0 655:2.0 668:2.0 
0.2103966263830393 185:2.0 226:2.0 508:2.0 628:2.0 
1.0 2:4.0 109:2.0 139:2.0 141:2.0 207:2.0 278:4.0 285:2.0 334:2.0 601:2.0 642:2.0 
1.0 33:4.0 68:2.0 71:2.0 243:2.0 255:2.0 286:2.0 385:2.0 397:2.0 401:2.0 445:2.0 457:2.0 458:2.0 461:2.0 527:2.0 532:2.0 535:2.0 545:2.0 557:2.0 633:2.0 637:2.0 640:2.0 
1.0 113:2.0 191:2.0 
0.7295675026483324 2:8.0 12:2.0 17:4.0 31:2.0 42:6.0 43:8.0 44:2.0 45:22.0 69:4.0 71:4.0 109:2.0 149:4.0 153:2.0 208:6.0 241:2.0 262:2.0 309:2.0 379:2.0 394:2.0 401:2.0 417:6.0 423:6.0 467:2.0 511:2.0 516:2.0 530:2.0 537:8.0 547:4.0 572:2.0 589:2.0 592:2.0 599:2.0 636:2.0 650:4.0 656:4.0 
1.0 41:2.0 43:2.0 71:2.0 115:2.0 248:2.0 282:8.0 401:2.0 404:4.0 474:6.0 487:2.0 596:2.0 601:1.0 
1.0 35:6.0 49:2.0 282:2.0 376:2.0 404:2.0 406:2.0 614:2.0 
1.0 141:2.0 169:2.0 193:2.0 278:2.0 304:2.0 307:2.0 319:2.0 655:2.0 
1.0 41:4.0 42:2.0 43:2.0 45:12.0 55:2.0 68:2.0 69:2.0 97:4.0 108:2.0 109:5.0 111:2.0 145:2.0 178:2.0 234:1.0 241:2.0 276:2.0 292:6.0 303:2.0 309:2.0 328:2.0 337:2.0 366:2.0 404:4.0 458:4.0 502:2.0 555:2.0 557:2.0 572:2.0 579:2.0 599:2.0 640:1.0 641:2.0 660:2.0 670:6.0 
1.0 200:2.0 364:2.0 366:2.0 404:2.0 537:2.0 660:2.0 
0.5696763717385835 24:4.0 33:4.0 41:4.0 42:6.0 43:8.0 45:8.0 48:1.0 49:2.0 71:4.0 97:2.0 99:2.0 109:1.0 111:2.0 117:2.0 155:2.0 178:2.0 185:2.0 234:3.0 235:2.0 261:4.0 284:2.0 294:2.0 304:2.0 313:2.0 322:2.0 366:6.0 369:4.0 394:2.0 401:2.0 407:2.0 456:2.0 458:6.0 503:2.0 530:2.0 539:2.0 555:2.0 572:2.0 596:4.0 599:2.0 612:2.0 619:4.0 637:4.0 670:2.0 
1.0 14:2.0 71:2.0 97:2.0 
0.3670505278319884 12:2.0 14:2.0 21:2.0 24:2.0 41:6.0 42:2.0 45:2.0 60:8.0 69:2.0 73:2.0 82:2.0 113:2.0 173:2.0 194:3.0 198:2.0 205:2.0 212:1.0 235:2.0 264:2.0 278:2.0 292:2.0 306:2.0 351:2.0 357:2.0 366:2.0 385:2.0 404:4.0 405:2.0 407:2.0 425:2.0 438:2.0 465:2.0 483:2.0 543:2.0 545:2.0 555:2.0 572:2.0 601:4.0 614:2.0 623:2.0 650:2.0 663:1.0 
0.9623381049985489 1:2.0 2:12.0 12:2.0 14:6.0 21:2.0 31:4.0 42:4.0 43:6.0 45:8.0 48:4.0 54:2.0 59:4.0 60:2.0 64:2.0 68:2.0 69:2.0 70:6.0 71:22.0 72:1.0 75:2.0 83:2.0 97:2.0 100:2.0 102:2.0 108:2.0 109:10.0 113:10.0 117:4.0 124:2.0 138:6.0 139:2.0 141:2.0 145:2.0 148:2.0 155:2.0 158:2.0 171:2.0 175:2.0 178:4.0 182:4.0 185:2.0 194:2.0 205:2.0 227:2.0 232:4.0 235:6.0 237:2.0 241:10.0 247:2.0 250:4.0 261:3.0 270:4.0 278:18.0 292:6.0 306:2.0 314:6.0 322:2.0 325:2.0 327:2.0 332:2.0 333:2.0 337:2.0 342:2.0 349:2.0 357:6.0 369:1.0 371:4.0 380:2.0 381:2.0 384:4.0 397:2.0 401:14.0 404:15.0 406:10.0 421:2.0 426:4.0 428:2.0 431:2.0 435:1.0 438:2.0 450:2.0 455:2.0 458:8.0 477:2.0 479:4.0 486:2.0 496:4.0 498:2.0 507:2.0 508:6.0 539:2.0 543:4.0 545:2.0 547:2.0 551:4.0 555:4.0 557:8.0 558:2.0 572:20.0 576:2.0 582:2.0 589:2.0 591:2.0 592:2.0 596:6.0 597:2.0 599:14.0 600:1.0 610:2.0 614:4.0 620:2.0 628:4.0 631:2.0 635:12.0 637:14.0 640:5.0 641:2.0 648:4.0 656:2.0 
1.0 24:2.0 228:1.0 407:2.0 426:2.0 
1.0 2:4.0 31:2.0 41:2.0 43:2.0 71:2.0 113:2.0 139:2.0 152:2.0 192:2.0 208:2.0 278:2.0 279:2.0 285:2.0 292:2.0 308:2.0 309:2.0 366:2.0 404:5.0 427:1.0 537:2.0 599:2.0 635:4.0 640:2.0 648:2.0 
0.8513422743570899 2:2.0 43:2.0 75:2.0 87:2.0 100:2.0 158:2.0 198:2.0 207:1.0 240:2.0 357:2.0 394:2.0 527:2.0 555:2.0 557:2.0 601:2.0 631:2.0 641:2.0 
1.0 
1.0 2:4.0 3:2.0 12:2.0 13:2.0 70:2.0 71:2.0 94:2.0 100:2.0 102:2.0 115:2.0 141:2.0 146:2.0 176:2.0 208:2.0 279:2.0 320:2.0 401:2.0 404:2.0 445:4.0 457:2.0 461:2.0 465:4.0 467:2.0 488:2.0 528:6.0 571:2.0 599:2.0 637:2.0 641:2.0 670:2.0 
1.0 14:2.0 41:4.0 42:2.0 43:2.0 45:2.0 51:2.0 71:10.0 100:2.0 193:2.0 240:2.0 371:2.0 384:2.0 397:2.0 404:1.0 427:1.0 445:2.0 519:2.0 648:4.0 
1.0 2:2.0 7:2.0 17:2.0 71:4.0 115:2.0 182:2.0 207:2.0 226:2.0 229:4.0 241:2.0 263:2.0 284:1.0 337:2.0 389:2.0 405:2.0 480:2.0 530:2.0 632:2.0 641:2.0 
1.0 43:2.0 45:4.0 91:1.0 99:1.0 426:2.0 532:2.0 555:2.0 655:2.0 
1.0 
1.0 219:2.0 
1.0 
1.0 241:2.0 537:2.0 635:2.0 
1.0 357:2.0 417:2.0 
1.0 234:2.0 250:2.0 395:2.0 401:2.0 509:2.0 
1.0 
1.0 282:4.0 369:2.0 404:4.0 
1.0 17:2.0 250:2.0 412:2.0 529:2.0 665:2.0 
1.0 9:4.0 40:1.0 41:2.0 42:2.0 43:6.0 71:4.0 109:1.0 122:1.0 234:1.0 278:2.0 401:2.0 404:1.0 405:2.0 477:2.0 544:2.0 557:2.0 572:2.0 610:2.0 640:1.0 649:1.0 
1.0 68:2.0 70:2.0 76:2.0 126:2.0 176:2.0 249:2.0 292:2.0 389:2.0 455:2.0 458:2.0 496:2.0 642:2.0 
1.0 2:2.0 117:2.0 124:2.0 249:2.0 306:2.0 455:2.0 537:2.0 596:2.0 
1.0 17:2.0 42:12.0 43:2.0 45:12.0 54:4.0 59:2.0 67:1.0 69:2.0 70:2.0 71:6.0 97:4.0 99:2.0 124:2.0 145:2.0 178:2.0 208:3.0 221:2.0 235:2.0 283:2.0 321:1.0 357:2.0 376:2.0 404:4.0 477:2.0 537:4.0 572:2.0 633:2.0 641:2.0 646:2.0 662:2.0 
1.0 404:6.0 
1.0 
1.0 42:2.0 43:2.0 575:2.0 
1.0 43:2.0 45:4.0 64:2.0 79:2.0 83:2.0 265:2.0 404:2.0 426:2.0 446:2.0 543:2.0 579:2.0 
1.0 31:2.0 48:1.0 109:1.0 234:1.0 278:2.0 292:2.0 369:2.0 535:2.0 537:2.0 635:2.0 641:2.0 
1.0 2:2.0 207:2.0 384:2.0 
1.0 24:2.0 52:2.0 71:2.0 278:2.0 601:2.0 
1.0 
1.0 94:2.0 610:2.0 662:2.0 
1.0 45:4.0 71:2.0 97:2.0 109:2.0 142:1.0 192:2.0 404:2.0 427:2.0 458:2.0 642:2.0 
1.0 176:2.0 597:2.0 
1.0 71:2.0 99:2.0 108:2.0 458:2.0 
1.0 24:2.0 42:2.0 45:4.0 70:2.0 97:2.0 100:2.0 232:2.0 265:2.0 303:2.0 404:2.0 458:2.0 553:2.0 572:2.0 582:2.0 610:2.0 641:2.0 
1.0 357:2.0 376:2.0 566:2.0 
1.0 2:2.0 21:4.0 41:10.0 43:10.0 102:2.0 109:2.0 127:2.0 226:2.0 270:4.0 278:2.0 441:2.0 458:2.0 619:2.0 622:2.0 631:2.0 
1.0 2:6.0 14:2.0 41:72.0 42:66.0 43:36.0 45:32.0 71:2.0 139:2.0 198:2.0 241:2.0 282:2.0 401:2.0 404:2.0 545:2.0 
1.0 71:2.0 237:2.0 278:2.0 
1.0 
1.0 42:4.0 43:2.0 45:2.0 247:2.0 295:2.0 477:2.0 
1.0 394:2.0 458:2.0 486:2.0 610:2.0 631:2.0 
1.0 14:2.0 327:2.0 
1.0 71:2.0 117:2.0 179:2.0 202:2.0 596:2.0 
1.0 2:2.0 202:2.0 241:4.0 376:2.0 572:2.0 
1.0 2:2.0 12:2.0 42:4.0 45:4.0 54:2.0 71:2.0 241:2.0 282:2.0 380:2.0 404:2.0 424:2.0 530:2.0 666:2.0 
1.0 4:2.0 48:2.0 117:2.0 292:2.0 300:2.0 445:4.0 457:2.0 491:2.0 507:2.0 577:2.0 628:2.0 637:2.0 
1.0 2:4.0 302:2.0 404:2.0 537:2.0 
1.0 42:2.0 45:2.0 48:1.0 109:1.0 117:2.0 176:2.0 234:1.0 306:2.0 357:2.0 361:2.0 404:2.0 497:2.0 633:2.0 
0.8743456330903998 0:2.0 14:2.0 24:2.0 42:8.0 45:6.0 70:2.0 71:2.0 91:2.0 97:2.0 158:2.0 171:2.0 237:2.0 262:2.0 314:2.0 327:2.0 401:2.0 404:6.0 430:2.0 468:2.0 537:2.0 572:2.0 586:2.0 596:2.0 637:2.0 642:2.0 
1.0 
1.0 2:8.0 14:2.0 41:2.0 42:2.0 43:4.0 45:4.0 70:4.0 117:2.0 137:2.0 153:8.0 158:2.0 175:2.0 178:2.0 182:2.0 257:1.0 278:2.0 294:2.0 303:2.0 309:2.0 343:1.0 404:6.0 453:2.0 458:2.0 463:2.0 467:2.0 474:2.0 506:2.0 524:2.0 532:1.0 537:2.0 544:4.0 567:2.0 572:2.0 637:2.0 
1.0 42:2.0 43:2.0 45:4.0 176:2.0 302:2.0 362:2.0 
1.0 141:2.0 357:2.0 572:2.0 
1.0 3:2.0 208:2.0 250:4.0 404:2.0 602:2.0 
1.0 2:2.0 24:2.0 43:2.0 69:4.0 83:2.0 178:2.0 185:2.0 222:2.0 364:2.0 384:2.0 404:2.0 445:2.0 477:2.0 557:2.0 596:2.0 619:2.0 638:2.0 
1.0 2:2.0 17:2.0 477:2.0 
1.0 2:2.0 295:2.0 374:2.0 457:2.0 668:2.0 
1.0 327:2.0 
1.0 294:2.0 380:2.0 
1.0 69:2.0 
1.0 109:2.0 139:2.0 165:2.0 230:2.0 278:2.0 366:2.0 404:2.0 405:2.0 
1.0 60:6.0 115:2.0 130:2.0 137:2.0 308:4.0 357:2.0 384:4.0 434:2.0 530:2.0 596:6.0 630:2.0 
