svm_type c_svc
kernel_type rbf
gamma 0.0030864197530864196
nr_class 2
total_sv 2954
rho 0.3094285751479026
label 1 -1
nr_sv 1464 1490
SV
1.562164190587448 0:1.0 16:1.0 29:1.0 41:2.0 135:1.0 190:1.0 192:1.0 292:1.0 293:2.0 305:1.0 534:1.0 563:1.0 577:1.0 755:1.0 796:1.0 808:1.0 1303:1.0 2144:1.0 2300:1.0 3615:1.0 3796:1.0 3955:1.0 4394:1.0 4607:1.0 5475:1.0 8856:1.0 
4.900341348358064 4:1.0 19:1.0 29:1.0 60:1.0 75:2.0 260:1.0 305:1.0 645:1.0 1361:1.0 1708:1.0 2206:1.0 2300:1.0 3475:1.0 4001:1.0 4144:1.0 4753:1.0 8912:1.0 
7.24 0:1.0 1:1.0 4:1.0 6:1.0 29:1.0 34:1.0 55:1.0 106:1.0 153:1.0 166:1.0 5530:1.0 
7.146533764556161 0:2.0 1:6.0 3:4.0 4:1.0 5:1.0 8:1.0 15:1.0 23:2.0 24:4.0 26:4.0 27:1.0 29:1.0 30:2.0 31:1.0 32:1.0 36:1.0 37:1.0 46:1.0 47:2.0 58:1.0 59:1.0 64:1.0 75:1.0 80:1.0 82:2.0 93:1.0 121:1.0 147:1.0 150:1.0 158:1.0 165:1.0 190:2.0 202:1.0 241:1.0 281:1.0 284:1.0 306:1.0 314:1.0 316:1.0 361:1.0 383:1.0 407:2.0 546:1.0 576:1.0 577:1.0 843:1.0 848:1.0 947:1.0 962:1.0 1149:1.0 1296:1.0 1466:1.0 1483:1.0 1683:1.0 1776:1.0 1777:2.0 1800:1.0 2352:1.0 2421:1.0 2573:1.0 7175:1.0 7491:1.0 7757:1.0 8032:1.0 10349:1.0 11819:1.0 
7.24 1:1.0 4:1.0 40:1.0 341:1.0 
5.395932589464186 35:1.0 43:1.0 45:1.0 55:1.0 130:1.0 268:1.0 289:1.0 378:1.0 1459:1.0 1491:1.0 1953:1.0 3347:1.0 3764:1.0 3900:1.0 
2.1192711227882977 0:3.0 3:1.0 4:1.0 7:1.0 9:1.0 11:1.0 15:1.0 20:1.0 30:1.0 34:1.0 43:1.0 48:1.0 50:1.0 92:1.0 105:1.0 126:1.0 163:1.0 192:1.0 216:1.0 239:2.0 246:1.0 306:1.0 339:1.0 341:1.0 347:1.0 415:1.0 450:1.0 473:1.0 533:1.0 600:1.0 752:1.0 825:1.0 960:1.0 1793:1.0 1919:1.0 3850:2.0 7680:1.0 
4.4756447230418415 2:2.0 5:1.0 7:1.0 13:1.0 14:2.0 20:2.0 22:1.0 24:1.0 25:1.0 26:1.0 28:1.0 61:3.0 93:1.0 96:1.0 98:2.0 127:1.0 147:1.0 182:2.0 186:1.0 192:1.0 205:1.0 216:1.0 233:1.0 260:1.0 320:1.0 546:1.0 568:1.0 706:1.0 771:1.0 814:1.0 819:1.0 877:1.0 1216:1.0 1418:1.0 1441:1.0 1502:2.0 1616:1.0 2684:1.0 2737:1.0 3355:1.0 5416:1.0 6197:1.0 8571:1.0 
1.3088057127252417 349:1.0 718:2.0 730:1.0 1743:1.0 1767:1.0 1943:1.0 2507:1.0 3219:1.0 8236:1.0 9790:1.0 
7.24 1:1.0 5:2.0 43:1.0 51:1.0 63:1.0 78:1.0 121:1.0 140:1.0 326:1.0 351:1.0 381:1.0 533:1.0 543:1.0 692:1.0 1157:1.0 3153:1.0 
4.677086526933034 3:1.0 5:1.0 11:1.0 31:2.0 37:1.0 61:1.0 109:1.0 110:1.0 156:1.0 198:1.0 314:1.0 374:1.0 475:1.0 733:2.0 960:1.0 1257:1.0 1722:1.0 2854:1.0 5362:1.0 
7.24 1:1.0 3:1.0 13:1.0 14:1.0 37:1.0 60:1.0 134:1.0 374:1.0 2522:1.0 
7.24 0:1.0 1:1.0 3:1.0 4:1.0 5:1.0 6:1.0 7:1.0 10:1.0 19:1.0 31:1.0 32:1.0 37:1.0 46:1.0 63:1.0 65:1.0 78:1.0 98:2.0 160:1.0 192:1.0 215:1.0 237:1.0 287:1.0 313:1.0 413:1.0 488:1.0 640:1.0 775:1.0 850:1.0 914:1.0 992:1.0 1021:1.0 1192:1.0 1214:1.0 1582:1.0 2329:1.0 3121:1.0 3779:1.0 
7.24 0:3.0 1:1.0 3:1.0 4:2.0 7:1.0 9:1.0 20:1.0 21:1.0 25:2.0 33:1.0 37:1.0 65:1.0 76:1.0 77:1.0 86:1.0 92:1.0 116:1.0 141:1.0 214:2.0 219:1.0 238:1.0 284:1.0 309:1.0 651:1.0 1208:1.0 2347:1.0 7970:1.0 
4.783267891289192 40:2.0 68:1.0 126:1.0 197:1.0 217:2.0 341:1.0 
7.24 5:1.0 99:1.0 240:1.0 873:1.0 2217:1.0 
1.838257733400873 2:1.0 7:1.0 10:1.0 16:1.0 35:2.0 63:1.0 119:1.0 145:1.0 184:1.0 239:1.0 268:1.0 269:1.0 330:1.0 1154:1.0 
0.9822923122908628 6:1.0 7:1.0 14:1.0 52:1.0 130:1.0 191:1.0 273:1.0 318:1.0 491:1.0 858:1.0 1535:1.0 3767:1.0 11135:1.0 
7.24 311:1.0 1331:1.0 4905:1.0 9244:1.0 10250:1.0 14144:1.0 
0.8278618024340072 0:6.0 6:2.0 7:3.0 10:1.0 12:1.0 17:1.0 19:1.0 23:1.0 28:1.0 30:2.0 31:1.0 35:2.0 39:1.0 50:1.0 67:1.0 80:1.0 85:1.0 86:2.0 99:2.0 104:1.0 120:1.0 127:1.0 130:1.0 131:2.0 135:1.0 136:2.0 143:1.0 145:1.0 161:2.0 164:1.0 178:1.0 179:2.0 191:2.0 198:2.0 208:1.0 218:1.0 224:1.0 227:1.0 236:1.0 243:1.0 276:2.0 320:1.0 332:2.0 350:1.0 355:1.0 392:1.0 401:1.0 440:1.0 468:1.0 497:1.0 515:1.0 532:1.0 601:1.0 621:1.0 724:1.0 727:1.0 865:1.0 939:1.0 1014:1.0 1029:1.0 1030:1.0 1186:1.0 1321:1.0 1332:1.0 1703:1.0 1772:1.0 1862:1.0 2239:1.0 2296:1.0 2431:3.0 2636:1.0 2806:1.0 3888:1.0 4034:1.0 4112:1.0 4582:1.0 5090:1.0 5171:1.0 5986:1.0 6037:1.0 6260:1.0 7280:1.0 10778:1.0 10897:1.0 12725:2.0 
3.099857318094153 0:2.0 1:3.0 3:1.0 4:1.0 7:3.0 10:2.0 11:1.0 12:2.0 14:1.0 15:1.0 17:1.0 28:1.0 31:1.0 32:1.0 37:1.0 42:1.0 43:1.0 48:1.0 53:1.0 56:1.0 63:1.0 66:1.0 70:1.0 76:1.0 107:1.0 158:1.0 163:1.0 165:1.0 171:1.0 256:1.0 272:2.0 302:1.0 325:1.0 379:1.0 384:1.0 390:1.0 400:1.0 444:1.0 450:1.0 473:1.0 549:1.0 682:1.0 683:1.0 782:1.0 975:1.0 985:1.0 1002:1.0 1097:1.0 1641:1.0 2007:2.0 3542:1.0 4603:1.0 5344:1.0 6385:1.0 6804:1.0 11593:1.0 
7.24 5:1.0 34:1.0 38:1.0 45:1.0 112:1.0 130:1.0 177:1.0 289:1.0 369:1.0 1232:1.0 1327:1.0 1942:1.0 
7.24 2:1.0 9:2.0 32:1.0 66:1.0 91:1.0 95:1.0 116:1.0 175:1.0 191:1.0 252:1.0 265:1.0 317:1.0 499:1.0 576:1.0 624:1.0 821:1.0 831:1.0 1021:1.0 1086:1.0 1413:1.0 1784:1.0 1900:1.0 2252:1.0 3327:1.0 5085:1.0 
7.24 311:1.0 479:1.0 878:1.0 885:1.0 4153:1.0 8043:1.0 13671:1.0 
0.21230936769375625 0:3.0 1:13.0 2:6.0 3:1.0 4:3.0 5:5.0 6:3.0 10:1.0 12:3.0 13:2.0 15:1.0 18:1.0 22:1.0 25:2.0 27:2.0 28:2.0 30:1.0 32:2.0 33:1.0 38:1.0 39:2.0 42:2.0 43:3.0 44:2.0 45:1.0 48:1.0 51:3.0 52:2.0 53:1.0 56:1.0 57:1.0 58:1.0 62:1.0 64:1.0 67:1.0 68:1.0 71:1.0 76:2.0 77:2.0 79:1.0 86:1.0 88:1.0 93:1.0 100:2.0 103:1.0 104:1.0 109:1.0 113:1.0 117:2.0 120:1.0 121:1.0 123:1.0 124:1.0 126:2.0 139:1.0 140:1.0 151:1.0 181:1.0 183:1.0 185:1.0 201:1.0 212:2.0 216:1.0 223:2.0 224:1.0 227:1.0 252:1.0 261:1.0 263:1.0 279:1.0 286:1.0 293:1.0 302:1.0 309:1.0 310:1.0 314:2.0 338:1.0 339:1.0 341:2.0 342:2.0 343:1.0 347:1.0 354:1.0 358:1.0 374:1.0 384:2.0 385:1.0 395:1.0 401:1.0 426:1.0 428:1.0 469:1.0 474:2.0 490:1.0 504:1.0 506:1.0 507:1.0 518:1.0 523:1.0 530:2.0 538:1.0 589:2.0 600:1.0 613:1.0 624:1.0 631:1.0 638:1.0 682:1.0 702:2.0 723:1.0 733:1.0 734:1.0 759:1.0 828:2.0 862:1.0 881:1.0 883:1.0 892:1.0 950:1.0 953:1.0 959:1.0 975:1.0 995:1.0 997:1.0 1005:1.0 1104:1.0 1110:1.0 1127:1.0 1159:1.0 1198:1.0 1207:1.0 1229:1.0 1247:1.0 1293:1.0 1399:1.0 1408:1.0 1487:1.0 1573:1.0 1600:1.0 1624:1.0 1646:1.0 1677:1.0 1686:1.0 1755:1.0 1780:1.0 1919:1.0 2109:3.0 2201:1.0 2333:1.0 2351:1.0 2407:2.0 2460:1.0 2495:1.0 2694:1.0 2766:1.0 2772:1.0 2806:2.0 2938:1.0 3141:1.0 3305:1.0 3625:1.0 4117:1.0 4339:1.0 4359:1.0 4402:1.0 4515:1.0 5359:2.0 5687:1.0 6090:1.0 6398:2.0 6417:1.0 6437:1.0 6449:1.0 6525:1.0 7041:1.0 7342:1.0 7426:1.0 7798:1.0 8485:1.0 8541:1.0 8621:1.0 8682:2.0 8969:2.0 9191:1.0 9376:1.0 9538:1.0 10123:1.0 10863:1.0 10980:1.0 11945:1.0 11956:1.0 
7.24 0:3.0 2:1.0 4:1.0 12:1.0 13:1.0 23:2.0 30:1.0 34:1.0 35:1.0 130:1.0 361:1.0 491:1.0 1317:1.0 1396:1.0 1920:1.0 
7.24 0:2.0 1:2.0 7:1.0 9:1.0 12:1.0 22:1.0 24:4.0 25:2.0 26:4.0 43:2.0 47:1.0 56:1.0 63:1.0 72:1.0 84:1.0 135:1.0 137:1.0 190:1.0 215:1.0 286:1.0 287:1.0 306:1.0 327:1.0 333:1.0 340:1.0 341:1.0 381:1.0 485:1.0 597:1.0 619:1.0 660:1.0 708:2.0 714:1.0 968:1.0 1098:1.0 1249:1.0 1252:1.0 1254:1.0 1309:1.0 1347:1.0 1382:1.0 1645:1.0 3878:1.0 4812:1.0 5973:1.0 7514:1.0 
4.853069481620663 0:1.0 6:1.0 17:1.0 34:1.0 45:1.0 50:1.0 93:1.0 101:1.0 132:1.0 137:1.0 185:1.0 226:1.0 235:1.0 239:1.0 289:2.0 304:1.0 568:1.0 698:1.0 1136:1.0 1308:1.0 1402:1.0 1699:1.0 1874:1.0 2356:1.0 2974:1.0 9339:1.0 
7.24 40:1.0 43:1.0 104:1.0 760:1.0 1133:1.0 1506:1.0 2704:1.0 
1.3857351344002515 0:3.0 3:2.0 4:1.0 5:2.0 6:1.0 10:2.0 21:2.0 22:2.0 27:1.0 29:1.0 31:1.0 35:1.0 48:1.0 50:2.0 56:1.0 69:1.0 72:1.0 75:1.0 93:1.0 103:1.0 106:1.0 122:1.0 125:1.0 131:1.0 161:1.0 168:1.0 171:1.0 182:1.0 191:1.0 198:1.0 203:1.0 232:1.0 273:1.0 285:1.0 295:1.0 330:1.0 341:1.0 358:1.0 367:1.0 376:1.0 400:1.0 401:1.0 411:1.0 510:1.0 521:1.0 557:1.0 617:1.0 724:1.0 793:1.0 1088:1.0 1332:1.0 1621:1.0 2724:1.0 4512:1.0 7660:1.0 9118:1.0 
7.24 1:1.0 4:1.0 8:1.0 13:1.0 29:1.0 35:1.0 39:1.0 68:1.0 103:1.0 187:1.0 197:1.0 371:1.0 441:1.0 2241:1.0 
1.8264131890742585 0:3.0 1:7.0 2:1.0 3:5.0 4:1.0 5:1.0 6:1.0 11:1.0 12:1.0 13:1.0 17:3.0 19:1.0 20:2.0 21:6.0 22:1.0 23:6.0 24:2.0 25:2.0 26:2.0 30:1.0 33:1.0 36:1.0 39:1.0 51:2.0 52:1.0 56:1.0 62:1.0 88:1.0 99:1.0 105:4.0 110:1.0 120:1.0 125:1.0 137:1.0 167:2.0 174:1.0 178:2.0 185:1.0 192:2.0 195:1.0 212:1.0 214:1.0 219:1.0 227:2.0 246:1.0 267:1.0 268:1.0 270:1.0 279:2.0 292:3.0 407:1.0 411:1.0 424:3.0 437:1.0 509:2.0 531:1.0 605:2.0 641:2.0 696:2.0 729:1.0 752:1.0 786:1.0 791:1.0 858:1.0 919:1.0 955:1.0 968:1.0 1140:1.0 1193:1.0 1390:1.0 1447:2.0 1497:3.0 1592:1.0 1642:1.0 1825:2.0 2256:1.0 2316:1.0 2476:1.0 3346:1.0 4553:1.0 8119:1.0 9175:1.0 9967:1.0 11545:1.0 12176:2.0 
5.197569248877893 0:1.0 10:1.0 52:1.0 92:1.0 104:2.0 112:1.0 166:1.0 187:1.0 224:1.0 326:1.0 405:1.0 414:1.0 429:1.0 441:1.0 1141:2.0 1173:1.0 1191:1.0 2764:1.0 5906:2.0 6962:1.0 
0.367221308003126 1:5.0 2:1.0 3:3.0 4:1.0 5:1.0 8:1.0 10:2.0 11:1.0 15:1.0 16:2.0 23:1.0 24:1.0 26:1.0 39:1.0 43:1.0 45:1.0 56:2.0 58:1.0 59:4.0 79:1.0 83:2.0 90:1.0 91:1.0 93:1.0 131:1.0 137:1.0 143:1.0 145:1.0 146:1.0 151:2.0 154:1.0 167:1.0 199:1.0 214:1.0 243:1.0 245:1.0 246:1.0 263:4.0 327:1.0 341:2.0 343:1.0 366:1.0 367:1.0 390:1.0 557:1.0 585:1.0 613:2.0 692:1.0 728:2.0 845:1.0 935:1.0 1123:1.0 1132:1.0 1468:1.0 1820:1.0 1826:1.0 1865:1.0 2293:1.0 2437:1.0 2958:1.0 2973:1.0 4587:1.0 5683:1.0 5857:1.0 8558:1.0 9172:1.0 
5.398395288179286 1:2.0 2:2.0 10:1.0 16:1.0 24:1.0 26:1.0 34:1.0 40:1.0 43:2.0 48:1.0 84:1.0 90:1.0 95:1.0 113:1.0 135:1.0 140:1.0 158:1.0 174:2.0 231:1.0 241:1.0 277:1.0 333:1.0 337:2.0 405:1.0 458:1.0 468:1.0 579:1.0 586:1.0 591:2.0 704:1.0 734:1.0 740:1.0 831:2.0 853:1.0 1016:1.0 1036:1.0 1059:1.0 1087:1.0 1260:2.0 1851:1.0 3698:1.0 3987:1.0 
6.297363515600788 3:1.0 5:1.0 13:1.0 19:1.0 36:1.0 51:1.0 68:1.0 80:1.0 106:1.0 126:1.0 197:1.0 538:1.0 2094:1.0 3842:1.0 6440:1.0 
7.24 0:1.0 1:1.0 6:1.0 34:1.0 35:1.0 56:1.0 100:1.0 135:1.0 327:1.0 468:1.0 661:1.0 
7.24 1:1.0 28:1.0 123:1.0 533:1.0 1010:1.0 
7.24 6:1.0 34:1.0 125:1.0 1075:1.0 
5.52909858774387 0:3.0 1:1.0 10:1.0 14:1.0 20:2.0 21:1.0 23:2.0 25:1.0 28:1.0 40:1.0 46:1.0 56:2.0 58:1.0 75:3.0 81:2.0 86:1.0 90:1.0 102:1.0 137:1.0 139:1.0 143:1.0 151:1.0 160:4.0 175:1.0 192:1.0 194:1.0 195:2.0 203:1.0 233:1.0 238:1.0 259:1.0 294:1.0 320:1.0 321:1.0 339:1.0 442:2.0 525:1.0 546:1.0 584:1.0 618:1.0 745:1.0 805:1.0 817:1.0 944:1.0 1039:1.0 1097:1.0 1213:1.0 1243:1.0 1308:1.0 1345:1.0 1432:1.0 1905:1.0 1932:1.0 2031:2.0 2066:1.0 2433:1.0 2567:1.0 2683:1.0 2774:1.0 2947:1.0 3433:1.0 3859:1.0 4433:1.0 6756:1.0 8334:1.0 9140:1.0 12800:1.0 
7.24 0:1.0 3:1.0 9:2.0 80:1.0 97:1.0 219:1.0 421:1.0 441:1.0 541:1.0 657:1.0 792:1.0 1245:1.0 1311:1.0 1564:1.0 1665:1.0 1881:1.0 4229:1.0 4803:1.0 
7.24 0:1.0 43:1.0 65:1.0 194:1.0 238:1.0 249:1.0 445:2.0 483:1.0 1066:1.0 1108:1.0 2380:1.0 2713:1.0 6349:1.0 10888:1.0 13566:1.0 
2.176430570071306 4:1.0 11:1.0 23:1.0 68:1.0 81:1.0 89:1.0 237:1.0 293:1.0 483:1.0 526:1.0 577:1.0 796:1.0 821:1.0 1036:1.0 2497:1.0 2678:1.0 3252:1.0 4219:1.0 
6.487112360560902 0:1.0 3:1.0 4:1.0 6:1.0 25:2.0 37:1.0 46:1.0 54:1.0 55:1.0 57:1.0 125:1.0 166:1.0 320:1.0 990:1.0 999:1.0 1195:1.0 1253:1.0 2220:1.0 2636:1.0 2678:1.0 2801:1.0 4729:1.0 
0.34909100241615343 1:1.0 40:1.0 43:1.0 122:1.0 250:1.0 484:1.0 508:1.0 515:1.0 1823:1.0 1971:1.0 4672:1.0 11067:1.0 
7.24 4:1.0 24:1.0 26:1.0 38:1.0 43:1.0 45:1.0 55:1.0 130:1.0 241:1.0 358:1.0 
7.24 0:1.0 3:1.0 6:1.0 9:1.0 49:1.0 77:1.0 100:1.0 166:1.0 208:1.0 370:1.0 377:1.0 401:1.0 511:1.0 621:1.0 7554:1.0 
4.307980880161851 0:1.0 1:1.0 6:1.0 10:1.0 25:2.0 32:1.0 34:1.0 48:1.0 51:1.0 67:1.0 87:1.0 90:1.0 107:1.0 117:1.0 155:1.0 225:1.0 271:1.0 309:1.0 325:1.0 342:1.0 351:1.0 353:1.0 368:1.0 396:1.0 403:1.0 406:1.0 417:1.0 431:1.0 505:1.0 549:1.0 652:1.0 756:1.0 784:1.0 825:1.0 866:1.0 983:1.0 1020:1.0 1033:1.0 1493:1.0 1971:1.0 5256:1.0 
6.810658612590309 479:1.0 909:1.0 1161:2.0 1451:1.0 3480:1.0 7092:1.0 11092:1.0 
7.131238746457674 0:1.0 1:1.0 3:1.0 5:1.0 13:1.0 30:1.0 45:1.0 72:1.0 92:1.0 118:1.0 130:1.0 207:1.0 217:2.0 272:1.0 279:1.0 285:1.0 316:1.0 483:1.0 707:1.0 1042:1.0 12213:1.0 
7.24 2:1.0 4:1.0 68:1.0 591:1.0 726:1.0 1042:1.0 
7.24 6:1.0 19:1.0 29:1.0 64:1.0 67:1.0 98:1.0 103:1.0 135:1.0 140:1.0 179:1.0 295:1.0 419:1.0 2224:1.0 5474:1.0 
0.5879694647094094 0:2.0 1:6.0 3:3.0 4:2.0 5:1.0 22:1.0 28:1.0 32:2.0 36:1.0 38:2.0 46:1.0 51:1.0 53:1.0 55:1.0 69:1.0 92:1.0 114:1.0 168:1.0 179:1.0 193:1.0 203:1.0 213:1.0 283:1.0 289:1.0 307:1.0 310:1.0 333:1.0 371:1.0 377:1.0 397:1.0 404:1.0 429:4.0 447:1.0 484:1.0 522:1.0 523:1.0 539:2.0 564:1.0 604:1.0 633:2.0 757:1.0 791:1.0 1119:1.0 1206:1.0 1330:1.0 1516:1.0 2426:1.0 3331:1.0 3531:1.0 5908:1.0 8862:1.0 12619:1.0 
7.24 0:2.0 2:1.0 4:1.0 5:3.0 6:1.0 10:1.0 16:1.0 18:1.0 29:1.0 67:1.0 68:1.0 255:1.0 1944:1.0 
7.24 11:1.0 12:1.0 24:1.0 26:1.0 43:2.0 65:1.0 76:1.0 340:1.0 692:1.0 1506:1.0 2273:1.0 4209:1.0 9236:1.0 10812:1.0 
7.24 466:1.0 471:1.0 718:1.0 1759:1.0 2507:1.0 3219:1.0 7143:1.0 11605:1.0 11928:1.0 
7.24 6:1.0 42:2.0 57:1.0 171:1.0 185:1.0 219:1.0 333:1.0 418:1.0 437:1.0 440:1.0 865:1.0 1436:1.0 2348:1.0 6012:1.0 11403:1.0 
0.42665287350575554 1:2.0 2:1.0 3:1.0 4:1.0 5:1.0 6:1.0 13:1.0 23:2.0 49:1.0 56:1.0 60:1.0 76:1.0 102:1.0 141:1.0 151:3.0 173:1.0 203:1.0 297:1.0 414:1.0 425:1.0 482:1.0 522:1.0 539:1.0 545:1.0 557:1.0 558:1.0 640:1.0 876:1.0 940:1.0 1012:1.0 1341:1.0 1429:1.0 1536:1.0 1824:1.0 5227:1.0 
7.24 23:1.0 25:1.0 34:1.0 57:1.0 58:1.0 105:1.0 240:1.0 267:1.0 450:1.0 1479:1.0 1680:1.0 2658:1.0 2704:1.0 
1.72951777674049 10:1.0 127:1.0 340:1.0 567:1.0 995:1.0 1138:1.0 1957:1.0 
7.24 6:1.0 1136:1.0 
7.24 6:1.0 24:1.0 26:1.0 125:1.0 235:1.0 358:1.0 567:1.0 
2.9932106771012013 2:1.0 153:1.0 158:1.0 273:1.0 672:1.0 1370:1.0 
7.24 0:2.0 1:1.0 2:1.0 3:1.0 11:1.0 512:1.0 521:1.0 800:1.0 989:1.0 1077:1.0 1636:1.0 12703:1.0 
7.24 186:1.0 205:1.0 244:1.0 311:1.0 2669:1.0 3480:1.0 4919:1.0 11756:1.0 13827:1.0 
7.24 0:2.0 1:2.0 4:1.0 5:1.0 6:2.0 8:1.0 23:1.0 27:1.0 38:1.0 47:1.0 55:1.0 117:1.0 120:1.0 139:1.0 250:1.0 366:1.0 384:1.0 533:1.0 637:1.0 1268:1.0 
7.24 1:1.0 45:1.0 63:1.0 68:1.0 130:1.0 197:1.0 893:1.0 1143:1.0 1279:1.0 1860:1.0 1946:1.0 
0.3822352019892026 0:2.0 1:4.0 3:2.0 4:1.0 5:1.0 6:1.0 9:1.0 10:1.0 11:2.0 14:2.0 15:1.0 17:2.0 19:3.0 20:4.0 21:1.0 39:1.0 45:1.0 46:2.0 47:1.0 52:1.0 54:1.0 56:2.0 57:3.0 59:1.0 69:2.0 73:2.0 77:1.0 80:1.0 85:1.0 89:1.0 90:2.0 93:1.0 94:1.0 95:1.0 104:2.0 107:2.0 111:1.0 113:1.0 120:1.0 130:1.0 132:1.0 133:1.0 134:1.0 136:1.0 147:1.0 148:1.0 153:1.0 154:2.0 158:2.0 162:2.0 167:1.0 173:1.0 174:1.0 194:1.0 199:7.0 204:1.0 216:2.0 225:2.0 228:1.0 236:1.0 243:1.0 255:1.0 261:3.0 275:2.0 279:1.0 289:1.0 294:1.0 296:1.0 317:1.0 319:1.0 344:2.0 345:1.0 363:1.0 371:1.0 383:2.0 416:1.0 429:2.0 454:1.0 472:1.0 557:1.0 572:1.0 600:2.0 606:1.0 626:1.0 649:1.0 654:1.0 667:1.0 717:1.0 727:1.0 731:1.0 812:1.0 830:1.0 845:1.0 939:1.0 970:1.0 1013:1.0 1014:1.0 1175:1.0 1222:1.0 1351:1.0 1505:1.0 1536:2.0 1546:1.0 1868:1.0 2159:1.0 2249:1.0 2426:1.0 2714:1.0 3433:1.0 3640:1.0 3672:1.0 4576:1.0 4925:1.0 5481:1.0 8751:1.0 9107:1.0 9844:1.0 9975:1.0 11378:1.0 
2.952624633304544 311:2.0 471:1.0 479:1.0 659:2.0 730:1.0 856:1.0 885:1.0 1355:1.0 1478:2.0 1743:1.0 1746:1.0 1759:1.0 2069:1.0 2328:1.0 2555:1.0 2717:1.0 3691:1.0 4961:1.0 8150:1.0 8775:1.0 12180:1.0 14622:1.0 
7.24 1:2.0 4:1.0 56:1.0 57:1.0 63:1.0 73:4.0 121:1.0 484:1.0 869:1.0 3755:1.0 5712:1.0 
1.272424438871144 4:32.0 5:32.0 
4.084296414746203 1:1.0 44:1.0 54:1.0 117:1.0 120:2.0 202:1.0 289:1.0 543:2.0 2015:1.0 2357:1.0 2621:1.0 2905:1.0 3273:1.0 3326:1.0 4188:1.0 4303:1.0 4646:1.0 10633:1.0 12241:1.0 12826:1.0 14277:1.0 
3.120656108284486 0:1.0 1:2.0 2:2.0 3:1.0 5:2.0 7:3.0 9:2.0 10:1.0 11:1.0 12:4.0 13:1.0 16:1.0 20:1.0 22:1.0 24:2.0 26:2.0 30:1.0 33:2.0 39:2.0 44:2.0 53:1.0 69:1.0 70:1.0 76:2.0 79:1.0 81:2.0 82:1.0 83:1.0 84:2.0 109:1.0 123:1.0 125:1.0 126:3.0 127:2.0 134:1.0 163:1.0 217:1.0 231:1.0 263:1.0 303:2.0 309:1.0 376:1.0 402:1.0 408:1.0 426:1.0 519:1.0 636:2.0 648:1.0 682:1.0 937:1.0 954:1.0 965:1.0 1253:1.0 1797:1.0 2114:1.0 3320:1.0 5202:1.0 7437:1.0 
0.7408308128956732 1:1.0 6:1.0 16:1.0 25:1.0 43:1.0 126:1.0 219:1.0 240:1.0 241:1.0 246:1.0 1204:1.0 1681:1.0 3044:1.0 
7.24 6:1.0 38:1.0 57:1.0 156:1.0 258:1.0 308:1.0 318:1.0 700:1.0 1437:1.0 1831:1.0 2395:1.0 3101:1.0 
1.1928839000992673 0:1.0 3:1.0 5:2.0 9:2.0 12:1.0 16:1.0 22:1.0 32:1.0 33:1.0 51:1.0 77:1.0 78:2.0 79:1.0 101:1.0 128:1.0 143:1.0 174:1.0 226:1.0 376:1.0 407:1.0 482:1.0 984:1.0 988:1.0 1426:1.0 1522:1.0 1741:1.0 1882:1.0 1937:1.0 2305:1.0 2623:1.0 2891:1.0 3208:1.0 3843:1.0 5598:1.0 8980:1.0 
0.935708010034581 0:2.0 2:2.0 4:2.0 5:1.0 6:1.0 9:1.0 10:1.0 13:2.0 14:2.0 15:4.0 23:1.0 30:1.0 49:1.0 55:1.0 63:1.0 68:1.0 73:22.0 77:2.0 84:1.0 85:1.0 94:1.0 95:1.0 97:1.0 101:1.0 102:2.0 105:1.0 114:1.0 118:1.0 197:1.0 210:1.0 217:1.0 223:1.0 271:1.0 349:1.0 377:1.0 394:1.0 415:1.0 426:1.0 439:1.0 513:1.0 521:1.0 526:1.0 544:1.0 685:1.0 686:1.0 705:1.0 769:1.0 831:1.0 1005:1.0 1035:1.0 1098:1.0 1147:1.0 1225:1.0 1408:1.0 1458:1.0 1487:1.0 1835:1.0 1898:1.0 1900:1.0 1914:1.0 2252:1.0 3018:1.0 4782:1.0 7576:1.0 
7.24 3:1.0 56:1.0 91:1.0 147:1.0 190:1.0 606:1.0 658:1.0 
7.24 240:2.0 353:1.0 420:1.0 446:1.0 1446:1.0 1479:2.0 1871:1.0 
0.9521489442547074 4:1.0 21:1.0 23:1.0 25:2.0 32:1.0 41:2.0 53:1.0 58:1.0 59:2.0 66:1.0 76:2.0 77:2.0 83:1.0 120:2.0 193:1.0 195:2.0 213:4.0 219:1.0 257:1.0 288:1.0 294:1.0 378:1.0 394:1.0 406:3.0 420:1.0 477:1.0 507:1.0 509:1.0 556:1.0 652:1.0 653:1.0 664:1.0 675:1.0 696:1.0 720:1.0 847:1.0 865:1.0 871:1.0 872:1.0 889:1.0 983:2.0 1007:1.0 1033:2.0 1038:1.0 1086:1.0 1105:1.0 1114:1.0 1201:2.0 1642:1.0 1850:1.0 1989:1.0 2754:1.0 2950:1.0 3860:1.0 5691:1.0 6952:1.0 9252:1.0 13029:1.0 
7.24 2:1.0 6:1.0 19:1.0 34:1.0 70:1.0 103:1.0 268:1.0 318:1.0 476:1.0 2094:1.0 3427:1.0 
2.9815726015493635 0:2.0 1:1.0 3:2.0 4:1.0 6:2.0 7:1.0 10:2.0 11:1.0 14:1.0 16:1.0 17:1.0 25:1.0 36:1.0 42:1.0 43:2.0 62:1.0 64:1.0 68:2.0 70:1.0 81:3.0 91:1.0 93:1.0 100:1.0 117:1.0 122:1.0 125:1.0 131:1.0 171:1.0 173:1.0 192:1.0 197:2.0 213:2.0 240:1.0 250:1.0 417:1.0 567:1.0 600:1.0 773:1.0 942:1.0 1540:1.0 1680:1.0 2425:1.0 
7.24 2:1.0 5:1.0 16:1.0 34:1.0 39:1.0 47:1.0 99:1.0 147:1.0 204:1.0 351:1.0 641:1.0 711:1.0 4651:1.0 
7.24 1:1.0 3:1.0 16:1.0 20:2.0 27:1.0 31:1.0 37:1.0 39:1.0 72:1.0 86:1.0 212:1.0 277:1.0 372:1.0 619:1.0 650:1.0 786:1.0 990:1.0 995:1.0 1315:1.0 1616:1.0 1760:1.0 8124:1.0 
0.6789868342619719 0:1.0 20:1.0 39:1.0 45:1.0 47:1.0 54:1.0 63:1.0 166:1.0 177:1.0 181:1.0 187:2.0 199:1.0 371:1.0 381:2.0 395:1.0 432:1.0 580:1.0 619:1.0 690:1.0 765:1.0 1183:1.0 2457:1.0 2461:1.0 4704:1.0 
1.9854742806131607 0:4.0 1:5.0 3:2.0 8:1.0 9:5.0 17:1.0 18:1.0 23:1.0 27:1.0 28:1.0 30:1.0 33:1.0 37:1.0 45:1.0 47:1.0 51:3.0 60:1.0 68:1.0 80:1.0 97:1.0 120:1.0 124:1.0 136:2.0 140:1.0 162:1.0 163:1.0 198:1.0 224:2.0 225:1.0 229:2.0 240:5.0 252:1.0 266:2.0 270:1.0 275:1.0 300:1.0 305:1.0 306:1.0 322:1.0 330:1.0 334:1.0 351:1.0 373:1.0 381:1.0 391:1.0 397:1.0 419:4.0 421:5.0 434:1.0 436:3.0 448:1.0 477:1.0 492:1.0 500:1.0 507:1.0 541:1.0 601:1.0 618:1.0 639:1.0 657:1.0 673:1.0 774:1.0 775:1.0 779:1.0 792:1.0 862:1.0 870:2.0 894:2.0 911:1.0 972:3.0 1049:1.0 1084:1.0 1089:3.0 1118:1.0 1167:1.0 1181:1.0 1200:1.0 1235:1.0 1261:4.0 1264:5.0 1472:1.0 1512:1.0 1611:1.0 1838:2.0 1875:1.0 1921:1.0 1960:1.0 1975:1.0 2000:1.0 2035:3.0 2083:1.0 2160:4.0 2164:1.0 2234:1.0 2337:2.0 2339:1.0 2362:1.0 2378:1.0 2396:1.0 2404:1.0 2413:3.0 2565:1.0 2569:1.0 2601:1.0 2632:1.0 2640:1.0 2670:1.0 2858:2.0 3019:1.0 3074:1.0 3099:2.0 3141:1.0 3186:1.0 3318:1.0 3465:1.0 3534:1.0 3689:1.0 3692:1.0 3812:1.0 3827:1.0 3976:1.0 4009:1.0 4031:1.0 4091:1.0 4095:1.0 4154:1.0 4165:1.0 4594:1.0 4752:1.0 4812:1.0 5023:1.0 5145:1.0 5254:1.0 5558:1.0 5692:1.0 5817:1.0 5936:1.0 6158:1.0 6353:1.0 6468:1.0 6549:1.0 6580:1.0 6722:1.0 7057:1.0 7171:1.0 7332:2.0 7550:1.0 7657:1.0 8271:1.0 8320:2.0 8515:1.0 8722:1.0 9450:1.0 10445:1.0 10553:1.0 11338:1.0 11394:1.0 11722:1.0 11994:1.0 13139:1.0 14185:1.0 14394:1.0 
0.26343777373206634 0:2.0 1:2.0 2:1.0 3:1.0 5:1.0 10:1.0 12:2.0 15:1.0 31:1.0 43:1.0 44:1.0 69:1.0 81:1.0 109:1.0 140:1.0 198:1.0 235:1.0 240:1.0 243:1.0 247:1.0 250:1.0 322:1.0 323:2.0 459:1.0 556:1.0 803:1.0 3742:1.0 3774:1.0 6324:1.0 
7.24 0:2.0 1:1.0 4:1.0 47:1.0 48:1.0 56:1.0 63:1.0 67:1.0 99:2.0 147:1.0 184:2.0 204:1.0 299:1.0 321:1.0 363:1.0 367:1.0 375:1.0 623:1.0 728:1.0 798:1.0 860:1.0 950:1.0 2273:2.0 
3.616717294428021 1:3.0 6:1.0 34:1.0 99:1.0 106:1.0 658:1.0 682:1.0 1205:1.0 1268:1.0 10287:1.0 
7.24 1:3.0 6:1.0 34:1.0 99:1.0 106:1.0 658:1.0 682:1.0 1205:1.0 1268:1.0 10287:1.0 
1.0880351270720656 1:2.0 30:1.0 43:1.0 61:1.0 118:1.0 121:1.0 164:1.0 166:1.0 362:1.0 869:1.0 1060:1.0 1205:2.0 1339:1.0 1429:1.0 1974:1.0 2297:1.0 
7.24 15:1.0 48:1.0 251:1.0 373:1.0 1060:1.0 1063:1.0 1233:1.0 3391:1.0 4679:1.0 6146:1.0 
2.9917354830294767 6:1.0 34:1.0 35:1.0 43:1.0 55:1.0 67:1.0 93:1.0 325:1.0 405:1.0 726:1.0 1459:1.0 1942:1.0 
5.121939510211244 6:1.0 74:1.0 159:1.0 185:1.0 538:1.0 1493:1.0 
1.4003804484548883 2:1.0 4:1.0 8:1.0 43:1.0 49:1.0 68:1.0 98:1.0 125:1.0 174:1.0 193:1.0 273:1.0 333:1.0 339:1.0 377:1.0 498:1.0 504:2.0 555:1.0 560:1.0 726:1.0 860:1.0 1596:1.0 1799:1.0 3077:1.0 3567:1.0 3714:1.0 4399:1.0 
7.24 3:1.0 4:1.0 6:1.0 7:1.0 8:1.0 15:1.0 49:3.0 326:1.0 356:1.0 367:1.0 540:1.0 698:1.0 808:2.0 910:1.0 915:1.0 
7.24 0:1.0 1:1.0 2:1.0 6:1.0 9:1.0 25:2.0 30:1.0 35:1.0 49:1.0 71:1.0 114:1.0 201:1.0 207:1.0 216:1.0 224:1.0 268:1.0 318:1.0 324:2.0 354:1.0 374:1.0 427:1.0 701:1.0 995:1.0 1148:1.0 1279:1.0 1391:1.0 1961:1.0 2124:1.0 2722:1.0 3918:1.0 4268:2.0 9325:1.0 
2.9844502987721295 1:1.0 4:1.0 109:1.0 151:1.0 245:1.0 314:1.0 547:1.0 
0.0776812669098643 0:2.0 1:8.0 2:3.0 3:2.0 4:3.0 5:4.0 6:2.0 7:1.0 9:1.0 11:1.0 13:2.0 14:2.0 16:4.0 17:1.0 20:12.0 23:1.0 25:2.0 28:1.0 36:1.0 37:1.0 42:1.0 46:3.0 51:1.0 52:1.0 53:1.0 62:2.0 67:3.0 69:1.0 72:3.0 77:3.0 79:1.0 81:5.0 84:1.0 85:3.0 86:1.0 87:1.0 91:1.0 94:1.0 96:2.0 97:2.0 104:3.0 112:1.0 114:2.0 133:1.0 134:2.0 136:1.0 139:2.0 140:1.0 141:1.0 143:1.0 155:1.0 157:1.0 162:1.0 165:1.0 166:1.0 173:2.0 182:1.0 195:2.0 199:3.0 220:1.0 222:1.0 233:1.0 236:1.0 255:1.0 260:1.0 261:1.0 272:1.0 283:1.0 287:1.0 289:5.0 294:2.0 310:1.0 324:1.0 350:1.0 352:1.0 353:1.0 360:1.0 372:1.0 378:1.0 383:2.0 386:1.0 391:1.0 396:1.0 418:2.0 461:1.0 463:1.0 464:2.0 502:1.0 519:1.0 525:1.0 550:1.0 559:1.0 562:3.0 564:1.0 572:1.0 590:1.0 610:1.0 625:1.0 635:1.0 643:1.0 644:1.0 654:1.0 655:1.0 660:1.0 671:2.0 672:1.0 679:3.0 690:2.0 695:1.0 699:1.0 712:1.0 717:1.0 741:1.0 746:1.0 754:1.0 839:2.0 905:1.0 928:2.0 962:2.0 991:1.0 1035:1.0 1056:1.0 1145:1.0 1181:1.0 1210:1.0 1243:1.0 1255:1.0 1291:1.0 1313:1.0 1350:1.0 1490:1.0 1507:1.0 1561:1.0 1601:1.0 1628:1.0 1629:1.0 1723:1.0 1775:2.0 2186:1.0 2269:2.0 2344:1.0 2427:3.0 2459:1.0 2545:1.0 2581:2.0 2759:1.0 2783:1.0 2835:1.0 3008:1.0 3188:1.0 3284:1.0 3328:1.0 3636:2.0 3937:1.0 3997:1.0 4003:1.0 4805:1.0 4868:1.0 5270:1.0 5922:1.0 5964:1.0 7010:1.0 7622:2.0 8841:1.0 10407:1.0 11034:1.0 11037:1.0 14412:1.0 
1.4907806899201947 0:2.0 1:4.0 3:2.0 4:3.0 6:2.0 9:1.0 11:1.0 31:1.0 32:1.0 40:1.0 46:1.0 55:1.0 84:1.0 172:1.0 186:2.0 189:1.0 205:2.0 219:1.0 239:2.0 261:1.0 285:1.0 324:1.0 395:1.0 572:1.0 586:1.0 600:1.0 609:1.0 629:2.0 644:1.0 839:1.0 906:1.0 995:1.0 1669:1.0 2382:1.0 2581:2.0 2605:1.0 4696:1.0 5532:1.0 
7.24 0:1.0 13:1.0 15:1.0 36:1.0 38:1.0 101:1.0 102:1.0 119:1.0 124:1.0 141:1.0 148:1.0 158:1.0 348:1.0 810:1.0 880:1.0 1336:1.0 1360:1.0 1367:1.0 1786:1.0 2120:1.0 5945:1.0 7076:1.0 
0.3631168048034743 0:5.0 1:3.0 3:4.0 4:1.0 5:2.0 6:3.0 7:3.0 9:1.0 12:1.0 17:4.0 19:1.0 23:1.0 24:1.0 25:1.0 26:1.0 28:1.0 29:3.0 31:1.0 32:1.0 36:4.0 37:1.0 38:2.0 40:1.0 42:2.0 46:1.0 47:2.0 48:3.0 51:1.0 57:1.0 59:1.0 64:1.0 74:1.0 75:3.0 79:4.0 81:2.0 86:1.0 94:1.0 98:1.0 99:1.0 101:1.0 114:2.0 116:1.0 117:1.0 118:1.0 127:1.0 136:1.0 137:1.0 159:1.0 169:1.0 187:2.0 192:1.0 196:1.0 199:4.0 206:1.0 209:1.0 214:2.0 217:2.0 219:1.0 225:1.0 228:1.0 236:1.0 242:1.0 243:1.0 252:2.0 265:1.0 272:1.0 274:2.0 277:1.0 287:1.0 300:1.0 310:1.0 316:1.0 326:2.0 350:1.0 356:1.0 360:1.0 368:3.0 374:1.0 402:1.0 424:1.0 425:1.0 437:1.0 444:1.0 461:1.0 532:2.0 540:2.0 545:2.0 549:1.0 551:3.0 562:1.0 567:1.0 574:1.0 583:1.0 585:1.0 602:1.0 610:1.0 612:1.0 631:1.0 672:1.0 720:1.0 732:1.0 733:1.0 735:1.0 739:1.0 742:1.0 839:1.0 859:2.0 904:1.0 910:1.0 923:1.0 973:1.0 974:1.0 1011:1.0 1119:1.0 1243:2.0 1291:1.0 1318:1.0 1361:1.0 1436:1.0 1636:1.0 1647:1.0 1675:1.0 1812:1.0 1905:1.0 1936:1.0 1961:1.0 2036:2.0 2066:3.0 2089:1.0 2134:1.0 2343:1.0 2347:1.0 2473:1.0 2551:1.0 2640:1.0 2674:1.0 2691:1.0 2695:1.0 2753:1.0 2961:1.0 3191:1.0 3280:1.0 3284:1.0 3366:1.0 3770:1.0 4124:1.0 4235:1.0 4556:1.0 5270:1.0 5281:1.0 5285:1.0 5371:1.0 5468:1.0 5610:1.0 5726:1.0 5852:1.0 6919:1.0 6924:1.0 8145:1.0 10196:1.0 10340:1.0 11769:1.0 13499:1.0 
0.5727749286563946 0:4.0 1:17.0 2:3.0 3:4.0 4:5.0 5:3.0 6:6.0 7:1.0 11:1.0 15:2.0 17:6.0 18:3.0 19:3.0 20:10.0 21:3.0 22:2.0 23:1.0 24:2.0 26:2.0 27:1.0 28:1.0 29:1.0 31:1.0 32:1.0 34:1.0 36:1.0 37:1.0 38:1.0 41:1.0 44:2.0 46:2.0 47:1.0 49:2.0 52:4.0 54:2.0 55:1.0 56:1.0 59:1.0 63:1.0 64:1.0 69:1.0 71:1.0 73:1.0 77:2.0 79:3.0 80:1.0 83:2.0 85:1.0 87:5.0 91:1.0 94:2.0 96:1.0 98:2.0 99:1.0 100:1.0 101:4.0 103:2.0 106:2.0 109:1.0 112:1.0 115:2.0 122:2.0 129:1.0 136:1.0 137:2.0 141:3.0 143:1.0 149:1.0 156:1.0 164:4.0 166:1.0 167:3.0 173:1.0 183:1.0 191:1.0 193:1.0 195:1.0 196:1.0 208:1.0 211:1.0 212:1.0 216:2.0 223:2.0 224:1.0 225:1.0 226:1.0 242:1.0 243:1.0 246:1.0 248:1.0 252:1.0 253:1.0 258:2.0 263:1.0 277:1.0 278:2.0 280:1.0 285:1.0 290:1.0 294:1.0 296:1.0 310:1.0 324:2.0 331:1.0 338:1.0 340:2.0 345:1.0 351:1.0 352:1.0 364:2.0 367:1.0 371:2.0 383:1.0 386:4.0 401:1.0 408:1.0 430:1.0 440:4.0 451:1.0 452:1.0 456:4.0 481:2.0 482:1.0 489:2.0 502:1.0 522:1.0 526:1.0 532:1.0 539:1.0 564:1.0 586:2.0 607:1.0 628:2.0 633:1.0 644:1.0 656:1.0 670:1.0 680:1.0 695:1.0 698:1.0 711:1.0 719:1.0 721:1.0 737:1.0 765:1.0 787:1.0 791:1.0 821:1.0 824:1.0 826:1.0 828:1.0 839:4.0 859:1.0 863:2.0 890:1.0 905:1.0 935:2.0 953:1.0 957:1.0 976:2.0 1021:2.0 1057:1.0 1060:1.0 1101:1.0 1134:1.0 1171:2.0 1186:1.0 1191:1.0 1208:1.0 1240:1.0 1249:1.0 1271:1.0 1283:1.0 1291:1.0 1326:1.0 1403:1.0 1417:1.0 1421:1.0 1472:1.0 1566:1.0 1593:1.0 1608:1.0 1636:1.0 1660:1.0 1686:1.0 1687:2.0 1723:1.0 1731:1.0 1766:1.0 1852:1.0 1903:1.0 1906:1.0 1926:1.0 2066:1.0 2114:1.0 2219:1.0 2339:1.0 2356:1.0 2426:1.0 2467:1.0 2469:1.0 2560:1.0 2613:1.0 2721:1.0 2804:1.0 2819:1.0 2855:1.0 2880:1.0 3003:1.0 3005:1.0 3400:1.0 3414:1.0 3527:2.0 3636:1.0 3638:1.0 4200:1.0 4391:1.0 4483:1.0 5013:1.0 5141:1.0 5216:2.0 5570:1.0 5577:1.0 5735:1.0 7289:1.0 7584:1.0 7598:1.0 9018:2.0 9901:1.0 9993:1.0 10006:1.0 10608:1.0 13167:1.0 13548:1.0 
7.24 3:1.0 6:1.0 19:1.0 32:1.0 51:1.0 57:1.0 64:1.0 109:1.0 173:1.0 186:1.0 189:1.0 304:1.0 353:1.0 1214:1.0 2675:1.0 2876:1.0 2962:1.0 3284:1.0 3671:1.0 5101:1.0 11356:1.0 
7.24 0:1.0 4:2.0 6:1.0 40:2.0 63:1.0 72:1.0 239:1.0 975:1.0 
7.24 0:1.0 3:1.0 4:1.0 5:1.0 11:2.0 15:1.0 16:3.0 29:1.0 39:1.0 56:1.0 62:2.0 82:2.0 93:1.0 95:1.0 99:1.0 104:1.0 122:3.0 171:1.0 188:1.0 192:1.0 296:1.0 359:1.0 371:1.0 395:1.0 482:1.0 512:1.0 748:1.0 839:2.0 932:1.0 1403:1.0 1420:1.0 1474:1.0 1852:1.0 2475:1.0 11083:1.0 
7.24 0:1.0 9:1.0 69:1.0 331:1.0 540:1.0 691:2.0 1637:1.0 4569:3.0 
0.9728747945574994 0:5.0 1:4.0 2:10.0 3:4.0 4:5.0 5:5.0 6:4.0 10:1.0 12:1.0 14:1.0 15:3.0 16:8.0 19:1.0 20:2.0 21:2.0 22:7.0 23:3.0 25:1.0 27:1.0 28:2.0 32:1.0 36:2.0 37:1.0 38:4.0 39:1.0 41:1.0 43:3.0 46:1.0 49:2.0 50:1.0 52:2.0 54:2.0 56:1.0 61:1.0 63:2.0 64:1.0 65:2.0 66:2.0 67:2.0 69:1.0 70:7.0 71:1.0 77:2.0 78:1.0 81:2.0 85:6.0 86:1.0 93:1.0 94:2.0 104:2.0 107:2.0 113:1.0 114:1.0 125:1.0 132:1.0 134:3.0 135:1.0 136:1.0 138:1.0 143:1.0 144:1.0 145:1.0 151:3.0 157:2.0 160:11.0 162:4.0 163:1.0 164:2.0 166:1.0 167:1.0 170:1.0 175:1.0 179:1.0 182:1.0 184:1.0 195:1.0 196:3.0 198:1.0 203:2.0 206:2.0 214:1.0 215:1.0 216:2.0 222:2.0 223:4.0 224:1.0 229:1.0 241:2.0 242:3.0 245:1.0 253:1.0 259:1.0 262:1.0 277:1.0 280:1.0 300:1.0 303:1.0 308:4.0 323:3.0 324:2.0 337:1.0 339:1.0 356:1.0 371:1.0 385:1.0 399:1.0 401:1.0 410:1.0 411:2.0 424:1.0 429:1.0 447:2.0 455:1.0 476:1.0 478:1.0 497:1.0 503:2.0 508:1.0 515:1.0 540:2.0 547:1.0 549:1.0 564:2.0 583:1.0 601:1.0 609:1.0 633:1.0 669:1.0 670:2.0 671:1.0 682:3.0 688:1.0 690:1.0 691:7.0 693:1.0 703:1.0 723:1.0 749:1.0 762:2.0 763:1.0 771:1.0 802:2.0 809:2.0 828:1.0 834:1.0 841:1.0 852:1.0 892:1.0 907:1.0 960:1.0 964:1.0 966:1.0 992:1.0 1002:1.0 1010:1.0 1070:1.0 1097:1.0 1121:1.0 1142:3.0 1171:1.0 1246:3.0 1247:1.0 1270:1.0 1286:1.0 1291:1.0 1363:1.0 1489:1.0 1573:1.0 1592:1.0 1628:1.0 1664:1.0 1667:1.0 1701:1.0 1703:1.0 1871:1.0 1915:1.0 1966:2.0 2271:1.0 2400:1.0 2617:1.0 2691:1.0 2819:2.0 2891:1.0 3101:1.0 3107:1.0 3161:2.0 3192:1.0 3281:1.0 3472:1.0 3517:1.0 3557:1.0 3608:1.0 3639:1.0 3735:1.0 3872:1.0 3910:1.0 3980:1.0 3987:1.0 4019:1.0 4191:1.0 4397:1.0 4569:9.0 4646:1.0 4655:1.0 5363:1.0 5463:1.0 5643:1.0 5646:1.0 6245:1.0 7314:1.0 7389:1.0 7864:1.0 8023:1.0 8184:1.0 9693:2.0 10053:1.0 10056:1.0 10972:1.0 11518:1.0 11658:1.0 11852:1.0 12242:1.0 12580:1.0 
4.612337147719591 0:2.0 1:3.0 3:1.0 4:1.0 5:1.0 6:1.0 10:1.0 16:1.0 42:1.0 55:1.0 56:1.0 62:1.0 108:2.0 135:1.0 136:2.0 316:1.0 390:1.0 464:1.0 527:1.0 631:1.0 839:1.0 916:1.0 3049:1.0 3067:1.0 3128:1.0 4814:1.0 5876:1.0 
1.8724878089753292 244:1.0 311:2.0 479:1.0 659:2.0 718:1.0 938:1.0 1026:1.0 1743:1.0 1759:2.0 2121:1.0 2943:1.0 10846:1.0 13030:1.0 
7.24 0:2.0 4:1.0 25:1.0 66:1.0 140:1.0 146:1.0 184:1.0 503:1.0 5338:1.0 6750:1.0 
2.872497820682709 0:2.0 1:1.0 2:1.0 3:2.0 9:3.0 12:2.0 15:1.0 18:1.0 19:1.0 25:1.0 33:1.0 35:1.0 37:1.0 47:1.0 51:1.0 58:1.0 78:1.0 81:1.0 85:1.0 93:1.0 107:1.0 109:1.0 114:1.0 118:1.0 122:1.0 123:1.0 126:1.0 130:1.0 147:1.0 151:1.0 153:3.0 155:1.0 204:1.0 228:1.0 254:1.0 263:1.0 270:1.0 271:1.0 331:2.0 436:1.0 469:1.0 491:1.0 512:1.0 515:1.0 533:1.0 536:1.0 579:1.0 617:1.0 654:1.0 678:1.0 743:1.0 757:1.0 1061:1.0 1079:1.0 1093:1.0 1266:1.0 1389:1.0 1394:1.0 1399:1.0 1498:2.0 1971:1.0 2316:1.0 2542:2.0 2713:1.0 2963:1.0 2974:1.0 3296:1.0 3798:1.0 8354:1.0 8830:1.0 13819:1.0 
7.24 1:1.0 16:1.0 45:1.0 51:1.0 70:1.0 104:1.0 166:1.0 361:1.0 617:1.0 922:1.0 1002:1.0 1071:1.0 1971:1.0 3206:1.0 
2.083635538584739 1:1.0 2:1.0 3:1.0 4:1.0 5:1.0 15:1.0 17:1.0 19:1.0 23:1.0 31:2.0 32:1.0 60:1.0 66:1.0 67:1.0 81:1.0 178:1.0 248:1.0 315:1.0 325:1.0 531:1.0 736:1.0 765:1.0 813:2.0 1058:1.0 1155:1.0 1241:1.0 1603:1.0 2030:2.0 6120:1.0 
0.41089619112482306 2:1.0 3:1.0 9:2.0 12:2.0 33:1.0 34:1.0 37:1.0 141:1.0 175:1.0 211:1.0 302:1.0 391:1.0 436:1.0 564:1.0 646:1.0 670:1.0 987:1.0 1450:1.0 1942:1.0 1956:1.0 2100:1.0 2867:1.0 5239:1.0 6239:1.0 
7.24 718:1.0 1355:1.0 1943:1.0 2069:1.0 2283:1.0 2507:1.0 2583:1.0 4257:1.0 
7.24 0:1.0 2:1.0 10:1.0 17:1.0 43:1.0 45:1.0 241:1.0 248:1.0 307:1.0 693:1.0 813:1.0 1401:1.0 1815:1.0 
7.24 0:1.0 10:1.0 15:1.0 25:1.0 111:1.0 206:1.0 848:1.0 1148:1.0 1645:1.0 1939:1.0 4796:1.0 
7.24 398:1.0 795:1.0 7085:1.0 
7.24 0:1.0 2:1.0 6:1.0 13:2.0 16:1.0 18:2.0 30:1.0 35:1.0 45:1.0 65:1.0 96:1.0 118:1.0 137:1.0 325:1.0 576:1.0 739:1.0 846:1.0 858:1.0 1458:1.0 
7.24 0:2.0 6:1.0 7:1.0 11:1.0 13:1.0 34:1.0 35:1.0 45:1.0 63:1.0 101:1.0 114:1.0 118:1.0 145:1.0 184:1.0 226:1.0 327:1.0 330:1.0 1152:1.0 
0.6325550064347945 25:1.0 45:1.0 114:1.0 177:1.0 200:1.0 532:1.0 805:1.0 1029:1.0 2091:1.0 3407:1.0 
2.152570028368311 244:1.0 909:1.0 1451:1.0 1653:1.0 2677:1.0 4448:1.0 
7.24 659:1.0 730:1.0 1770:1.0 9858:1.0 
7.24 0:2.0 1:1.0 2:1.0 3:1.0 4:1.0 6:1.0 15:1.0 34:1.0 35:1.0 42:1.0 43:2.0 64:1.0 80:1.0 93:1.0 126:1.0 133:1.0 190:1.0 207:1.0 249:1.0 379:1.0 636:1.0 921:1.0 1169:1.0 1279:1.0 1356:1.0 1493:1.0 1498:2.0 1553:1.0 1948:1.0 3697:1.0 
7.24 659:1.0 730:1.0 2349:1.0 9858:1.0 
7.24 1:2.0 6:1.0 30:1.0 34:1.0 77:1.0 422:1.0 433:1.0 508:1.0 517:1.0 667:1.0 846:1.0 1136:1.0 3239:1.0 
7.24 0:1.0 1:2.0 3:1.0 55:1.0 60:1.0 72:1.0 84:1.0 85:1.0 132:1.0 154:1.0 171:1.0 232:1.0 236:1.0 319:1.0 353:1.0 406:1.0 510:1.0 705:1.0 1130:1.0 1215:1.0 1400:1.0 1516:1.0 2002:1.0 3358:1.0 5191:1.0 
5.700937201198575 1:3.0 3:2.0 7:1.0 11:1.0 18:1.0 23:1.0 24:1.0 26:1.0 30:1.0 37:1.0 44:1.0 46:2.0 48:1.0 57:1.0 63:1.0 64:1.0 66:1.0 72:1.0 77:1.0 84:1.0 124:1.0 132:1.0 158:1.0 195:1.0 214:2.0 236:2.0 314:1.0 319:1.0 436:1.0 455:1.0 502:1.0 557:2.0 645:1.0 651:1.0 772:2.0 1037:1.0 1299:1.0 1437:1.0 1447:1.0 2124:1.0 2689:1.0 2809:1.0 4223:2.0 5111:1.0 6978:1.0 
7.24 8:1.0 40:1.0 57:1.0 133:1.0 185:1.0 411:1.0 529:2.0 601:1.0 698:1.0 1029:1.0 1057:1.0 1187:1.0 1314:2.0 1626:1.0 2749:1.0 4610:1.0 
7.24 0:2.0 1:1.0 5:1.0 10:1.0 12:1.0 15:1.0 28:1.0 33:2.0 54:1.0 64:1.0 87:1.0 100:1.0 120:1.0 135:1.0 201:1.0 232:1.0 249:1.0 251:1.0 280:1.0 375:2.0 521:2.0 593:1.0 693:1.0 715:1.0 734:1.0 1482:1.0 2156:1.0 2444:1.0 5827:1.0 7523:1.0 
6.905453562176149 0:1.0 27:1.0 32:1.0 51:1.0 55:1.0 73:6.0 209:1.0 248:1.0 317:1.0 325:1.0 428:1.0 515:1.0 517:1.0 540:3.0 579:1.0 604:1.0 922:1.0 4359:1.0 
7.24 2:1.0 8:1.0 63:1.0 67:1.0 99:1.0 126:1.0 127:1.0 217:1.0 218:1.0 220:1.0 354:1.0 499:1.0 529:1.0 3251:1.0 8508:1.0 10536:1.0 
7.24 0:1.0 5:1.0 10:1.0 15:1.0 31:1.0 62:1.0 63:1.0 323:1.0 393:1.0 2273:1.0 2578:1.0 
0.7692649580790469 1:3.0 2:1.0 5:2.0 23:1.0 28:1.0 30:1.0 41:1.0 43:1.0 58:1.0 59:1.0 62:2.0 64:1.0 80:1.0 85:1.0 123:1.0 127:1.0 163:1.0 182:1.0 185:1.0 243:1.0 279:1.0 295:1.0 419:1.0 435:1.0 499:1.0 636:1.0 639:2.0 811:1.0 876:1.0 924:2.0 946:1.0 988:2.0 1133:1.0 1356:1.0 1376:1.0 1378:1.0 1493:1.0 1506:1.0 1553:1.0 1776:1.0 1962:1.0 2318:1.0 2526:1.0 2704:1.0 2861:1.0 3201:1.0 4279:1.0 6887:1.0 11069:1.0 14227:1.0 
7.24 40:1.0 372:1.0 400:1.0 470:1.0 541:2.0 657:2.0 666:1.0 898:1.0 980:1.0 1200:1.0 1366:1.0 1631:1.0 1958:1.0 2282:1.0 2889:1.0 4062:1.0 7111:1.0 10709:1.0 12890:1.0 
6.284388167832924 2:1.0 3:3.0 9:1.0 12:1.0 17:1.0 18:1.0 19:1.0 31:1.0 42:1.0 43:1.0 49:2.0 56:1.0 69:1.0 78:1.0 128:1.0 137:1.0 153:1.0 201:1.0 208:1.0 243:2.0 249:1.0 355:1.0 436:1.0 592:1.0 735:1.0 898:1.0 1199:1.0 1324:1.0 1598:1.0 1761:1.0 2080:1.0 3296:1.0 3755:1.0 7373:1.0 7388:1.0 
7.24 0:3.0 2:1.0 5:1.0 10:1.0 11:1.0 16:1.0 18:1.0 29:2.0 30:2.0 34:1.0 48:1.0 67:1.0 71:1.0 100:1.0 119:1.0 135:1.0 145:1.0 164:1.0 281:1.0 378:1.0 461:1.0 854:1.0 870:1.0 1039:1.0 1107:1.0 2589:1.0 5497:1.0 
0.8172180509975919 0:5.0 1:4.0 2:2.0 4:6.0 5:1.0 7:1.0 9:1.0 11:1.0 12:3.0 13:1.0 14:3.0 16:1.0 18:2.0 20:2.0 21:2.0 23:1.0 28:1.0 30:1.0 32:1.0 34:1.0 39:4.0 40:4.0 41:1.0 44:2.0 45:1.0 49:2.0 51:2.0 52:1.0 58:2.0 59:1.0 60:1.0 61:1.0 66:1.0 67:1.0 69:1.0 70:1.0 71:1.0 75:2.0 77:1.0 84:1.0 93:1.0 95:1.0 100:1.0 104:2.0 108:2.0 109:1.0 112:2.0 114:1.0 115:1.0 116:1.0 120:1.0 124:1.0 126:1.0 128:1.0 134:1.0 136:1.0 142:1.0 143:1.0 144:1.0 161:1.0 164:1.0 170:1.0 171:1.0 177:1.0 182:2.0 183:2.0 193:3.0 195:1.0 224:1.0 237:1.0 238:1.0 240:1.0 243:1.0 245:1.0 247:1.0 250:1.0 251:1.0 255:1.0 262:3.0 274:1.0 297:1.0 329:1.0 336:2.0 365:1.0 385:1.0 387:2.0 393:1.0 402:1.0 403:2.0 412:1.0 414:2.0 416:1.0 418:1.0 432:1.0 442:1.0 469:1.0 472:1.0 481:1.0 482:1.0 495:1.0 498:1.0 502:1.0 508:1.0 517:1.0 526:1.0 560:1.0 570:2.0 572:1.0 613:1.0 635:1.0 639:1.0 640:1.0 669:1.0 678:1.0 685:2.0 721:1.0 727:1.0 752:1.0 767:1.0 776:1.0 777:1.0 809:1.0 823:2.0 846:2.0 880:1.0 902:3.0 933:2.0 939:1.0 950:1.0 974:1.0 1006:1.0 1011:1.0 1014:1.0 1018:1.0 1059:3.0 1063:1.0 1071:1.0 1125:1.0 1130:1.0 1172:2.0 1174:2.0 1185:1.0 1186:1.0 1187:1.0 1228:1.0 1272:1.0 1299:1.0 1310:1.0 1354:1.0 1418:1.0 1435:1.0 1436:1.0 1442:1.0 1598:1.0 1711:1.0 1775:1.0 1849:1.0 1930:1.0 1937:1.0 1979:1.0 2174:1.0 2245:1.0 2333:1.0 2364:1.0 2376:1.0 2472:1.0 2514:1.0 2570:2.0 2589:3.0 2684:1.0 2773:2.0 2785:1.0 2788:1.0 2828:1.0 2853:1.0 2857:1.0 2897:1.0 2936:1.0 3105:1.0 3121:1.0 3236:2.0 3368:1.0 3502:1.0 3511:1.0 3982:1.0 4063:1.0 4166:1.0 4218:1.0 4235:1.0 4278:1.0 4305:1.0 4795:1.0 5355:3.0 6207:2.0 6473:1.0 6606:2.0 6780:1.0 7713:1.0 7977:1.0 8312:1.0 8614:1.0 9656:1.0 10752:1.0 10759:1.0 11326:1.0 
7.24 0:1.0 4:1.0 11:1.0 19:1.0 51:1.0 75:1.0 86:1.0 124:1.0 242:1.0 267:1.0 307:1.0 339:1.0 377:1.0 618:1.0 1931:1.0 4323:1.0 
7.24 0:2.0 2:3.0 3:2.0 8:1.0 10:1.0 12:2.0 14:1.0 33:1.0 34:1.0 35:1.0 44:1.0 49:1.0 61:2.0 66:1.0 86:1.0 90:1.0 137:1.0 140:1.0 153:1.0 158:1.0 178:1.0 181:2.0 183:1.0 194:1.0 218:1.0 253:1.0 269:1.0 271:1.0 472:1.0 536:1.0 721:1.0 1036:1.0 1199:1.0 1211:1.0 8599:1.0 
0.45830284642042934 3:1.0 31:1.0 126:1.0 173:1.0 217:1.0 3461:1.0 4564:1.0 
5.944368224910249 0:1.0 1:2.0 3:2.0 7:1.0 9:1.0 12:1.0 15:1.0 30:1.0 32:1.0 33:3.0 39:1.0 40:1.0 62:2.0 70:1.0 82:1.0 94:1.0 117:1.0 120:1.0 158:1.0 160:3.0 164:1.0 170:1.0 198:1.0 293:1.0 383:1.0 482:1.0 521:1.0 646:1.0 764:1.0 796:1.0 951:1.0 1147:1.0 1423:1.0 1799:1.0 2439:1.0 
2.229035115866317 6:1.0 15:1.0 43:1.0 163:1.0 955:1.0 1152:1.0 2907:1.0 3126:1.0 3329:1.0 4258:1.0 4308:1.0 5591:1.0 
3.875268566648792 1:1.0 4:1.0 6:1.0 8:1.0 10:1.0 35:1.0 39:1.0 130:1.0 132:1.0 568:1.0 658:1.0 
7.24 1:1.0 7:1.0 34:1.0 35:1.0 39:1.0 99:1.0 106:1.0 117:1.0 120:1.0 123:1.0 177:1.0 357:1.0 535:1.0 580:1.0 690:1.0 887:1.0 1010:1.0 
0.7074565602071083 4:1.0 9:1.0 49:1.0 115:1.0 130:1.0 137:1.0 182:1.0 493:1.0 500:1.0 634:1.0 1835:1.0 2357:1.0 
7.24 4:1.0 35:1.0 
4.8057886489542225 1:2.0 5:1.0 6:1.0 13:1.0 14:1.0 22:1.0 25:1.0 69:1.0 93:1.0 110:1.0 135:1.0 143:1.0 175:1.0 242:1.0 356:1.0 681:1.0 1012:2.0 1243:1.0 1804:1.0 3358:1.0 3524:1.0 4243:1.0 11580:1.0 
1.1464196667676834 0:3.0 2:4.0 3:2.0 4:1.0 5:7.0 9:2.0 10:2.0 11:1.0 12:2.0 16:1.0 17:1.0 19:2.0 20:3.0 21:3.0 22:1.0 23:1.0 25:2.0 27:1.0 28:1.0 30:1.0 32:1.0 44:2.0 46:1.0 49:1.0 50:1.0 52:4.0 54:3.0 59:1.0 60:4.0 62:1.0 69:4.0 81:1.0 90:2.0 91:1.0 99:1.0 101:2.0 107:2.0 114:1.0 115:3.0 116:1.0 118:1.0 122:1.0 128:2.0 134:1.0 138:2.0 143:1.0 154:1.0 177:1.0 184:1.0 190:1.0 193:1.0 200:1.0 247:2.0 251:1.0 253:2.0 270:1.0 277:2.0 297:1.0 312:1.0 313:1.0 315:1.0 317:1.0 336:1.0 339:1.0 346:1.0 348:1.0 350:1.0 368:1.0 378:1.0 385:1.0 396:1.0 400:1.0 403:1.0 407:1.0 417:1.0 426:1.0 431:1.0 446:1.0 496:2.0 499:1.0 505:1.0 510:1.0 514:1.0 535:1.0 543:1.0 545:1.0 575:1.0 577:1.0 594:1.0 612:1.0 632:1.0 639:1.0 646:1.0 649:1.0 666:1.0 667:1.0 673:1.0 679:2.0 706:1.0 837:1.0 854:1.0 863:1.0 904:1.0 910:1.0 957:2.0 1004:1.0 1008:1.0 1024:1.0 1063:1.0 1077:1.0 1125:1.0 1144:1.0 1146:1.0 1166:1.0 1216:2.0 1234:2.0 1250:1.0 1274:1.0 1284:1.0 1335:1.0 1375:1.0 1394:1.0 1423:1.0 1428:1.0 1541:1.0 1598:1.0 1611:2.0 1796:1.0 1839:1.0 2011:1.0 2202:1.0 2290:1.0 2595:1.0 2629:1.0 2652:1.0 2659:1.0 2673:1.0 2852:1.0 3043:1.0 3108:1.0 3293:1.0 3331:1.0 3393:1.0 3590:1.0 3625:1.0 3644:1.0 3710:2.0 3908:1.0 4125:1.0 4519:1.0 4768:1.0 4903:1.0 5277:2.0 5704:2.0 5724:1.0 6265:1.0 7356:1.0 7909:1.0 8220:1.0 10130:1.0 10141:1.0 10491:1.0 10761:1.0 11087:1.0 11346:1.0 13436:1.0 
7.24 8:1.0 9:1.0 11:1.0 21:1.0 29:1.0 30:1.0 47:1.0 83:1.0 100:1.0 141:1.0 148:1.0 189:1.0 343:1.0 421:1.0 792:1.0 1298:1.0 1320:1.0 2061:1.0 2160:1.0 2865:1.0 2906:1.0 
1.3081551423999553 0:7.0 2:3.0 3:4.0 4:2.0 5:1.0 7:2.0 9:2.0 12:4.0 14:9.0 17:10.0 18:10.0 19:2.0 20:2.0 21:1.0 22:1.0 23:5.0 25:3.0 28:5.0 29:1.0 30:2.0 31:1.0 32:5.0 35:2.0 36:5.0 38:2.0 40:5.0 42:2.0 44:3.0 45:1.0 46:2.0 47:1.0 48:3.0 49:10.0 50:2.0 51:3.0 52:6.0 53:5.0 56:1.0 58:2.0 59:4.0 60:1.0 61:3.0 62:1.0 64:3.0 65:2.0 66:1.0 68:1.0 69:1.0 70:1.0 71:1.0 75:2.0 77:1.0 79:4.0 87:2.0 89:1.0 90:3.0 91:1.0 92:3.0 93:4.0 94:1.0 95:1.0 96:1.0 97:2.0 102:2.0 103:1.0 104:2.0 105:2.0 107:2.0 112:1.0 113:1.0 114:1.0 115:1.0 117:1.0 120:7.0 124:1.0 127:1.0 128:1.0 130:1.0 133:3.0 134:4.0 136:8.0 139:3.0 154:2.0 156:1.0 157:1.0 162:4.0 163:2.0 165:1.0 167:1.0 168:3.0 169:2.0 170:1.0 174:4.0 175:2.0 177:6.0 183:1.0 185:3.0 187:3.0 193:3.0 195:2.0 196:2.0 202:9.0 206:1.0 208:1.0 216:7.0 217:1.0 220:1.0 225:1.0 227:6.0 229:1.0 231:1.0 232:2.0 233:1.0 236:7.0 237:4.0 238:4.0 247:1.0 248:2.0 249:2.0 251:2.0 252:1.0 253:4.0 265:2.0 270:1.0 277:1.0 281:4.0 282:1.0 284:2.0 285:1.0 291:1.0 296:2.0 297:2.0 300:1.0 310:1.0 314:4.0 316:1.0 319:1.0 333:3.0 339:3.0 342:1.0 344:2.0 348:1.0 350:1.0 352:5.0 353:1.0 354:1.0 360:2.0 361:1.0 364:1.0 367:1.0 369:1.0 383:3.0 384:4.0 389:4.0 393:1.0 400:1.0 415:2.0 419:2.0 420:2.0 431:1.0 435:2.0 442:1.0 443:7.0 446:2.0 449:1.0 455:1.0 457:1.0 458:2.0 460:2.0 463:1.0 470:2.0 472:1.0 477:1.0 487:2.0 496:1.0 500:2.0 507:1.0 509:3.0 510:1.0 512:1.0 520:1.0 535:3.0 536:1.0 545:1.0 550:1.0 554:1.0 572:1.0 578:2.0 579:1.0 591:7.0 593:1.0 598:1.0 601:1.0 602:1.0 609:1.0 610:1.0 612:1.0 618:1.0 620:1.0 626:6.0 628:1.0 634:2.0 647:1.0 651:3.0 660:1.0 666:1.0 669:3.0 674:1.0 679:1.0 685:1.0 701:1.0 705:2.0 715:1.0 716:1.0 720:1.0 733:1.0 738:1.0 740:1.0 741:1.0 742:1.0 750:1.0 764:6.0 770:1.0 777:1.0 790:2.0 805:2.0 808:3.0 813:1.0 815:1.0 831:2.0 834:1.0 836:3.0 837:1.0 853:2.0 868:1.0 870:1.0 873:1.0 874:1.0 915:2.0 918:3.0 919:1.0 920:1.0 926:2.0 945:1.0 951:6.0 963:1.0 976:1.0 981:3.0 987:1.0 1000:1.0 1003:2.0 1008:1.0 1014:4.0 1015:1.0 1016:1.0 1019:1.0 1030:1.0 1053:1.0 1057:1.0 1058:1.0 1062:1.0 1067:1.0 1072:1.0 1073:1.0 1093:1.0 1099:1.0 1106:3.0 1119:1.0 1131:2.0 1132:1.0 1133:1.0 1164:1.0 1172:1.0 1176:1.0 1177:3.0 1182:1.0 1186:2.0 1187:1.0 1197:1.0 1199:1.0 1203:4.0 1204:1.0 1209:1.0 1214:1.0 1237:1.0 1270:1.0 1287:1.0 1288:1.0 1300:1.0 1324:1.0 1325:1.0 1342:2.0 1364:1.0 1375:2.0 1376:1.0 1387:1.0 1392:2.0 1398:1.0 1405:1.0 1406:1.0 1430:1.0 1432:1.0 1444:1.0 1445:2.0 1446:2.0 1456:2.0 1468:2.0 1470:1.0 1479:1.0 1480:1.0 1481:1.0 1493:1.0 1501:1.0 1509:1.0 1560:3.0 1623:1.0 1624:1.0 1631:1.0 1635:1.0 1637:1.0 1644:1.0 1668:3.0 1672:2.0 1681:1.0 1685:1.0 1699:1.0 1700:1.0 1702:1.0 1728:6.0 1749:1.0 1762:1.0 1780:2.0 1781:1.0 1793:2.0 1799:1.0 1806:1.0 1818:1.0 1824:1.0 1827:1.0 1839:1.0 1875:1.0 1878:3.0 1907:1.0 1913:1.0 1935:1.0 1959:1.0 1977:1.0 2004:1.0 2005:1.0 2007:1.0 2023:1.0 2024:1.0 2032:1.0 2043:1.0 2075:1.0 2077:2.0 2103:2.0 2107:1.0 2159:1.0 2188:1.0 2228:1.0 2244:2.0 2246:1.0 2254:1.0 2255:1.0 2262:1.0 2309:1.0 2338:1.0 2364:2.0 2386:1.0 2391:1.0 2420:1.0 2430:2.0 2452:10.0 2456:1.0 2487:2.0 2499:1.0 2649:1.0 2730:3.0 2736:1.0 2741:3.0 2760:1.0 2779:4.0 2789:1.0 2791:1.0 2804:2.0 2809:1.0 2835:1.0 2926:1.0 2963:2.0 2999:1.0 3007:1.0 3010:1.0 3020:1.0 3036:1.0 3038:1.0 3071:1.0 3073:1.0 3124:1.0 3169:1.0 3174:1.0 3222:1.0 3236:1.0 3251:1.0 3257:1.0 3272:2.0 3273:1.0 3334:1.0 3391:1.0 3398:1.0 3411:1.0 3424:1.0 3429:1.0 3464:1.0 3486:1.0 3518:1.0 3526:2.0 3537:1.0 3576:1.0 3659:1.0 3660:1.0 3668:1.0 3782:3.0 3799:4.0 3800:1.0 3801:1.0 3804:1.0 3823:1.0 3839:1.0 3883:1.0 3918:1.0 3949:1.0 3967:1.0 4052:1.0 4110:2.0 4114:2.0 4130:1.0 4176:1.0 4185:1.0 4222:1.0 4285:1.0 4299:1.0 4395:1.0 4402:1.0 4406:1.0 4466:1.0 4510:1.0 4527:1.0 4599:1.0 4603:1.0 4703:1.0 4731:1.0 4745:1.0 4788:1.0 4814:1.0 4879:1.0 4921:1.0 4966:1.0 5015:1.0 5035:1.0 5039:1.0 5090:1.0 5141:1.0 5165:1.0 5318:1.0 5340:2.0 5386:2.0 5404:2.0 5410:1.0 5444:1.0 5448:1.0 5507:1.0 5520:1.0 5528:1.0 5556:1.0 5632:1.0 5634:1.0 5659:1.0 5713:1.0 5722:1.0 5765:2.0 5790:1.0 5810:1.0 5811:1.0 5908:2.0 5918:1.0 5948:1.0 5970:1.0 5987:1.0 6073:1.0 6124:1.0 6151:2.0 6184:1.0 6231:1.0 6232:1.0 6239:1.0 6312:1.0 6324:1.0 6334:1.0 6337:1.0 6338:1.0 6350:1.0 6357:6.0 6358:1.0 6430:1.0 6468:1.0 6534:1.0 6548:1.0 6550:3.0 6555:4.0 6567:1.0 6569:1.0 6613:1.0 6627:2.0 6630:1.0 6641:3.0 6659:1.0 6678:1.0 6696:1.0 6741:2.0 6749:1.0 6758:1.0 6769:1.0 6802:1.0 6808:1.0 6812:1.0 6845:2.0 6939:1.0 6955:1.0 6967:6.0 6985:2.0 7012:1.0 7022:1.0 7033:1.0 7037:1.0 7067:1.0 7120:1.0 7141:6.0 7148:1.0 7249:1.0 7349:1.0 7376:2.0 7382:1.0 7383:1.0 7546:1.0 7586:1.0 7609:1.0 7635:1.0 7640:2.0 7676:2.0 7696:1.0 7747:1.0 7795:1.0 7909:1.0 7926:1.0 7931:1.0 8070:5.0 8132:1.0 8175:1.0 8202:1.0 8216:1.0 8230:2.0 8244:1.0 8272:2.0 8275:2.0 8325:1.0 8404:1.0 8466:1.0 8518:1.0 8573:2.0 8608:2.0 8615:1.0 8645:2.0 8655:1.0 8662:1.0 8675:1.0 8744:1.0 8747:1.0 8803:1.0 8864:1.0 8924:1.0 9126:1.0 9220:1.0 9243:1.0 9259:1.0 9262:1.0 9423:3.0 9444:2.0 9657:1.0 9754:1.0 9782:1.0 9813:1.0 9835:1.0 9976:1.0 10023:1.0 10193:1.0 10369:1.0 10379:1.0 10411:1.0 10416:1.0 10550:2.0 10579:3.0 10598:1.0 10622:1.0 10633:1.0 10710:1.0 10989:1.0 11049:1.0 11125:1.0 11227:1.0 11241:1.0 11370:1.0 11408:1.0 11446:2.0 11504:2.0 11507:2.0 11520:1.0 11558:1.0 11597:1.0 11615:2.0 11629:1.0 11662:1.0 11697:1.0 11739:1.0 11751:1.0 11812:1.0 11873:1.0 11874:1.0 11895:1.0 12179:1.0 12256:1.0 12308:1.0 12368:1.0 12463:2.0 12577:2.0 12592:1.0 12600:1.0 12601:1.0 12604:1.0 12620:1.0 12659:2.0 12686:1.0 12736:1.0 12815:1.0 12857:1.0 12921:1.0 12963:1.0 12971:1.0 13042:1.0 13080:2.0 13176:1.0 13207:1.0 13276:1.0 13447:2.0 13468:2.0 13510:1.0 13565:1.0 13594:1.0 13620:2.0 13728:1.0 13735:2.0 13737:1.0 13740:1.0 13767:1.0 13773:1.0 13829:1.0 13832:1.0 13838:1.0 13839:2.0 14126:2.0 14618:1.0 14908:1.0 
6.049088637835222 244:4.0 311:1.0 349:2.0 659:1.0 718:1.0 856:1.0 1331:1.0 1478:1.0 1632:1.0 1746:1.0 1767:2.0 2127:1.0 2555:1.0 2815:1.0 3613:1.0 3990:1.0 4720:1.0 5139:1.0 5568:1.0 7995:2.0 8358:1.0 8407:1.0 9291:1.0 10473:1.0 13137:1.0 13148:1.0 
0.4500773550710452 0:2.0 1:2.0 2:2.0 3:2.0 4:1.0 10:1.0 11:1.0 12:1.0 15:1.0 16:1.0 21:1.0 29:2.0 30:1.0 34:1.0 41:2.0 80:1.0 93:1.0 112:1.0 113:1.0 125:1.0 138:1.0 154:1.0 168:1.0 177:1.0 199:1.0 212:1.0 270:1.0 316:1.0 334:1.0 339:1.0 356:1.0 361:1.0 423:1.0 507:1.0 517:1.0 524:1.0 550:1.0 551:1.0 606:1.0 612:1.0 642:1.0 746:1.0 761:1.0 852:1.0 987:1.0 1235:1.0 1360:1.0 1705:1.0 2514:1.0 3335:1.0 3924:1.0 
0.7889523689407062 0:4.0 1:5.0 3:1.0 5:1.0 9:1.0 11:1.0 13:1.0 14:1.0 16:1.0 22:1.0 23:1.0 32:3.0 36:1.0 45:1.0 46:1.0 47:1.0 52:1.0 58:1.0 74:1.0 85:1.0 91:1.0 92:2.0 98:1.0 116:1.0 117:1.0 118:1.0 140:1.0 159:1.0 167:2.0 170:1.0 196:1.0 198:1.0 200:1.0 223:1.0 228:1.0 236:1.0 257:1.0 278:1.0 306:1.0 522:1.0 588:1.0 596:1.0 660:1.0 671:1.0 863:1.0 865:1.0 872:1.0 962:1.0 1012:1.0 1048:1.0 1162:1.0 1168:1.0 1193:1.0 1429:1.0 3071:1.0 4164:1.0 4386:1.0 5398:2.0 6900:3.0 7463:1.0 13546:2.0 
7.24 0:1.0 2:1.0 3:1.0 6:1.0 29:1.0 34:1.0 53:1.0 98:1.0 302:1.0 437:1.0 489:1.0 601:1.0 635:1.0 726:1.0 825:1.0 1041:1.0 1736:1.0 1783:1.0 2148:1.0 2329:1.0 2448:1.0 2523:1.0 3167:1.0 5465:1.0 5637:1.0 5910:1.0 11095:1.0 
5.580221201430065 0:1.0 2:2.0 3:1.0 9:1.0 10:1.0 12:2.0 17:1.0 23:1.0 24:1.0 26:1.0 33:1.0 34:1.0 35:1.0 43:1.0 48:1.0 49:1.0 87:1.0 114:1.0 119:1.0 146:1.0 153:1.0 202:1.0 253:1.0 323:2.0 354:1.0 367:1.0 415:1.0 458:2.0 493:1.0 507:2.0 535:1.0 560:1.0 572:1.0 580:2.0 685:1.0 766:1.0 968:1.0 1012:1.0 1288:1.0 1655:1.0 5078:1.0 7263:1.0 7541:1.0 7738:1.0 8669:1.0 9206:1.0 
7.24 0:1.0 64:1.0 79:1.0 120:1.0 193:1.0 195:1.0 219:1.0 584:1.0 729:1.0 833:1.0 1028:1.0 2013:1.0 4077:1.0 6654:1.0 8896:1.0 
0.15905504162560097 0:2.0 2:2.0 3:1.0 4:2.0 5:1.0 6:2.0 7:1.0 9:1.0 11:1.0 12:1.0 13:3.0 14:1.0 15:1.0 16:1.0 20:1.0 23:1.0 32:1.0 33:1.0 36:2.0 50:3.0 51:2.0 60:1.0 63:1.0 64:1.0 70:1.0 79:3.0 82:1.0 84:1.0 85:1.0 92:1.0 114:1.0 117:1.0 126:1.0 136:1.0 142:1.0 170:1.0 171:1.0 174:1.0 177:1.0 190:1.0 211:1.0 214:1.0 224:1.0 228:1.0 250:1.0 255:1.0 306:1.0 310:1.0 319:1.0 322:1.0 353:1.0 383:1.0 415:1.0 419:1.0 487:1.0 493:1.0 535:1.0 588:1.0 605:1.0 612:1.0 617:1.0 637:1.0 668:1.0 685:2.0 786:1.0 808:2.0 809:1.0 833:1.0 860:1.0 975:2.0 1005:2.0 1324:1.0 1407:1.0 1413:1.0 1490:1.0 1491:1.0 1510:1.0 1561:1.0 1711:1.0 1717:1.0 1891:1.0 1894:1.0 2013:1.0 2281:1.0 2510:1.0 2881:1.0 2887:1.0 2905:1.0 2930:1.0 3012:1.0 3445:1.0 3787:1.0 5044:1.0 5061:1.0 5740:1.0 6268:1.0 7326:1.0 8784:1.0 10481:1.0 10732:1.0 11396:1.0 14016:1.0 
7.24 833:1.0 2013:1.0 
7.24 349:1.0 471:1.0 882:1.0 1770:1.0 1943:1.0 2815:1.0 4458:1.0 4790:1.0 7101:1.0 7466:1.0 7947:1.0 14023:1.0 
0.3576708904512743 0:2.0 1:1.0 2:1.0 3:2.0 6:1.0 9:1.0 12:1.0 20:2.0 30:1.0 35:1.0 49:2.0 67:1.0 68:1.0 71:1.0 74:2.0 82:1.0 86:1.0 123:1.0 124:1.0 125:1.0 137:1.0 146:1.0 159:2.0 164:1.0 178:1.0 197:1.0 253:2.0 276:1.0 305:1.0 356:1.0 373:1.0 441:1.0 445:1.0 493:2.0 498:1.0 574:1.0 639:1.0 693:1.0 715:1.0 767:1.0 799:1.0 917:1.0 1055:1.0 1131:1.0 1311:1.0 1700:2.0 2344:1.0 4201:1.0 4313:1.0 6859:1.0 
2.6200986280890515 0:1.0 3:1.0 4:2.0 5:2.0 6:2.0 7:1.0 8:1.0 9:2.0 14:1.0 17:1.0 36:1.0 49:6.0 50:1.0 67:1.0 68:1.0 75:1.0 79:5.0 86:2.0 94:1.0 97:2.0 105:2.0 114:1.0 118:1.0 121:1.0 126:1.0 131:1.0 139:1.0 146:2.0 161:1.0 178:1.0 238:1.0 281:1.0 315:1.0 367:1.0 370:1.0 375:1.0 385:1.0 414:1.0 419:5.0 496:1.0 498:1.0 525:1.0 526:1.0 608:1.0 918:4.0 922:1.0 971:1.0 1552:1.0 2055:1.0 2144:1.0 2192:1.0 2663:1.0 3211:1.0 3235:1.0 3399:1.0 5876:1.0 9302:1.0 
0.278688250268237 4:1.0 17:2.0 36:2.0 40:1.0 42:1.0 79:1.0 253:2.0 263:1.0 331:1.0 452:1.0 489:2.0 531:2.0 808:2.0 1123:1.0 1324:2.0 1468:1.0 2071:1.0 2473:1.0 2764:2.0 2905:1.0 4487:1.0 4655:2.0 5061:2.0 5587:2.0 5890:2.0 5982:1.0 6474:2.0 7265:1.0 7749:2.0 8723:2.0 8847:1.0 9170:2.0 9939:2.0 10481:2.0 11887:2.0 12248:2.0 12976:2.0 14064:2.0 
7.24 45:1.0 270:1.0 296:1.0 458:1.0 535:1.0 667:1.0 1089:1.0 1151:1.0 2147:1.0 2747:1.0 4490:1.0 5544:1.0 12993:1.0 
4.451951740094988 1:1.0 4:1.0 9:1.0 40:2.0 49:1.0 101:1.0 121:1.0 153:1.0 256:1.0 271:1.0 377:2.0 450:1.0 458:1.0 536:1.0 953:1.0 1040:1.0 1281:1.0 1655:1.0 2972:1.0 3414:1.0 4149:1.0 
1.8767382849778547 0:6.0 2:2.0 3:1.0 4:1.0 5:1.0 8:1.0 10:1.0 15:1.0 16:1.0 18:1.0 25:1.0 30:1.0 32:4.0 38:1.0 41:1.0 45:1.0 48:1.0 52:1.0 56:1.0 57:1.0 60:1.0 67:2.0 68:2.0 69:1.0 75:3.0 76:1.0 77:1.0 79:1.0 81:1.0 90:1.0 92:1.0 99:1.0 103:1.0 105:2.0 107:1.0 114:1.0 118:1.0 124:3.0 126:2.0 131:1.0 152:1.0 169:1.0 178:1.0 180:1.0 181:1.0 214:1.0 226:1.0 277:1.0 289:1.0 293:1.0 316:1.0 339:1.0 376:1.0 415:1.0 428:1.0 437:1.0 464:1.0 482:1.0 524:1.0 602:1.0 631:2.0 653:1.0 679:2.0 682:1.0 717:1.0 726:1.0 746:1.0 844:1.0 922:1.0 1001:2.0 1005:1.0 1040:1.0 1225:1.0 1476:1.0 1502:1.0 1586:1.0 1587:1.0 1754:1.0 1799:1.0 1817:1.0 1841:1.0 1912:1.0 2551:1.0 2637:1.0 2909:1.0 3218:1.0 3560:1.0 3735:1.0 3894:1.0 4337:1.0 4353:1.0 4540:1.0 6143:1.0 6334:1.0 6613:1.0 9792:1.0 12107:1.0 
2.0003847475543686 0:3.0 2:1.0 3:2.0 7:1.0 9:4.0 12:1.0 17:1.0 18:1.0 21:2.0 23:1.0 29:3.0 30:1.0 34:1.0 36:1.0 38:1.0 41:2.0 44:1.0 50:2.0 51:1.0 61:1.0 64:1.0 78:1.0 79:1.0 81:1.0 88:1.0 94:1.0 95:1.0 98:1.0 120:2.0 124:1.0 128:2.0 139:1.0 141:1.0 142:1.0 153:1.0 154:1.0 166:2.0 167:1.0 169:1.0 190:1.0 199:1.0 200:1.0 202:1.0 234:1.0 247:2.0 248:1.0 250:1.0 254:2.0 283:2.0 292:1.0 296:2.0 302:1.0 324:2.0 336:2.0 378:1.0 383:1.0 415:1.0 430:1.0 435:1.0 446:1.0 449:1.0 458:1.0 469:1.0 508:1.0 519:1.0 530:1.0 548:1.0 555:1.0 560:1.0 565:1.0 602:1.0 625:1.0 640:1.0 668:1.0 717:3.0 722:1.0 738:1.0 868:1.0 957:1.0 996:1.0 1003:1.0 1024:1.0 1132:1.0 1144:1.0 1167:3.0 1229:1.0 1238:1.0 1281:3.0 1335:1.0 1354:1.0 1369:2.0 1376:1.0 1500:1.0 1555:1.0 1560:1.0 1587:1.0 1655:1.0 1708:1.0 1755:1.0 1789:1.0 1791:1.0 1841:2.0 2005:1.0 2013:1.0 2015:1.0 2050:1.0 2246:2.0 2472:1.0 2905:1.0 2968:1.0 2988:1.0 3064:1.0 3147:1.0 3175:1.0 3389:1.0 3546:1.0 3560:1.0 3775:1.0 3856:1.0 3879:1.0 3965:1.0 4076:1.0 4119:1.0 4321:1.0 4859:1.0 5720:1.0 5808:1.0 6172:1.0 6344:1.0 6780:1.0 6848:1.0 7266:1.0 8724:1.0 10274:1.0 
7.24 311:1.0 398:1.0 795:1.0 1759:1.0 2583:1.0 11488:1.0 
7.24 16:1.0 682:1.0 806:1.0 
7.24 2:1.0 6:1.0 34:1.0 48:1.0 67:1.0 68:1.0 103:1.0 239:1.0 265:1.0 405:1.0 1003:1.0 1075:1.0 1152:1.0 1363:1.0 
4.438244801322599 0:2.0 1:3.0 2:1.0 3:1.0 4:1.0 5:1.0 7:2.0 11:2.0 17:1.0 18:3.0 19:1.0 21:2.0 22:1.0 30:2.0 33:1.0 37:1.0 44:1.0 49:1.0 51:2.0 54:1.0 83:1.0 87:1.0 89:1.0 96:1.0 106:1.0 115:1.0 123:1.0 133:1.0 139:1.0 144:1.0 146:3.0 149:1.0 155:1.0 161:1.0 166:1.0 173:2.0 175:1.0 189:1.0 192:2.0 231:2.0 235:1.0 251:1.0 277:1.0 279:1.0 293:1.0 307:3.0 370:1.0 377:3.0 401:1.0 439:3.0 548:1.0 589:1.0 596:1.0 615:2.0 639:1.0 654:1.0 694:1.0 722:1.0 741:1.0 760:1.0 817:1.0 937:1.0 977:1.0 1109:1.0 1306:1.0 1521:1.0 1522:1.0 1567:1.0 1576:1.0 1680:1.0 2229:1.0 2384:1.0 2422:1.0 2521:2.0 2755:1.0 2807:1.0 3375:1.0 6461:1.0 8087:1.0 8904:1.0 9146:1.0 9225:1.0 10603:1.0 14884:1.0 
7.24 1:1.0 217:1.0 
1.8049880285906639 0:5.0 1:5.0 3:2.0 4:2.0 8:1.0 11:2.0 12:1.0 13:2.0 15:1.0 22:1.0 31:1.0 32:1.0 34:1.0 35:1.0 40:1.0 41:1.0 57:1.0 63:1.0 68:1.0 69:1.0 76:1.0 78:1.0 82:1.0 93:1.0 94:1.0 95:1.0 100:2.0 103:1.0 106:1.0 112:1.0 113:1.0 140:1.0 166:1.0 237:1.0 245:1.0 255:1.0 307:1.0 329:1.0 370:1.0 377:1.0 499:1.0 507:1.0 524:2.0 527:1.0 530:1.0 543:1.0 568:1.0 580:1.0 590:1.0 597:1.0 604:1.0 692:1.0 710:1.0 806:2.0 821:1.0 968:1.0 1029:1.0 1030:1.0 1054:1.0 1367:1.0 1652:1.0 2260:1.0 2294:1.0 2873:1.0 3032:1.0 3189:1.0 9629:1.0 10944:1.0 
7.24 0:1.0 1:1.0 3:1.0 4:1.0 6:1.0 8:1.0 11:1.0 21:1.0 34:1.0 35:1.0 87:1.0 457:1.0 475:1.0 515:1.0 583:1.0 781:1.0 1232:1.0 1340:1.0 1722:1.0 2370:1.0 2464:1.0 5006:1.0 6624:1.0 8632:1.0 10209:1.0 
7.24 4:1.0 66:1.0 417:1.0 1496:1.0 
1.3794009824148057 0:1.0 1:8.0 2:2.0 3:1.0 4:1.0 5:1.0 7:1.0 8:1.0 12:3.0 16:2.0 18:1.0 22:1.0 28:2.0 30:1.0 32:1.0 38:2.0 40:2.0 44:1.0 46:1.0 47:2.0 51:2.0 60:1.0 63:1.0 74:2.0 78:1.0 79:1.0 81:1.0 83:2.0 93:1.0 96:1.0 106:2.0 113:1.0 114:1.0 117:1.0 120:1.0 139:1.0 140:3.0 146:1.0 149:1.0 159:1.0 163:1.0 164:2.0 174:3.0 175:1.0 196:1.0 208:1.0 220:1.0 236:1.0 239:1.0 249:1.0 264:1.0 276:2.0 287:1.0 332:1.0 342:1.0 347:1.0 373:2.0 382:1.0 387:1.0 400:1.0 422:1.0 441:1.0 448:1.0 504:1.0 510:1.0 533:1.0 604:1.0 629:1.0 634:1.0 644:1.0 670:1.0 671:1.0 696:1.0 714:1.0 818:1.0 841:1.0 894:1.0 912:2.0 927:1.0 1003:2.0 1071:1.0 1217:1.0 1254:2.0 1274:1.0 1450:1.0 1497:1.0 1506:1.0 1550:1.0 1579:1.0 1587:1.0 1619:1.0 1754:1.0 1982:1.0 2131:1.0 2280:1.0 2491:1.0 2703:1.0 2951:1.0 3183:1.0 3199:1.0 3222:3.0 3227:1.0 3321:1.0 3324:1.0 3512:1.0 3626:1.0 3854:1.0 4034:1.0 4356:1.0 4364:1.0 4882:1.0 4904:1.0 4967:1.0 5207:1.0 5522:1.0 5926:1.0 6213:1.0 7071:1.0 7444:1.0 7959:1.0 9248:1.0 13270:1.0 
0.2633094974588198 0:4.0 1:7.0 2:3.0 3:4.0 4:5.0 6:1.0 9:3.0 11:2.0 13:2.0 14:3.0 17:1.0 19:2.0 21:2.0 23:2.0 27:1.0 29:1.0 30:1.0 34:1.0 36:3.0 40:1.0 43:1.0 44:1.0 47:1.0 52:1.0 53:1.0 57:1.0 59:1.0 60:1.0 61:1.0 62:2.0 66:1.0 69:1.0 72:1.0 77:1.0 78:1.0 81:2.0 82:1.0 98:1.0 106:6.0 109:1.0 111:2.0 114:1.0 116:1.0 122:2.0 123:1.0 126:3.0 129:2.0 135:1.0 141:1.0 145:1.0 151:1.0 157:1.0 162:1.0 165:1.0 167:1.0 168:1.0 170:1.0 171:1.0 185:1.0 186:1.0 198:1.0 201:1.0 202:2.0 205:1.0 216:1.0 217:1.0 222:1.0 232:1.0 242:3.0 247:1.0 250:1.0 285:1.0 302:1.0 304:1.0 314:1.0 318:1.0 319:1.0 326:1.0 329:1.0 338:1.0 346:1.0 350:1.0 352:1.0 367:2.0 372:1.0 376:1.0 377:1.0 380:1.0 385:1.0 397:1.0 400:2.0 433:2.0 437:1.0 459:1.0 477:2.0 494:1.0 533:2.0 534:1.0 541:1.0 546:1.0 550:2.0 555:1.0 585:4.0 607:1.0 629:2.0 643:1.0 645:1.0 688:1.0 697:1.0 707:1.0 724:1.0 725:1.0 733:1.0 806:3.0 813:1.0 833:2.0 869:1.0 871:1.0 910:1.0 919:1.0 941:3.0 1019:2.0 1038:1.0 1164:1.0 1278:1.0 1283:1.0 1293:1.0 1384:1.0 1394:2.0 1446:1.0 1454:2.0 1466:1.0 1510:1.0 1516:1.0 1631:1.0 1681:1.0 1723:1.0 1776:1.0 1965:1.0 2279:1.0 2331:1.0 2573:1.0 3485:2.0 3515:1.0 3922:1.0 3958:1.0 3996:1.0 4338:1.0 5626:1.0 5765:1.0 6817:1.0 7048:1.0 7346:1.0 7461:1.0 8554:1.0 10016:1.0 
1.3603714513869625 0:2.0 2:1.0 3:1.0 5:1.0 8:1.0 10:1.0 12:1.0 16:2.0 43:1.0 47:1.0 71:1.0 80:1.0 95:1.0 120:1.0 167:1.0 231:1.0 265:1.0 268:1.0 499:1.0 735:1.0 890:1.0 1297:1.0 1818:1.0 1948:1.0 3119:1.0 4063:1.0 4642:1.0 5491:1.0 
2.55218129517978 1:1.0 3:1.0 5:1.0 6:2.0 7:1.0 10:1.0 13:1.0 20:1.0 21:1.0 22:2.0 27:2.0 37:1.0 41:1.0 52:1.0 53:3.0 54:1.0 63:1.0 70:1.0 78:1.0 79:1.0 81:1.0 87:1.0 102:1.0 112:2.0 122:1.0 134:1.0 173:1.0 175:1.0 191:1.0 193:1.0 224:2.0 236:1.0 249:1.0 257:1.0 275:2.0 280:1.0 288:1.0 300:1.0 309:1.0 317:1.0 338:1.0 363:1.0 367:1.0 369:2.0 382:2.0 417:1.0 470:1.0 499:1.0 511:1.0 513:1.0 522:1.0 531:1.0 815:2.0 894:1.0 1027:1.0 1123:1.0 1188:1.0 1330:1.0 1351:1.0 1822:3.0 1883:1.0 1983:2.0 2114:1.0 2696:2.0 2872:1.0 3065:1.0 3140:2.0 3421:1.0 3792:1.0 5125:1.0 5191:1.0 5951:1.0 9559:1.0 
7.24 398:1.0 909:1.0 2041:1.0 4790:1.0 13409:1.0 
7.24 0:1.0 2:1.0 7:1.0 45:1.0 57:1.0 76:1.0 82:1.0 220:1.0 2696:1.0 
0.35993580774470335 244:1.0 311:1.0 398:2.0 471:1.0 479:3.0 659:1.0 718:1.0 795:1.0 934:2.0 938:2.0 1026:3.0 1161:1.0 1451:1.0 1632:1.0 1743:1.0 1767:8.0 1872:2.0 2041:1.0 2112:3.0 2177:1.0 2193:1.0 2428:1.0 2496:1.0 2815:1.0 3762:1.0 3956:1.0 4964:1.0 5139:1.0 5604:1.0 6507:1.0 8099:1.0 9422:2.0 9632:1.0 10529:1.0 10531:1.0 14043:1.0 
7.086811962184859 1:2.0 6:2.0 22:1.0 53:1.0 59:1.0 62:2.0 69:1.0 83:2.0 106:2.0 129:1.0 165:1.0 222:1.0 257:2.0 279:1.0 284:1.0 288:1.0 291:1.0 369:1.0 406:1.0 478:1.0 590:1.0 614:1.0 738:1.0 834:1.0 903:1.0 1052:1.0 1083:1.0 1221:1.0 1434:1.0 2251:1.0 3197:1.0 7531:1.0 
4.462492863810296 0:1.0 3:2.0 4:1.0 8:1.0 9:1.0 11:1.0 13:1.0 23:2.0 29:1.0 30:1.0 41:1.0 47:1.0 74:1.0 97:1.0 117:1.0 118:1.0 140:1.0 149:1.0 153:1.0 159:1.0 164:1.0 355:1.0 498:1.0 527:1.0 531:1.0 545:1.0 714:1.0 796:1.0 918:1.0 942:1.0 978:1.0 1458:1.0 1466:1.0 1996:1.0 2651:1.0 2873:1.0 3164:1.0 6474:1.0 7511:1.0 11675:1.0 
0.3072717567690194 9:1.0 305:1.0 421:1.0 526:1.0 541:1.0 657:1.0 768:1.0 1458:1.0 2535:1.0 3275:1.0 3723:1.0 3827:1.0 3976:1.0 10200:1.0 
7.24 7775:1.0 12635:1.0 14216:1.0 
7.24 2677:1.0 12635:1.0 14216:1.0 
2.7307170976680273 1:2.0 3:2.0 5:1.0 10:1.0 28:1.0 42:1.0 245:1.0 935:1.0 3869:1.0 
2.802026233136198 0:3.0 1:6.0 2:7.0 4:4.0 6:3.0 7:3.0 16:1.0 17:1.0 22:1.0 23:1.0 24:3.0 26:3.0 31:3.0 42:1.0 44:4.0 46:1.0 48:1.0 51:1.0 55:3.0 57:1.0 62:1.0 65:1.0 66:1.0 67:1.0 69:2.0 70:1.0 81:1.0 84:3.0 87:1.0 102:1.0 106:4.0 107:1.0 119:2.0 124:2.0 129:2.0 131:1.0 132:1.0 143:1.0 151:1.0 165:1.0 173:1.0 176:1.0 180:1.0 185:2.0 195:1.0 198:1.0 222:1.0 223:2.0 235:2.0 236:1.0 238:1.0 258:1.0 277:1.0 283:2.0 291:1.0 297:1.0 302:2.0 306:1.0 340:1.0 341:2.0 346:1.0 348:1.0 394:2.0 396:1.0 402:2.0 406:2.0 407:3.0 408:3.0 411:1.0 415:1.0 420:1.0 424:1.0 444:1.0 453:1.0 454:1.0 495:1.0 501:2.0 502:1.0 511:1.0 519:3.0 550:1.0 558:1.0 559:1.0 585:1.0 600:1.0 653:2.0 675:1.0 695:2.0 709:1.0 742:1.0 772:1.0 801:1.0 889:1.0 932:1.0 956:1.0 959:1.0 995:1.0 1028:1.0 1075:1.0 1103:1.0 1176:2.0 1194:1.0 1215:2.0 1225:1.0 1272:1.0 1278:1.0 1357:1.0 1436:1.0 1611:2.0 1815:1.0 2205:1.0 2222:2.0 2284:1.0 2306:1.0 2312:1.0 2380:1.0 2388:3.0 3348:1.0 3621:1.0 3679:1.0 3757:1.0 3949:1.0 4344:1.0 4489:1.0 4738:1.0 4842:1.0 4906:1.0 4915:1.0 5639:1.0 6460:1.0 7191:1.0 8363:1.0 8848:1.0 11743:1.0 13570:1.0 
1.5278909258252888 1:1.0 17:1.0 80:1.0 104:1.0 122:1.0 127:1.0 536:1.0 681:1.0 734:1.0 1226:1.0 1515:1.0 2138:1.0 3842:1.0 
7.24 0:1.0 1:1.0 4:1.0 5:1.0 6:1.0 12:1.0 55:1.0 70:1.0 76:1.0 157:1.0 224:1.0 319:1.0 461:1.0 638:1.0 702:1.0 731:1.0 802:1.0 863:1.0 1688:1.0 3435:1.0 4625:1.0 5964:1.0 9032:1.0 
2.75476296264422 1:2.0 13:1.0 29:1.0 64:1.0 71:1.0 117:1.0 170:1.0 457:1.0 551:1.0 916:1.0 1718:1.0 2269:1.0 3797:1.0 4069:1.0 4575:1.0 9209:1.0 
7.24 0:1.0 2:2.0 5:1.0 6:2.0 16:1.0 19:1.0 24:1.0 26:1.0 27:1.0 33:1.0 44:1.0 79:1.0 86:1.0 101:1.0 114:1.0 145:1.0 149:1.0 153:1.0 175:1.0 179:1.0 182:1.0 184:1.0 191:2.0 291:1.0 356:1.0 577:1.0 597:1.0 631:1.0 3622:1.0 9438:1.0 
7.24 0:1.0 4:1.0 43:1.0 95:1.0 135:1.0 358:1.0 776:1.0 1376:1.0 1681:1.0 
7.24 2:1.0 4:1.0 6:1.0 11:1.0 18:1.0 29:1.0 35:1.0 103:1.0 135:1.0 181:3.0 405:1.0 823:1.0 11995:1.0 
0.8378637173547671 0:1.0 1:8.0 3:4.0 4:4.0 5:2.0 6:2.0 9:1.0 10:2.0 11:1.0 12:1.0 13:3.0 14:2.0 15:1.0 17:2.0 18:1.0 21:2.0 22:1.0 23:3.0 25:1.0 31:1.0 36:1.0 37:4.0 41:2.0 42:4.0 45:3.0 49:4.0 52:1.0 53:1.0 59:10.0 60:1.0 61:2.0 62:2.0 67:1.0 68:1.0 69:2.0 74:2.0 75:4.0 90:1.0 101:1.0 106:1.0 107:1.0 108:1.0 113:1.0 114:1.0 116:2.0 120:1.0 124:2.0 127:2.0 139:3.0 156:1.0 160:11.0 166:2.0 167:1.0 168:2.0 176:2.0 181:1.0 186:3.0 196:1.0 197:1.0 201:2.0 205:3.0 223:1.0 233:1.0 235:1.0 251:1.0 260:1.0 275:2.0 293:8.0 297:5.0 298:2.0 304:1.0 307:1.0 329:2.0 330:1.0 346:1.0 355:1.0 361:2.0 369:1.0 375:2.0 380:1.0 383:8.0 391:1.0 415:1.0 418:2.0 422:1.0 435:1.0 442:2.0 457:2.0 469:2.0 487:1.0 508:2.0 515:2.0 527:1.0 528:2.0 559:1.0 578:1.0 589:1.0 603:1.0 613:1.0 623:1.0 632:1.0 670:1.0 671:2.0 687:1.0 690:1.0 710:2.0 715:2.0 727:1.0 740:4.0 748:1.0 749:3.0 752:1.0 757:3.0 798:1.0 861:1.0 865:1.0 871:1.0 922:1.0 937:1.0 978:3.0 981:2.0 994:2.0 1000:2.0 1013:1.0 1017:1.0 1018:1.0 1039:1.0 1040:1.0 1042:1.0 1091:2.0 1141:4.0 1170:1.0 1193:1.0 1194:1.0 1201:1.0 1227:1.0 1235:4.0 1253:1.0 1272:1.0 1295:1.0 1317:1.0 1327:1.0 1349:2.0 1380:1.0 1405:1.0 1430:2.0 1504:1.0 1571:1.0 1604:1.0 1628:1.0 1722:2.0 1742:2.0 1768:1.0 1851:1.0 2005:1.0 2017:1.0 2181:2.0 2225:1.0 2237:1.0 2246:1.0 2426:1.0 2466:1.0 2482:1.0 2498:1.0 2530:1.0 2570:1.0 2575:1.0 2613:2.0 2754:1.0 2975:1.0 3139:1.0 3260:1.0 3368:1.0 3402:1.0 3424:1.0 3528:1.0 3549:1.0 3583:1.0 3644:1.0 3668:1.0 3683:1.0 3745:1.0 3768:1.0 3839:1.0 4058:1.0 4089:1.0 4168:2.0 4218:1.0 4378:1.0 4497:2.0 4558:1.0 5580:1.0 5614:1.0 5734:1.0 5828:3.0 5994:1.0 6023:1.0 6079:1.0 6313:1.0 6330:1.0 6453:1.0 6814:1.0 6880:1.0 7042:1.0 7190:1.0 7225:1.0 7371:1.0 7577:1.0 7659:1.0 7691:1.0 7802:1.0 7916:3.0 8083:1.0 8299:1.0 8394:1.0 8506:1.0 8762:1.0 9006:2.0 10119:1.0 10442:1.0 10462:2.0 11467:1.0 14438:1.0 14828:2.0 
0.9935419135080471 71:1.0 112:1.0 141:1.0 177:1.0 344:2.0 461:1.0 521:1.0 908:1.0 1359:1.0 14895:1.0 
0.9544603357112738 0:1.0 1:2.0 2:2.0 3:2.0 5:1.0 9:1.0 10:1.0 12:1.0 13:1.0 15:1.0 18:2.0 19:1.0 23:1.0 28:1.0 31:1.0 33:1.0 35:1.0 37:1.0 42:1.0 44:1.0 47:1.0 51:1.0 58:1.0 60:1.0 69:1.0 84:2.0 85:1.0 97:1.0 101:1.0 118:1.0 123:1.0 133:1.0 167:1.0 187:1.0 208:1.0 253:1.0 282:1.0 377:1.0 426:1.0 442:1.0 589:1.0 723:1.0 1311:1.0 1519:1.0 1541:1.0 1959:1.0 2592:2.0 2842:1.0 7587:1.0 12690:1.0 
0.7830416434608235 0:8.0 1:3.0 2:2.0 3:2.0 4:7.0 5:6.0 6:1.0 7:1.0 9:1.0 10:1.0 12:4.0 14:1.0 15:2.0 16:4.0 17:1.0 18:1.0 19:4.0 20:2.0 23:4.0 30:2.0 31:1.0 32:2.0 42:2.0 47:3.0 48:1.0 59:1.0 60:1.0 64:1.0 72:1.0 75:3.0 80:1.0 90:1.0 94:3.0 99:1.0 101:1.0 103:2.0 104:1.0 110:1.0 118:1.0 127:1.0 133:1.0 135:2.0 141:1.0 142:1.0 152:2.0 156:3.0 164:1.0 166:4.0 172:1.0 173:1.0 179:1.0 183:2.0 187:1.0 193:1.0 196:3.0 202:1.0 208:1.0 224:1.0 227:2.0 241:2.0 242:2.0 243:1.0 250:4.0 252:2.0 264:1.0 276:1.0 287:1.0 294:1.0 302:1.0 303:1.0 316:1.0 320:1.0 338:2.0 345:1.0 362:1.0 377:1.0 385:1.0 420:1.0 422:3.0 428:1.0 445:2.0 447:1.0 450:1.0 460:1.0 477:2.0 512:1.0 606:1.0 611:5.0 631:1.0 635:2.0 642:1.0 649:1.0 655:1.0 656:1.0 673:1.0 695:1.0 696:1.0 778:1.0 837:1.0 848:1.0 864:1.0 867:1.0 892:1.0 921:2.0 968:2.0 979:1.0 995:1.0 1002:1.0 1063:1.0 1070:1.0 1078:1.0 1106:1.0 1146:1.0 1162:1.0 1166:2.0 1223:1.0 1228:1.0 1326:2.0 1352:1.0 1375:1.0 1462:1.0 1468:2.0 1522:1.0 1556:1.0 1643:1.0 1675:1.0 1765:1.0 1783:2.0 1787:1.0 1798:2.0 1801:2.0 1810:1.0 1955:1.0 1995:2.0 2019:1.0 2472:1.0 2567:1.0 2592:2.0 2750:1.0 3027:1.0 3350:1.0 3364:1.0 3511:1.0 4158:1.0 5355:2.0 5463:1.0 5747:1.0 6541:1.0 6617:1.0 7510:1.0 7644:3.0 8222:1.0 8987:1.0 9402:1.0 9680:1.0 10164:1.0 11393:2.0 12338:1.0 12707:1.0 13068:1.0 13793:1.0 14039:1.0 
7.24 4:1.0 
7.24 0:2.0 3:1.0 5:1.0 11:1.0 15:1.0 21:1.0 32:1.0 73:2.0 134:1.0 147:1.0 186:1.0 226:1.0 285:1.0 304:1.0 996:1.0 1149:1.0 9084:1.0 
2.383912790183838 10:1.0 16:1.0 58:1.0 166:1.0 266:1.0 375:1.0 1005:1.0 1263:1.0 1875:1.0 3596:1.0 6939:1.0 
3.916276983246832 0:1.0 1:1.0 3:1.0 4:1.0 10:1.0 32:1.0 34:1.0 35:1.0 41:1.0 42:1.0 49:2.0 67:1.0 87:1.0 111:1.0 112:1.0 115:1.0 122:2.0 133:1.0 143:1.0 152:1.0 215:1.0 234:1.0 255:2.0 527:1.0 880:1.0 1125:1.0 1583:1.0 1613:1.0 
7.24 2:1.0 28:1.0 66:1.0 163:1.0 173:1.0 338:1.0 374:1.0 436:1.0 1230:1.0 1444:1.0 1828:1.0 5440:1.0 5634:1.0 
1.7221336198788884 0:1.0 2:1.0 3:1.0 5:1.0 10:1.0 15:1.0 37:1.0 39:1.0 50:1.0 52:1.0 140:1.0 232:1.0 374:1.0 391:1.0 681:1.0 784:1.0 1017:1.0 1179:1.0 1228:1.0 1359:1.0 2557:1.0 2786:1.0 13111:1.0 
7.24 5:1.0 10:1.0 145:1.0 295:1.0 785:1.0 1621:1.0 1939:1.0 3988:1.0 5217:1.0 12145:1.0 
7.24 3:1.0 5:1.0 7:1.0 30:1.0 81:1.0 142:1.0 160:1.0 241:1.0 292:1.0 382:1.0 4017:1.0 6421:1.0 
7.24 6:1.0 24:2.0 26:2.0 96:1.0 130:1.0 235:1.0 325:1.0 390:1.0 539:1.0 661:1.0 732:1.0 877:1.0 1045:1.0 1067:1.0 1800:1.0 1820:1.0 1865:1.0 2530:1.0 4155:1.0 4593:1.0 6012:1.0 7695:1.0 
1.9071149231511324 0:1.0 1:1.0 9:1.0 30:1.0 68:1.0 80:1.0 83:1.0 86:1.0 131:1.0 421:1.0 541:1.0 657:1.0 666:1.0 792:1.0 1029:1.0 1245:1.0 1690:1.0 1958:1.0 2035:1.0 2396:1.0 2469:1.0 2628:1.0 3213:1.0 3301:1.0 4803:1.0 5982:1.0 13905:1.0 
3.4496424100512324 2:1.0 9:1.0 12:1.0 32:1.0 33:2.0 40:1.0 67:1.0 96:1.0 97:1.0 109:1.0 125:1.0 140:1.0 153:1.0 158:1.0 203:1.0 251:1.0 280:1.0 322:1.0 459:1.0 649:1.0 687:1.0 1248:1.0 1936:2.0 2072:1.0 2259:1.0 2458:1.0 4770:1.0 6130:1.0 7962:1.0 
5.345578399303576 1:1.0 2:1.0 3:2.0 5:1.0 7:1.0 21:1.0 28:1.0 31:1.0 32:1.0 58:1.0 61:1.0 81:1.0 85:1.0 99:1.0 109:1.0 124:1.0 125:1.0 131:1.0 260:1.0 502:1.0 519:1.0 563:1.0 719:1.0 839:1.0 1027:1.0 1060:1.0 1429:1.0 1856:1.0 2490:1.0 2689:1.0 2810:1.0 2979:1.0 
7.24 909:1.0 4458:1.0 
3.656609360298728 3:1.0 36:1.0 57:1.0 79:1.0 125:1.0 719:1.0 
4.523726510382536 50:2.0 55:1.0 57:1.0 76:1.0 120:1.0 137:1.0 178:1.0 253:1.0 279:1.0 302:1.0 543:1.0 863:1.0 877:1.0 889:1.0 1188:1.0 1266:1.0 1906:1.0 1963:1.0 2148:1.0 2176:1.0 2352:1.0 2399:1.0 2580:1.0 2666:1.0 4981:1.0 5868:1.0 5990:1.0 8854:2.0 11410:1.0 
1.5093386714096435 1:1.0 2:2.0 3:2.0 4:2.0 6:1.0 9:2.0 14:1.0 16:1.0 20:2.0 24:1.0 26:1.0 29:1.0 31:1.0 40:1.0 44:1.0 48:1.0 49:1.0 55:1.0 57:1.0 59:1.0 64:1.0 82:1.0 94:1.0 95:1.0 114:1.0 122:1.0 124:1.0 144:1.0 145:1.0 149:1.0 169:1.0 189:1.0 214:1.0 216:1.0 275:1.0 283:1.0 294:1.0 295:2.0 313:1.0 320:2.0 329:1.0 332:1.0 350:1.0 358:1.0 380:1.0 382:1.0 417:1.0 419:1.0 455:1.0 461:1.0 492:1.0 514:1.0 550:2.0 618:1.0 629:1.0 738:1.0 800:1.0 813:1.0 941:1.0 952:1.0 960:1.0 1155:1.0 1199:2.0 1294:1.0 1307:1.0 1322:2.0 1493:1.0 1554:1.0 1576:1.0 1633:1.0 1636:1.0 1782:1.0 1791:1.0 1824:1.0 1957:1.0 2047:1.0 2077:1.0 2149:1.0 2545:1.0 2660:1.0 2716:3.0 2755:1.0 2897:1.0 3448:1.0 4157:1.0 4481:1.0 5083:1.0 7961:1.0 
1.0856176185959852 0:1.0 1:1.0 3:3.0 12:1.0 15:1.0 28:1.0 32:1.0 36:2.0 40:3.0 42:1.0 51:1.0 64:1.0 79:2.0 86:1.0 136:1.0 151:1.0 156:1.0 217:1.0 229:1.0 243:2.0 277:1.0 338:1.0 369:1.0 454:1.0 526:1.0 602:1.0 644:1.0 951:1.0 1084:1.0 1322:1.0 1370:1.0 1810:1.0 2382:1.0 4757:1.0 4982:1.0 13331:1.0 
0.22481872994190188 0:5.0 1:7.0 2:3.0 3:3.0 5:2.0 6:4.0 7:5.0 9:5.0 11:1.0 13:3.0 14:1.0 15:1.0 16:1.0 17:1.0 18:1.0 21:1.0 22:2.0 25:1.0 28:1.0 29:1.0 30:2.0 31:1.0 32:2.0 35:3.0 36:1.0 40:1.0 41:1.0 44:4.0 46:1.0 48:1.0 49:1.0 54:2.0 57:2.0 58:1.0 59:1.0 60:1.0 62:1.0 66:1.0 72:1.0 75:1.0 76:5.0 77:1.0 78:1.0 79:1.0 80:1.0 82:2.0 86:4.0 88:1.0 91:1.0 92:1.0 94:1.0 97:1.0 99:2.0 100:1.0 101:2.0 105:2.0 111:1.0 120:4.0 123:2.0 125:4.0 132:2.0 133:1.0 140:1.0 143:1.0 146:1.0 151:3.0 153:1.0 157:1.0 171:1.0 174:2.0 175:1.0 178:1.0 179:1.0 184:1.0 189:2.0 202:1.0 214:2.0 216:1.0 217:1.0 222:2.0 223:1.0 235:5.0 251:1.0 254:1.0 267:1.0 268:1.0 270:1.0 276:1.0 278:1.0 283:1.0 286:2.0 302:1.0 319:2.0 326:1.0 331:1.0 346:1.0 358:1.0 365:1.0 368:1.0 370:1.0 372:1.0 374:1.0 382:3.0 391:2.0 392:1.0 399:1.0 401:2.0 416:1.0 417:1.0 441:1.0 444:1.0 450:1.0 461:1.0 474:1.0 481:1.0 514:1.0 520:1.0 533:1.0 543:1.0 548:1.0 555:1.0 569:1.0 573:1.0 576:1.0 586:4.0 600:1.0 631:1.0 677:1.0 682:1.0 697:1.0 729:2.0 776:1.0 817:1.0 855:1.0 869:1.0 906:1.0 917:1.0 929:1.0 952:1.0 965:1.0 1037:1.0 1055:1.0 1097:1.0 1191:1.0 1199:5.0 1244:1.0 1271:1.0 1283:1.0 1294:4.0 1320:1.0 1322:2.0 1436:1.0 1444:1.0 1458:1.0 1465:1.0 1495:1.0 1561:1.0 1584:1.0 1758:2.0 1785:1.0 1918:1.0 1989:2.0 2101:1.0 2117:1.0 2125:1.0 2183:5.0 2335:1.0 2353:1.0 2374:1.0 2379:1.0 2603:1.0 2740:1.0 2755:2.0 2760:1.0 2786:1.0 2886:1.0 2901:1.0 3032:1.0 3253:1.0 3281:1.0 3317:1.0 3326:1.0 3375:1.0 4054:1.0 4197:1.0 4464:2.0 4510:1.0 4760:1.0 5082:1.0 5092:1.0 5129:1.0 5378:1.0 5404:1.0 5838:1.0 5857:1.0 5861:1.0 6184:1.0 6194:1.0 6816:1.0 7240:1.0 7503:1.0 7876:1.0 8109:1.0 8286:1.0 8564:1.0 8727:1.0 8859:1.0 9289:1.0 9578:1.0 12247:1.0 
7.24 0:3.0 1:2.0 3:1.0 7:1.0 10:1.0 11:1.0 14:1.0 51:1.0 61:1.0 74:1.0 79:2.0 86:1.0 87:1.0 105:1.0 137:1.0 155:1.0 156:1.0 159:1.0 171:1.0 178:3.0 179:1.0 212:1.0 227:1.0 522:1.0 749:1.0 1010:1.0 3173:1.0 4727:1.0 7406:1.0 14582:1.0 
7.24 42:1.0 79:1.0 86:1.0 112:1.0 127:1.0 255:1.0 271:1.0 295:1.0 608:1.0 701:1.0 1322:1.0 1458:1.0 1621:1.0 2116:1.0 
7.24 4:1.0 156:1.0 358:1.0 676:3.0 1652:1.0 4222:1.0 
7.24 1:1.0 3:1.0 6:1.0 34:1.0 57:1.0 436:1.0 711:1.0 816:1.0 3693:1.0 
1.58902923286098 1:1.0 3:1.0 37:1.0 42:1.0 47:1.0 63:1.0 100:1.0 341:1.0 681:1.0 980:1.0 1200:1.0 1245:2.0 1480:1.0 2061:1.0 2342:1.0 2396:1.0 2865:1.0 2906:1.0 3692:1.0 3976:1.0 5026:1.0 6081:1.0 
4.036761087891089 0:1.0 1:1.0 3:1.0 9:1.0 37:1.0 245:1.0 421:1.0 541:1.0 657:1.0 666:1.0 681:1.0 870:1.0 945:1.0 1261:1.0 1366:1.0 1480:1.0 1564:1.0 1671:1.0 1958:1.0 2061:1.0 2342:1.0 2432:1.0 2871:1.0 2906:1.0 3354:1.0 
7.24 0:2.0 42:1.0 47:1.0 110:1.0 883:1.0 942:1.0 3707:1.0 
0.8290825823018904 244:2.0 398:2.0 479:1.0 659:3.0 718:1.0 795:1.0 882:1.0 909:1.0 934:1.0 1096:1.0 1451:2.0 1478:2.0 1759:1.0 2121:1.0 2937:2.0 3053:1.0 3687:1.0 3841:1.0 4240:1.0 4619:1.0 4932:1.0 6034:1.0 6710:1.0 8099:1.0 8237:1.0 9466:1.0 11332:1.0 11865:1.0 13444:1.0 
6.642808651743721 398:1.0 479:1.0 909:1.0 1720:1.0 7670:1.0 8264:1.0 8486:1.0 9947:1.0 11531:1.0 11761:1.0 
7.24 6:1.0 78:1.0 330:1.0 538:1.0 
7.24 1:1.0 2:1.0 19:1.0 60:1.0 77:1.0 84:1.0 141:1.0 200:1.0 202:1.0 310:1.0 551:1.0 974:1.0 1218:1.0 1483:1.0 1697:1.0 2972:1.0 9484:1.0 13470:1.0 
0.327431958035458 0:1.0 2:1.0 3:1.0 5:3.0 8:1.0 9:1.0 18:2.0 30:1.0 34:1.0 41:1.0 45:1.0 69:1.0 76:1.0 80:1.0 83:1.0 95:1.0 100:1.0 118:1.0 130:1.0 141:1.0 154:1.0 164:1.0 190:1.0 212:1.0 277:1.0 326:1.0 329:1.0 391:1.0 415:1.0 481:1.0 508:1.0 551:1.0 565:1.0 635:1.0 711:1.0 735:1.0 815:1.0 918:2.0 974:2.0 979:1.0 1005:1.0 1082:1.0 1935:1.0 2451:1.0 3288:1.0 3434:1.0 4747:1.0 5841:1.0 6280:1.0 9462:1.0 10817:1.0 12032:1.0 13122:1.0 
7.24 2:1.0 3:1.0 8:1.0 13:1.0 17:1.0 35:1.0 45:1.0 67:1.0 71:1.0 74:1.0 98:1.0 112:1.0 170:1.0 177:1.0 190:1.0 535:1.0 874:1.0 2091:1.0 
2.8720814360267557 1:1.0 3:1.0 7:1.0 9:2.0 12:2.0 33:2.0 37:1.0 39:1.0 124:1.0 143:1.0 146:1.0 182:1.0 195:1.0 320:1.0 377:1.0 426:1.0 3773:1.0 
7.24 6:1.0 63:1.0 77:1.0 79:2.0 82:1.0 112:1.0 127:1.0 177:1.0 257:1.0 288:1.0 299:1.0 658:1.0 1159:1.0 
7.24 2:1.0 6:1.0 9:1.0 10:1.0 11:1.0 15:1.0 35:1.0 46:1.0 85:1.0 107:1.0 116:1.0 129:1.0 299:1.0 353:2.0 500:1.0 950:1.0 1075:1.0 1179:1.0 1413:1.0 3351:1.0 
7.24 4081:1.0 
7.24 2:1.0 4:1.0 6:1.0 13:1.0 19:1.0 63:1.0 64:1.0 82:1.0 164:1.0 217:1.0 1293:1.0 
7.24 4:1.0 6:1.0 
3.0817845673569364 2:1.0 4:1.0 5:1.0 9:1.0 13:1.0 20:1.0 27:1.0 38:1.0 146:1.0 237:1.0 369:1.0 426:1.0 446:1.0 
7.24 0:1.0 3:1.0 4:2.0 5:1.0 47:1.0 93:1.0 110:1.0 145:1.0 147:1.0 152:1.0 160:4.0 204:1.0 259:1.0 
7.24 244:1.0 349:1.0 479:1.0 3083:1.0 12812:1.0 
0.3148603401314867 14:1.0 103:1.0 150:1.0 265:1.0 323:1.0 378:1.0 389:1.0 483:1.0 494:1.0 585:1.0 705:1.0 842:1.0 869:1.0 1206:1.0 1363:1.0 
7.24 1:1.0 13:1.0 43:1.0 91:1.0 117:1.0 239:1.0 333:1.0 342:1.0 390:1.0 490:1.0 794:1.0 3288:1.0 
3.184618634242439 0:4.0 1:1.0 3:1.0 4:1.0 7:4.0 9:1.0 11:1.0 20:1.0 23:1.0 26:1.0 31:2.0 32:2.0 37:1.0 46:1.0 48:2.0 52:1.0 58:1.0 59:1.0 63:1.0 65:1.0 67:2.0 83:3.0 92:1.0 94:1.0 97:3.0 98:1.0 99:1.0 102:1.0 104:2.0 105:1.0 136:1.0 140:1.0 151:1.0 157:2.0 164:1.0 165:1.0 179:1.0 182:1.0 189:1.0 195:1.0 209:1.0 211:1.0 225:1.0 232:1.0 236:1.0 238:1.0 252:1.0 285:1.0 307:1.0 309:1.0 320:1.0 338:1.0 375:1.0 410:1.0 422:1.0 444:1.0 447:2.0 477:1.0 483:1.0 488:1.0 505:1.0 515:1.0 547:1.0 585:1.0 604:1.0 608:1.0 643:1.0 653:1.0 654:1.0 702:1.0 742:1.0 800:1.0 829:2.0 847:1.0 864:1.0 873:1.0 898:1.0 951:1.0 1000:1.0 1067:1.0 1085:1.0 1123:1.0 1283:1.0 1310:1.0 1386:1.0 1396:1.0 1436:1.0 1503:1.0 1777:1.0 2022:1.0 2076:1.0 2118:1.0 2240:1.0 2289:1.0 2309:1.0 2331:1.0 2421:1.0 2766:1.0 2787:1.0 3036:1.0 3143:1.0 3330:1.0 3337:1.0 3568:1.0 3718:1.0 3782:1.0 3811:1.0 3904:1.0 4485:1.0 4687:1.0 5467:1.0 8382:1.0 8829:1.0 9195:1.0 9908:1.0 10905:1.0 12476:1.0 13207:1.0 13212:1.0 
0.7011366000233706 0:9.0 1:3.0 2:5.0 3:5.0 4:4.0 5:3.0 7:4.0 9:2.0 10:2.0 11:1.0 12:1.0 13:4.0 14:3.0 16:2.0 17:1.0 20:7.0 22:1.0 23:3.0 26:1.0 27:1.0 31:4.0 32:1.0 35:1.0 36:1.0 37:2.0 38:3.0 39:1.0 41:8.0 42:2.0 43:1.0 46:3.0 49:1.0 53:5.0 61:4.0 62:2.0 63:1.0 65:4.0 66:1.0 67:1.0 69:2.0 70:3.0 72:2.0 76:1.0 79:1.0 80:2.0 83:2.0 89:1.0 92:5.0 102:2.0 104:3.0 106:1.0 108:1.0 111:2.0 120:1.0 122:2.0 123:1.0 129:1.0 132:1.0 134:1.0 135:1.0 139:2.0 141:5.0 142:1.0 143:1.0 150:1.0 152:1.0 153:1.0 158:1.0 159:1.0 162:1.0 164:1.0 165:1.0 171:1.0 178:3.0 183:1.0 185:1.0 186:1.0 193:1.0 194:2.0 196:1.0 199:1.0 201:1.0 205:1.0 209:1.0 219:1.0 220:1.0 223:1.0 228:1.0 236:2.0 238:2.0 248:1.0 261:1.0 262:1.0 268:1.0 271:1.0 272:4.0 283:1.0 284:1.0 285:1.0 287:1.0 289:2.0 307:1.0 314:1.0 316:1.0 320:2.0 332:1.0 338:1.0 339:1.0 348:1.0 357:1.0 360:1.0 364:1.0 381:1.0 396:1.0 397:1.0 399:2.0 401:1.0 414:1.0 427:1.0 429:3.0 437:1.0 444:1.0 450:1.0 463:1.0 470:1.0 482:1.0 500:1.0 511:1.0 526:1.0 531:1.0 560:1.0 585:1.0 587:1.0 598:1.0 622:1.0 632:1.0 654:1.0 672:1.0 680:2.0 685:1.0 687:2.0 697:1.0 701:1.0 743:1.0 768:1.0 780:1.0 790:1.0 798:1.0 818:1.0 821:1.0 829:1.0 883:1.0 884:1.0 911:1.0 912:1.0 975:1.0 993:1.0 1000:1.0 1001:1.0 1048:1.0 1088:1.0 1097:1.0 1127:1.0 1171:1.0 1195:1.0 1225:1.0 1227:1.0 1254:1.0 1289:1.0 1316:1.0 1352:1.0 1468:1.0 1486:1.0 1513:1.0 1516:1.0 1521:1.0 1623:1.0 1669:1.0 1684:1.0 1760:1.0 1773:1.0 1777:1.0 1796:1.0 1893:1.0 1952:1.0 1960:2.0 2002:1.0 2080:1.0 2091:1.0 2159:1.0 2359:1.0 2399:1.0 2610:1.0 2653:1.0 2722:1.0 2732:1.0 2733:1.0 2944:1.0 3054:1.0 3190:1.0 3330:1.0 3576:1.0 3591:3.0 3885:1.0 3894:1.0 3965:1.0 3986:2.0 4023:1.0 4182:1.0 4223:1.0 4252:1.0 4398:1.0 4599:1.0 4660:1.0 4724:1.0 4729:1.0 4787:1.0 4847:1.0 5248:1.0 5622:1.0 5681:1.0 6503:1.0 6898:1.0 7178:1.0 7277:1.0 8039:1.0 8075:1.0 8113:1.0 9089:1.0 9934:1.0 10697:1.0 11267:1.0 11586:2.0 11777:1.0 13228:1.0 13230:1.0 14334:1.0 14971:2.0 
5.699702110758166 0:1.0 3:1.0 6:1.0 16:1.0 19:1.0 31:1.0 43:1.0 54:1.0 93:2.0 112:1.0 147:1.0 177:1.0 224:1.0 240:2.0 262:1.0 361:1.0 373:1.0 441:1.0 508:1.0 527:1.0 565:1.0 601:1.0 770:1.0 1075:1.0 1312:1.0 1801:1.0 2307:2.0 2461:1.0 2709:1.0 3093:1.0 5054:1.0 
0.300391825679874 35:1.0 43:1.0 45:1.0 130:1.0 205:1.0 289:1.0 317:1.0 469:1.0 603:1.0 757:1.0 1062:1.0 1169:1.0 4142:1.0 5342:1.0 
6.241486291064034 1:1.0 57:1.0 59:1.0 65:1.0 95:2.0 219:1.0 238:1.0 239:1.0 268:2.0 373:1.0 435:1.0 464:1.0 520:1.0 542:1.0 565:1.0 576:1.0 587:1.0 739:1.0 794:1.0 951:1.0 982:1.0 1007:1.0 1298:1.0 1551:1.0 1593:1.0 1658:1.0 1920:2.0 2307:1.0 2340:1.0 2816:1.0 4725:1.0 5235:1.0 5612:1.0 6076:1.0 
7.24 1:1.0 25:1.0 27:1.0 39:1.0 132:1.0 223:1.0 319:1.0 361:1.0 470:1.0 498:1.0 816:1.0 963:1.0 1141:1.0 1217:1.0 1452:1.0 4203:1.0 5259:1.0 7774:1.0 
7.24 0:1.0 3:1.0 12:3.0 31:1.0 33:3.0 44:1.0 58:1.0 123:1.0 195:1.0 276:1.0 300:1.0 353:1.0 393:1.0 509:1.0 1480:1.0 2806:1.0 2935:1.0 3033:1.0 3288:1.0 8946:2.0 10284:1.0 
7.24 1:1.0 6:1.0 39:1.0 43:1.0 76:1.0 865:1.0 1169:1.0 1820:1.0 1865:1.0 2474:1.0 
7.24 1:1.0 2:1.0 10:1.0 27:1.0 102:1.0 173:1.0 185:1.0 307:1.0 377:1.0 394:1.0 426:1.0 949:1.0 
7.24 3:1.0 4:1.0 13:1.0 42:1.0 97:1.0 110:1.0 
7.24 323:1.0 5378:1.0 
7.24 2:1.0 19:1.0 21:1.0 48:1.0 57:1.0 64:1.0 84:1.0 110:1.0 121:1.0 126:1.0 185:1.0 194:1.0 195:1.0 350:1.0 387:1.0 455:1.0 609:1.0 628:1.0 699:1.0 778:1.0 1279:1.0 1308:1.0 5087:2.0 
3.3600159685452384 0:2.0 1:2.0 2:2.0 3:2.0 5:1.0 6:1.0 11:2.0 12:2.0 14:2.0 16:1.0 17:1.0 19:1.0 28:1.0 29:1.0 31:2.0 32:1.0 34:2.0 40:1.0 42:1.0 54:2.0 58:1.0 62:1.0 64:1.0 72:1.0 79:1.0 88:1.0 90:1.0 92:1.0 107:1.0 110:1.0 113:1.0 119:3.0 122:1.0 126:1.0 128:2.0 131:1.0 133:1.0 134:1.0 135:1.0 142:1.0 151:1.0 152:1.0 169:1.0 215:1.0 217:1.0 226:1.0 237:1.0 238:1.0 240:1.0 250:2.0 257:1.0 265:1.0 272:1.0 276:1.0 290:5.0 292:3.0 338:2.0 365:1.0 376:1.0 413:2.0 422:1.0 443:1.0 475:1.0 477:1.0 501:1.0 513:1.0 523:2.0 539:1.0 561:1.0 590:2.0 609:1.0 619:1.0 637:1.0 672:1.0 708:1.0 753:1.0 816:1.0 920:1.0 989:1.0 1051:1.0 1072:1.0 1151:1.0 1204:1.0 1244:1.0 1263:1.0 1267:1.0 1429:1.0 1431:3.0 1610:2.0 1843:1.0 1974:1.0 2256:1.0 2445:1.0 2662:1.0 3417:1.0 4082:1.0 4197:1.0 4219:5.0 4796:1.0 5087:2.0 6800:1.0 8014:1.0 8569:1.0 10239:1.0 11375:1.0 11576:1.0 11611:1.0 11971:1.0 13034:1.0 
5.196568011919638 1:1.0 13:1.0 57:1.0 76:2.0 106:1.0 214:1.0 263:2.0 625:1.0 633:1.0 847:2.0 863:1.0 877:1.0 1429:1.0 2502:1.0 11939:1.0 
1.8070152153227186 3:1.0 5:1.0 31:1.0 37:1.0 65:1.0 173:1.0 217:1.0 267:1.0 410:1.0 1189:1.0 1846:1.0 4151:1.0 5087:1.0 
7.24 0:1.0 1:1.0 6:1.0 23:1.0 25:1.0 42:1.0 50:1.0 117:1.0 142:1.0 219:1.0 326:1.0 342:1.0 982:1.0 1002:1.0 1431:1.0 4979:1.0 
7.24 0:1.0 1:1.0 3:1.0 4:1.0 13:1.0 37:1.0 135:1.0 137:1.0 445:1.0 
0.5992882965733254 4:2.0 9:1.0 29:1.0 74:1.0 149:1.0 419:1.0 421:1.0 504:2.0 634:1.0 732:1.0 1200:1.0 1366:2.0 1591:1.0 1737:1.0 2174:1.0 2214:1.0 2258:1.0 2432:2.0 2608:1.0 2627:1.0 3354:2.0 3723:3.0 4348:1.0 6549:1.0 7831:2.0 
4.790689222010504 2:1.0 3:1.0 5:1.0 8:1.0 10:2.0 30:1.0 64:1.0 75:2.0 80:1.0 118:1.0 133:1.0 135:1.0 161:1.0 178:1.0 183:1.0 201:1.0 285:1.0 498:1.0 610:1.0 861:1.0 904:1.0 943:1.0 995:1.0 1635:1.0 2024:1.0 2387:1.0 2905:1.0 4486:1.0 7566:1.0 10817:2.0 
7.24 0:2.0 2:2.0 3:2.0 9:1.0 67:1.0 71:1.0 78:1.0 94:1.0 101:1.0 121:1.0 122:1.0 128:2.0 156:1.0 200:1.0 226:1.0 262:1.0 318:1.0 415:1.0 811:1.0 873:1.0 961:1.0 1128:1.0 1338:1.0 1821:1.0 2387:1.0 3241:1.0 6472:1.0 
7.24 2:1.0 6:1.0 10:1.0 19:1.0 35:1.0 82:1.0 269:1.0 409:1.0 425:1.0 672:1.0 1408:1.0 
5.208824469774418 0:1.0 1:1.0 2:1.0 4:1.0 12:1.0 16:1.0 35:1.0 108:1.0 152:1.0 270:1.0 281:1.0 289:1.0 296:1.0 361:1.0 371:1.0 383:1.0 474:1.0 1040:1.0 1292:1.0 1459:1.0 2731:1.0 3223:1.0 3359:1.0 4289:1.0 4437:1.0 
6.93883501182638 2:1.0 4:1.0 6:1.0 11:1.0 16:1.0 34:1.0 35:1.0 96:1.0 135:1.0 137:1.0 140:1.0 254:1.0 345:1.0 463:1.0 696:2.0 947:1.0 1317:1.0 1497:1.0 
7.24 311:1.0 730:1.0 7092:1.0 
7.24 2:2.0 11:1.0 12:1.0 62:2.0 127:1.0 245:1.0 314:1.0 487:1.0 528:1.0 688:1.0 926:1.0 1325:1.0 
7.24 0:2.0 5:1.0 11:3.0 14:1.0 16:1.0 45:2.0 46:1.0 57:1.0 61:1.0 88:1.0 98:1.0 145:1.0 146:1.0 154:1.0 169:1.0 210:1.0 285:1.0 326:1.0 382:1.0 413:1.0 438:1.0 451:1.0 683:1.0 743:1.0 901:1.0 1029:1.0 2229:1.0 2429:1.0 6391:1.0 
7.24 0:1.0 1:1.0 3:1.0 5:2.0 6:1.0 8:1.0 9:1.0 10:1.0 12:2.0 28:1.0 33:1.0 41:1.0 45:1.0 77:1.0 103:1.0 115:1.0 135:1.0 137:1.0 149:1.0 166:1.0 167:1.0 210:1.0 243:1.0 292:1.0 366:1.0 399:1.0 434:1.0 517:1.0 823:1.0 1041:1.0 1054:1.0 1976:2.0 7175:1.0 7722:1.0 12458:1.0 
7.24 5621:1.0 9673:2.0 10165:1.0 11490:1.0 11862:1.0 11984:1.0 13562:1.0 
1.3796295578562572 1:2.0 2:1.0 4:1.0 11:1.0 27:1.0 29:1.0 45:1.0 57:1.0 114:1.0 135:1.0 137:1.0 199:1.0 209:1.0 441:1.0 649:1.0 3248:1.0 3402:1.0 4622:1.0 9306:1.0 11139:1.0 
0.627033451104638 13:1.0 45:1.0 112:1.0 130:1.0 177:1.0 236:1.0 710:1.0 1000:1.0 3212:1.0 7621:1.0 10292:1.0 12479:1.0 
7.24 1:1.0 4:1.0 11:1.0 14:1.0 192:1.0 234:1.0 310:1.0 
7.24 1:1.0 8:1.0 10:1.0 11:1.0 18:1.0 30:1.0 43:1.0 56:1.0 119:1.0 168:1.0 178:1.0 250:1.0 548:1.0 563:1.0 596:1.0 1013:1.0 1338:1.0 5949:1.0 
0.8004729721297191 2:1.0 16:1.0 25:1.0 28:1.0 36:1.0 62:2.0 73:8.0 90:1.0 120:1.0 271:1.0 272:1.0 502:1.0 655:1.0 787:2.0 906:1.0 930:1.0 943:1.0 1032:1.0 1048:1.0 1117:1.0 1168:1.0 1187:1.0 1687:1.0 1793:1.0 2364:1.0 2621:1.0 2762:1.0 3155:1.0 4286:1.0 6563:2.0 12172:1.0 
2.017720769244979 1:1.0 3:1.0 11:1.0 15:1.0 23:1.0 41:1.0 77:1.0 117:1.0 190:1.0 342:1.0 565:1.0 672:1.0 1426:1.0 2260:1.0 2267:1.0 
7.24 123:1.0 533:1.0 636:1.0 
7.24 1:2.0 3:2.0 5:1.0 13:1.0 28:1.0 37:2.0 110:1.0 146:1.0 503:1.0 2152:1.0 4057:1.0 9283:1.0 
7.24 1:1.0 10:1.0 119:1.0 
0.3515651089741958 0:2.0 2:1.0 4:1.0 5:1.0 6:1.0 12:1.0 38:1.0 39:1.0 45:1.0 49:4.0 69:1.0 139:1.0 167:1.0 271:1.0 307:1.0 322:1.0 382:1.0 418:1.0 472:1.0 489:1.0 716:3.0 911:1.0 917:1.0 1087:1.0 1263:2.0 1505:1.0 5321:1.0 10727:1.0 
1.6996107168159573 1:2.0 4:1.0 40:1.0 1060:1.0 1625:1.0 2155:1.0 
6.432778840281371 25:1.0 98:1.0 191:1.0 470:1.0 733:1.0 3795:1.0 5265:1.0 5299:1.0 5397:1.0 9338:1.0 
7.24 45:1.0 130:1.0 499:1.0 
3.1007503941666004 1:1.0 3:1.0 4:1.0 5:1.0 7:1.0 10:1.0 35:1.0 65:1.0 130:1.0 142:1.0 152:1.0 184:1.0 258:1.0 295:1.0 419:1.0 1625:1.0 2104:1.0 2742:1.0 3044:1.0 4072:1.0 
7.24 9:2.0 96:1.0 293:1.0 421:2.0 464:1.0 673:1.0 870:1.0 1222:1.0 1671:1.0 3318:1.0 3562:1.0 
7.24 0:1.0 2:1.0 4:1.0 5:1.0 23:1.0 30:1.0 75:1.0 127:1.0 323:1.0 
7.24 0:1.0 1:1.0 3:2.0 4:1.0 9:1.0 32:2.0 142:1.0 243:1.0 324:1.0 350:1.0 1221:1.0 2257:1.0 5570:1.0 
7.24 0:1.0 3:1.0 8:1.0 10:2.0 14:1.0 15:1.0 17:1.0 30:1.0 31:1.0 33:1.0 46:1.0 54:1.0 56:1.0 102:1.0 122:1.0 131:1.0 133:1.0 143:1.0 152:1.0 164:1.0 170:1.0 172:1.0 184:1.0 206:1.0 281:1.0 299:1.0 312:1.0 325:1.0 363:1.0 404:1.0 693:1.0 799:1.0 812:1.0 835:1.0 857:1.0 1290:1.0 1563:1.0 1570:1.0 2477:1.0 3646:1.0 4699:1.0 4733:1.0 5594:1.0 6057:1.0 11233:1.0 
7.24 8:1.0 20:1.0 65:3.0 91:1.0 119:1.0 290:1.0 373:1.0 611:1.0 1290:1.0 5317:1.0 10776:1.0 
0.27905445649547367 0:1.0 1:1.0 6:1.0 18:1.0 98:1.0 117:1.0 118:1.0 159:1.0 166:1.0 191:1.0 223:1.0 1143:1.0 1279:1.0 1731:1.0 2414:1.0 2853:1.0 5772:1.0 
7.043031119266742 0:2.0 2:1.0 3:2.0 6:1.0 16:1.0 20:1.0 21:1.0 23:1.0 27:1.0 41:1.0 44:2.0 97:1.0 141:1.0 146:2.0 157:1.0 162:1.0 163:1.0 172:1.0 184:1.0 245:1.0 278:1.0 344:1.0 461:1.0 468:1.0 476:1.0 1044:1.0 1246:1.0 1353:1.0 1609:2.0 2803:1.0 3766:1.0 4038:1.0 6037:1.0 6225:1.0 11129:1.0 14956:1.0 
2.188127334210758 2:1.0 6:1.0 19:2.0 22:1.0 29:1.0 32:1.0 53:1.0 68:1.0 70:1.0 71:1.0 74:2.0 87:1.0 101:1.0 103:2.0 108:1.0 119:1.0 135:1.0 159:2.0 179:1.0 196:1.0 214:1.0 250:1.0 252:1.0 275:1.0 276:1.0 297:1.0 350:1.0 369:1.0 391:1.0 547:1.0 1290:1.0 1363:1.0 1507:1.0 1604:1.0 2026:1.0 2861:1.0 3146:1.0 4157:1.0 4700:1.0 5587:1.0 7048:1.0 7309:1.0 7615:1.0 12643:1.0 
7.24 2:1.0 4:1.0 7:1.0 17:1.0 33:1.0 60:1.0 71:1.0 78:1.0 128:1.0 129:1.0 130:1.0 491:1.0 567:1.0 622:1.0 641:1.0 660:1.0 1416:1.0 5671:1.0 
7.24 2:2.0 4:1.0 6:1.0 16:1.0 34:1.0 221:1.0 484:1.0 500:1.0 726:1.0 764:1.0 785:1.0 1225:1.0 4220:1.0 
7.24 1:1.0 6:1.0 7:1.0 30:1.0 34:1.0 68:1.0 197:1.0 276:1.0 318:1.0 444:1.0 647:1.0 726:1.0 1394:1.0 1799:1.0 1823:1.0 4022:1.0 4563:1.0 4816:1.0 5920:1.0 
7.24 93:1.0 142:1.0 147:1.0 
2.7242603651483748 13:1.0 43:1.0 125:1.0 135:1.0 140:1.0 295:1.0 1425:1.0 
7.24 176:1.0 479:1.0 566:1.0 730:1.0 909:1.0 10529:1.0 
6.702586146130025 176:1.0 349:1.0 471:1.0 537:2.0 544:2.0 566:1.0 730:1.0 856:1.0 936:1.0 938:1.0 1579:1.0 2283:1.0 2669:1.0 6709:1.0 7358:1.0 7593:1.0 10155:1.0 10506:1.0 11379:1.0 11600:1.0 11609:1.0 12702:1.0 13067:1.0 
7.24 6:1.0 22:1.0 34:1.0 55:1.0 400:1.0 409:1.0 490:1.0 661:1.0 724:1.0 726:1.0 1136:1.0 1942:1.0 
4.932907383856318 4:1.0 14:1.0 47:1.0 112:1.0 147:1.0 177:1.0 204:1.0 316:1.0 442:1.0 849:1.0 916:1.0 1001:1.0 3359:1.0 3511:1.0 
6.7804913099533985 0:1.0 1:2.0 5:1.0 7:2.0 30:1.0 39:1.0 43:1.0 45:2.0 51:1.0 61:1.0 68:1.0 70:1.0 75:2.0 99:1.0 130:1.0 135:1.0 179:1.0 242:1.0 272:1.0 361:1.0 685:1.0 693:1.0 916:1.0 1101:1.0 1474:1.0 1905:1.0 1930:1.0 2174:1.0 
7.24 0:1.0 2:1.0 4:1.0 5:2.0 15:1.0 67:1.0 110:1.0 127:1.0 325:1.0 386:1.0 516:1.0 549:1.0 858:1.0 1733:1.0 4842:1.0 
5.632067597139487 2:1.0 3:2.0 5:1.0 6:1.0 10:1.0 11:1.0 31:1.0 32:1.0 42:1.0 54:1.0 93:1.0 134:1.0 140:1.0 173:1.0 273:1.0 295:1.0 313:1.0 419:1.0 470:1.0 814:1.0 1004:2.0 1205:1.0 2372:1.0 
7.24 0:1.0 1:2.0 3:1.0 5:1.0 6:1.0 12:1.0 19:1.0 20:2.0 23:1.0 31:2.0 36:1.0 46:1.0 47:1.0 55:1.0 58:1.0 64:1.0 70:1.0 81:1.0 91:1.0 107:1.0 118:1.0 136:1.0 147:1.0 161:1.0 168:1.0 204:1.0 232:1.0 310:1.0 375:1.0 429:1.0 458:1.0 469:1.0 496:1.0 561:1.0 766:1.0 952:1.0 1020:1.0 1165:1.0 1173:1.0 1448:1.0 2094:1.0 3133:1.0 3427:1.0 3729:1.0 9152:1.0 
1.148148896379403 1:1.0 2:2.0 3:2.0 9:1.0 13:1.0 14:2.0 20:1.0 21:3.0 30:1.0 33:1.0 37:1.0 38:1.0 40:1.0 46:1.0 49:1.0 52:1.0 75:1.0 87:1.0 90:1.0 95:1.0 103:1.0 104:1.0 115:3.0 119:1.0 128:1.0 134:1.0 135:1.0 142:2.0 148:2.0 173:1.0 178:1.0 251:1.0 324:1.0 367:1.0 417:1.0 446:1.0 458:2.0 464:1.0 500:1.0 521:1.0 548:1.0 575:1.0 577:2.0 586:1.0 624:1.0 632:1.0 646:1.0 660:1.0 666:1.0 721:1.0 735:1.0 787:1.0 867:1.0 993:1.0 1291:1.0 1297:1.0 1360:2.0 1379:2.0 1397:1.0 1482:1.0 1648:2.0 1856:1.0 1889:1.0 2245:1.0 2281:1.0 2333:1.0 2450:1.0 2461:1.0 2887:1.0 2966:1.0 3737:1.0 4142:1.0 4734:1.0 4991:1.0 5616:1.0 5942:1.0 7196:1.0 8547:1.0 10880:1.0 13189:1.0 
0.35724721632906337 0:2.0 1:4.0 2:1.0 3:1.0 4:1.0 5:1.0 7:2.0 8:1.0 9:1.0 11:2.0 12:1.0 16:1.0 20:1.0 23:4.0 25:1.0 32:1.0 34:1.0 41:2.0 58:1.0 60:1.0 70:1.0 71:2.0 72:1.0 75:3.0 83:1.0 94:1.0 106:1.0 108:1.0 120:1.0 135:2.0 136:1.0 137:2.0 152:1.0 156:2.0 158:1.0 166:1.0 175:1.0 178:1.0 186:1.0 190:2.0 192:1.0 193:1.0 198:1.0 205:1.0 241:1.0 270:1.0 277:1.0 297:1.0 305:1.0 330:1.0 351:2.0 357:1.0 365:1.0 378:1.0 397:1.0 412:1.0 415:1.0 464:3.0 475:1.0 485:1.0 516:1.0 525:1.0 547:1.0 551:1.0 582:1.0 589:1.0 602:1.0 615:1.0 660:1.0 717:1.0 728:1.0 780:1.0 790:1.0 861:1.0 960:1.0 996:1.0 1005:1.0 1053:1.0 1144:1.0 1163:2.0 1285:1.0 1304:1.0 1381:1.0 1386:1.0 1412:1.0 1458:1.0 1501:1.0 1633:1.0 1670:1.0 1684:1.0 1702:1.0 1808:1.0 1966:1.0 2101:1.0 2371:1.0 2599:1.0 2667:1.0 3009:1.0 3310:1.0 3400:1.0 3616:1.0 3768:1.0 3856:1.0 4518:1.0 4536:1.0 4837:1.0 5335:1.0 5752:1.0 7023:1.0 7024:1.0 9998:1.0 12038:1.0 13992:1.0 
7.24 0:1.0 1:1.0 4:1.0 6:1.0 35:1.0 142:1.0 154:1.0 223:1.0 241:1.0 445:1.0 
3.1170658669882663 236:4.0 5719:8.0 
7.24 0:1.0 12:1.0 24:2.0 25:1.0 26:2.0 30:1.0 34:1.0 39:1.0 41:2.0 43:2.0 99:2.0 100:1.0 153:1.0 207:1.0 238:1.0 412:1.0 661:1.0 968:1.0 1032:1.0 1412:1.0 3900:1.0 4256:1.0 6913:1.0 11629:1.0 
7.24 2:1.0 4:1.0 5:1.0 6:1.0 25:1.0 30:1.0 43:1.0 78:1.0 121:2.0 219:1.0 256:1.0 293:1.0 318:1.0 326:1.0 450:1.0 
7.24 0:2.0 1:1.0 2:1.0 17:2.0 31:1.0 36:1.0 59:1.0 62:1.0 88:1.0 96:2.0 105:1.0 184:2.0 187:2.0 203:1.0 233:2.0 260:2.0 487:1.0 561:1.0 634:2.0 1195:1.0 4994:1.0 
7.24 24:1.0 26:1.0 47:1.0 79:1.0 105:1.0 217:1.0 241:1.0 562:1.0 4951:1.0 
7.24 2:1.0 3:1.0 12:1.0 19:1.0 28:1.0 32:2.0 40:1.0 56:1.0 67:1.0 68:1.0 118:1.0 131:1.0 161:1.0 163:1.0 224:1.0 405:1.0 608:1.0 714:1.0 893:1.0 1570:1.0 2182:1.0 
7.24 1:1.0 2:1.0 3:1.0 32:1.0 68:1.0 71:1.0 197:1.0 250:1.0 402:1.0 660:1.0 723:1.0 726:1.0 773:1.0 860:1.0 4386:1.0 
0.02013563481129433 4:2.0 7:1.0 10:1.0 11:1.0 29:1.0 42:1.0 46:1.0 54:1.0 58:2.0 62:1.0 79:1.0 86:1.0 119:1.0 158:1.0 163:1.0 194:1.0 225:1.0 286:1.0 346:1.0 367:1.0 453:1.0 537:1.0 540:1.0 589:1.0 905:1.0 949:1.0 1103:1.0 1114:1.0 1185:1.0 1338:1.0 1430:1.0 2195:1.0 2222:1.0 3242:1.0 5877:1.0 6569:2.0 
7.24 730:1.0 
7.24 0:1.0 4:2.0 13:1.0 18:1.0 23:1.0 47:1.0 52:1.0 117:1.0 131:1.0 306:1.0 361:1.0 427:1.0 527:1.0 883:1.0 2465:1.0 
7.24 0:1.0 5:1.0 24:1.0 26:1.0 30:1.0 35:1.0 42:1.0 43:1.0 67:1.0 110:1.0 125:1.0 137:1.0 147:1.0 241:1.0 2629:1.0 
7.24 1:1.0 3:1.0 10:1.0 82:1.0 145:1.0 245:1.0 285:1.0 299:1.0 363:1.0 861:1.0 
2.579474124914363 0:1.0 1:1.0 5:2.0 10:1.0 11:1.0 43:1.0 45:1.0 54:1.0 56:1.0 73:3.0 74:1.0 100:1.0 125:1.0 149:1.0 240:1.0 285:1.0 524:1.0 556:1.0 565:1.0 734:1.0 1966:1.0 6142:1.0 
0.3807503629304928 4:2.0 5:1.0 7:1.0 10:1.0 13:1.0 16:1.0 17:1.0 19:1.0 23:1.0 24:1.0 26:1.0 35:1.0 38:1.0 39:1.0 41:2.0 43:6.0 47:1.0 50:6.0 52:2.0 55:1.0 56:1.0 67:1.0 69:2.0 70:1.0 87:1.0 88:1.0 100:1.0 103:1.0 108:1.0 111:1.0 114:2.0 115:1.0 117:1.0 118:1.0 122:1.0 126:1.0 135:1.0 149:1.0 155:1.0 164:1.0 175:1.0 177:1.0 182:1.0 253:2.0 269:1.0 270:1.0 271:1.0 345:1.0 351:1.0 378:1.0 383:1.0 469:1.0 507:1.0 527:2.0 570:1.0 603:2.0 615:1.0 640:2.0 715:1.0 731:1.0 757:1.0 892:1.0 929:1.0 968:1.0 1001:1.0 1258:1.0 1380:1.0 1384:1.0 1399:1.0 1573:1.0 1876:1.0 3210:1.0 3941:1.0 3999:1.0 5895:1.0 8444:1.0 8811:1.0 12211:1.0 12335:1.0 13430:1.0 
5.039658035728165 1:1.0 3:1.0 4:1.0 9:3.0 12:1.0 22:1.0 28:1.0 40:1.0 44:2.0 109:1.0 123:1.0 140:1.0 146:2.0 151:1.0 153:1.0 621:1.0 682:1.0 841:1.0 1177:1.0 
3.6331224855732587 0:1.0 1:5.0 5:1.0 14:1.0 17:1.0 19:3.0 21:1.0 32:3.0 62:1.0 64:1.0 91:1.0 109:1.0 111:1.0 129:1.0 134:1.0 142:1.0 151:1.0 152:1.0 162:1.0 186:1.0 200:1.0 205:1.0 208:1.0 278:1.0 281:1.0 286:1.0 340:1.0 362:1.0 522:1.0 547:1.0 558:1.0 628:2.0 634:1.0 760:1.0 879:1.0 998:1.0 1023:1.0 1094:1.0 1188:2.0 1243:1.0 1437:1.0 1465:1.0 1499:1.0 1666:1.0 1974:1.0 1991:1.0 2039:1.0 2048:1.0 2096:1.0 2470:1.0 2826:1.0 3065:1.0 3101:1.0 3317:1.0 4267:2.0 5507:1.0 
0.795938644050601 0:1.0 1:10.0 2:3.0 3:2.0 4:1.0 6:5.0 11:1.0 12:2.0 13:4.0 21:1.0 24:6.0 26:6.0 32:1.0 39:1.0 41:1.0 49:2.0 52:2.0 61:1.0 66:1.0 68:1.0 71:1.0 98:2.0 99:1.0 105:2.0 108:1.0 114:1.0 119:1.0 128:6.0 132:2.0 139:1.0 141:1.0 145:1.0 174:1.0 194:1.0 195:2.0 196:2.0 202:1.0 241:1.0 263:1.0 282:1.0 283:1.0 313:1.0 319:2.0 322:1.0 331:2.0 332:1.0 362:1.0 370:1.0 372:1.0 377:1.0 391:1.0 448:1.0 452:1.0 533:1.0 542:1.0 549:1.0 550:1.0 558:1.0 608:1.0 636:2.0 641:1.0 664:1.0 670:1.0 675:1.0 680:1.0 681:1.0 712:1.0 714:2.0 734:1.0 762:1.0 865:1.0 906:1.0 968:1.0 1134:1.0 1301:1.0 1322:1.0 1365:3.0 1530:1.0 1592:1.0 1762:2.0 1776:1.0 1786:1.0 2035:1.0 2182:1.0 2360:1.0 2407:6.0 2460:1.0 2904:1.0 2911:1.0 2958:1.0 3038:2.0 3237:1.0 3266:1.0 5066:1.0 8718:1.0 10305:1.0 11469:2.0 11644:1.0 
1.6000390427472155 0:1.0 1:1.0 6:1.0 11:1.0 16:1.0 29:1.0 32:1.0 68:1.0 96:1.0 101:1.0 103:1.0 108:1.0 112:1.0 128:1.0 255:1.0 428:1.0 456:1.0 458:1.0 507:1.0 530:1.0 551:1.0 570:1.0 603:1.0 675:1.0 780:1.0 823:1.0 1051:1.0 1111:1.0 1158:2.0 1350:1.0 1402:1.0 1435:1.0 1555:1.0 2011:1.0 2248:1.0 2858:1.0 3847:1.0 5277:1.0 
7.24 3:1.0 5:1.0 80:1.0 103:1.0 617:1.0 
7.24 349:1.0 1651:1.0 5152:1.0 9246:1.0 
7.24 0:2.0 1:1.0 2:1.0 8:1.0 13:1.0 35:1.0 43:1.0 45:1.0 49:1.0 56:1.0 130:1.0 145:1.0 150:2.0 202:1.0 212:1.0 215:1.0 263:2.0 271:1.0 285:1.0 299:1.0 331:1.0 363:1.0 452:1.0 472:2.0 492:1.0 533:1.0 717:1.0 825:1.0 1032:2.0 1123:1.0 1135:1.0 1433:1.0 1823:1.0 2016:1.0 2040:1.0 2073:1.0 2793:1.0 3103:1.0 6602:1.0 7400:1.0 12772:1.0 
7.24 0:1.0 1:1.0 3:3.0 5:1.0 17:1.0 32:1.0 36:1.0 99:1.0 219:1.0 226:1.0 297:1.0 315:1.0 335:1.0 380:1.0 453:1.0 470:1.0 871:1.0 996:1.0 1588:1.0 2079:1.0 2676:1.0 5278:1.0 13141:1.0 
4.762179977547808 0:1.0 1:1.0 3:2.0 4:1.0 9:1.0 10:1.0 27:1.0 28:1.0 46:1.0 55:1.0 69:1.0 79:1.0 81:1.0 84:1.0 203:1.0 252:1.0 263:1.0 367:1.0 457:1.0 558:1.0 643:1.0 734:1.0 876:1.0 912:1.0 919:1.0 1133:1.0 1192:1.0 1275:1.0 1652:1.0 1694:2.0 2103:1.0 12420:1.0 
4.018060135252773 0:1.0 6:2.0 10:1.0 11:1.0 12:1.0 39:1.0 50:1.0 51:1.0 54:1.0 55:1.0 169:1.0 209:1.0 250:1.0 414:1.0 441:1.0 832:1.0 1010:1.0 1915:1.0 2518:1.0 2947:1.0 3091:1.0 3663:1.0 
2.18622116863114 6:2.0 15:1.0 46:1.0 189:1.0 1134:1.0 1367:1.0 2138:1.0 2242:1.0 7909:1.0 
7.24 3:1.0 17:1.0 58:1.0 117:1.0 159:1.0 162:1.0 323:1.0 343:1.0 359:1.0 475:1.0 545:1.0 2415:1.0 6059:1.0 12064:1.0 
7.24 0:1.0 4:1.0 13:1.0 17:1.0 5338:1.0 
2.1972038814908994 0:1.0 2:4.0 4:2.0 5:1.0 27:1.0 29:1.0 34:1.0 41:1.0 42:1.0 44:1.0 63:1.0 87:1.0 93:1.0 100:1.0 105:1.0 115:1.0 118:1.0 123:1.0 132:2.0 137:1.0 155:1.0 164:1.0 173:1.0 191:1.0 267:4.0 296:2.0 306:1.0 322:1.0 326:1.0 356:1.0 363:1.0 430:1.0 461:1.0 543:2.0 555:1.0 739:1.0 746:1.0 803:1.0 830:2.0 854:1.0 868:2.0 982:2.0 1180:1.0 1257:1.0 1323:1.0 1593:1.0 1622:1.0 1652:1.0 1811:1.0 2518:1.0 2560:1.0 2855:1.0 3715:1.0 6974:1.0 8074:1.0 10866:1.0 
4.221755860343829 0:1.0 76:1.0 184:1.0 321:1.0 1835:1.0 2517:1.0 2521:5.0 
7.24 0:1.0 3:3.0 5:1.0 27:1.0 31:1.0 37:2.0 38:1.0 46:1.0 70:1.0 79:1.0 85:1.0 105:1.0 110:1.0 136:1.0 144:1.0 150:1.0 238:1.0 284:1.0 353:1.0 681:1.0 733:1.0 1133:1.0 1148:1.0 1189:1.0 1457:1.0 1598:1.0 3417:1.0 3440:1.0 7595:1.0 
6.369765959619034 0:2.0 1:2.0 2:1.0 13:1.0 38:1.0 43:1.0 74:1.0 78:1.0 83:1.0 123:1.0 137:1.0 170:1.0 223:1.0 226:1.0 333:1.0 338:1.0 368:1.0 370:2.0 540:1.0 546:1.0 610:1.0 613:1.0 694:1.0 734:1.0 879:1.0 1072:1.0 1995:1.0 2423:1.0 3332:1.0 4273:1.0 9313:1.0 
7.24 1:1.0 4:1.0 40:1.0 1530:1.0 
7.24 10:1.0 29:1.0 64:1.0 82:1.0 295:1.0 419:1.0 
7.24 6:1.0 35:1.0 1136:1.0 2269:1.0 
7.24 0:1.0 2:1.0 4:1.0 5:1.0 11:1.0 16:1.0 218:1.0 295:1.0 381:1.0 1621:1.0 
7.24 1:1.0 43:1.0 68:1.0 117:1.0 197:1.0 326:1.0 342:1.0 629:1.0 692:1.0 3567:1.0 3970:1.0 
3.4228023158561256 45:1.0 103:1.0 104:1.0 133:1.0 265:1.0 457:1.0 823:1.0 1067:1.0 1766:1.0 2634:1.0 4239:1.0 
5.417455015314193 0:1.0 1:1.0 2:1.0 3:1.0 4:1.0 7:1.0 9:1.0 12:1.0 16:1.0 28:2.0 32:2.0 40:1.0 43:1.0 46:1.0 62:1.0 66:1.0 71:1.0 101:1.0 105:1.0 109:1.0 117:1.0 138:1.0 145:1.0 146:1.0 156:1.0 163:2.0 180:1.0 228:1.0 241:1.0 624:1.0 791:1.0 1166:1.0 1205:2.0 1283:1.0 1337:1.0 1460:1.0 1657:1.0 2120:1.0 3419:1.0 5761:1.0 6502:1.0 
7.24 0:1.0 1:1.0 2:1.0 3:1.0 5:1.0 15:1.0 110:1.0 374:1.0 1147:1.0 2255:1.0 
1.5018660841336666 0:1.0 3:1.0 9:1.0 17:1.0 37:1.0 102:1.0 141:1.0 194:2.0 349:1.0 439:1.0 440:1.0 502:1.0 541:2.0 544:1.0 657:2.0 792:1.0 972:1.0 1350:1.0 1402:1.0 1522:1.0 1564:1.0 1737:1.0 2147:1.0 2396:4.0 3690:1.0 4348:2.0 5477:1.0 6482:1.0 
7.24 4:1.0 6:1.0 10:1.0 11:1.0 18:1.0 29:1.0 35:1.0 82:1.0 188:1.0 191:1.0 256:1.0 465:1.0 1562:1.0 
0.6020429927642337 2:1.0 4:1.0 6:1.0 45:1.0 130:1.0 154:1.0 161:1.0 194:1.0 241:1.0 989:1.0 1636:1.0 
7.24 311:1.0 471:1.0 795:1.0 856:1.0 1632:1.0 1993:1.0 5140:1.0 9964:1.0 11635:1.0 13299:1.0 
1.1157443657468646 0:5.0 1:19.0 2:3.0 3:4.0 4:4.0 5:3.0 7:1.0 12:1.0 13:2.0 14:4.0 16:5.0 17:2.0 18:4.0 20:8.0 21:1.0 23:2.0 24:2.0 26:2.0 27:1.0 30:4.0 32:2.0 34:1.0 36:1.0 42:2.0 43:2.0 44:2.0 46:1.0 51:2.0 53:1.0 54:2.0 59:3.0 61:2.0 66:2.0 68:1.0 69:1.0 71:1.0 78:1.0 79:1.0 83:1.0 84:1.0 86:1.0 93:1.0 94:3.0 95:2.0 96:5.0 98:4.0 101:2.0 103:1.0 107:2.0 108:2.0 109:2.0 111:1.0 112:1.0 113:4.0 114:5.0 123:1.0 124:2.0 132:1.0 134:1.0 135:1.0 136:4.0 139:1.0 143:1.0 159:1.0 162:1.0 166:1.0 167:1.0 169:2.0 177:1.0 179:1.0 189:2.0 192:1.0 193:1.0 196:1.0 197:1.0 198:1.0 200:1.0 201:1.0 211:1.0 216:2.0 220:1.0 225:1.0 228:1.0 231:1.0 232:1.0 242:1.0 275:2.0 278:1.0 283:1.0 291:1.0 294:2.0 295:2.0 297:1.0 300:1.0 302:1.0 306:1.0 312:1.0 315:1.0 316:1.0 317:1.0 319:1.0 323:1.0 335:1.0 339:1.0 345:1.0 346:3.0 347:2.0 348:1.0 357:1.0 361:2.0 368:1.0 391:1.0 396:1.0 407:1.0 419:2.0 420:1.0 422:1.0 428:1.0 435:1.0 453:1.0 458:1.0 461:1.0 474:1.0 476:1.0 478:1.0 512:2.0 518:1.0 526:1.0 532:1.0 549:1.0 555:1.0 562:1.0 588:1.0 589:1.0 591:2.0 603:1.0 611:3.0 612:2.0 636:1.0 654:1.0 671:1.0 680:1.0 710:1.0 729:1.0 740:3.0 744:1.0 755:1.0 757:1.0 763:1.0 769:1.0 777:3.0 800:1.0 821:1.0 831:2.0 840:1.0 853:1.0 890:1.0 905:1.0 906:1.0 922:1.0 926:1.0 986:1.0 1024:1.0 1053:1.0 1096:1.0 1105:1.0 1106:1.0 1114:1.0 1121:2.0 1127:2.0 1151:1.0 1204:1.0 1215:1.0 1221:2.0 1230:1.0 1278:1.0 1286:1.0 1294:1.0 1310:1.0 1316:1.0 1359:1.0 1394:1.0 1398:1.0 1481:2.0 1487:1.0 1508:1.0 1534:1.0 1537:2.0 1571:2.0 1573:1.0 1604:1.0 1607:1.0 1637:1.0 1715:1.0 1725:1.0 1729:2.0 1742:1.0 1749:1.0 1768:2.0 1851:1.0 1878:1.0 1916:1.0 1930:2.0 1992:1.0 2015:1.0 2023:1.0 2124:1.0 2150:1.0 2159:1.0 2162:2.0 2235:2.0 2237:1.0 2270:1.0 2274:1.0 2325:1.0 2359:1.0 2499:1.0 2509:1.0 2619:1.0 2658:1.0 2661:1.0 2692:1.0 2693:1.0 2759:1.0 2834:1.0 2944:1.0 3124:1.0 3174:1.0 3176:8.0 3224:2.0 3269:1.0 3295:1.0 3336:1.0 3368:1.0 3437:2.0 3468:1.0 3521:1.0 3763:1.0 3813:2.0 3913:1.0 3938:1.0 3944:1.0 4030:1.0 4045:1.0 4131:1.0 4246:1.0 4344:1.0 4422:1.0 4620:1.0 4633:1.0 4713:1.0 5013:1.0 5141:1.0 5375:1.0 5419:1.0 5444:1.0 5727:1.0 5759:1.0 6446:1.0 7231:1.0 8033:1.0 8081:1.0 8213:2.0 8261:1.0 8689:2.0 8835:1.0 9689:2.0 9798:1.0 9943:1.0 10057:1.0 10677:1.0 11163:1.0 12238:1.0 12250:1.0 12591:1.0 12603:1.0 13333:1.0 13336:1.0 13354:1.0 14045:1.0 14057:1.0 14060:1.0 14418:1.0 
7.24 0:1.0 4:1.0 13:1.0 23:1.0 38:1.0 54:1.0 55:1.0 71:1.0 78:1.0 259:1.0 307:1.0 789:1.0 1351:1.0 1837:1.0 2839:1.0 2908:1.0 
6.481440844055369 311:2.0 349:1.0 398:2.0 466:3.0 479:1.0 795:1.0 878:1.0 882:1.0 885:1.0 1488:1.0 1653:1.0 2112:1.0 2283:1.0 2428:1.0 2986:1.0 2996:1.0 3483:1.0 5901:1.0 12088:1.0 
0.1677918464312586 0:2.0 1:3.0 2:2.0 3:1.0 16:1.0 18:3.0 19:1.0 20:2.0 21:1.0 23:1.0 32:1.0 45:1.0 58:1.0 64:1.0 71:1.0 75:2.0 77:1.0 79:1.0 91:1.0 92:1.0 99:1.0 105:1.0 108:2.0 115:1.0 119:1.0 124:1.0 141:2.0 143:1.0 154:1.0 157:1.0 159:1.0 167:1.0 189:1.0 212:1.0 238:1.0 261:1.0 270:1.0 391:2.0 441:1.0 461:1.0 502:1.0 570:2.0 609:1.0 611:3.0 686:1.0 725:1.0 757:2.0 868:1.0 879:1.0 1042:1.0 1054:1.0 1141:1.0 1145:1.0 1383:1.0 1393:1.0 1504:1.0 1731:1.0 1953:1.0 2027:1.0 2457:1.0 2511:1.0 3203:1.0 5081:1.0 5580:1.0 7924:1.0 
1.984080238237498 0:2.0 1:3.0 3:1.0 7:1.0 11:1.0 12:1.0 15:1.0 22:1.0 23:2.0 33:1.0 36:1.0 37:1.0 42:1.0 91:1.0 118:2.0 135:1.0 141:1.0 143:1.0 171:1.0 246:1.0 277:1.0 280:1.0 320:1.0 372:1.0 412:1.0 418:1.0 425:1.0 442:1.0 445:1.0 447:1.0 526:1.0 545:1.0 604:1.0 709:1.0 734:1.0 1001:1.0 1109:2.0 1226:1.0 1360:1.0 1786:1.0 1825:1.0 1988:1.0 2208:1.0 2220:1.0 4192:1.0 5397:1.0 7451:1.0 
0.09481277090724782 1:1.0 23:1.0 33:1.0 40:1.0 47:1.0 96:1.0 105:1.0 120:1.0 174:1.0 208:1.0 276:1.0 283:1.0 284:1.0 295:1.0 326:1.0 357:1.0 442:1.0 594:1.0 655:2.0 672:1.0 691:1.0 963:1.0 1000:1.0 1001:1.0 1275:1.0 1798:1.0 1882:1.0 2001:1.0 2964:1.0 3215:1.0 3777:1.0 3999:1.0 4081:1.0 4587:1.0 4661:1.0 5894:1.0 8565:1.0 8811:1.0 8931:1.0 
7.24 4:1.0 
7.24 0:1.0 1:1.0 2:2.0 3:1.0 6:1.0 7:1.0 10:1.0 12:3.0 18:1.0 19:1.0 24:1.0 26:2.0 33:1.0 37:1.0 39:2.0 45:1.0 48:1.0 78:1.0 83:1.0 84:1.0 86:1.0 118:1.0 130:1.0 132:1.0 134:1.0 170:1.0 193:1.0 202:1.0 237:1.0 283:1.0 291:1.0 362:1.0 604:1.0 632:1.0 700:1.0 1108:1.0 1783:1.0 3145:1.0 3347:1.0 
1.7783248268152072 1:4.0 2:2.0 3:2.0 4:1.0 8:1.0 10:1.0 12:2.0 14:1.0 16:2.0 19:1.0 20:3.0 21:1.0 22:1.0 24:2.0 26:2.0 32:1.0 34:1.0 36:1.0 40:1.0 42:1.0 43:1.0 45:1.0 46:1.0 48:1.0 61:1.0 64:3.0 65:1.0 69:1.0 70:1.0 95:1.0 97:1.0 101:1.0 105:1.0 107:1.0 112:1.0 118:1.0 119:1.0 125:1.0 130:1.0 144:2.0 153:1.0 156:2.0 166:1.0 185:1.0 198:1.0 202:1.0 216:1.0 219:1.0 230:1.0 263:1.0 279:1.0 283:1.0 315:1.0 352:3.0 357:1.0 374:1.0 442:1.0 458:1.0 522:1.0 560:1.0 561:1.0 585:1.0 605:1.0 611:1.0 624:1.0 632:1.0 712:1.0 757:1.0 782:2.0 798:1.0 803:1.0 807:1.0 811:1.0 816:1.0 869:1.0 915:2.0 999:2.0 1001:1.0 1019:2.0 1022:1.0 1112:1.0 1175:1.0 1176:1.0 1183:1.0 1192:1.0 1265:1.0 1433:1.0 1865:1.0 1894:1.0 1927:1.0 1996:1.0 2029:1.0 2363:1.0 2466:1.0 2559:1.0 2905:1.0 2930:1.0 3071:1.0 3144:2.0 3232:1.0 3308:1.0 3436:1.0 3788:1.0 3878:1.0 4155:1.0 6190:1.0 7129:4.0 7492:1.0 7992:1.0 10175:1.0 11430:1.0 14550:1.0 
7.24 0:3.0 1:1.0 2:2.0 4:1.0 8:1.0 9:1.0 24:1.0 26:1.0 30:1.0 40:1.0 47:1.0 77:1.0 86:1.0 93:1.0 101:2.0 106:1.0 127:1.0 143:1.0 147:1.0 204:1.0 291:1.0 324:1.0 426:2.0 624:1.0 782:1.0 818:1.0 1223:1.0 
2.9602067538126806 1:1.0 4:1.0 9:3.0 12:1.0 13:1.0 15:1.0 19:1.0 24:1.0 25:1.0 26:1.0 27:1.0 33:1.0 34:1.0 48:1.0 49:1.0 59:1.0 64:1.0 85:2.0 102:1.0 171:1.0 175:1.0 182:1.0 191:1.0 203:1.0 216:1.0 236:1.0 247:1.0 348:1.0 378:1.0 408:1.0 444:1.0 472:1.0 498:1.0 538:1.0 607:1.0 746:1.0 854:1.0 893:1.0 1360:1.0 1849:1.0 1910:1.0 5039:1.0 6706:1.0 
7.24 0:1.0 2:1.0 10:1.0 11:1.0 18:1.0 183:1.0 231:1.0 285:1.0 382:1.0 484:1.0 4839:1.0 13119:1.0 
6.424225686018689 2:2.0 4:1.0 5:1.0 13:1.0 18:1.0 67:1.0 68:1.0 100:1.0 112:1.0 177:1.0 186:1.0 205:1.0 438:1.0 490:1.0 611:1.0 1002:1.0 1628:1.0 
4.361042027442707 1:1.0 2:1.0 4:1.0 5:2.0 6:1.0 7:1.0 9:1.0 12:1.0 17:1.0 22:2.0 24:2.0 26:2.0 31:4.0 33:1.0 42:1.0 43:1.0 47:2.0 69:1.0 84:1.0 86:1.0 88:1.0 144:1.0 158:1.0 291:1.0 334:1.0 407:1.0 446:1.0 611:1.0 633:1.0 761:1.0 871:1.0 963:1.0 2370:1.0 2420:1.0 3319:1.0 6318:2.0 13485:2.0 
7.24 0:1.0 10:1.0 11:1.0 43:1.0 45:1.0 93:1.0 130:1.0 192:1.0 
1.8608312076953857 0:1.0 2:1.0 6:1.0 22:1.0 23:1.0 38:1.0 45:1.0 118:1.0 248:2.0 317:1.0 318:1.0 363:1.0 489:1.0 498:2.0 515:1.0 543:1.0 1003:1.0 1046:1.0 1274:1.0 1585:1.0 2230:1.0 3375:1.0 4194:2.0 4451:1.0 5246:1.0 6072:1.0 
0.7178200231206732 2:1.0 6:1.0 10:2.0 18:1.0 34:1.0 108:1.0 159:1.0 263:1.0 331:1.0 452:1.0 757:1.0 859:1.0 1198:1.0 2321:1.0 
7.24 0:2.0 2:1.0 4:1.0 18:1.0 71:1.0 100:1.0 108:2.0 120:1.0 122:1.0 136:1.0 159:2.0 399:1.0 432:1.0 484:1.0 1000:1.0 4497:1.0 9160:1.0 
7.24 4:1.0 
7.24 4:1.0 
7.24 6:1.0 7:1.0 10:1.0 32:1.0 38:1.0 104:1.0 140:1.0 191:1.0 225:1.0 242:1.0 700:1.0 809:1.0 910:1.0 
