svm_type c_svc
kernel_type rbf
gamma 0.0030864197530864196
nr_class 2
total_sv 7741
rho -0.39219679864363505
label 1 -1
nr_sv 3868 3873
SV
0.13555168710269522 283:1.0 452:1.0 269:1.0 257:1.0 397:1.0 306:1.0 63:1.0 334:1.0 18:1.0 293:1.0 10:1.0 395:1.0 417:1.0 
7.24 74:1.0 230:1.0 
7.040025620433054 751:1.0 214:1.0 308:1.0 174:1.0 82:2.0 140:1.0 405:1.0 367:1.0 288:1.0 395:1.0 417:1.0 465:1.0 128:1.0 159:1.0 535:2.0 385:1.0 208:1.0 45:1.0 484:1.0 109:2.0 280:1.0 135:1.0 436:1.0 956:2.0 187:1.0 335:1.0 80:1.0 
7.24 254:1.0 74:1.0 196:1.0 266:1.0 201:1.0 234:1.0 135:1.0 133:1.0 45:1.0 417:1.0 
3.545181917649651 355:1.0 36:2.0 498:1.0 174:1.0 685:1.0 341:1.0 418:1.0 415:1.0 8:1.0 426:1.0 417:6.0 336:1.0 159:1.0 188:1.0 81:1.0 389:1.0 244:1.0 477:1.0 177:1.0 133:1.0 348:1.0 100:1.0 163:4.0 245:1.0 202:1.0 484:1.0 997:1.0 125:1.0 356:1.0 640:2.0 74:1.0 72:1.0 239:1.0 191:1.0 
7.24 488:1.0 484:1.0 13:1.0 417:1.0 
1.0340768409727779 441:2.0 999:1.0 364:1.0 222:1.0 417:1.0 413:1.0 352:1.0 74:1.0 128:1.0 394:2.0 242:1.0 397:1.0 231:1.0 440:1.0 45:5.0 29:2.0 
0.9783585181000779 488:1.0 273:1.0 214:2.0 414:1.0 379:1.0 215:1.0 85:1.0 18:1.0 122:1.0 33:1.0 127:2.0 159:1.0 81:1.0 257:1.0 180:1.0 416:1.0 991:2.0 348:1.0 320:1.0 
1.6456739096747754 283:1.0 366:1.0 196:1.0 278:1.0 92:1.0 361:1.0 7:1.0 
5.964016950654286 283:1.0 278:1.0 375:1.0 191:1.0 133:2.0 
4.07185273019881 488:1.0 366:1.0 162:1.0 367:1.0 341:1.0 1:1.0 821:1.0 395:1.0 417:1.0 276:1.0 216:1.0 361:1.0 278:1.0 133:1.0 
6.015832668677287 283:1.0 254:1.0 488:1.0 174:1.0 46:1.0 193:1.0 995:1.0 369:1.0 253:1.0 156:1.0 341:1.0 18:1.0 40:2.0 200:1.0 257:1.0 165:1.0 149:1.0 467:1.0 201:1.0 304:1.0 56:1.0 10:1.0 151:1.0 991:1.0 
7.24 214:2.0 202:1.0 357:1.0 102:1.0 156:1.0 367:2.0 161:2.0 966:1.0 344:1.0 70:1.0 497:1.0 200:1.0 480:1.0 165:1.0 397:1.0 449:2.0 208:1.0 163:1.0 272:1.0 330:2.0 
7.24 214:1.0 333:2.0 284:1.0 89:2.0 700:1.0 173:1.0 20:1.0 395:1.0 330:1.0 
0.2593260805037447 366:1.0 206:1.0 93:1.0 483:1.0 136:1.0 397:1.0 168:1.0 334:1.0 297:1.0 395:2.0 45:1.0 417:1.0 
7.24 283:1.0 314:1.0 257:1.0 99:1.0 239:1.0 494:1.0 18:1.0 417:1.0 
3.133606501379482 115:1.0 488:1.0 366:1.0 282:1.0 361:1.0 202:1.0 257:1.0 287:1.0 409:1.0 341:1.0 18:1.0 310:1.0 133:1.0 138:1.0 45:1.0 417:1.0 
2.135276096677274 498:1.0 398:1.0 174:1.0 455:1.0 7:1.0 10:1.0 45:1.0 13:1.0 356:1.0 408:1.0 
7.24 277:1.0 145:1.0 180:1.0 341:1.0 494:1.0 260:1.0 284:1.0 602:1.0 395:1.0 491:1.0 417:1.0 
2.6030649981460163 254:1.0 366:1.0 357:1.0 469:1.0 395:1.0 408:1.0 127:1.0 352:1.0 184:1.0 353:1.0 416:1.0 45:1.0 991:1.0 
5.229752585822542 262:1.0 214:1.0 98:1.0 261:1.0 477:1.0 140:1.0 215:1.0 423:2.0 38:1.0 493:1.0 316:1.0 902:1.0 151:1.0 356:1.0 
7.24 196:1.0 495:1.0 16:1.0 199:1.0 397:1.0 367:1.0 363:1.0 999:1.0 92:1.0 133:1.0 45:1.0 
7.24 202:1.0 91:1.0 369:1.0 72:1.0 278:1.0 367:1.0 341:1.0 402:1.0 260:1.0 48:1.0 177:1.0 416:1.0 133:1.0 265:1.0 
7.24 98:1.0 821:1.0 230:1.0 369:1.0 173:1.0 397:1.0 356:1.0 417:1.0 
7.24 214:1.0 312:1.0 202:1.0 91:1.0 82:1.0 995:1.0 485:1.0 78:1.0 37:1.0 247:1.0 115:1.0 159:2.0 376:1.0 301:1.0 21:1.0 397:1.0 477:1.0 594:1.0 278:1.0 285:1.0 151:1.0 
7.226000123707847 283:1.0 130:1.0 346:1.0 234:1.0 257:1.0 19:1.0 485:1.0 194:1.0 219:1.0 18:1.0 340:1.0 417:1.0 
1.719563688029748 214:2.0 17:1.0 67:1.0 484:1.0 485:1.0 852:1.0 494:1.0 395:1.0 189:1.0 539:1.0 356:1.0 417:1.0 200:1.0 165:1.0 334:1.0 304:1.0 45:1.0 330:2.0 
5.798700445009409 232:1.0 195:1.0 43:1.0 484:1.0 995:1.0 369:1.0 253:1.0 306:1.0 143:1.0 356:1.0 417:1.0 350:1.0 165:1.0 481:1.0 201:2.0 304:1.0 217:1.0 133:1.0 
2.434961268132966 488:1.0 214:1.0 67:1.0 174:1.0 383:1.0 109:1.0 428:1.0 291:1.0 380:1.0 316:1.0 87:1.0 196:1.0 401:1.0 391:2.0 397:1.0 432:2.0 111:1.0 177:1.0 45:1.0 404:1.0 
2.3424141901388675 456:1.0 98:1.0 242:1.0 93:1.0 397:3.0 278:1.0 438:1.0 48:1.0 303:1.0 417:1.0 
3.330396644932748 488:1.0 274:2.0 375:1.0 368:1.0 991:1.0 
5.0202409292512185 283:1.0 159:1.0 214:1.0 130:1.0 274:1.0 414:1.0 369:1.0 149:1.0 334:1.0 322:1.0 177:1.0 395:1.0 991:1.0 356:1.0 54:1.0 336:1.0 114:1.0 
7.24 
3.788945303920035 283:1.0 452:1.0 480:1.0 149:1.0 457:1.0 418:1.0 918:1.0 45:1.0 991:1.0 
0.7710609035659668 254:1.0 352:1.0 196:1.0 259:1.0 368:1.0 375:1.0 246:1.0 278:1.0 468:1.0 418:1.0 45:1.0 417:1.0 
5.006998318480785 366:2.0 456:1.0 40:1.0 68:1.0 93:1.0 165:1.0 550:1.0 367:1.0 42:1.0 92:1.0 386:1.0 395:1.0 424:1.0 303:1.0 
2.421271135890986 488:1.0 282:1.0 361:1.0 165:1.0 287:1.0 107:1.0 455:1.0 300:1.0 45:1.0 
4.02716055854377 452:1.0 704:1.0 214:1.0 406:1.0 43:1.0 202:1.0 234:1.0 91:1.0 367:1.0 402:1.0 32:1.0 316:1.0 189:1.0 395:2.0 196:1.0 259:1.0 397:2.0 141:1.0 177:1.0 133:1.0 45:1.0 182:1.0 
7.24 283:1.0 61:1.0 196:1.0 448:1.0 21:1.0 361:1.0 311:1.0 45:1.0 287:1.0 
7.24 196:1.0 21:1.0 202:1.0 133:1.0 45:1.0 84:1.0 997:1.0 
3.331107253186038 488:1.0 232:1.0 383:1.0 453:1.0 341:1.0 334:1.0 373:1.0 351:1.0 395:1.0 356:1.0 417:2.0 
5.118647110526878 194:1.0 74:1.0 487:1.0 393:1.0 46:1.0 133:1.0 45:1.0 303:1.0 13:1.0 70:1.0 
7.24 150:1.0 361:1.0 287:1.0 77:1.0 773:1.0 107:1.0 433:1.0 371:1.0 45:1.0 285:1.0 
3.4705266412633353 433:1.0 455:1.0 202:1.0 426:1.0 133:1.0 45:5.0 84:1.0 997:1.0 
7.24 
1.7383182060809392 214:1.0 833:1.0 46:1.0 168:1.0 678:1.0 499:1.0 48:1.0 395:1.0 73:1.0 179:1.0 216:1.0 361:1.0 165:3.0 220:2.0 38:2.0 141:2.0 960:1.0 177:1.0 455:2.0 45:2.0 366:2.0 35:1.0 256:1.0 129:1.0 131:1.0 412:1.0 279:2.0 1:1.0 319:1.0 189:1.0 303:1.0 480:1.0 136:1.0 116:2.0 378:1.0 266:1.0 323:1.0 201:1.0 450:1.0 23:1.0 
1.066537364630281 341:1.0 214:1.0 433:1.0 223:1.0 242:1.0 116:2.0 397:1.0 417:1.0 
3.529150441353218 488:1.0 283:2.0 390:2.0 192:1.0 195:1.0 46:1.0 484:1.0 357:1.0 122:1.0 293:1.0 10:1.0 991:2.0 163:1.0 
6.607647322429427 366:1.0 107:1.0 98:1.0 371:1.0 45:1.0 285:1.0 105:1.0 
5.535682740297372 390:1.0 488:1.0 44:1.0 195:2.0 407:1.0 202:1.0 484:1.0 997:1.0 367:1.0 179:1.0 159:1.0 453:1.0 875:1.0 142:1.0 416:1.0 133:1.0 45:2.0 991:1.0 
0.8268973898801156 262:1.0 488:1.0 390:1.0 441:1.0 214:1.0 411:1.0 282:1.0 414:1.0 234:1.0 358:1.0 485:1.0 425:1.0 224:1.0 134:1.0 435:1.0 189:1.0 54:1.0 336:1.0 127:3.0 417:1.0 394:1.0 21:1.0 397:1.0 477:1.0 47:2.0 285:1.0 991:1.0 
0.8933716817464037 273:1.0 452:1.0 216:1.0 21:1.0 223:1.0 399:1.0 343:1.0 323:1.0 311:1.0 133:2.0 
3.127235194627452 278:1.0 196:1.0 214:2.0 124:1.0 48:2.0 358:1.0 460:1.0 395:1.0 303:1.0 207:1.0 
3.507710737121699 498:1.0 361:1.0 278:1.0 347:1.0 494:1.0 284:1.0 237:1.0 30:1.0 27:1.0 395:1.0 95:1.0 417:1.0 
6.2749275943467815 214:2.0 14:1.0 897:1.0 369:1.0 215:1.0 85:1.0 499:1.0 155:1.0 341:1.0 8:1.0 300:1.0 37:1.0 395:2.0 417:3.0 240:1.0 463:1.0 165:3.0 477:1.0 149:1.0 141:1.0 283:1.0 604:1.0 469:1.0 134:1.0 122:1.0 356:1.0 16:1.0 62:1.0 72:1.0 47:1.0 334:1.0 201:1.0 
2.703847149752624 123:1.0 227:1.0 223:1.0 235:1.0 219:1.0 367:1.0 341:1.0 494:1.0 821:1.0 426:1.0 135:1.0 395:1.0 408:1.0 417:2.0 74:1.0 216:1.0 21:1.0 480:1.0 19:1.0 431:1.0 231:1.0 284:1.0 191:1.0 86:1.0 28:1.0 133:1.0 173:1.0 45:1.0 100:1.0 
7.24 165:1.0 484:1.0 131:1.0 425:1.0 341:2.0 166:1.0 462:1.0 133:1.0 285:1.0 
7.24 254:1.0 361:1.0 278:1.0 999:1.0 7:1.0 316:1.0 45:1.0 
7.24 176:1.0 367:1.0 92:1.0 247:1.0 172:1.0 26:1.0 317:1.0 290:1.0 481:1.0 455:1.0 371:1.0 285:1.0 80:1.0 
0.3506547031348328 488:1.0 994:2.0 327:1.0 425:2.0 299:1.0 7:1.0 671:1.0 356:1.0 417:5.0 408:2.0 242:1.0 391:1.0 392:1.0 397:2.0 194:1.0 454:1.0 453:1.0 278:1.0 438:1.0 432:1.0 217:1.0 45:1.0 285:2.0 837:1.0 
4.222976520887968 366:1.0 283:1.0 196:1.0 259:1.0 188:1.0 210:1.0 61:1.0 367:1.0 448:1.0 8:1.0 45:1.0 395:1.0 
4.952848379405929 422:2.0 704:1.0 171:1.0 232:1.0 46:1.0 395:1.0 127:1.0 216:1.0 145:1.0 302:1.0 433:1.0 177:1.0 285:1.0 991:2.0 366:1.0 283:1.0 273:2.0 245:1.0 202:1.0 997:1.0 671:1.0 196:1.0 74:1.0 241:1.0 482:1.0 21:1.0 397:1.0 500:1.0 267:1.0 298:1.0 
7.24 359:1.0 
5.753682221626405 441:1.0 243:1.0 411:1.0 202:1.0 369:1.0 997:1.0 367:2.0 494:1.0 351:1.0 395:1.0 127:1.0 417:1.0 196:2.0 74:1.0 128:1.0 394:1.0 216:1.0 242:1.0 361:1.0 397:2.0 278:1.0 438:1.0 45:2.0 285:1.0 
5.468146128897409 214:1.0 44:1.0 168:1.0 410:1.0 418:1.0 60:1.0 135:1.0 395:1.0 259:1.0 39:1.0 117:1.0 278:1.0 38:1.0 141:1.0 28:1.0 297:1.0 45:1.0 
0.695908540511471 453:1.0 196:1.0 21:1.0 492:1.0 109:1.0 45:1.0 
2.3328313752013337 366:1.0 214:2.0 369:1.0 367:2.0 341:2.0 494:1.0 134:1.0 395:2.0 356:1.0 417:2.0 931:1.0 401:1.0 259:1.0 216:1.0 98:1.0 482:1.0 314:1.0 365:1.0 141:1.0 133:1.0 139:1.0 
0.8376963884762784 123:1.0 214:4.0 64:1.0 140:1.0 499:1.0 367:6.0 341:1.0 448:1.0 426:1.0 417:14.0 216:2.0 103:1.0 999:1.0 493:1.0 130:1.0 242:1.0 118:1.0 197:1.0 594:1.0 80:1.0 43:1.0 205:1.0 65:1.0 168:1.0 51:1.0 78:1.0 291:1.0 395:1.0 259:1.0 98:1.0 278:1.0 461:2.0 362:1.0 45:4.0 283:3.0 375:1.0 193:1.0 156:1.0 18:3.0 392:1.0 198:1.0 211:2.0 495:1.0 414:1.0 14:1.0 423:1.0 61:1.0 925:1.0 172:1.0 115:1.0 433:1.0 173:2.0 991:2.0 134:2.0 492:2.0 408:1.0 116:1.0 409:1.0 239:1.0 486:1.0 23:1.0 488:2.0 422:1.0 681:1.0 447:1.0 358:2.0 730:1.0 512:1.0 54:1.0 895:1.0 931:1.0 376:2.0 285:1.0 202:2.0 997:1.0 79:1.0 299:1.0 280:1.0 213:1.0 276:2.0 257:2.0 397:2.0 191:1.0 204:1.0 
2.333539594959595 366:1.0 107:1.0 274:1.0 322:1.0 191:1.0 133:1.0 45:1.0 471:1.0 417:1.0 
1.1336679175293223 283:1.0 35:1.0 123:1.0 214:2.0 710:2.0 360:1.0 998:1.0 156:1.0 367:1.0 999:1.0 418:1.0 426:2.0 213:1.0 395:1.0 417:1.0 74:1.0 130:1.0 477:1.0 142:1.0 45:2.0 173:2.0 
0.10971087504459118 283:2.0 488:1.0 214:1.0 452:1.0 331:1.0 174:1.0 146:1.0 428:1.0 354:1.0 271:1.0 417:2.0 463:1.0 292:1.0 314:1.0 165:1.0 388:1.0 453:1.0 141:1.0 293:1.0 837:1.0 163:4.0 
0.17718347335243403 488:1.0 158:1.0 308:1.0 282:1.0 495:2.0 414:1.0 46:4.0 363:1.0 393:1.0 165:1.0 278:1.0 449:1.0 439:1.0 433:1.0 45:6.0 163:3.0 898:1.0 366:1.0 911:2.0 202:1.0 997:1.0 999:1.0 493:1.0 351:1.0 7:1.0 492:1.0 356:1.0 352:1.0 436:1.0 242:2.0 392:1.0 397:5.0 298:1.0 
7.24 254:1.0 216:1.0 375:1.0 367:1.0 334:1.0 1:1.0 304:1.0 450:1.0 416:1.0 395:1.0 
7.24 254:1.0 46:1.0 428:1.0 393:1.0 7:2.0 395:1.0 40:1.0 241:1.0 278:1.0 438:1.0 45:1.0 182:1.0 
2.981183659687506 366:1.0 312:1.0 202:1.0 234:1.0 46:1.0 84:1.0 78:1.0 997:1.0 460:1.0 7:1.0 395:2.0 336:1.0 352:1.0 196:1.0 474:2.0 216:1.0 165:1.0 438:1.0 557:1.0 326:1.0 45:3.0 
7.24 194:1.0 866:1.0 16:1.0 395:1.0 
1.996554098270977 488:1.0 254:1.0 315:1.0 214:1.0 216:1.0 69:1.0 484:1.0 367:1.0 141:1.0 487:1.0 319:1.0 395:1.0 417:1.0 
7.24 283:1.0 32:1.0 168:1.0 
7.24 488:1.0 681:1.0 158:1.0 259:1.0 216:1.0 257:1.0 165:1.0 499:1.0 367:1.0 341:1.0 18:1.0 191:1.0 325:1.0 177:1.0 133:2.0 45:1.0 
7.24 214:2.0 256:1.0 158:1.0 251:1.0 369:1.0 77:1.0 367:1.0 279:1.0 8:1.0 417:1.0 196:1.0 301:1.0 242:1.0 165:1.0 397:1.0 231:1.0 45:1.0 139:1.0 230:1.0 
7.24 488:1.0 262:1.0 220:1.0 153:1.0 270:1.0 
5.497087202033909 249:1.0 36:1.0 458:1.0 50:1.0 210:1.0 489:1.0 367:1.0 420:1.0 133:1.0 45:1.0 356:1.0 
4.711759807975953 488:1.0 282:1.0 419:1.0 46:2.0 354:1.0 143:1.0 395:2.0 159:1.0 59:1.0 38:1.0 449:1.0 208:1.0 960:1.0 177:1.0 455:1.0 133:1.0 45:1.0 898:1.0 366:1.0 245:1.0 103:1.0 202:1.0 997:1.0 131:1.0 525:1.0 218:1.0 351:1.0 309:1.0 74:1.0 21:1.0 62:1.0 581:1.0 116:1.0 47:1.0 754:1.0 97:1.0 201:1.0 23:1.0 4:1.0 
0.9109735821460877 214:1.0 232:1.0 357:3.0 367:1.0 354:1.0 114:2.0 417:7.0 240:1.0 159:3.0 216:1.0 454:1.0 373:1.0 208:1.0 141:1.0 511:1.0 163:2.0 484:1.0 109:1.0 153:1.0 92:1.0 421:1.0 200:2.0 956:1.0 242:1.0 487:3.0 138:1.0 262:1.0 36:1.0 447:2.0 253:1.0 428:1.0 730:1.0 143:1.0 33:1.0 465:2.0 41:1.0 292:1.0 165:1.0 385:1.0 45:1.0 245:1.0 536:2.0 412:2.0 52:1.0 189:1.0 21:1.0 392:1.0 397:1.0 293:1.0 742:1.0 
7.24 453:1.0 808:1.0 341:1.0 274:1.0 141:1.0 446:1.0 395:2.0 356:1.0 996:1.0 417:1.0 408:1.0 
7.24 87:1.0 995:1.0 168:2.0 469:1.0 253:1.0 334:1.0 432:1.0 284:1.0 135:1.0 395:1.0 
2.617660237568574 488:1.0 21:1.0 361:1.0 93:1.0 168:1.0 287:1.0 367:1.0 494:1.0 141:1.0 125:1.0 191:1.0 297:1.0 133:2.0 45:1.0 
1.844549825452449 488:2.0 422:4.0 315:1.0 243:1.0 369:1.0 367:1.0 328:1.0 428:1.0 341:1.0 402:1.0 48:1.0 354:1.0 395:2.0 73:1.0 114:1.0 54:2.0 240:1.0 417:5.0 159:1.0 216:1.0 781:1.0 99:2.0 399:1.0 302:2.0 278:1.0 365:1.0 163:1.0 283:1.0 452:1.0 170:2.0 295:1.0 24:1.0 91:1.0 129:1.0 167:1.0 271:2.0 303:1.0 356:2.0 22:1.0 16:1.0 754:1.0 266:1.0 624:1.0 416:1.0 207:1.0 4:1.0 
2.461815105158468 214:2.0 447:1.0 243:1.0 312:1.0 82:1.0 140:1.0 417:1.0 54:1.0 296:1.0 274:1.0 216:1.0 301:1.0 165:1.0 208:1.0 141:1.0 45:2.0 283:1.0 273:1.0 411:1.0 109:1.0 999:1.0 52:1.0 492:1.0 213:1.0 408:1.0 196:1.0 21:1.0 431:1.0 397:1.0 487:1.0 479:1.0 201:1.0 80:1.0 
7.24 367:1.0 214:1.0 45:1.0 
7.24 400:1.0 158:1.0 811:1.0 398:1.0 628:1.0 228:1.0 253:1.0 221:2.0 499:1.0 63:1.0 30:1.0 52:1.0 918:1.0 607:1.0 189:1.0 435:1.0 73:1.0 417:2.0 403:1.0 21:1.0 397:2.0 535:1.0 325:1.0 201:1.0 304:1.0 45:1.0 163:1.0 
2.485862174708266 488:1.0 366:1.0 315:1.0 368:1.0 375:1.0 243:1.0 327:1.0 109:1.0 469:1.0 32:1.0 329:2.0 395:1.0 417:1.0 216:1.0 397:1.0 194:1.0 45:1.0 4:1.0 
4.6077468174346885 262:1.0 488:1.0 214:1.0 232:2.0 367:1.0 428:1.0 60:1.0 122:1.0 92:1.0 213:1.0 135:1.0 395:1.0 159:1.0 399:1.0 177:1.0 133:1.0 45:1.0 178:1.0 
5.4600921513170535 283:2.0 254:1.0 64:1.0 91:1.0 162:1.0 367:2.0 32:1.0 8:1.0 92:1.0 395:1.0 179:1.0 417:2.0 724:2.0 26:1.0 188:1.0 346:1.0 389:1.0 197:1.0 317:2.0 334:1.0 284:1.0 119:1.0 20:1.0 173:1.0 163:1.0 
0.3744036768503922 262:1.0 36:3.0 158:3.0 232:1.0 312:1.0 140:1.0 328:1.0 341:1.0 821:1.0 395:1.0 417:3.0 240:1.0 54:2.0 403:1.0 206:1.0 216:1.0 399:1.0 362:1.0 163:2.0 283:1.0 911:1.0 295:1.0 202:1.0 120:1.0 18:1.0 493:1.0 281:1.0 130:1.0 314:1.0 16:1.0 257:1.0 321:1.0 388:1.0 334:1.0 284:1.0 605:1.0 112:1.0 738:1.0 416:1.0 95:1.0 
7.24 724:1.0 689:1.0 183:1.0 302:1.0 15:1.0 72:1.0 334:1.0 284:1.0 395:2.0 435:1.0 173:1.0 230:1.0 309:1.0 356:1.0 417:1.0 
7.24 283:1.0 704:1.0 346:1.0 202:1.0 484:1.0 109:1.0 357:1.0 84:1.0 997:1.0 351:1.0 45:1.0 395:1.0 444:1.0 182:1.0 417:1.0 
0.0753608148903256 71:1.0 214:1.0 67:1.0 495:1.0 109:1.0 357:2.0 176:1.0 425:1.0 367:1.0 341:1.0 494:1.0 395:2.0 356:1.0 417:2.0 446:2.0 346:1.0 199:1.0 397:1.0 302:1.0 476:1.0 334:1.0 440:1.0 191:1.0 386:1.0 45:1.0 285:2.0 330:1.0 
6.944106367405863 254:1.0 273:1.0 375:1.0 43:1.0 899:1.0 484:1.0 176:1.0 367:1.0 8:1.0 351:1.0 417:1.0 408:1.0 150:1.0 188:1.0 346:1.0 242:1.0 361:1.0 116:1.0 397:1.0 278:1.0 220:1.0 373:1.0 239:1.0 45:2.0 182:1.0 
7.24 359:2.0 
7.24 312:1.0 257:1.0 395:1.0 309:1.0 114:1.0 54:1.0 
1.9490213815702209 498:1.0 232:1.0 177:1.0 234:1.0 316:1.0 10:1.0 45:1.0 397:1.0 384:1.0 417:1.0 
7.24 366:1.0 768:1.0 250:1.0 133:1.0 45:1.0 
7.24 115:1.0 130:1.0 18:1.0 257:1.0 417:1.0 
7.24 254:1.0 443:1.0 21:1.0 45:1.0 
2.1955476012162634 296:1.0 21:1.0 267:1.0 443:1.0 999:1.0 279:1.0 525:1.0 395:1.0 45:2.0 285:1.0 384:1.0 471:1.0 417:1.0 
0.0759057152586932 192:1.0 234:1.0 91:1.0 393:1.0 493:2.0 247:2.0 74:1.0 446:1.0 346:1.0 397:1.0 438:1.0 449:1.0 293:1.0 45:1.0 285:1.0 
7.24 254:1.0 158:1.0 214:1.0 327:1.0 897:1.0 140:1.0 363:1.0 354:1.0 426:1.0 395:2.0 33:1.0 206:1.0 165:1.0 365:2.0 430:1.0 340:1.0 375:1.0 202:1.0 91:1.0 469:1.0 997:1.0 360:1.0 18:1.0 493:1.0 257:1.0 431:1.0 397:1.0 142:1.0 284:1.0 
0.6904880119389201 35:1.0 994:1.0 411:1.0 282:1.0 312:1.0 176:1.0 78:1.0 367:1.0 155:1.0 341:1.0 48:1.0 281:1.0 114:1.0 417:2.0 74:1.0 165:1.0 397:2.0 208:1.0 627:1.0 433:1.0 479:1.0 20:1.0 
4.29065710666038 370:1.0 214:1.0 428:1.0 224:1.0 143:1.0 395:1.0 950:1.0 54:1.0 417:1.0 465:1.0 433:1.0 297:1.0 17:1.0 91:1.0 109:2.0 289:2.0 70:1.0 22:1.0 249:1.0 130:1.0 200:1.0 956:1.0 392:1.0 152:2.0 53:1.0 284:1.0 201:1.0 28:1.0 304:1.0 
7.24 232:1.0 177:1.0 861:1.0 
7.24 833:1.0 130:1.0 259:1.0 101:1.0 267:1.0 367:1.0 341:1.0 999:1.0 334:1.0 191:1.0 18:1.0 395:1.0 45:1.0 991:1.0 417:1.0 
3.1648561687978285 390:1.0 283:1.0 273:1.0 232:1.0 342:1.0 257:1.0 477:1.0 191:1.0 293:1.0 133:1.0 45:1.0 444:1.0 163:1.0 417:1.0 
7.24 283:1.0 343:2.0 22:2.0 
7.24 254:1.0 74:2.0 811:1.0 40:1.0 232:1.0 216:1.0 342:1.0 21:1.0 116:1.0 988:1.0 278:1.0 334:1.0 304:2.0 45:1.0 395:1.0 417:2.0 
5.185768339447893 158:1.0 911:1.0 43:1.0 91:1.0 109:1.0 221:1.0 443:1.0 30:1.0 493:1.0 344:1.0 179:2.0 417:2.0 403:1.0 296:1.0 241:1.0 21:1.0 342:1.0 397:1.0 453:1.0 267:1.0 454:1.0 323:1.0 449:1.0 45:2.0 230:1.0 837:2.0 
0.15774966578401 310:7.0 337:6.0 
7.24 96:1.0 375:1.0 133:1.0 285:1.0 
5.522469532329273 96:1.0 17:1.0 375:1.0 414:1.0 998:1.0 61:1.0 490:1.0 18:1.0 426:1.0 395:1.0 303:1.0 309:1.0 70:2.0 417:2.0 257:2.0 378:1.0 267:1.0 194:1.0 278:1.0 53:2.0 237:1.0 
7.24 369:1.0 135:1.0 356:1.0 408:1.0 196:1.0 21:1.0 83:1.0 133:1.0 45:1.0 
7.24 283:1.0 39:1.0 378:1.0 267:1.0 126:1.0 417:1.0 
7.24 283:1.0 196:1.0 278:1.0 999:1.0 103:1.0 361:1.0 389:1.0 133:1.0 45:1.0 163:1.0 
1.4587245610674437 334:1.0 494:1.0 18:1.0 362:1.0 257:1.0 116:1.0 395:1.0 417:1.0 
7.24 359:1.0 
7.24 433:1.0 280:1.0 28:1.0 45:1.0 126:1.0 
6.115261007906656 411:1.0 257:1.0 369:1.0 405:1.0 135:1.0 45:1.0 23:1.0 
5.771983616633248 342:1.0 312:1.0 91:1.0 116:2.0 469:1.0 367:1.0 323:1.0 239:1.0 45:1.0 395:1.0 417:1.0 
7.24 254:1.0 533:2.0 43:1.0 67:1.0 91:1.0 469:1.0 85:1.0 18:1.0 122:1.0 426:1.0 834:1.0 395:1.0 417:1.0 846:1.0 472:1.0 292:1.0 55:1.0 257:1.0 116:1.0 467:1.0 284:1.0 45:1.0 521:1.0 404:1.0 
7.24 359:1.0 
0.0310649480562843 366:1.0 216:1.0 282:1.0 21:1.0 165:1.0 45:1.0 360:1.0 
3.1847874722347433 123:1.0 195:1.0 109:1.0 396:1.0 405:1.0 367:1.0 499:1.0 63:1.0 52:1.0 135:1.0 395:1.0 417:2.0 159:2.0 436:1.0 387:1.0 244:1.0 399:1.0 397:1.0 453:1.0 454:1.0 187:1.0 334:1.0 173:1.0 12:1.0 
7.24 273:1.0 214:1.0 447:1.0 995:1.0 253:1.0 329:1.0 351:1.0 33:1.0 417:1.0 831:1.0 159:1.0 274:2.0 361:1.0 116:1.0 397:1.0 278:1.0 86:1.0 100:1.0 
7.24 367:1.0 375:1.0 329:1.0 
2.7865947635493757 628:1.0 379:1.0 51:1.0 425:1.0 328:1.0 341:1.0 316:1.0 395:2.0 73:1.0 417:2.0 465:1.0 361:1.0 110:1.0 278:1.0 133:1.0 491:1.0 285:1.0 283:1.0 295:1.0 104:1.0 261:1.0 91:1.0 313:1.0 18:1.0 329:1.0 218:1.0 122:1.0 271:1.0 257:1.0 334:1.0 191:1.0 
5.883755471803926 254:1.0 249:1.0 141:1.0 420:1.0 242:1.0 395:1.0 397:1.0 45:1.0 417:2.0 
7.24 74:1.0 214:1.0 40:1.0 183:1.0 387:1.0 302:1.0 89:1.0 218:1.0 66:1.0 45:1.0 330:1.0 
7.24 232:1.0 177:1.0 133:1.0 45:1.0 
7.24 366:1.0 999:1.0 239:1.0 494:1.0 141:1.0 45:2.0 395:2.0 302:1.0 
1.6545098864245513 41:1.0 254:1.0 273:1.0 88:1.0 389:1.0 149:1.0 367:1.0 487:1.0 395:2.0 417:1.0 408:1.0 
4.279172165825817 355:1.0 995:1.0 253:1.0 499:1.0 291:1.0 37:1.0 172:1.0 417:6.0 159:2.0 632:1.0 391:1.0 199:1.0 432:1.0 208:1.0 45:2.0 17:1.0 411:1.0 202:1.0 396:2.0 999:2.0 329:1.0 7:1.0 421:1.0 265:1.0 87:4.0 196:1.0 985:2.0 594:1.0 142:1.0 479:1.0 126:1.0 
4.482336732022575 74:1.0 328:1.0 367:1.0 375:1.0 295:1.0 993:1.0 116:1.0 45:1.0 395:1.0 309:1.0 
7.24 453:1.0 283:2.0 214:1.0 99:1.0 163:1.0 
3.2170920498719418 366:1.0 214:2.0 375:1.0 357:1.0 367:1.0 18:1.0 291:1.0 902:1.0 417:1.0 87:1.0 342:1.0 290:1.0 432:1.0 45:1.0 330:2.0 
0.1650102369011973 113:1.0 267:1.0 367:1.0 426:1.0 145:1.0 45:1.0 184:1.0 417:1.0 
2.2835625548348393 366:1.0 375:1.0 368:1.0 133:3.0 45:1.0 131:1.0 
7.24 202:1.0 484:1.0 477:1.0 535:1.0 78:1.0 997:1.0 425:1.0 367:1.0 493:1.0 310:1.0 45:1.0 285:1.0 247:1.0 356:1.0 
7.24 
7.24 232:1.0 62:1.0 45:1.0 285:1.0 408:1.0 
7.24 283:1.0 254:1.0 74:1.0 453:1.0 45:1.0 395:1.0 163:1.0 
6.120149666074948 262:1.0 383:1.0 234:1.0 91:1.0 995:1.0 78:2.0 425:1.0 253:1.0 367:1.0 224:1.0 351:1.0 247:1.0 216:1.0 497:1.0 477:1.0 267:1.0 433:1.0 285:1.0 163:1.0 
2.0166385823623307 91:1.0 369:1.0 396:1.0 367:1.0 30:1.0 354:1.0 33:1.0 336:2.0 54:3.0 417:2.0 352:1.0 286:1.0 346:1.0 242:1.0 324:1.0 397:1.0 399:1.0 754:1.0 173:1.0 230:1.0 45:2.0 
7.24 254:1.0 454:1.0 408:1.0 465:1.0 
7.24 367:1.0 214:1.0 141:1.0 21:1.0 397:1.0 395:1.0 
7.24 45:1.0 
7.24 103:1.0 21:1.0 393:1.0 45:1.0 163:1.0 
7.24 367:1.0 192:1.0 282:1.0 8:1.0 234:1.0 
7.24 159:1.0 367:1.0 811:1.0 97:1.0 215:1.0 417:1.0 
7.24 274:1.0 447:1.0 282:1.0 383:1.0 267:1.0 322:1.0 45:1.0 417:1.0 336:1.0 
4.475047509858893 367:1.0 103:1.0 88:1.0 101:1.0 484:1.0 133:1.0 45:1.0 
4.16516930849723 262:1.0 249:1.0 366:1.0 499:1.0 282:1.0 420:1.0 480:1.0 316:1.0 45:1.0 379:1.0 417:1.0 
7.24 214:1.0 429:1.0 339:1.0 367:1.0 8:1.0 918:1.0 354:1.0 992:2.0 300:1.0 5:1.0 356:1.0 417:1.0 159:1.0 196:1.0 216:1.0 301:1.0 188:1.0 21:1.0 480:1.0 267:1.0 255:1.0 208:1.0 34:1.0 133:1.0 173:2.0 496:1.0 182:1.0 
7.24 
7.24 196:1.0 202:1.0 257:1.0 136:1.0 84:1.0 685:1.0 997:1.0 267:1.0 999:1.0 18:2.0 433:1.0 153:1.0 45:3.0 207:1.0 417:2.0 
4.227712090285149 254:1.0 98:1.0 411:1.0 91:1.0 369:1.0 113:1.0 367:1.0 220:1.0 279:1.0 48:1.0 177:1.0 247:1.0 
1.055271862636351 278:1.0 375:1.0 368:1.0 361:1.0 417:1.0 
2.5585342353544456 443:1.0 331:1.0 21:1.0 177:1.0 344:1.0 397:1.0 45:1.0 
1.4300248250204692 366:1.0 452:1.0 261:1.0 223:1.0 369:1.0 177:1.0 45:1.0 356:1.0 
4.188866630620579 366:1.0 254:1.0 342:1.0 318:1.0 46:2.0 47:1.0 107:1.0 45:2.0 
4.84137501127886 262:1.0 214:2.0 768:1.0 369:1.0 473:1.0 219:1.0 367:2.0 66:2.0 395:1.0 417:1.0 931:1.0 477:1.0 385:1.0 38:1.0 305:1.0 491:1.0 20:1.0 320:1.0 124:1.0 91:1.0 176:1.0 153:1.0 134:1.0 280:1.0 497:1.0 19:1.0 267:3.0 191:2.0 250:1.0 304:1.0 416:1.0 126:1.0 
0.8702554806355849 498:1.0 214:1.0 58:1.0 341:1.0 8:2.0 5:1.0 233:1.0 73:2.0 114:1.0 417:4.0 26:1.0 159:1.0 206:2.0 216:1.0 188:1.0 361:1.0 391:1.0 255:1.0 432:1.0 141:1.0 294:1.0 182:1.0 686:1.0 91:1.0 129:1.0 92:1.0 7:1.0 408:3.0 401:1.0 333:1.0 266:1.0 201:1.0 416:1.0 95:1.0 447:1.0 339:1.0 269:1.0 327:2.0 369:1.0 168:2.0 425:1.0 224:1.0 60:2.0 849:1.0 395:1.0 33:1.0 296:1.0 278:1.0 461:1.0 177:1.0 830:1.0 45:1.0 285:1.0 96:1.0 256:1.0 407:2.0 202:1.0 234:1.0 193:2.0 79:3.0 871:1.0 156:2.0 247:1.0 87:2.0 88:1.0 286:1.0 387:1.0 483:1.0 476:1.0 754:1.0 
3.1277791806786692 498:1.0 383:1.0 392:1.0 373:1.0 445:1.0 191:1.0 133:1.0 
6.41324026442831 366:1.0 88:1.0 93:1.0 257:1.0 129:1.0 367:1.0 999:1.0 1:1.0 18:1.0 177:1.0 45:2.0 204:1.0 417:1.0 
0.38303709041700174 993:32.0 
7.24 681:1.0 358:1.0 18:1.0 7:1.0 417:1.0 
2.0231201835570376 390:2.0 422:1.0 214:4.0 243:1.0 429:1.0 43:1.0 312:1.0 14:1.0 358:1.0 369:1.0 78:1.0 140:1.0 162:1.0 367:2.0 395:1.0 417:2.0 115:1.0 274:1.0 216:2.0 301:1.0 165:2.0 260:1.0 208:1.0 991:3.0 163:2.0 176:1.0 52:1.0 918:1.0 493:1.0 319:2.0 213:1.0 356:1.0 953:1.0 22:1.0 21:1.0 480:2.0 581:1.0 397:1.0 334:1.0 304:1.0 738:1.0 138:1.0 
7.24 283:1.0 232:1.0 389:1.0 45:1.0 33:1.0 991:1.0 285:1.0 417:1.0 
2.3843282604631417 141:1.0 174:1.0 145:1.0 133:1.0 395:1.0 45:1.0 
4.073822075430881 283:1.0 254:1.0 375:1.0 232:1.0 129:1.0 393:1.0 354:1.0 351:1.0 417:2.0 54:1.0 408:1.0 74:1.0 159:1.0 21:1.0 397:1.0 449:1.0 177:1.0 
4.066438256129608 443:1.0 278:1.0 21:1.0 293:1.0 397:1.0 
7.24 254:1.0 214:1.0 301:1.0 110:1.0 397:1.0 194:1.0 284:1.0 191:1.0 362:1.0 395:1.0 404:1.0 
7.24 365:1.0 356:1.0 417:1.0 
7.24 254:1.0 681:1.0 16:1.0 85:1.0 367:1.0 306:1.0 334:1.0 18:1.0 122:1.0 304:1.0 10:1.0 395:1.0 12:1.0 417:1.0 404:1.0 
7.24 214:1.0 871:1.0 107:1.0 999:1.0 779:1.0 971:1.0 45:2.0 173:1.0 336:1.0 408:1.0 
1.0454729209194888 262:2.0 498:1.0 447:1.0 192:2.0 65:1.0 995:1.0 78:1.0 253:1.0 405:2.0 341:4.0 164:1.0 395:2.0 33:1.0 417:2.0 26:1.0 895:2.0 296:1.0 165:2.0 141:1.0 133:2.0 45:1.0 173:1.0 248:1.0 285:1.0 163:1.0 400:2.0 368:1.0 375:1.0 202:1.0 484:2.0 92:1.0 267:1.0 72:1.0 266:1.0 754:1.0 137:1.0 496:1.0 151:1.0 
7.24 36:1.0 214:1.0 295:1.0 91:1.0 328:1.0 494:2.0 464:1.0 30:1.0 395:1.0 247:1.0 301:1.0 581:1.0 438:1.0 27:1.0 416:1.0 285:1.0 
3.8753848820220194 214:1.0 103:1.0 312:2.0 78:1.0 499:1.0 457:1.0 418:1.0 313:1.0 76:1.0 316:1.0 395:1.0 73:1.0 417:3.0 115:1.0 349:1.0 581:2.0 334:1.0 439:1.0 177:1.0 455:1.0 204:1.0 
3.2834748521044164 159:1.0 214:1.0 216:1.0 21:1.0 480:1.0 129:1.0 345:1.0 181:1.0 140:1.0 423:1.0 267:1.0 443:1.0 490:2.0 133:1.0 356:1.0 114:1.0 417:1.0 
1.9196088308971937 223:1.0 246:1.0 202:1.0 84:1.0 287:1.0 997:1.0 499:1.0 367:1.0 341:1.0 18:1.0 525:1.0 222:1.0 157:1.0 135:1.0 316:1.0 417:2.0 159:1.0 74:1.0 276:1.0 259:1.0 361:1.0 99:1.0 378:1.0 278:1.0 191:1.0 430:1.0 177:1.0 119:1.0 133:1.0 45:1.0 
7.24 490:1.0 145:1.0 
2.3216422897453115 205:1.0 494:1.0 48:1.0 8:1.0 66:2.0 395:1.0 417:1.0 26:1.0 199:1.0 477:2.0 365:1.0 141:1.0 45:1.0 20:1.0 991:1.0 167:1.0 153:1.0 493:1.0 92:1.0 492:1.0 356:2.0 196:1.0 39:1.0 286:1.0 197:1.0 267:1.0 
2.375765896956698 214:2.0 192:1.0 995:1.0 357:1.0 428:1.0 402:1.0 395:1.0 296:1.0 477:1.0 365:1.0 439:1.0 177:1.0 133:1.0 20:1.0 45:2.0 991:3.0 226:1.0 366:1.0 79:1.0 107:1.0 30:1.0 134:1.0 122:1.0 351:2.0 492:1.0 356:1.0 397:1.0 594:1.0 284:1.0 404:1.0 
7.24 
0.7879611599005529 214:2.0 398:1.0 367:6.0 341:2.0 354:1.0 233:3.0 417:3.0 216:1.0 391:1.0 535:1.0 373:1.0 141:1.0 13:1.0 129:1.0 77:1.0 999:2.0 313:1.0 493:1.0 74:2.0 241:1.0 242:2.0 338:1.0 142:1.0 450:1.0 126:2.0 262:2.0 269:1.0 65:1.0 995:1.0 168:1.0 78:1.0 155:1.0 494:1.0 225:1.0 37:1.0 474:1.0 278:1.0 45:2.0 452:1.0 407:2.0 464:2.0 18:1.0 356:1.0 413:1.0 62:1.0 445:1.0 479:1.0 254:1.0 414:1.0 235:1.0 363:1.0 490:1.0 159:1.0 432:2.0 248:1.0 163:2.0 396:1.0 63:1.0 492:1.0 7:1.0 135:1.0 421:1.0 374:2.0 40:1.0 238:1.0 201:1.0 178:1.0 195:1.0 32:1.0 512:1.0 895:1.0 110:1.0 961:1.0 305:1.0 20:1.0 96:1.0 202:1.0 1:1.0 286:2.0 21:3.0 190:2.0 257:1.0 483:1.0 397:11.0 267:1.0 386:1.0 
0.7594907955128563 123:1.0 214:6.0 192:2.0 50:1.0 414:1.0 379:2.0 499:1.0 367:1.0 966:1.0 463:2.0 199:1.0 208:1.0 141:1.0 433:1.0 173:1.0 991:6.0 366:1.0 35:1.0 458:1.0 999:1.0 637:1.0 134:1.0 492:1.0 118:1.0 594:1.0 142:1.0 330:1.0 195:1.0 327:1.0 628:1.0 84:1.0 494:1.0 66:1.0 336:1.0 98:1.0 275:1.0 165:1.0 110:1.0 477:1.0 325:1.0 177:1.0 45:4.0 20:1.0 337:1.0 996:1.0 273:1.0 407:1.0 202:3.0 997:1.0 25:1.0 351:1.0 271:1.0 471:1.0 413:1.0 39:1.0 397:1.0 267:1.0 347:1.0 27:1.0 
0.09252092001003658 214:4.0 192:1.0 367:1.0 341:1.0 37:1.0 159:1.0 274:1.0 278:1.0 305:1.0 133:1.0 45:2.0 991:1.0 366:1.0 71:1.0 124:1.0 176:1.0 492:1.0 435:1.0 189:1.0 352:1.0 88:1.0 190:1.0 118:1.0 142:1.0 191:1.0 479:1.0 330:2.0 
7.24 704:1.0 232:1.0 398:1.0 205:1.0 357:1.0 834:3.0 233:1.0 846:3.0 202:2.0 536:1.0 109:2.0 153:2.0 356:1.0 265:1.0 529:1.0 197:1.0 194:1.0 
7.24 254:1.0 367:1.0 107:1.0 246:1.0 92:1.0 45:1.0 
4.388557034426772 533:1.0 443:1.0 499:1.0 402:1.0 395:2.0 417:1.0 159:1.0 292:1.0 165:1.0 141:1.0 430:1.0 173:1.0 45:2.0 283:2.0 256:1.0 375:2.0 368:2.0 484:1.0 193:1.0 18:1.0 30:1.0 286:1.0 21:1.0 200:1.0 62:1.0 267:1.0 284:1.0 
7.24 254:1.0 406:1.0 216:1.0 346:1.0 318:1.0 367:1.0 95:1.0 
7.24 358:1.0 234:1.0 46:1.0 369:1.0 469:1.0 428:1.0 367:1.0 341:1.0 306:1.0 289:1.0 291:1.0 395:1.0 309:1.0 115:1.0 389:1.0 988:1.0 278:1.0 185:1.0 285:1.0 
7.24 498:1.0 331:1.0 44:1.0 414:1.0 202:1.0 383:1.0 379:1.0 997:1.0 356:1.0 417:1.0 216:1.0 160:1.0 
4.889536939282892 331:1.0 216:2.0 391:1.0 314:2.0 360:1.0 278:1.0 432:1.0 191:1.0 839:1.0 135:1.0 
0.01329480063394649 223:1.0 395:1.0 309:1.0 
4.292877865089102 196:1.0 397:1.0 412:1.0 344:1.0 589:1.0 135:1.0 133:1.0 45:1.0 408:3.0 
1.2268921554805736 441:1.0 214:1.0 495:1.0 65:1.0 82:1.0 369:1.0 367:1.0 849:1.0 418:1.0 316:1.0 395:1.0 73:1.0 417:2.0 41:1.0 159:1.0 259:1.0 394:1.0 98:1.0 216:1.0 165:1.0 208:1.0 961:1.0 177:1.0 133:1.0 45:2.0 375:1.0 156:1.0 52:1.0 492:1.0 74:1.0 62:1.0 780:1.0 118:1.0 284:1.0 191:1.0 139:1.0 95:1.0 
4.156648864653029 202:1.0 484:1.0 381:1.0 417:1.0 456:2.0 69:1.0 483:1.0 116:1.0 266:2.0 53:1.0 133:1.0 95:1.0 4:1.0 
3.7151617087513866 214:6.0 162:2.0 367:1.0 8:1.0 258:1.0 417:1.0 361:1.0 365:1.0 252:2.0 223:1.0 91:1.0 134:1.0 135:1.0 408:1.0 284:1.0 605:1.0 487:1.0 201:2.0 369:1.0 168:1.0 287:1.0 428:1.0 418:1.0 724:1.0 210:1.0 297:1.0 340:1.0 256:1.0 452:2.0 234:1.0 102:1.0 108:1.0 213:2.0 356:1.0 21:1.0 867:1.0 97:1.0 742:1.0 
3.1019122201403673 254:1.0 214:1.0 14:1.0 145:1.0 416:1.0 45:1.0 417:3.0 
7.24 254:1.0 214:1.0 14:1.0 145:1.0 416:1.0 45:1.0 417:3.0 
6.882219300772266 283:1.0 214:1.0 387:1.0 304:1.0 435:1.0 189:1.0 395:1.0 356:1.0 4:1.0 29:1.0 
4.85464622802757 283:1.0 273:1.0 214:2.0 113:1.0 239:1.0 135:1.0 33:1.0 29:1.0 417:2.0 
7.24 278:1.0 839:1.0 86:1.0 93:1.0 351:1.0 297:1.0 431:1.0 133:1.0 378:1.0 
2.306136626683346 273:1.0 214:1.0 429:1.0 419:1.0 234:2.0 484:2.0 367:1.0 395:1.0 417:2.0 831:1.0 465:1.0 200:1.0 136:1.0 141:1.0 133:1.0 45:1.0 13:1.0 
7.24 341:1.0 384:1.0 29:1.0 
7.24 283:1.0 254:1.0 366:1.0 196:1.0 122:1.0 116:1.0 45:1.0 
7.24 231:1.0 495:1.0 45:1.0 
0.42093740999275486 214:2.0 383:1.0 499:1.0 367:3.0 341:1.0 402:1.0 415:1.0 105:1.0 114:1.0 417:6.0 206:1.0 399:1.0 210:1.0 453:1.0 278:1.0 438:1.0 627:1.0 433:4.0 133:1.0 45:1.0 371:1.0 285:2.0 13:1.0 245:1.0 375:1.0 368:1.0 411:1.0 93:1.0 484:1.0 91:1.0 176:2.0 299:1.0 144:2.0 189:2.0 303:1.0 70:1.0 392:1.0 191:1.0 479:3.0 416:1.0 
1.4622736729355483 283:1.0 214:2.0 376:2.0 69:1.0 375:1.0 411:1.0 282:1.0 21:1.0 202:1.0 367:1.0 222:1.0 265:1.0 330:1.0 
0.872484786969147 366:1.0 214:1.0 495:1.0 234:1.0 357:1.0 369:1.0 140:1.0 425:1.0 341:3.0 107:1.0 494:1.0 164:1.0 48:1.0 218:1.0 66:1.0 825:1.0 395:2.0 54:1.0 98:1.0 238:1.0 165:1.0 304:1.0 45:1.0 252:1.0 285:1.0 
2.4309459279724126 274:1.0 216:1.0 484:1.0 367:1.0 299:1.0 578:1.0 133:2.0 
7.24 254:1.0 283:1.0 104:1.0 482:1.0 93:1.0 257:1.0 51:1.0 378:1.0 278:1.0 266:1.0 201:1.0 133:1.0 395:1.0 45:1.0 674:1.0 417:2.0 
7.24 365:1.0 367:1.0 282:1.0 897:1.0 252:1.0 
6.0804659666848 159:1.0 341:1.0 342:1.0 165:1.0 45:1.0 4:1.0 
7.24 366:1.0 212:1.0 156:1.0 367:1.0 107:1.0 280:1.0 92:1.0 247:1.0 417:1.0 831:1.0 931:1.0 259:1.0 98:1.0 497:1.0 292:1.0 867:1.0 45:1.0 252:2.0 
6.174325766758749 254:1.0 214:1.0 21:1.0 484:1.0 443:1.0 341:1.0 426:1.0 173:1.0 45:1.0 417:1.0 
6.622863731073476 422:1.0 214:1.0 358:1.0 995:1.0 140:1.0 367:4.0 490:1.0 364:2.0 48:2.0 395:1.0 417:1.0 54:1.0 474:1.0 477:2.0 365:1.0 449:1.0 252:2.0 285:1.0 340:1.0 245:1.0 202:1.0 251:1.0 91:1.0 156:2.0 30:1.0 203:1.0 421:1.0 435:1.0 189:1.0 247:1.0 346:1.0 594:1.0 486:1.0 
0.927945390425278 214:1.0 192:1.0 410:1.0 499:1.0 367:3.0 426:1.0 233:2.0 417:8.0 128:1.0 489:1.0 449:1.0 252:1.0 77:1.0 125:2.0 333:1.0 142:1.0 327:2.0 168:2.0 369:1.0 425:1.0 328:2.0 155:1.0 291:1.0 66:1.0 300:1.0 37:1.0 403:1.0 296:1.0 297:1.0 830:1.0 45:2.0 17:1.0 607:1.0 356:1.0 247:1.0 70:1.0 388:1.0 121:1.0 112:1.0 158:1.0 364:2.0 83:1.0 433:2.0 173:1.0 400:1.0 295:2.0 91:2.0 109:2.0 63:1.0 854:1.0 7:5.0 135:1.0 374:1.0 953:1.0 238:1.0 116:1.0 416:2.0 195:2.0 228:1.0 848:1.0 60:1.0 127:1.0 165:1.0 110:1.0 385:1.0 439:1.0 285:1.0 337:1.0 202:1.0 102:1.0 79:1.0 286:2.0 472:1.0 397:2.0 72:1.0 
2.085538366940906 254:1.0 282:1.0 442:1.0 287:2.0 425:1.0 395:1.0 37:1.0 33:1.0 417:3.0 128:1.0 259:1.0 55:1.0 461:1.0 420:1.0 362:1.0 45:5.0 285:1.0 669:1.0 13:1.0 182:1.0 484:1.0 485:1.0 469:1.0 852:1.0 412:1.0 107:1.0 464:1.0 279:1.0 18:1.0 52:1.0 92:1.0 135:1.0 854:1.0 492:1.0 356:2.0 249:1.0 238:1.0 277:1.0 257:1.0 392:1.0 431:1.0 
3.3116964506857016 355:1.0 232:1.0 484:1.0 193:1.0 880:1.0 485:1.0 79:1.0 364:1.0 164:1.0 354:2.0 37:1.0 435:1.0 189:1.0 127:1.0 417:4.0 159:1.0 196:1.0 296:1.0 40:2.0 672:1.0 116:1.0 191:1.0 201:1.0 304:1.0 310:1.0 830:1.0 133:1.0 20:1.0 252:1.0 45:2.0 13:1.0 
7.24 283:2.0 96:1.0 308:1.0 165:1.0 402:1.0 439:1.0 362:1.0 304:1.0 395:1.0 45:1.0 
1.3713441797004908 441:1.0 214:2.0 192:1.0 410:1.0 367:1.0 341:1.0 992:1.0 417:5.0 128:2.0 535:2.0 208:1.0 141:2.0 252:5.0 13:2.0 182:2.0 484:2.0 344:1.0 314:1.0 268:1.0 333:1.0 985:1.0 290:1.0 142:2.0 995:1.0 224:3.0 66:1.0 300:1.0 37:1.0 395:1.0 403:1.0 296:2.0 274:4.0 220:2.0 185:1.0 177:1.0 45:6.0 57:1.0 283:2.0 17:2.0 170:2.0 375:2.0 407:1.0 93:1.0 193:1.0 466:2.0 351:2.0 303:1.0 247:1.0 39:1.0 346:1.0 62:2.0 121:1.0 334:1.0 112:1.0 304:1.0 211:2.0 158:2.0 162:1.0 423:3.0 490:1.0 364:2.0 172:2.0 159:1.0 389:1.0 420:1.0 173:1.0 163:2.0 272:1.0 400:1.0 91:1.0 109:1.0 396:2.0 360:1.0 374:1.0 408:2.0 249:1.0 40:1.0 160:2.0 207:1.0 404:1.0 195:2.0 228:2.0 428:1.0 48:1.0 393:1.0 179:2.0 336:1.0 376:1.0 394:1.0 165:2.0 148:1.0 285:1.0 212:1.0 202:4.0 469:2.0 997:2.0 203:2.0 424:1.0 21:1.0 480:1.0 397:1.0 97:1.0 
7.24 154:1.0 254:1.0 214:1.0 232:1.0 120:1.0 78:1.0 360:2.0 852:1.0 52:1.0 854:1.0 395:1.0 417:2.0 352:1.0 159:1.0 206:1.0 274:1.0 236:1.0 438:2.0 34:1.0 284:1.0 45:2.0 272:1.0 330:1.0 
6.68503530366368 101:1.0 442:1.0 550:1.0 999:1.0 341:1.0 289:1.0 8:1.0 424:1.0 397:1.0 438:1.0 445:1.0 217:1.0 45:1.0 
0.6830763143613012 214:1.0 398:1.0 419:1.0 425:1.0 499:1.0 393:1.0 354:1.0 37:1.0 417:4.0 127:1.0 159:1.0 274:1.0 45:2.0 252:1.0 285:1.0 13:1.0 366:1.0 318:1.0 484:1.0 107:1.0 464:1.0 279:1.0 421:1.0 286:1.0 200:1.0 21:1.0 136:1.0 116:1.0 397:2.0 476:1.0 985:1.0 334:1.0 
0.9607949788225612 214:3.0 192:1.0 460:1.0 417:3.0 81:3.0 489:1.0 960:2.0 104:1.0 129:1.0 999:2.0 30:1.0 74:3.0 130:1.0 277:1.0 985:1.0 322:1.0 717:1.0 154:2.0 327:1.0 442:3.0 51:1.0 291:1.0 66:1.0 296:1.0 274:2.0 98:1.0 231:1.0 86:1.0 45:6.0 131:1.0 871:1.0 464:1.0 18:1.0 52:1.0 351:1.0 356:1.0 471:1.0 413:1.0 346:1.0 370:1.0 232:1.0 423:1.0 364:1.0 172:2.0 159:1.0 842:1.0 100:1.0 163:1.0 91:1.0 134:1.0 374:1.0 22:2.0 408:1.0 352:1.0 200:1.0 342:1.0 330:1.0 428:1.0 164:1.0 539:1.0 165:3.0 477:1.0 438:1.0 481:1.0 12:1.0 273:1.0 108:1.0 190:1.0 480:1.0 780:1.0 180:2.0 28:3.0 
0.24676489632142762 214:6.0 140:1.0 215:1.0 499:1.0 367:4.0 341:2.0 426:2.0 233:1.0 240:1.0 417:19.0 391:1.0 535:1.0 208:1.0 960:1.0 252:2.0 911:1.0 129:1.0 999:1.0 313:1.0 30:2.0 493:3.0 381:1.0 196:1.0 74:1.0 117:2.0 277:1.0 268:1.0 321:1.0 500:1.0 142:1.0 327:1.0 383:1.0 451:1.0 82:2.0 291:1.0 296:2.0 259:1.0 184:1.0 260:1.0 461:1.0 86:1.0 362:1.0 177:1.0 3:2.0 45:7.0 226:1.0 156:2.0 466:1.0 464:1.0 52:3.0 271:1.0 309:1.0 356:3.0 346:1.0 392:1.0 112:1.0 4:1.0 254:1.0 158:1.0 171:1.0 162:1.0 490:1.0 364:4.0 172:2.0 114:3.0 159:2.0 6:1.0 453:2.0 432:2.0 420:1.0 455:1.0 133:3.0 248:2.0 163:2.0 272:1.0 91:1.0 109:1.0 396:1.0 492:2.0 854:4.0 135:1.0 421:1.0 22:1.0 249:1.0 401:1.0 116:1.0 409:1.0 266:2.0 201:2.0 298:1.0 23:1.0 330:2.0 404:1.0 422:1.0 358:1.0 428:2.0 127:1.0 336:1.0 165:1.0 438:4.0 439:2.0 20:2.0 202:2.0 318:1.0 469:1.0 997:1.0 918:1.0 286:1.0 191:1.0 28:1.0 353:1.0 29:1.0 229:1.0 
1.6186711184821327 355:1.0 158:1.0 64:1.0 140:1.0 162:1.0 499:1.0 367:2.0 114:3.0 417:6.0 128:2.0 842:1.0 133:1.0 163:1.0 13:1.0 182:2.0 911:2.0 458:1.0 484:2.0 880:1.0 109:2.0 129:1.0 493:1.0 7:4.0 902:1.0 435:5.0 374:1.0 408:1.0 74:1.0 338:1.0 321:1.0 142:2.0 290:1.0 201:1.0 23:1.0 36:1.0 995:1.0 402:1.0 848:1.0 164:1.0 225:1.0 393:1.0 316:5.0 37:2.0 127:1.0 724:1.0 403:1.0 474:1.0 438:2.0 177:1.0 45:3.0 245:1.0 470:1.0 261:1.0 485:1.0 18:1.0 271:1.0 189:4.0 480:1.0 257:1.0 191:1.0 304:2.0 211:1.0 
5.968288014238961 254:1.0 262:1.0 422:1.0 214:1.0 419:1.0 345:1.0 369:2.0 168:1.0 550:1.0 166:1.0 354:1.0 316:1.0 73:1.0 831:1.0 417:2.0 54:1.0 259:1.0 244:1.0 365:1.0 481:1.0 20:1.0 252:1.0 45:3.0 991:1.0 996:1.0 366:1.0 273:1.0 170:1.0 246:1.0 91:1.0 999:1.0 854:1.0 492:1.0 189:1.0 424:2.0 356:2.0 196:1.0 130:1.0 238:1.0 480:2.0 387:1.0 116:1.0 47:1.0 
2.3398501864216716 355:1.0 442:1.0 77:1.0 466:1.0 164:1.0 189:1.0 356:1.0 417:2.0 392:1.0 231:1.0 416:1.0 45:4.0 173:2.0 320:1.0 182:2.0 
7.24 159:1.0 286:1.0 140:1.0 66:1.0 435:1.0 45:1.0 408:1.0 
3.674422762217782 67:1.0 117:1.0 242:1.0 202:1.0 397:1.0 997:1.0 852:1.0 364:1.0 153:1.0 380:1.0 173:1.0 45:1.0 417:1.0 
5.2689822636240216 283:1.0 96:1.0 17:1.0 470:1.0 91:1.0 113:1.0 367:1.0 364:1.0 66:1.0 37:1.0 150:1.0 249:1.0 290:1.0 248:1.0 45:1.0 252:2.0 
0.0113703843477323 214:1.0 484:1.0 341:1.0 166:1.0 464:1.0 364:1.0 32:1.0 30:1.0 122:2.0 271:1.0 395:1.0 417:2.0 159:1.0 196:1.0 40:2.0 453:1.0 334:1.0 461:1.0 304:1.0 386:1.0 45:2.0 20:1.0 252:1.0 13:1.0 340:1.0 404:1.0 
4.306533687836187 283:1.0 74:2.0 149:1.0 476:1.0 425:1.0 61:1.0 107:1.0 280:1.0 222:1.0 45:1.0 285:1.0 
2.0338332941267376 441:1.0 235:1.0 51:1.0 367:1.0 364:1.0 966:1.0 426:1.0 316:1.0 37:1.0 179:1.0 417:4.0 159:2.0 206:1.0 98:1.0 394:1.0 68:1.0 165:1.0 220:1.0 461:1.0 42:1.0 177:1.0 217:1.0 133:1.0 45:2.0 13:1.0 366:1.0 375:1.0 104:1.0 261:1.0 223:1.0 484:1.0 91:1.0 485:1.0 464:1.0 18:1.0 213:1.0 303:1.0 356:1.0 70:1.0 408:1.0 456:1.0 74:1.0 130:1.0 238:1.0 257:1.0 483:1.0 397:1.0 191:1.0 386:1.0 230:1.0 
3.216618922129957 214:1.0 174:1.0 821:1.0 459:1.0 395:2.0 417:4.0 150:1.0 165:1.0 365:1.0 433:1.0 45:2.0 366:1.0 103:2.0 120:1.0 484:1.0 135:1.0 351:1.0 286:1.0 242:1.0 257:1.0 397:1.0 641:1.0 191:1.0 
3.545472532738922 358:2.0 995:1.0 369:1.0 78:1.0 253:1.0 405:1.0 341:2.0 8:1.0 48:1.0 426:1.0 5:1.0 417:4.0 115:2.0 188:1.0 216:1.0 165:1.0 199:2.0 349:1.0 210:1.0 255:1.0 449:1.0 177:1.0 45:1.0 252:1.0 182:1.0 283:1.0 234:1.0 193:1.0 437:1.0 356:2.0 116:1.0 529:1.0 487:1.0 151:1.0 
5.856656348670389 154:1.0 214:1.0 232:1.0 364:1.0 54:1.0 159:1.0 275:1.0 420:1.0 45:2.0 264:1.0 283:1.0 170:1.0 193:1.0 79:1.0 107:1.0 313:1.0 218:1.0 249:1.0 21:1.0 581:1.0 116:1.0 29:1.0 
7.24 681:1.0 214:1.0 811:1.0 65:1.0 91:1.0 168:1.0 341:1.0 814:1.0 364:2.0 30:1.0 92:1.0 73:1.0 22:1.0 26:1.0 74:1.0 216:1.0 200:1.0 292:1.0 391:1.0 62:1.0 432:1.0 201:1.0 310:1.0 
6.8215441843355205 283:1.0 366:1.0 296:1.0 441:1.0 681:1.0 394:1.0 342:1.0 21:1.0 99:1.0 194:1.0 428:1.0 18:1.0 133:1.0 45:1.0 356:1.0 
7.24 201:1.0 500:1.0 985:1.0 172:1.0 
1.0701017538513653 214:3.0 50:2.0 473:1.0 499:1.0 367:10.0 341:3.0 166:1.0 354:1.0 73:1.0 417:4.0 216:1.0 463:1.0 391:1.0 449:1.0 208:4.0 252:2.0 182:1.0 35:1.0 458:2.0 484:1.0 176:1.0 999:4.0 30:1.0 956:1.0 277:3.0 378:1.0 290:1.0 142:2.0 971:3.0 738:4.0 717:1.0 994:2.0 406:1.0 451:4.0 168:2.0 369:3.0 443:1.0 328:1.0 155:1.0 494:1.0 143:1.0 395:1.0 37:1.0 403:2.0 724:1.0 259:1.0 302:1.0 260:1.0 45:8.0 283:3.0 245:1.0 452:1.0 246:1.0 871:1.0 156:2.0 18:1.0 52:1.0 271:1.0 303:1.0 356:1.0 471:3.0 87:1.0 39:1.0 346:1.0 19:1.0 194:1.0 187:1.0 304:1.0 335:1.0 151:2.0 158:2.0 14:3.0 46:1.0 114:1.0 172:1.0 389:2.0 365:1.0 965:2.0 432:1.0 133:2.0 173:1.0 272:1.0 71:1.0 295:1.0 91:1.0 109:1.0 134:1.0 135:2.0 492:4.0 671:1.0 22:1.0 342:1.0 672:1.0 266:1.0 137:2.0 284:1.0 486:1.0 201:1.0 23:1.0 404:1.0 681:1.0 195:1.0 228:1.0 779:4.0 849:1.0 512:1.0 54:3.0 336:2.0 275:1.0 385:2.0 38:1.0 305:1.0 340:1.0 202:1.0 997:1.0 456:1.0 436:1.0 497:1.0 21:1.0 780:1.0 440:2.0 191:4.0 204:1.0 
1.8690924287386517 154:1.0 370:1.0 104:1.0 458:1.0 50:1.0 261:1.0 120:3.0 51:1.0 475:1.0 364:1.0 316:1.0 459:1.0 395:1.0 417:3.0 159:1.0 196:1.0 338:1.0 16:1.0 427:1.0 409:1.0 141:1.0 133:1.0 45:1.0 100:1.0 
1.4074413385411466 64:1.0 58:1.0 678:1.0 162:1.0 367:2.0 341:1.0 448:1.0 258:1.0 417:1.0 216:1.0 391:1.0 81:1.0 619:1.0 432:1.0 133:1.0 173:1.0 163:1.0 272:1.0 637:1.0 352:1.0 196:1.0 993:1.0 314:1.0 136:1.0 160:1.0 266:3.0 239:1.0 201:2.0 717:1.0 308:1.0 406:1.0 628:1.0 369:1.0 443:1.0 164:1.0 291:2.0 222:1.0 825:1.0 395:2.0 465:1.0 474:1.0 259:1.0 110:1.0 278:1.0 385:1.0 481:1.0 45:1.0 283:1.0 452:1.0 202:1.0 120:1.0 998:1.0 1:1.0 157:1.0 189:1.0 309:1.0 356:1.0 87:1.0 31:1.0 21:1.0 387:1.0 334:1.0 191:2.0 304:1.0 293:1.0 
6.564181051353184 436:1.0 216:1.0 104:1.0 286:1.0 21:1.0 392:2.0 51:1.0 499:1.0 299:1.0 320:1.0 356:1.0 417:1.0 
7.24 359:1.0 
7.24 488:1.0 366:1.0 395:1.0 33:1.0 
5.712724665116619 214:1.0 375:1.0 134:1.0 179:1.0 74:1.0 159:1.0 463:1.0 117:1.0 392:1.0 378:1.0 278:1.0 438:1.0 191:1.0 133:1.0 45:1.0 
3.291539550652427 350:1.0 257:1.0 397:1.0 469:1.0 107:1.0 18:1.0 173:1.0 45:1.0 417:1.0 
7.24 262:1.0 429:1.0 79:1.0 224:1.0 155:1.0 284:1.0 133:1.0 57:1.0 395:1.0 173:1.0 207:1.0 417:1.0 
2.2350163704910653 214:2.0 429:1.0 369:1.0 215:1.0 162:2.0 367:1.0 341:2.0 426:1.0 395:3.0 417:2.0 361:2.0 477:1.0 619:1.0 278:2.0 141:1.0 433:1.0 42:1.0 45:1.0 283:1.0 245:1.0 93:1.0 91:1.0 485:1.0 146:1.0 135:1.0 435:1.0 189:1.0 303:1.0 456:2.0 74:2.0 21:1.0 284:1.0 191:1.0 293:1.0 
7.24 456:1.0 994:1.0 48:1.0 292:1.0 
1.4855896221888845 370:3.0 214:2.0 46:3.0 678:2.0 140:1.0 499:3.0 367:3.0 415:1.0 8:1.0 417:5.0 26:1.0 216:1.0 361:1.0 59:1.0 489:1.0 365:2.0 208:1.0 141:2.0 420:1.0 433:3.0 899:1.0 91:2.0 167:1.0 999:1.0 63:1.0 92:1.0 374:2.0 249:1.0 314:1.0 116:2.0 290:1.0 47:1.0 486:1.0 111:1.0 262:1.0 704:1.0 447:1.0 406:1.0 442:1.0 995:1.0 369:2.0 425:2.0 380:1.0 66:1.0 395:3.0 336:1.0 399:1.0 278:1.0 86:2.0 439:1.0 45:3.0 285:3.0 283:1.0 452:1.0 470:2.0 375:1.0 67:1.0 120:1.0 193:1.0 79:1.0 280:3.0 52:2.0 157:1.0 351:1.0 213:1.0 356:1.0 286:1.0 346:1.0 397:5.0 194:1.0 204:1.0 
7.24 133:1.0 45:1.0 
7.176257440626223 390:2.0 383:1.0 897:1.0 18:1.0 525:1.0 356:1.0 417:4.0 74:1.0 241:1.0 165:1.0 257:1.0 145:1.0 430:2.0 45:1.0 
3.3351303975602598 422:1.0 214:2.0 171:1.0 369:1.0 287:1.0 140:1.0 367:1.0 341:1.0 494:1.0 380:1.0 73:1.0 54:1.0 417:1.0 115:1.0 301:1.0 361:1.0 141:1.0 430:1.0 119:1.0 991:1.0 366:1.0 273:1.0 811:1.0 67:1.0 202:1.0 234:3.0 91:1.0 18:1.0 134:1.0 329:1.0 247:2.0 356:1.0 241:1.0 257:1.0 431:1.0 500:2.0 378:1.0 266:1.0 201:1.0 386:1.0 298:1.0 95:1.0 
1.715448423932626 366:1.0 159:1.0 259:1.0 469:1.0 360:1.0 365:1.0 367:1.0 430:1.0 25:1.0 45:1.0 395:1.0 356:1.0 22:1.0 417:1.0 
1.7452121256534001 283:1.0 452:1.0 375:1.0 368:1.0 140:1.0 425:1.0 550:1.0 443:1.0 367:1.0 494:1.0 92:1.0 424:1.0 395:2.0 356:2.0 417:2.0 26:1.0 69:1.0 21:1.0 480:1.0 397:1.0 476:1.0 266:1.0 347:1.0 334:1.0 141:1.0 191:1.0 304:1.0 305:1.0 133:1.0 285:1.0 
3.244160914524474 355:1.0 295:1.0 243:1.0 216:1.0 46:1.0 484:1.0 852:1.0 61:1.0 328:1.0 438:1.0 494:1.0 191:1.0 487:1.0 48:1.0 45:1.0 37:1.0 247:1.0 13:1.0 
0.3623941655857359 355:1.0 253:1.0 412:1.0 367:1.0 341:1.0 122:1.0 135:1.0 417:1.0 268:1.0 477:1.0 409:1.0 260:1.0 141:1.0 191:1.0 133:1.0 230:1.0 
6.235352076489708 26:1.0 370:1.0 401:1.0 315:1.0 259:1.0 46:1.0 397:1.0 428:1.0 334:1.0 433:1.0 92:1.0 395:1.0 45:1.0 417:1.0 
1.647040762350872 254:1.0 282:1.0 120:1.0 475:1.0 363:1.0 329:1.0 395:1.0 417:2.0 74:1.0 117:1.0 361:1.0 427:1.0 397:2.0 278:1.0 284:1.0 191:1.0 119:1.0 57:1.0 207:1.0 
0.8805231426745103 370:1.0 214:1.0 50:1.0 312:1.0 410:1.0 224:1.0 405:1.0 341:1.0 288:1.0 426:1.0 159:1.0 278:1.0 83:1.0 430:1.0 177:1.0 133:2.0 57:1.0 458:1.0 91:1.0 221:1.0 156:1.0 30:1.0 329:1.0 918:1.0 674:1.0 247:1.0 241:1.0 277:1.0 338:1.0 116:1.0 191:1.0 28:1.0 211:1.0 80:1.0 207:1.0 
7.24 263:1.0 359:1.0 
7.062294780824396 295:1.0 44:1.0 202:1.0 358:1.0 176:1.0 85:1.0 328:1.0 494:1.0 18:1.0 280:1.0 122:1.0 426:1.0 356:1.0 417:1.0 22:1.0 159:1.0 257:1.0 461:1.0 133:1.0 80:1.0 
6.949398030715512 74:1.0 216:1.0 235:1.0 427:1.0 397:1.0 430:1.0 351:1.0 395:1.0 207:1.0 172:1.0 417:1.0 
2.0232735635845644 366:1.0 77:1.0 367:1.0 494:1.0 395:1.0 179:1.0 417:2.0 241:1.0 431:1.0 141:1.0 27:1.0 45:1.0 95:1.0 
7.24 254:1.0 128:1.0 214:2.0 463:1.0 301:1.0 350:1.0 431:1.0 58:1.0 367:1.0 142:1.0 191:1.0 356:1.0 
7.24 129:1.0 356:1.0 
0.8070305770982523 214:1.0 495:1.0 202:1.0 129:1.0 18:1.0 393:1.0 426:1.0 417:2.0 408:2.0 21:1.0 257:1.0 397:1.0 149:1.0 121:1.0 142:1.0 433:1.0 430:1.0 177:1.0 45:2.0 330:1.0 182:1.0 
3.6892249229085707 704:1.0 44:1.0 425:1.0 367:1.0 48:1.0 992:1.0 37:1.0 417:4.0 159:1.0 389:1.0 278:1.0 557:1.0 430:3.0 177:1.0 45:1.0 248:1.0 285:1.0 163:1.0 182:1.0 375:1.0 129:1.0 360:1.0 998:1.0 329:2.0 351:1.0 492:1.0 144:1.0 356:1.0 74:1.0 238:1.0 21:1.0 242:1.0 338:1.0 321:1.0 397:3.0 476:1.0 290:1.0 97:1.0 230:1.0 23:1.0 
0.776401618414945 214:2.0 375:1.0 368:1.0 372:1.0 341:1.0 999:1.0 222:1.0 291:1.0 329:1.0 395:1.0 417:1.0 238:1.0 6:1.0 482:1.0 68:1.0 149:1.0 438:1.0 960:1.0 433:2.0 386:1.0 45:2.0 991:3.0 330:1.0 182:1.0 
7.24 170:1.0 91:1.0 369:1.0 356:1.0 417:2.0 11:1.0 241:1.0 56:1.0 861:1.0 
6.385646479087827 214:1.0 232:1.0 174:1.0 101:1.0 354:1.0 459:1.0 336:1.0 184:1.0 278:1.0 430:1.0 177:1.0 861:1.0 170:1.0 411:1.0 202:1.0 91:1.0 30:1.0 493:1.0 241:1.0 230:1.0 330:1.0 
7.24 452:1.0 133:1.0 395:1.0 469:1.0 991:1.0 163:1.0 204:1.0 417:1.0 
0.8500943372026386 375:1.0 104:1.0 261:1.0 51:1.0 475:1.0 329:1.0 316:1.0 459:1.0 395:1.0 417:3.0 236:1.0 427:1.0 83:1.0 278:1.0 141:1.0 112:1.0 430:1.0 177:1.0 45:1.0 
7.24 283:1.0 452:1.0 406:1.0 268:1.0 389:1.0 988:1.0 278:1.0 367:1.0 479:1.0 395:1.0 
0.8296332247743398 254:1.0 441:2.0 214:3.0 232:1.0 192:1.0 140:1.0 215:1.0 423:1.0 367:1.0 341:3.0 8:1.0 172:1.0 417:3.0 159:1.0 206:1.0 188:1.0 361:2.0 427:1.0 433:1.0 133:1.0 366:2.0 35:1.0 458:1.0 484:1.0 30:1.0 218:1.0 153:1.0 329:2.0 344:1.0 421:1.0 265:3.0 408:1.0 74:3.0 378:2.0 266:2.0 284:1.0 250:1.0 416:1.0 95:1.0 207:1.0 44:1.0 358:1.0 369:1.0 287:1.0 393:1.0 48:1.0 459:1.0 395:2.0 179:1.0 465:1.0 127:1.0 912:1.0 394:2.0 165:1.0 278:3.0 438:1.0 220:1.0 185:1.0 177:1.0 45:1.0 375:1.0 90:1.0 202:6.0 234:1.0 120:1.0 997:2.0 412:1.0 309:1.0 413:2.0 497:1.0 257:2.0 211:2.0 546:1.0 
1.229112682761105 498:1.0 214:1.0 192:1.0 14:1.0 357:1.0 341:1.0 354:1.0 460:2.0 114:1.0 417:1.0 128:1.0 159:2.0 361:1.0 349:1.0 199:1.0 453:1.0 449:1.0 208:1.0 217:1.0 133:3.0 248:2.0 100:1.0 182:2.0 366:1.0 911:1.0 484:1.0 91:3.0 176:1.0 999:1.0 63:1.0 30:1.0 329:1.0 135:1.0 689:1.0 238:2.0 672:1.0 56:1.0 138:1.0 496:1.0 704:1.0 195:1.0 270:1.0 82:1.0 369:1.0 287:1.0 78:2.0 32:1.0 66:2.0 11:1.0 301:1.0 165:1.0 438:2.0 325:1.0 177:1.0 45:4.0 340:1.0 283:1.0 273:1.0 452:1.0 67:1.0 411:4.0 93:1.0 202:4.0 193:1.0 997:3.0 131:1.0 464:1.0 18:1.0 918:1.0 271:1.0 247:1.0 286:1.0 88:1.0 190:1.0 257:1.0 397:1.0 194:1.0 72:1.0 479:3.0 
5.68785590909817 283:1.0 254:1.0 214:2.0 308:1.0 192:1.0 202:1.0 358:2.0 369:1.0 176:1.0 997:1.0 367:1.0 464:1.0 494:1.0 92:1.0 271:1.0 73:1.0 356:1.0 336:1.0 26:1.0 274:1.0 346:1.0 397:2.0 438:1.0 34:1.0 27:1.0 557:2.0 353:1.0 217:1.0 133:1.0 248:1.0 80:2.0 13:1.0 330:1.0 
3.396805723809799 115:1.0 312:1.0 361:1.0 358:1.0 485:1.0 287:1.0 78:1.0 453:1.0 367:1.0 341:1.0 449:1.0 313:1.0 157:1.0 293:1.0 133:1.0 45:1.0 80:1.0 163:1.0 182:1.0 417:2.0 
0.7849572507956906 375:1.0 368:1.0 318:1.0 287:1.0 367:1.0 18:1.0 417:1.0 456:1.0 482:1.0 361:1.0 257:1.0 382:1.0 991:1.0 
6.803893978485972 341:1.0 406:1.0 292:1.0 395:1.0 
2.424727040302642 262:1.0 254:1.0 214:1.0 158:1.0 287:1.0 78:1.0 328:1.0 367:1.0 405:1.0 341:1.0 164:1.0 354:2.0 26:1.0 301:1.0 216:1.0 361:1.0 165:1.0 454:1.0 38:1.0 3:1.0 45:1.0 294:1.0 173:1.0 100:1.0 295:1.0 67:1.0 411:1.0 234:1.0 91:1.0 999:1.0 92:1.0 271:1.0 213:1.0 356:1.0 247:1.0 482:1.0 480:1.0 346:1.0 242:1.0 397:1.0 160:1.0 266:1.0 201:1.0 386:1.0 229:1.0 
7.24 194:2.0 74:1.0 367:1.0 433:1.0 81:1.0 165:1.0 133:1.0 395:1.0 348:1.0 
1.9468419471798315 390:1.0 254:1.0 214:1.0 369:1.0 360:1.0 998:1.0 730:1.0 839:1.0 992:1.0 354:1.0 395:2.0 417:1.0 
5.721338095624396 283:1.0 74:1.0 273:1.0 232:1.0 429:1.0 21:1.0 397:1.0 367:1.0 284:1.0 45:1.0 395:1.0 444:1.0 417:1.0 
1.1675623386857952 262:1.0 315:1.0 214:1.0 232:1.0 282:1.0 345:1.0 140:1.0 363:1.0 367:2.0 499:2.0 306:1.0 341:1.0 5:1.0 984:1.0 54:1.0 417:3.0 150:1.0 259:1.0 216:1.0 278:1.0 141:1.0 430:2.0 45:1.0 248:1.0 470:1.0 176:1.0 999:1.0 466:1.0 52:1.0 303:1.0 413:1.0 21:1.0 346:1.0 480:1.0 397:2.0 194:1.0 290:1.0 487:1.0 207:1.0 
0.9750719334808206 262:1.0 214:1.0 232:1.0 425:1.0 140:1.0 367:3.0 499:1.0 405:1.0 341:1.0 5:1.0 395:1.0 417:5.0 54:1.0 278:1.0 208:1.0 141:1.0 430:1.0 45:2.0 248:1.0 173:1.0 285:1.0 226:1.0 470:1.0 999:1.0 144:1.0 413:1.0 456:1.0 286:1.0 21:2.0 200:1.0 346:1.0 480:1.0 431:1.0 397:1.0 194:1.0 290:1.0 284:1.0 487:1.0 496:1.0 207:1.0 
4.918544120321585 366:1.0 367:1.0 315:1.0 232:1.0 45:2.0 
4.588497030308751 443:1.0 232:1.0 21:1.0 430:1.0 417:1.0 
7.24 263:1.0 
3.1446576546679115 214:2.0 58:1.0 162:1.0 15:3.0 499:2.0 367:6.0 341:3.0 417:4.0 172:1.0 159:1.0 463:1.0 236:1.0 132:1.0 208:1.0 449:1.0 141:1.0 557:1.0 430:1.0 173:3.0 898:1.0 295:1.0 484:1.0 91:1.0 396:2.0 468:1.0 999:1.0 30:1.0 493:1.0 209:1.0 605:1.0 700:1.0 10:1.0 207:1.0 339:1.0 442:2.0 345:1.0 369:1.0 106:1.0 328:1.0 494:1.0 66:1.0 316:1.0 395:3.0 724:1.0 110:3.0 385:1.0 362:1.0 177:1.0 830:1.0 45:2.0 170:2.0 411:1.0 202:2.0 997:1.0 79:1.0 156:2.0 221:1.0 107:1.0 247:1.0 480:1.0 479:1.0 304:1.0 
1.9645836381317607 195:1.0 50:1.0 475:1.0 224:1.0 367:1.0 364:1.0 300:1.0 984:1.0 417:5.0 296:1.0 159:1.0 453:3.0 965:1.0 430:2.0 173:1.0 163:2.0 256:1.0 458:1.0 998:1.0 313:1.0 218:2.0 344:1.0 21:1.0 242:2.0 324:1.0 397:2.0 47:1.0 191:1.0 496:1.0 204:1.0 
3.60105173779071 254:1.0 318:1.0 423:1.0 499:1.0 107:1.0 494:2.0 30:1.0 225:1.0 492:1.0 316:1.0 395:1.0 54:1.0 196:1.0 274:1.0 98:1.0 110:1.0 449:1.0 322:1.0 284:1.0 177:1.0 45:1.0 404:1.0 
5.774438722602403 196:1.0 214:1.0 346:1.0 737:1.0 167:1.0 176:1.0 476:1.0 425:2.0 365:1.0 367:1.0 494:2.0 191:2.0 134:1.0 225:1.0 133:1.0 45:1.0 285:2.0 
0.36100381065816767 441:1.0 214:2.0 103:1.0 375:1.0 223:1.0 312:1.0 91:1.0 475:1.0 360:2.0 852:1.0 367:1.0 341:1.0 92:1.0 381:1.0 319:2.0 395:1.0 417:1.0 115:1.0 26:1.0 216:3.0 394:1.0 346:1.0 361:1.0 427:1.0 278:2.0 
1.8975603087241995 366:1.0 273:1.0 397:2.0 988:1.0 278:1.0 428:1.0 367:1.0 122:1.0 992:1.0 351:1.0 45:1.0 12:1.0 
1.595316784380035 214:3.0 710:2.0 414:1.0 369:1.0 219:1.0 367:1.0 341:1.0 134:1.0 351:1.0 213:1.0 395:1.0 417:2.0 456:1.0 159:1.0 259:1.0 40:1.0 19:1.0 477:1.0 454:1.0 194:1.0 53:1.0 284:1.0 191:1.0 430:2.0 177:1.0 133:1.0 45:1.0 991:1.0 
4.679381155244685 159:1.0 296:1.0 19:1.0 210:1.0 499:1.0 219:1.0 430:1.0 177:1.0 76:1.0 133:1.0 316:1.0 395:1.0 417:1.0 336:1.0 
5.713097884463265 456:1.0 254:1.0 366:1.0 273:1.0 452:1.0 165:1.0 397:1.0 278:1.0 438:1.0 42:1.0 351:1.0 138:1.0 45:1.0 395:1.0 303:1.0 33:1.0 
7.24 278:1.0 960:1.0 
7.24 
3.4626644594483382 196:1.0 19:1.0 145:1.0 219:1.0 278:1.0 133:1.0 45:1.0 179:1.0 417:1.0 
4.888180540843896 214:1.0 82:1.0 162:1.0 578:1.0 336:1.0 417:1.0 349:2.0 455:1.0 45:1.0 273:1.0 452:1.0 17:1.0 223:1.0 91:1.0 40:1.0 200:1.0 21:2.0 397:3.0 201:1.0 304:1.0 416:1.0 330:1.0 
5.265417868703448 366:1.0 254:1.0 40:1.0 98:1.0 372:1.0 367:1.0 89:1.0 179:1.0 384:1.0 
7.24 283:2.0 390:1.0 366:1.0 254:1.0 425:1.0 367:1.0 341:1.0 351:1.0 647:1.0 417:1.0 831:1.0 835:1.0 640:1.0 641:1.0 141:1.0 177:1.0 332:1.0 45:1.0 285:1.0 991:1.0 
6.1321972444488715 400:1.0 214:1.0 327:1.0 168:1.0 287:1.0 367:2.0 341:1.0 8:1.0 134:1.0 426:1.0 213:1.0 395:1.0 296:1.0 128:1.0 188:1.0 21:1.0 361:1.0 397:1.0 267:1.0 278:1.0 290:1.0 284:1.0 230:1.0 
7.24 254:1.0 366:1.0 214:2.0 124:1.0 367:2.0 499:1.0 18:1.0 222:1.0 831:1.0 417:2.0 74:1.0 69:1.0 200:1.0 397:2.0 388:1.0 430:1.0 45:1.0 991:1.0 330:1.0 
7.24 262:1.0 159:1.0 18:1.0 21:1.0 397:1.0 417:1.0 
1.0534268072530977 214:1.0 270:1.0 367:1.0 999:1.0 341:2.0 8:1.0 52:1.0 134:1.0 213:1.0 336:1.0 296:2.0 188:1.0 98:1.0 482:1.0 190:1.0 397:1.0 385:1.0 191:1.0 479:1.0 45:2.0 
2.367639452685474 262:1.0 390:1.0 366:1.0 369:1.0 998:1.0 363:1.0 313:1.0 464:1.0 222:1.0 395:1.0 54:1.0 417:1.0 74:1.0 6:1.0 200:1.0 242:1.0 397:2.0 278:1.0 284:1.0 177:1.0 57:1.0 991:1.0 207:1.0 
1.1543640634830146 254:1.0 274:1.0 55:1.0 426:1.0 389:1.0 133:1.0 45:1.0 
0.8297664807642572 390:1.0 498:1.0 214:2.0 383:1.0 140:1.0 85:1.0 367:1.0 341:1.0 395:1.0 831:1.0 417:5.0 54:1.0 114:2.0 296:2.0 69:1.0 165:1.0 477:1.0 430:5.0 248:1.0 991:3.0 996:1.0 245:1.0 256:1.0 331:1.0 434:1.0 202:1.0 871:1.0 299:1.0 122:1.0 189:1.0 356:1.0 265:1.0 445:2.0 284:1.0 4:2.0 404:1.0 
7.24 21:1.0 257:1.0 417:1.0 
0.18855618261909757 262:1.0 390:1.0 366:1.0 214:1.0 414:1.0 64:1.0 369:1.0 379:1.0 79:1.0 443:1.0 499:1.0 367:1.0 490:1.0 457:1.0 418:1.0 313:1.0 316:1.0 984:1.0 395:2.0 189:1.0 435:1.0 54:1.0 417:2.0 172:1.0 159:1.0 88:1.0 21:1.0 397:1.0 191:1.0 45:1.0 991:1.0 
7.24 254:1.0 39:1.0 992:1.0 57:1.0 45:1.0 207:1.0 417:2.0 
7.24 751:1.0 369:1.0 525:1.0 834:1.0 5:1.0 417:2.0 846:1.0 196:1.0 62:1.0 255:1.0 511:1.0 717:1.0 230:1.0 182:1.0 
2.5497917134906816 473:1.0 8:1.0 5:1.0 336:1.0 417:3.0 296:1.0 188:1.0 165:1.0 399:1.0 382:1.0 255:1.0 511:1.0 217:1.0 305:1.0 163:1.0 182:1.0 17:1.0 109:1.0 30:1.0 356:1.0 408:1.0 431:1.0 754:2.0 112:1.0 837:1.0 
7.24 685:1.0 476:1.0 425:1.0 773:2.0 285:1.0 408:1.0 
4.918120745875435 366:1.0 327:2.0 768:1.0 93:1.0 91:1.0 369:1.0 367:1.0 299:1.0 395:1.0 59:1.0 388:1.0 323:1.0 141:1.0 430:2.0 177:1.0 304:1.0 416:1.0 
7.24 263:1.0 
7.24 45:1.0 179:1.0 
4.2394680346587865 214:1.0 205:2.0 628:1.0 65:1.0 168:1.0 369:1.0 379:1.0 367:2.0 341:2.0 8:1.0 459:2.0 417:4.0 259:1.0 274:1.0 216:1.0 184:1.0 278:1.0 38:1.0 86:1.0 297:1.0 100:1.0 273:1.0 604:1.0 899:1.0 120:1.0 157:2.0 493:1.0 25:1.0 351:1.0 135:1.0 444:1.0 21:1.0 482:1.0 346:1.0 397:2.0 197:1.0 239:1.0 
1.077929451964925 214:2.0 379:2.0 140:1.0 367:4.0 341:1.0 460:1.0 417:3.0 172:1.0 361:1.0 427:1.0 365:1.0 960:1.0 491:1.0 898:1.0 163:1.0 91:1.0 176:1.0 999:1.0 313:1.0 135:1.0 22:1.0 130:1.0 238:1.0 314:1.0 178:1.0 422:2.0 369:2.0 393:1.0 291:2.0 288:1.0 259:1.0 165:1.0 110:1.0 278:1.0 438:1.0 220:1.0 385:3.0 177:2.0 45:2.0 256:1.0 17:1.0 202:2.0 120:1.0 271:1.0 247:1.0 436:1.0 190:1.0 483:1.0 431:1.0 187:1.0 
7.24 456:1.0 74:1.0 259:1.0 246:1.0 48:1.0 92:1.0 395:1.0 417:1.0 
1.4507419457064032 227:1.0 214:3.0 429:1.0 192:2.0 312:1.0 64:1.0 46:1.0 357:1.0 162:1.0 367:1.0 341:1.0 426:1.0 463:1.0 141:1.0 430:1.0 217:1.0 491:1.0 366:2.0 91:1.0 22:1.0 378:1.0 773:1.0 284:1.0 369:1.0 345:1.0 143:1.0 316:1.0 395:3.0 301:1.0 210:1.0 278:1.0 177:1.0 119:1.0 226:1.0 279:1.0 157:1.0 271:1.0 356:1.0 480:1.0 335:1.0 
5.85239449800122 313:1.0 284:1.0 395:1.0 
0.6676163439476797 254:2.0 123:1.0 214:1.0 339:1.0 269:1.0 369:1.0 51:2.0 61:1.0 367:2.0 341:1.0 402:1.0 48:1.0 354:1.0 395:4.0 73:1.0 105:1.0 417:2.0 114:1.0 463:1.0 141:1.0 177:1.0 133:2.0 45:1.0 20:1.0 173:1.0 366:1.0 283:1.0 245:1.0 104:2.0 223:1.0 261:2.0 24:1.0 202:1.0 536:1.0 484:1.0 129:1.0 102:1.0 469:1.0 156:1.0 279:1.0 134:1.0 280:1.0 309:2.0 247:1.0 40:1.0 497:1.0 482:1.0 10:1.0 
5.8703519939554845 262:1.0 704:1.0 214:1.0 425:1.0 367:1.0 341:1.0 299:1.0 122:1.0 240:1.0 408:2.0 463:1.0 476:1.0 278:1.0 2:1.0 285:1.0 991:2.0 
6.111194336872708 366:1.0 911:1.0 21:1.0 372:1.0 443:1.0 45:1.0 163:1.0 207:1.0 417:1.0 471:1.0 
2.0900909538413703 154:1.0 452:1.0 214:1.0 406:1.0 269:1.0 64:1.0 341:1.0 30:1.0 153:1.0 280:1.0 381:2.0 213:1.0 395:1.0 417:1.0 83:1.0 334:1.0 323:1.0 97:2.0 141:1.0 325:1.0 226:1.0 
7.24 196:1.0 202:1.0 268:1.0 199:1.0 378:1.0 997:1.0 122:1.0 426:1.0 460:1.0 119:1.0 57:1.0 207:1.0 
4.961653093214748 171:1.0 232:1.0 44:1.0 223:1.0 993:1.0 438:1.0 393:1.0 992:1.0 45:1.0 298:1.0 356:1.0 408:1.0 417:2.0 
2.658062597433743 214:1.0 282:1.0 46:1.0 995:1.0 475:3.0 437:1.0 313:1.0 291:1.0 213:1.0 242:1.0 391:1.0 324:1.0 427:3.0 397:1.0 378:1.0 267:1.0 194:1.0 278:1.0 432:1.0 112:1.0 138:1.0 
7.24 366:1.0 283:1.0 85:1.0 852:1.0 448:1.0 122:1.0 45:1.0 395:1.0 
1.6247856884832395 254:1.0 158:2.0 214:3.0 897:1.0 58:2.0 162:1.0 367:3.0 341:2.0 460:1.0 114:1.0 172:1.0 240:3.0 417:8.0 216:3.0 643:1.0 199:1.0 59:1.0 627:1.0 133:2.0 173:2.0 294:1.0 248:1.0 182:1.0 223:1.0 91:1.0 484:2.0 396:1.0 176:1.0 146:1.0 999:1.0 122:1.0 492:1.0 435:1.0 74:2.0 40:1.0 238:1.0 117:1.0 200:1.0 242:1.0 338:1.0 116:2.0 290:1.0 487:1.0 605:1.0 95:1.0 178:1.0 154:1.0 315:2.0 269:1.0 65:1.0 369:4.0 428:1.0 395:1.0 336:1.0 54:2.0 165:1.0 110:1.0 385:1.0 461:1.0 462:1.0 371:1.0 45:4.0 285:1.0 470:1.0 202:4.0 120:1.0 997:1.0 412:2.0 18:1.0 189:1.0 70:1.0 356:2.0 413:1.0 397:1.0 388:1.0 191:1.0 
6.052720554037599 214:2.0 61:1.0 367:2.0 341:1.0 395:1.0 54:1.0 26:1.0 98:1.0 283:1.0 103:1.0 604:1.0 246:1.0 202:1.0 396:1.0 468:1.0 637:1.0 92:1.0 351:1.0 88:1.0 21:1.0 290:1.0 330:1.0 
7.24 931:1.0 274:1.0 480:1.0 110:1.0 379:1.0 685:1.0 302:1.0 773:1.0 367:1.0 385:1.0 450:1.0 371:1.0 37:1.0 285:1.0 991:1.0 404:1.0 
7.24 447:1.0 604:1.0 484:1.0 181:1.0 388:1.0 61:1.0 132:1.0 260:1.0 494:2.0 141:1.0 32:1.0 27:1.0 395:1.0 13:1.0 
0.34159266869117255 214:2.0 369:1.0 428:1.0 61:1.0 367:2.0 341:2.0 494:1.0 288:1.0 354:1.0 395:1.0 172:1.0 417:1.0 240:1.0 6:1.0 433:1.0 455:1.0 133:1.0 45:1.0 173:1.0 285:1.0 163:1.0 283:1.0 202:1.0 318:1.0 107:1.0 493:1.0 213:1.0 247:1.0 408:1.0 74:3.0 581:1.0 397:2.0 194:2.0 191:1.0 201:1.0 
4.329234835413088 262:1.0 214:1.0 175:1.0 469:1.0 102:1.0 156:1.0 367:2.0 494:1.0 316:1.0 395:1.0 417:2.0 274:1.0 482:1.0 292:1.0 346:1.0 431:1.0 397:1.0 132:1.0 627:1.0 285:1.0 
7.24 400:1.0 341:1.0 137:1.0 961:1.0 395:1.0 189:1.0 309:1.0 
4.411677204089434 328:1.0 74:1.0 227:1.0 367:1.0 259:1.0 216:1.0 295:1.0 57:1.0 207:1.0 360:1.0 
5.612364952573708 262:1.0 355:1.0 214:1.0 833:1.0 50:1.0 327:1.0 84:1.0 475:2.0 428:1.0 367:1.0 341:1.0 402:1.0 925:1.0 143:2.0 395:1.0 417:2.0 159:1.0 427:1.0 477:1.0 557:1.0 133:2.0 45:1.0 285:1.0 996:1.0 340:1.0 245:1.0 71:1.0 458:1.0 202:1.0 997:1.0 131:1.0 157:1.0 493:1.0 189:1.0 309:1.0 956:1.0 346:1.0 581:1.0 97:1.0 440:1.0 191:1.0 112:1.0 717:1.0 
7.24 400:1.0 327:1.0 38:1.0 230:1.0 
2.3405931843589416 390:1.0 214:1.0 447:1.0 345:1.0 367:1.0 316:1.0 417:3.0 115:1.0 463:1.0 244:1.0 399:1.0 148:1.0 449:1.0 177:1.0 173:1.0 371:1.0 285:1.0 283:1.0 129:1.0 493:1.0 480:1.0 194:1.0 641:1.0 
7.24 91:1.0 47:1.0 186:1.0 
7.24 283:1.0 214:1.0 24:1.0 234:1.0 129:2.0 79:1.0 367:1.0 428:1.0 494:1.0 1:1.0 280:1.0 108:1.0 247:1.0 127:1.0 159:1.0 431:1.0 132:1.0 260:1.0 27:1.0 177:1.0 272:1.0 
7.24 254:1.0 196:1.0 255:1.0 5:1.0 45:1.0 356:1.0 417:2.0 182:1.0 
7.24 254:1.0 214:2.0 880:1.0 140:1.0 306:1.0 66:1.0 143:1.0 233:1.0 395:2.0 417:2.0 196:1.0 436:1.0 956:1.0 190:1.0 397:2.0 365:1.0 187:1.0 132:1.0 334:1.0 641:1.0 455:1.0 353:1.0 173:1.0 330:1.0 
7.24 254:1.0 400:1.0 295:1.0 550:1.0 328:1.0 367:1.0 395:1.0 424:1.0 374:1.0 303:1.0 74:2.0 259:1.0 956:1.0 141:2.0 304:1.0 
7.24 262:1.0 283:2.0 232:1.0 91:1.0 880:1.0 369:1.0 367:1.0 164:1.0 8:1.0 395:1.0 417:1.0 130:1.0 397:2.0 194:1.0 334:1.0 511:1.0 320:1.0 285:1.0 163:1.0 
1.638993233809204 214:6.0 50:1.0 897:1.0 140:1.0 367:2.0 448:1.0 992:2.0 417:5.0 216:4.0 619:1.0 449:2.0 430:1.0 326:1.0 13:3.0 458:1.0 484:1.0 129:1.0 30:1.0 92:1.0 130:1.0 338:1.0 230:1.0 751:1.0 308:2.0 270:1.0 168:2.0 474:1.0 259:1.0 9:3.0 278:1.0 830:1.0 57:1.0 24:1.0 120:2.0 131:1.0 52:1.0 157:2.0 351:1.0 88:1.0 39:1.0 62:1.0 431:1.0 187:1.0 112:1.0 254:1.0 357:2.0 26:1.0 365:1.0 511:1.0 133:1.0 491:2.0 294:1.0 991:1.0 109:1.0 289:3.0 134:1.0 201:3.0 207:1.0 404:1.0 228:1.0 358:1.0 32:1.0 275:3.0 165:1.0 961:1.0 481:1.0 202:3.0 161:1.0 319:1.0 436:1.0 397:1.0 152:1.0 180:1.0 267:1.0 34:1.0 839:1.0 204:1.0 
7.199126338060524 454:1.0 306:1.0 415:1.0 260:1.0 411:1.0 277:1.0 479:1.0 
7.24 74:1.0 196:1.0 338:1.0 202:1.0 997:1.0 284:1.0 351:1.0 395:1.0 45:1.0 
7.24 245:1.0 274:1.0 322:1.0 286:1.0 991:1.0 471:1.0 
5.4623410242637975 154:1.0 214:1.0 91:2.0 369:1.0 341:1.0 464:1.0 18:1.0 30:1.0 8:1.0 213:1.0 37:1.0 417:2.0 159:1.0 216:1.0 301:1.0 482:1.0 165:1.0 97:1.0 38:1.0 178:1.0 
1.4929248281664058 488:1.0 422:1.0 214:1.0 282:1.0 65:1.0 46:1.0 475:1.0 425:1.0 367:1.0 363:1.0 155:1.0 288:1.0 395:2.0 417:3.0 931:1.0 274:1.0 81:1.0 361:1.0 454:1.0 278:1.0 433:1.0 430:1.0 177:1.0 305:1.0 326:1.0 173:1.0 348:1.0 285:1.0 35:1.0 120:1.0 360:1.0 131:1.0 299:1.0 75:2.0 157:1.0 25:1.0 94:2.0 241:1.0 117:1.0 497:1.0 392:1.0 431:1.0 397:6.0 118:1.0 476:1.0 151:1.0 95:1.0 
4.346303890256252 214:2.0 495:1.0 195:1.0 82:1.0 995:1.0 78:1.0 367:4.0 494:1.0 395:1.0 179:1.0 417:2.0 11:1.0 301:1.0 98:1.0 165:1.0 535:1.0 438:1.0 455:2.0 45:1.0 163:1.0 375:1.0 212:1.0 279:1.0 280:1.0 241:1.0 321:1.0 817:1.0 56:1.0 207:1.0 
4.854036007379972 262:1.0 273:1.0 214:1.0 282:1.0 312:1.0 91:1.0 880:1.0 78:1.0 79:1.0 367:1.0 341:1.0 494:1.0 319:1.0 316:1.0 247:1.0 417:2.0 159:1.0 11:2.0 216:1.0 242:1.0 116:1.0 397:1.0 239:1.0 27:1.0 56:2.0 45:2.0 
7.24 283:1.0 341:1.0 45:1.0 
1.796432926901573 262:1.0 366:1.0 351:1.0 316:1.0 397:1.0 45:1.0 356:1.0 417:1.0 
7.24 
7.24 283:1.0 311:1.0 133:1.0 
2.8953860216099634 409:1.0 366:1.0 216:1.0 191:1.0 361:1.0 145:1.0 133:1.0 45:1.0 395:1.0 469:1.0 182:1.0 417:1.0 
4.671418813843006 366:1.0 254:1.0 115:1.0 216:1.0 165:1.0 360:1.0 18:1.0 75:1.0 326:1.0 417:1.0 
7.24 428:1.0 449:1.0 361:1.0 671:1.0 272:1.0 
4.827512558166023 254:1.0 214:2.0 15:1.0 367:1.0 821:1.0 172:1.0 26:1.0 159:1.0 432:1.0 433:1.0 133:1.0 991:2.0 898:1.0 368:1.0 899:1.0 109:1.0 999:1.0 92:2.0 854:1.0 94:1.0 421:1.0 74:1.0 117:1.0 342:1.0 160:1.0 10:1.0 681:1.0 195:1.0 287:1.0 849:1.0 222:1.0 395:1.0 259:2.0 438:1.0 45:2.0 17:1.0 375:1.0 212:1.0 318:1.0 193:1.0 156:1.0 107:1.0 161:1.0 75:2.0 76:1.0 356:1.0 70:1.0 121:1.0 191:1.0 28:1.0 
7.24 366:1.0 133:1.0 
5.123723082874631 174:1.0 550:1.0 443:1.0 288:1.0 578:1.0 417:1.0 278:2.0 141:1.0 177:1.0 462:2.0 133:1.0 45:1.0 366:1.0 71:1.0 484:1.0 176:1.0 412:1.0 999:1.0 75:1.0 493:1.0 157:1.0 424:1.0 21:2.0 378:1.0 266:1.0 440:1.0 191:1.0 
7.24 262:1.0 417:2.0 342:1.0 277:1.0 397:1.0 323:1.0 173:1.0 45:1.0 
0.08669116671781434 159:1.0 273:2.0 223:1.0 419:1.0 367:2.0 334:2.0 494:1.0 464:1.0 75:1.0 479:1.0 304:2.0 45:1.0 395:2.0 991:1.0 
3.4515886740662323 214:3.0 533:1.0 50:1.0 46:1.0 215:1.0 367:4.0 490:1.0 457:1.0 966:1.0 172:1.0 159:1.0 208:1.0 842:1.0 264:1.0 458:1.0 176:1.0 493:1.0 94:2.0 22:1.0 209:1.0 47:1.0 139:1.0 230:4.0 521:1.0 36:1.0 442:1.0 78:1.0 106:1.0 143:1.0 395:2.0 539:1.0 474:1.0 438:2.0 385:1.0 371:1.0 285:2.0 273:1.0 256:1.0 202:2.0 102:1.0 997:1.0 221:1.0 75:1.0 525:1.0 52:1.0 456:1.0 497:1.0 472:1.0 346:1.0 445:1.0 335:2.0 204:1.0 
7.24 74:1.0 820:1.0 143:1.0 861:1.0 435:1.0 356:1.0 
3.1138069876271426 259:1.0 994:1.0 339:1.0 39:1.0 88:1.0 202:1.0 396:1.0 997:1.0 367:2.0 142:1.0 237:1.0 191:1.0 126:1.0 395:1.0 
0.3390827697302522 366:1.0 93:1.0 425:1.0 253:1.0 341:1.0 494:1.0 493:1.0 94:2.0 417:1.0 159:1.0 274:1.0 397:1.0 477:1.0 489:1.0 278:1.0 486:1.0 27:1.0 133:1.0 264:1.0 285:1.0 
0.8416458763186322 123:2.0 463:4.0 361:1.0 489:1.0 30:1.0 230:1.0 205:2.0 442:1.0 425:3.0 291:2.0 274:1.0 45:2.0 17:1.0 464:1.0 18:1.0 525:1.0 476:1.0 445:1.0 46:2.0 491:1.0 91:2.0 109:2.0 47:1.0 477:1.0 152:1.0 180:1.0 49:1.0 353:3.0 313:1.0 153:2.0 92:1.0 277:1.0 65:4.0 995:3.0 418:1.0 66:2.0 259:1.0 278:1.0 186:1.0 156:7.0 52:2.0 346:1.0 392:3.0 4:1.0 5:1.0 159:1.0 842:1.0 366:2.0 468:1.0 94:1.0 238:3.0 136:1.0 33:1.0 895:1.0 317:2.0 96:1.0 161:1.0 190:1.0 480:1.0 802:1.0 214:13.0 367:3.0 457:1.0 141:1.0 217:5.0 999:2.0 241:2.0 985:2.0 700:3.0 496:2.0 369:2.0 37:1.0 296:1.0 297:1.0 830:1.0 245:1.0 470:2.0 375:1.0 70:1.0 641:1.0 357:5.0 58:2.0 162:2.0 114:1.0 26:1.0 145:1.0 83:1.0 433:3.0 248:1.0 100:1.0 671:2.0 265:1.0 672:1.0 116:1.0 848:1.0 165:2.0 385:1.0 961:1.0 325:1.0 285:4.0 102:1.0 482:6.0 497:1.0 72:1.0 386:1.0 326:2.0 484:1.0 74:1.0 268:2.0 197:1.0 168:2.0 253:2.0 300:2.0 119:1.0 811:1.0 485:2.0 372:1.0 75:3.0 39:1.0 88:1.0 387:3.0 388:1.0 304:1.0 423:1.0 821:1.0 172:1.0 173:4.0 272:1.0 486:1.0 228:2.0 512:1.0 931:1.0 148:2.0 439:1.0 462:1.0 305:1.0 202:7.0 
7.24 263:2.0 359:4.0 
7.24 
7.24 154:1.0 214:1.0 833:1.0 223:1.0 367:2.0 52:1.0 92:1.0 288:1.0 135:1.0 351:1.0 395:2.0 159:1.0 6:1.0 81:1.0 780:1.0 110:1.0 334:1.0 208:1.0 839:1.0 177:1.0 304:1.0 450:1.0 133:1.0 45:1.0 348:1.0 330:1.0 
6.422292694612786 115:1.0 159:1.0 414:1.0 85:1.0 284:1.0 30:1.0 122:1.0 177:1.0 94:1.0 395:1.0 417:1.0 404:1.0 
3.547248781251021 254:1.0 214:1.0 205:1.0 58:1.0 367:2.0 341:1.0 457:1.0 418:1.0 143:1.0 395:1.0 417:2.0 159:1.0 81:1.0 177:1.0 119:1.0 842:1.0 57:1.0 100:1.0 245:1.0 131:1.0 998:1.0 74:2.0 117:1.0 342:1.0 21:1.0 197:1.0 194:2.0 792:1.0 138:1.0 335:1.0 207:1.0 
0.9173981221788261 214:2.0 375:1.0 327:1.0 251:1.0 369:1.0 221:1.0 367:2.0 363:1.0 457:1.0 1:1.0 75:1.0 157:1.0 395:1.0 417:1.0 74:1.0 216:1.0 81:1.0 116:1.0 397:1.0 194:1.0 334:1.0 139:1.0 23:1.0 
7.24 355:1.0 214:1.0 174:1.0 82:1.0 995:2.0 253:1.0 417:5.0 114:2.0 296:1.0 244:1.0 278:1.0 373:1.0 231:1.0 38:1.0 461:1.0 627:1.0 481:1.0 273:1.0 125:1.0 18:2.0 492:1.0 136:1.0 397:1.0 388:1.0 201:1.0 304:1.0 138:1.0 178:2.0 330:1.0 
7.24 254:1.0 367:1.0 411:1.0 175:1.0 1:1.0 557:1.0 479:2.0 140:1.0 
6.836049074140207 254:1.0 431:2.0 278:1.0 367:1.0 107:1.0 34:1.0 75:1.0 45:1.0 
2.9950061547126556 50:1.0 458:1.0 282:1.0 67:1.0 383:1.0 46:1.0 678:1.0 113:1.0 998:1.0 367:1.0 75:1.0 94:1.0 37:1.0 98:1.0 68:1.0 993:1.0 324:1.0 194:1.0 266:1.0 201:1.0 386:1.0 45:1.0 
0.6183855387345922 214:2.0 171:1.0 235:2.0 140:2.0 367:7.0 8:2.0 417:6.0 141:2.0 248:2.0 272:2.0 35:2.0 167:2.0 493:4.0 94:6.0 902:2.0 352:2.0 74:4.0 500:1.0 197:2.0 201:2.0 298:1.0 262:2.0 422:1.0 205:2.0 174:2.0 442:2.0 358:2.0 345:2.0 369:2.0 78:2.0 443:2.0 494:2.0 316:2.0 395:4.0 259:2.0 385:3.0 231:2.0 481:2.0 325:2.0 45:4.0 170:4.0 202:8.0 120:2.0 156:4.0 1:2.0 52:2.0 351:2.0 356:2.0 247:2.0 286:2.0 21:6.0 480:2.0 62:4.0 392:2.0 397:4.0 180:4.0 347:2.0 479:1.0 353:2.0 
3.552616445525198 283:1.0 282:1.0 64:1.0 61:1.0 493:1.0 94:1.0 130:1.0 98:1.0 216:1.0 446:1.0 266:1.0 960:1.0 4:1.0 
7.24 456:1.0 681:1.0 214:1.0 19:1.0 278:1.0 219:1.0 438:1.0 341:1.0 191:1.0 821:1.0 416:1.0 395:1.0 337:1.0 178:1.0 417:1.0 
3.896860341394794 375:1.0 368:1.0 246:1.0 162:1.0 367:1.0 999:1.0 135:1.0 492:1.0 395:1.0 456:1.0 931:1.0 259:1.0 773:1.0 438:1.0 137:1.0 191:1.0 450:1.0 133:1.0 45:1.0 
1.4633029644366402 40:1.0 75:1.0 395:1.0 309:1.0 302:1.0 417:1.0 
3.585153578341541 488:1.0 283:1.0 419:1.0 299:1.0 75:1.0 395:1.0 73:1.0 480:1.0 392:1.0 116:1.0 985:1.0 266:1.0 334:1.0 201:2.0 700:1.0 133:1.0 173:2.0 337:2.0 95:1.0 207:1.0 
2.3495505497713878 422:1.0 171:1.0 50:1.0 44:1.0 282:2.0 369:2.0 140:1.0 106:1.0 367:2.0 494:1.0 179:1.0 54:1.0 127:1.0 417:1.0 259:1.0 68:1.0 382:1.0 365:1.0 119:1.0 45:1.0 186:2.0 366:1.0 283:1.0 458:1.0 407:1.0 202:1.0 91:1.0 997:1.0 468:1.0 75:1.0 1:1.0 94:1.0 424:1.0 356:3.0 901:1.0 346:1.0 321:1.0 397:3.0 500:1.0 209:1.0 49:1.0 386:1.0 298:1.0 
1.3566400268629568 254:1.0 214:2.0 158:1.0 50:1.0 140:1.0 423:1.0 367:3.0 405:1.0 341:6.0 166:1.0 8:2.0 984:1.0 233:2.0 73:1.0 417:5.0 188:1.0 216:1.0 199:1.0 454:1.0 83:1.0 373:1.0 208:1.0 237:1.0 326:1.0 248:1.0 366:1.0 458:1.0 223:1.0 484:1.0 109:1.0 999:1.0 63:1.0 30:1.0 493:1.0 94:2.0 197:1.0 47:1.0 284:1.0 416:1.0 262:1.0 205:1.0 383:4.0 442:1.0 369:1.0 78:2.0 155:1.0 48:2.0 395:7.0 336:1.0 403:1.0 296:1.0 301:1.0 292:1.0 399:1.0 477:1.0 438:1.0 38:1.0 325:1.0 45:2.0 285:1.0 340:1.0 273:1.0 202:3.0 120:1.0 997:3.0 131:1.0 998:1.0 157:1.0 351:3.0 213:1.0 356:2.0 247:2.0 472:2.0 397:2.0 334:2.0 97:1.0 
3.59947926440862 262:1.0 452:1.0 406:1.0 261:1.0 91:1.0 78:1.0 156:1.0 367:1.0 460:1.0 135:1.0 316:1.0 395:2.0 309:1.0 73:1.0 724:1.0 401:1.0 474:1.0 110:1.0 449:1.0 557:1.0 
7.24 367:1.0 499:1.0 341:1.0 375:1.0 446:1.0 426:1.0 16:1.0 133:1.0 369:1.0 45:1.0 356:1.0 417:1.0 
7.24 254:1.0 214:2.0 367:1.0 74:1.0 21:1.0 467:1.0 45:1.0 186:1.0 330:1.0 
1.188848082454965 26:1.0 366:1.0 269:1.0 346:1.0 202:1.0 16:1.0 79:1.0 72:1.0 367:1.0 412:1.0 266:1.0 334:1.0 284:3.0 191:1.0 92:1.0 395:3.0 
7.24 274:1.0 628:1.0 55:1.0 397:1.0 469:1.0 113:1.0 367:1.0 45:1.0 395:1.0 100:1.0 
7.24 214:1.0 312:1.0 525:1.0 344:1.0 395:1.0 41:1.0 159:1.0 21:1.0 397:1.0 334:1.0 304:1.0 
5.133328352865364 283:1.0 254:1.0 366:1.0 214:2.0 205:2.0 234:1.0 91:1.0 369:1.0 360:2.0 367:2.0 75:1.0 48:1.0 424:1.0 395:1.0 931:1.0 11:1.0 241:1.0 301:1.0 497:1.0 346:1.0 197:2.0 137:1.0 141:1.0 293:1.0 830:1.0 491:1.0 163:1.0 4:1.0 
7.24 118:1.0 75:2.0 861:1.0 54:1.0 
7.202026865184724 41:1.0 232:1.0 202:1.0 392:1.0 109:1.0 153:1.0 
1.1130972743987322 441:1.0 214:1.0 312:1.0 46:3.0 367:2.0 341:1.0 5:1.0 842:1.0 133:1.0 491:2.0 991:1.0 13:1.0 295:1.0 91:1.0 484:1.0 242:1.0 136:1.0 118:2.0 416:1.0 230:1.0 178:1.0 174:1.0 995:1.0 701:1.0 328:1.0 60:1.0 291:1.0 66:1.0 465:1.0 11:1.0 69:1.0 301:1.0 394:1.0 165:1.0 45:2.0 256:1.0 998:1.0 75:2.0 18:1.0 52:1.0 346:1.0 62:1.0 397:3.0 267:1.0 191:1.0 
7.24 
7.24 359:1.0 
5.185661249320241 154:1.0 214:1.0 406:1.0 768:1.0 451:1.0 443:1.0 367:1.0 428:1.0 48:1.0 384:1.0 417:1.0 115:1.0 259:1.0 302:1.0 220:1.0 343:1.0 231:1.0 45:1.0 366:1.0 452:1.0 368:1.0 375:1.0 412:1.0 134:1.0 247:2.0 21:1.0 342:1.0 250:1.0 201:1.0 717:1.0 198:1.0 
5.666880092524986 214:1.0 358:1.0 367:1.0 992:1.0 395:1.0 115:1.0 128:1.0 81:1.0 165:1.0 278:1.0 133:1.0 57:1.0 366:1.0 202:1.0 234:1.0 372:1.0 75:2.0 134:1.0 157:1.0 351:1.0 74:1.0 333:1.0 47:1.0 207:1.0 
6.340044747174211 115:1.0 488:1.0 41:1.0 71:1.0 259:1.0 246:1.0 267:1.0 367:1.0 373:1.0 440:1.0 45:1.0 178:1.0 
2.1370574227246455 159:1.0 241:1.0 378:1.0 365:1.0 499:1.0 266:1.0 494:1.0 284:1.0 27:1.0 479:1.0 416:1.0 395:1.0 496:1.0 248:1.0 356:1.0 417:1.0 
7.24 254:1.0 214:1.0 67:1.0 202:1.0 140:1.0 113:1.0 367:1.0 94:1.0 179:1.0 417:1.0 456:1.0 277:1.0 55:1.0 321:1.0 365:1.0 290:1.0 53:1.0 237:1.0 111:1.0 386:1.0 45:1.0 
6.783278155884486 328:1.0 295:1.0 261:1.0 200:1.0 177:1.0 94:1.0 73:1.0 417:1.0 
2.9968609733186384 254:1.0 214:2.0 50:1.0 175:1.0 205:1.0 46:1.0 58:1.0 369:1.0 168:2.0 379:1.0 475:1.0 425:2.0 328:1.0 354:1.0 300:1.0 395:3.0 73:1.0 417:1.0 931:1.0 159:1.0 427:1.0 399:1.0 278:2.0 177:1.0 217:1.0 326:2.0 285:2.0 366:1.0 295:1.0 458:1.0 261:1.0 318:1.0 120:1.0 91:1.0 79:1.0 30:3.0 75:2.0 52:1.0 351:1.0 94:1.0 401:1.0 118:2.0 802:1.0 197:1.0 334:1.0 
6.127296954167958 370:1.0 46:1.0 685:1.0 415:1.0 48:2.0 895:1.0 165:1.0 302:1.0 184:1.0 433:1.0 133:2.0 45:2.0 991:1.0 400:1.0 273:1.0 245:1.0 375:1.0 131:1.0 412:1.0 52:3.0 381:1.0 94:1.0 247:2.0 257:1.0 191:1.0 201:1.0 204:1.0 4:1.0 
1.3169913846503156 443:1.0 445:1.0 21:1.0 426:1.0 133:1.0 395:1.0 408:1.0 417:1.0 
7.24 422:1.0 171:1.0 253:2.0 500:1.0 298:1.0 
1.7829452612867631 366:1.0 369:1.0 156:1.0 367:1.0 341:1.0 155:1.0 999:1.0 1:1.0 92:1.0 395:1.0 179:1.0 356:1.0 413:1.0 417:2.0 26:1.0 259:1.0 88:1.0 431:1.0 148:1.0 454:1.0 142:1.0 133:1.0 335:1.0 230:1.0 45:3.0 
7.24 278:1.0 75:1.0 459:1.0 
3.499726610193652 154:1.0 367:1.0 417:2.0 259:1.0 399:1.0 477:1.0 38:1.0 141:1.0 310:1.0 133:2.0 491:1.0 13:1.0 375:1.0 484:1.0 485:1.0 482:1.0 338:2.0 445:1.0 191:1.0 201:1.0 
1.3737604745482217 46:1.0 369:1.0 425:2.0 61:1.0 367:1.0 494:1.0 114:1.0 26:1.0 148:1.0 231:1.0 439:1.0 57:1.0 285:2.0 283:1.0 96:1.0 35:1.0 470:1.0 104:1.0 91:1.0 113:1.0 468:1.0 280:1.0 92:1.0 435:1.0 189:1.0 356:1.0 480:1.0 476:1.0 416:1.0 207:1.0 
3.6271983211623122 283:1.0 366:1.0 67:1.0 91:2.0 369:1.0 367:1.0 999:1.0 161:1.0 821:1.0 288:1.0 395:2.0 417:2.0 196:1.0 216:1.0 165:1.0 483:1.0 110:2.0 397:1.0 141:1.0 284:1.0 191:1.0 332:1.0 305:1.0 386:1.0 133:1.0 830:1.0 45:2.0 991:1.0 404:1.0 
6.410390401003729 355:1.0 214:1.0 339:2.0 270:1.0 995:1.0 345:1.0 168:1.0 379:1.0 367:1.0 316:1.0 417:3.0 172:1.0 465:1.0 259:1.0 177:1.0 45:1.0 285:1.0 366:1.0 170:1.0 251:1.0 156:2.0 999:1.0 313:1.0 492:1.0 674:1.0 480:1.0 257:1.0 594:1.0 211:1.0 4:1.0 330:1.0 
0.37262939352049046 254:1.0 123:1.0 227:1.0 46:1.0 168:1.0 369:1.0 415:1.0 159:1.0 274:1.0 81:1.0 199:1.0 461:1.0 433:1.0 86:1.0 177:1.0 297:1.0 133:1.0 173:2.0 991:1.0 348:1.0 186:1.0 366:1.0 283:1.0 484:1.0 109:2.0 852:1.0 52:1.0 108:2.0 381:1.0 351:1.0 356:1.0 401:1.0 130:1.0 397:1.0 322:1.0 191:1.0 
0.41151375637268706 345:1.0 369:1.0 176:1.0 367:1.0 494:1.0 300:1.0 395:1.0 356:1.0 417:5.0 114:1.0 480:2.0 346:1.0 409:1.0 334:1.0 284:1.0 191:1.0 177:1.0 133:1.0 45:1.0 285:1.0 
7.24 262:1.0 159:1.0 324:1.0 133:1.0 
0.43980003368525794 214:1.0 232:1.0 398:1.0 46:3.0 379:1.0 367:1.0 417:1.0 114:1.0 26:1.0 141:1.0 310:1.0 133:2.0 173:1.0 294:1.0 366:1.0 91:1.0 484:1.0 92:1.0 854:1.0 196:1.0 136:1.0 284:1.0 250:1.0 138:1.0 390:1.0 308:1.0 442:1.0 82:1.0 168:1.0 369:1.0 402:1.0 494:1.0 60:2.0 300:1.0 316:1.0 395:3.0 33:1.0 165:1.0 177:1.0 45:1.0 20:1.0 375:1.0 261:1.0 93:2.0 193:1.0 412:1.0 1:1.0 271:1.0 346:1.0 334:1.0 304:1.0 
0.036516013848692394 274:1.0 202:1.0 383:1.0 369:1.0 168:1.0 997:1.0 341:1.0 166:1.0 322:1.0 925:1.0 395:1.0 356:1.0 182:1.0 
7.24 366:1.0 242:1.0 880:1.0 397:1.0 148:1.0 341:1.0 173:1.0 417:1.0 
7.24 74:1.0 
7.24 604:1.0 67:1.0 411:2.0 234:1.0 91:1.0 438:1.0 239:1.0 386:1.0 13:1.0 247:1.0 417:1.0 
4.165352700609156 14:1.0 367:2.0 341:1.0 991:2.0 100:1.0 400:1.0 458:1.0 999:1.0 30:1.0 7:1.0 22:1.0 408:1.0 241:1.0 118:1.0 333:1.0 201:1.0 10:1.0 230:1.0 154:1.0 995:1.0 51:2.0 253:1.0 395:2.0 33:1.0 912:1.0 278:1.0 385:1.0 439:1.0 45:1.0 273:1.0 375:2.0 102:1.0 469:1.0 437:1.0 412:1.0 392:1.0 581:1.0 180:1.0 479:1.0 304:1.0 
1.173938175491458 17:1.0 46:1.0 425:1.0 367:1.0 494:1.0 60:1.0 125:1.0 395:1.0 259:1.0 241:1.0 200:1.0 482:2.0 333:2.0 118:1.0 476:1.0 347:1.0 284:1.0 27:1.0 230:1.0 285:1.0 
2.3866321901342333 254:1.0 227:1.0 214:3.0 46:2.0 357:1.0 15:1.0 367:1.0 426:1.0 114:1.0 26:1.0 6:1.0 619:1.0 433:1.0 217:1.0 252:2.0 91:2.0 999:1.0 92:1.0 135:2.0 953:1.0 74:3.0 241:1.0 956:1.0 446:1.0 268:1.0 333:3.0 817:1.0 605:1.0 487:1.0 139:1.0 330:1.0 327:1.0 228:1.0 369:1.0 494:1.0 222:1.0 66:1.0 165:1.0 210:1.0 148:1.0 317:1.0 439:1.0 45:1.0 245:1.0 251:1.0 234:1.0 271:1.0 659:1.0 247:1.0 276:1.0 39:1.0 346:1.0 392:1.0 267:1.0 27:1.0 
4.005365482153158 398:1.0 46:1.0 367:1.0 464:1.0 30:1.0 92:1.0 492:1.0 135:1.0 179:1.0 26:1.0 74:1.0 259:1.0 242:1.0 361:1.0 581:1.0 397:1.0 477:1.0 278:1.0 754:1.0 45:2.0 
2.442541829898516 355:1.0 254:1.0 214:1.0 533:1.0 174:1.0 363:1.0 367:1.0 341:1.0 166:1.0 395:2.0 417:3.0 114:1.0 159:1.0 275:2.0 399:1.0 477:1.0 83:1.0 141:1.0 104:1.0 411:1.0 377:1.0 202:1.0 469:1.0 79:2.0 131:1.0 381:1.0 351:1.0 144:1.0 456:1.0 242:2.0 397:2.0 267:1.0 
7.24 214:1.0 39:1.0 277:1.0 346:1.0 93:1.0 377:1.0 64:1.0 988:1.0 278:1.0 367:1.0 237:1.0 839:1.0 191:1.0 86:1.0 133:1.0 395:1.0 126:1.0 
7.24 14:1.0 377:1.0 
7.24 254:1.0 367:1.0 40:1.0 375:1.0 45:1.0 302:1.0 
5.109897342633899 232:1.0 286:1.0 768:1.0 377:1.0 257:1.0 85:1.0 113:1.0 220:1.0 111:1.0 122:1.0 135:1.0 417:2.0 
4.579347596758867 447:1.0 768:2.0 358:1.0 425:1.0 162:2.0 15:1.0 367:1.0 306:1.0 393:1.0 48:3.0 143:1.0 417:3.0 115:1.0 165:3.0 349:3.0 141:1.0 433:1.0 133:1.0 285:1.0 272:1.0 96:1.0 411:3.0 202:1.0 131:1.0 819:2.0 18:1.0 135:1.0 271:1.0 435:1.0 356:2.0 74:1.0 436:1.0 286:2.0 200:2.0 257:1.0 476:1.0 187:1.0 111:2.0 479:3.0 742:1.0 416:1.0 211:1.0 23:1.0 178:1.0 404:1.0 
7.24 150:1.0 196:1.0 436:1.0 274:1.0 17:1.0 346:1.0 202:1.0 485:1.0 84:1.0 997:1.0 367:1.0 499:1.0 45:1.0 356:1.0 417:1.0 
7.24 724:1.0 214:1.0 242:1.0 397:2.0 102:1.0 162:1.0 367:1.0 8:1.0 134:1.0 45:1.0 54:1.0 
0.626505321687674 214:1.0 259:1.0 327:1.0 451:1.0 397:1.0 988:1.0 473:1.0 160:1.0 278:1.0 142:1.0 107:1.0 119:1.0 492:1.0 305:1.0 45:1.0 991:1.0 
1.9382497410474124 154:1.0 243:1.0 327:1.0 345:1.0 499:1.0 367:1.0 494:1.0 8:1.0 222:1.0 213:1.0 7:1.0 316:1.0 74:1.0 188:1.0 6:1.0 216:1.0 497:1.0 480:1.0 338:1.0 361:1.0 278:1.0 290:1.0 433:2.0 191:1.0 177:1.0 28:1.0 133:3.0 45:1.0 521:1.0 991:4.0 
0.6268622705333429 308:1.0 176:1.0 473:1.0 367:1.0 224:1.0 52:1.0 395:1.0 417:2.0 74:1.0 141:1.0 305:1.0 133:1.0 45:1.0 371:1.0 173:1.0 285:1.0 178:1.0 340:1.0 
1.7215451337522418 214:3.0 429:3.0 46:1.0 379:1.0 499:1.0 341:1.0 984:1.0 578:1.0 26:1.0 115:1.0 159:3.0 463:1.0 619:1.0 83:1.0 455:1.0 366:1.0 92:1.0 130:1.0 116:1.0 773:1.0 266:1.0 450:1.0 416:1.0 23:3.0 330:1.0 383:1.0 428:2.0 179:1.0 474:1.0 274:1.0 275:1.0 165:1.0 220:1.0 177:1.0 305:1.0 45:1.0 245:1.0 170:1.0 377:1.0 234:1.0 193:1.0 113:1.0 221:1.0 1:1.0 271:1.0 647:1.0 356:1.0 247:1.0 472:1.0 581:1.0 397:1.0 72:1.0 211:2.0 
7.24 159:1.0 196:1.0 999:1.0 206:1.0 177:1.0 426:2.0 133:1.0 395:1.0 45:2.0 4:1.0 
7.24 274:1.0 417:1.0 
0.4504234840881883 214:3.0 162:1.0 499:2.0 367:1.0 341:1.0 166:1.0 73:1.0 26:1.0 463:1.0 149:1.0 420:1.0 326:1.0 991:3.0 35:1.0 176:1.0 92:1.0 249:1.0 40:1.0 277:1.0 142:1.0 43:1.0 48:1.0 316:1.0 296:1.0 274:1.0 98:1.0 385:1.0 231:2.0 177:1.0 371:1.0 45:1.0 285:1.0 273:2.0 17:1.0 261:1.0 156:2.0 52:1.0 397:1.0 121:1.0 386:1.0 
2.8447405262960106 366:1.0 283:1.0 214:1.0 67:1.0 282:1.0 106:1.0 525:1.0 316:1.0 395:1.0 417:1.0 74:1.0 88:1.0 116:1.0 988:1.0 209:1.0 194:1.0 278:1.0 141:1.0 191:1.0 455:1.0 177:1.0 133:1.0 
0.9069247029498263 254:1.0 498:1.0 214:1.0 327:2.0 205:1.0 101:1.0 475:1.0 341:1.0 166:1.0 494:1.0 37:1.0 336:1.0 465:1.0 417:5.0 26:1.0 159:2.0 99:1.0 199:1.0 427:1.0 365:1.0 237:1.0 177:1.0 310:1.0 133:1.0 371:1.0 285:1.0 366:1.0 375:1.0 458:1.0 411:1.0 377:3.0 91:1.0 77:1.0 360:1.0 464:1.0 92:1.0 135:1.0 408:1.0 276:1.0 257:1.0 397:2.0 197:1.0 479:1.0 293:1.0 138:1.0 
3.142710925482094 214:2.0 442:1.0 140:1.0 367:1.0 393:1.0 179:1.0 54:1.0 417:1.0 376:1.0 438:1.0 45:3.0 991:1.0 245:1.0 411:1.0 999:1.0 107:1.0 18:1.0 351:1.0 902:1.0 374:1.0 480:1.0 257:1.0 136:1.0 397:1.0 180:1.0 440:1.0 479:1.0 386:1.0 330:1.0 
7.24 254:1.0 366:1.0 245:1.0 214:1.0 820:1.0 426:1.0 902:1.0 417:1.0 780:1.0 378:1.0 462:1.0 133:1.0 45:1.0 
7.24 533:1.0 
2.7188116823316584 355:1.0 214:3.0 499:1.0 367:2.0 384:2.0 240:1.0 417:8.0 199:1.0 208:1.0 433:1.0 455:1.0 13:1.0 295:1.0 91:1.0 484:1.0 146:1.0 999:2.0 153:1.0 671:1.0 130:1.0 40:1.0 241:1.0 47:1.0 915:1.0 230:1.0 404:1.0 243:1.0 685:1.0 328:1.0 155:1.0 494:1.0 48:1.0 225:1.0 37:1.0 336:1.0 127:1.0 376:1.0 165:1.0 110:1.0 220:2.0 231:2.0 45:2.0 285:1.0 470:1.0 90:1.0 536:1.0 279:1.0 18:2.0 525:1.0 144:1.0 356:2.0 413:2.0 346:1.0 257:2.0 392:1.0 
0.5859896089545202 441:1.0 468:1.0 133:1.0 45:1.0 285:1.0 184:1.0 425:1.0 417:2.0 
2.666255225731608 273:1.0 422:1.0 245:1.0 375:1.0 368:1.0 377:2.0 202:1.0 176:1.0 140:1.0 156:1.0 30:1.0 18:2.0 280:1.0 395:1.0 417:2.0 172:1.0 274:1.0 39:1.0 257:2.0 397:1.0 141:1.0 371:1.0 285:1.0 95:1.0 404:1.0 
0.9136115491516595 366:1.0 377:1.0 367:1.0 999:1.0 76:1.0 395:1.0 384:1.0 417:1.0 159:1.0 346:1.0 391:1.0 278:1.0 432:1.0 177:1.0 45:2.0 126:1.0 
4.63792558575176 283:1.0 262:1.0 214:1.0 232:1.0 377:1.0 193:1.0 46:1.0 129:1.0 219:1.0 18:1.0 902:1.0 316:1.0 159:1.0 275:1.0 257:1.0 19:1.0 388:1.0 49:1.0 293:1.0 10:1.0 133:1.0 126:1.0 139:1.0 
3.2499095878362705 283:1.0 456:1.0 74:1.0 196:1.0 407:1.0 342:1.0 61:1.0 142:1.0 438:1.0 999:1.0 393:1.0 133:1.0 45:2.0 395:1.0 417:1.0 
0.49349691141374186 214:2.0 429:2.0 175:1.0 398:1.0 64:1.0 140:1.0 410:2.0 367:3.0 426:1.0 73:1.0 417:7.0 141:1.0 911:1.0 176:1.0 74:1.0 277:3.0 242:1.0 985:1.0 230:1.0 369:2.0 494:1.0 143:1.0 37:1.0 403:1.0 274:1.0 260:2.0 362:1.0 45:1.0 669:1.0 283:1.0 245:2.0 411:1.0 156:1.0 113:1.0 221:1.0 18:2.0 351:1.0 303:1.0 247:1.0 346:1.0 62:1.0 581:1.0 323:1.0 4:2.0 254:1.0 158:3.0 423:1.0 5:1.0 114:1.0 115:1.0 83:1.0 965:1.0 133:1.0 173:1.0 991:3.0 91:1.0 265:2.0 408:1.0 238:1.0 116:1.0 47:2.0 138:2.0 330:1.0 358:1.0 228:1.0 222:1.0 336:3.0 54:1.0 399:1.0 385:1.0 38:1.0 481:1.0 325:1.0 311:1.0 285:2.0 996:1.0 202:3.0 377:3.0 102:1.0 997:1.0 107:1.0 280:1.0 257:2.0 397:2.0 267:1.0 72:1.0 204:1.0 
7.24 367:1.0 452:1.0 223:1.0 202:1.0 133:1.0 397:1.0 395:1.0 45:1.0 84:1.0 997:1.0 
4.026966865605961 283:1.0 214:1.0 176:1.0 162:1.0 367:1.0 402:1.0 134:1.0 108:1.0 92:2.0 395:1.0 114:1.0 26:1.0 259:1.0 627:1.0 177:1.0 371:1.0 285:1.0 
0.18580807782123207 214:1.0 429:2.0 312:1.0 367:1.0 426:1.0 417:3.0 391:1.0 454:1.0 432:1.0 133:1.0 366:1.0 604:1.0 484:2.0 91:3.0 468:1.0 999:1.0 63:1.0 30:1.0 492:1.0 74:1.0 130:1.0 241:1.0 117:1.0 342:1.0 242:1.0 160:2.0 270:1.0 155:1.0 494:1.0 222:1.0 395:1.0 69:1.0 45:1.0 285:1.0 470:1.0 407:3.0 202:2.0 120:1.0 536:1.0 997:2.0 161:1.0 18:1.0 280:1.0 413:1.0 39:1.0 62:2.0 257:1.0 397:8.0 191:2.0 479:1.0 837:1.0 
0.05075195526352237 366:1.0 276:1.0 183:1.0 19:1.0 302:2.0 219:1.0 266:1.0 343:1.0 494:1.0 201:1.0 271:1.0 133:2.0 57:1.0 395:1.0 45:1.0 207:1.0 417:1.0 
0.047628228957707255 254:1.0 214:1.0 495:1.0 405:1.0 341:2.0 384:1.0 417:7.0 159:1.0 463:1.0 199:4.0 132:1.0 420:1.0 455:1.0 991:2.0 13:2.0 182:1.0 484:3.0 396:1.0 468:3.0 493:2.0 671:1.0 249:2.0 74:4.0 196:1.0 40:2.0 241:1.0 242:2.0 321:4.0 985:1.0 10:1.0 282:2.0 168:1.0 494:1.0 37:1.0 179:1.0 296:1.0 274:2.0 376:1.0 98:1.0 55:1.0 165:1.0 399:1.0 477:1.0 461:1.0 45:6.0 371:1.0 285:2.0 12:1.0 96:1.0 273:1.0 17:1.0 485:1.0 464:1.0 18:2.0 1:1.0 351:1.0 189:1.0 356:1.0 480:1.0 392:1.0 397:5.0 121:2.0 72:1.0 2:1.0 
3.695158570256775 262:1.0 214:1.0 704:1.0 44:1.0 358:1.0 451:1.0 46:1.0 84:1.0 425:1.0 341:2.0 48:1.0 26:1.0 159:1.0 206:1.0 455:1.0 830:1.0 45:1.0 371:2.0 285:4.0 283:1.0 202:1.0 377:1.0 234:1.0 120:1.0 484:1.0 129:1.0 176:1.0 997:1.0 92:1.0 492:1.0 356:1.0 200:1.0 268:1.0 483:1.0 116:1.0 194:1.0 191:2.0 
3.7398099907382485 26:1.0 254:1.0 366:1.0 367:1.0 92:1.0 93:1.0 133:2.0 45:1.0 285:1.0 476:1.0 425:1.0 
1.9880411230972865 159:1.0 441:1.0 103:1.0 394:1.0 282:1.0 346:1.0 377:1.0 129:1.0 397:1.0 106:1.0 209:1.0 367:1.0 132:1.0 177:1.0 371:1.0 285:1.0 
6.379563121901248 366:1.0 26:1.0 283:1.0 196:1.0 315:1.0 214:1.0 282:1.0 358:1.0 61:1.0 367:1.0 48:1.0 92:1.0 319:1.0 133:1.0 45:1.0 417:1.0 
2.324392620141073 254:1.0 17:1.0 495:1.0 383:1.0 377:2.0 485:1.0 367:1.0 341:1.0 493:1.0 135:1.0 114:1.0 417:3.0 274:1.0 216:1.0 16:1.0 199:1.0 397:3.0 121:1.0 133:1.0 45:2.0 173:1.0 371:1.0 285:1.0 186:1.0 
7.24 704:1.0 533:1.0 710:1.0 43:1.0 253:1.0 405:1.0 494:1.0 966:1.0 395:1.0 336:1.0 417:1.0 165:1.0 557:1.0 362:1.0 455:1.0 371:1.0 45:2.0 285:1.0 186:1.0 407:2.0 202:3.0 176:1.0 997:2.0 144:2.0 647:1.0 356:1.0 22:1.0 286:1.0 483:1.0 397:1.0 353:1.0 4:1.0 
0.3420186778223829 147:1.0 214:1.0 270:1.0 442:1.0 383:1.0 379:1.0 425:2.0 106:1.0 499:1.0 367:2.0 393:1.0 37:1.0 417:3.0 159:2.0 391:1.0 477:1.0 149:1.0 432:1.0 420:1.0 177:1.0 285:2.0 245:1.0 407:1.0 377:2.0 91:1.0 464:1.0 408:1.0 249:1.0 87:1.0 74:1.0 21:1.0 397:1.0 209:1.0 178:1.0 
6.714917425021164 282:1.0 377:1.0 202:1.0 997:1.0 494:1.0 351:1.0 179:1.0 417:2.0 931:1.0 40:1.0 242:1.0 257:1.0 397:1.0 111:1.0 191:1.0 416:1.0 133:1.0 45:1.0 
3.151263251725879 833:1.0 214:1.0 269:1.0 369:1.0 425:2.0 15:1.0 85:1.0 499:1.0 367:2.0 341:1.0 225:1.0 354:1.0 426:1.0 395:1.0 417:3.0 159:1.0 296:2.0 259:1.0 438:1.0 449:1.0 177:1.0 133:1.0 294:1.0 285:2.0 400:1.0 411:1.0 91:1.0 122:1.0 76:1.0 144:1.0 303:1.0 247:1.0 356:3.0 70:1.0 40:1.0 286:1.0 117:1.0 88:1.0 324:1.0 479:1.0 
7.24 441:1.0 394:1.0 284:1.0 30:1.0 395:1.0 
7.24 456:1.0 219:1.0 306:1.0 438:1.0 393:1.0 19:1.0 10:1.0 395:1.0 
0.4619120150088554 441:1.0 245:1.0 214:1.0 17:1.0 202:1.0 369:1.0 485:1.0 997:1.0 306:1.0 341:1.0 492:1.0 5:1.0 316:1.0 421:1.0 395:1.0 356:2.0 417:1.0 436:2.0 98:1.0 350:1.0 397:1.0 187:1.0 334:1.0 284:1.0 177:1.0 10:1.0 
3.8329772743384845 355:1.0 214:1.0 447:1.0 82:1.0 995:1.0 78:1.0 425:1.0 410:1.0 367:3.0 341:1.0 8:1.0 395:1.0 950:1.0 336:1.0 417:6.0 895:1.0 128:1.0 188:1.0 165:2.0 244:1.0 449:2.0 208:1.0 45:2.0 285:1.0 411:1.0 202:1.0 997:1.0 156:1.0 999:1.0 18:1.0 30:1.0 218:1.0 866:1.0 351:1.0 135:3.0 854:1.0 213:1.0 189:1.0 435:1.0 241:1.0 286:1.0 993:1.0 257:1.0 476:1.0 160:1.0 284:1.0 230:1.0 
3.3742882739452136 488:1.0 254:1.0 158:1.0 282:1.0 78:1.0 367:1.0 341:1.0 460:1.0 395:1.0 950:1.0 417:5.0 403:1.0 26:1.0 128:1.0 296:1.0 259:1.0 83:1.0 438:1.0 294:1.0 45:1.0 202:1.0 156:1.0 464:1.0 866:2.0 92:1.0 854:1.0 247:1.0 286:1.0 88:1.0 21:1.0 242:1.0 257:1.0 397:3.0 284:1.0 
0.11175554309276717 498:1.0 447:2.0 228:1.0 82:1.0 58:1.0 168:2.0 367:1.0 341:2.0 32:1.0 512:1.0 37:1.0 114:1.0 128:1.0 274:1.0 376:1.0 165:1.0 199:1.0 278:1.0 119:1.0 173:1.0 491:1.0 57:1.0 13:1.0 340:1.0 273:1.0 170:1.0 331:1.0 377:5.0 484:1.0 146:1.0 437:1.0 30:1.0 299:1.0 492:1.0 351:1.0 413:1.0 180:1.0 605:1.0 416:2.0 207:1.0 
7.24 263:1.0 
3.7332980827587083 254:1.0 195:1.0 84:1.0 140:1.0 367:2.0 8:1.0 395:1.0 417:2.0 128:1.0 188:1.0 145:1.0 365:1.0 439:1.0 45:3.0 285:1.0 202:1.0 377:1.0 396:1.0 997:1.0 999:2.0 213:1.0 356:1.0 74:1.0 446:1.0 397:1.0 160:1.0 487:1.0 95:1.0 
4.11370762122617 214:1.0 195:1.0 407:3.0 451:1.0 423:1.0 367:2.0 999:1.0 291:1.0 493:2.0 854:1.0 492:1.0 189:1.0 435:1.0 233:2.0 356:2.0 417:1.0 128:1.0 206:1.0 376:3.0 479:1.0 45:2.0 330:1.0 
7.24 159:1.0 704:1.0 368:1.0 375:1.0 361:1.0 278:1.0 341:1.0 177:1.0 133:1.0 356:1.0 
7.24 202:1.0 91:1.0 997:1.0 425:1.0 222:1.0 356:1.0 417:1.0 296:1.0 74:1.0 206:1.0 472:1.0 199:1.0 397:1.0 477:1.0 34:1.0 285:2.0 
7.24 278:1.0 367:1.0 266:1.0 385:1.0 201:1.0 165:1.0 110:1.0 408:1.0 
7.24 263:2.0 359:1.0 
7.24 704:1.0 158:2.0 447:1.0 77:1.0 834:1.0 356:2.0 417:2.0 336:2.0 846:1.0 403:1.0 238:1.0 477:1.0 72:1.0 45:2.0 
7.24 390:1.0 115:1.0 214:1.0 88:1.0 257:1.0 18:1.0 48:1.0 330:1.0 
0.2751744057518856 366:1.0 24:1.0 312:1.0 377:1.0 499:1.0 443:1.0 107:1.0 18:1.0 30:1.0 258:1.0 395:1.0 336:1.0 417:2.0 31:1.0 21:1.0 257:1.0 477:1.0 453:1.0 284:1.0 45:1.0 
0.5539497567030619 366:1.0 254:1.0 227:1.0 452:1.0 368:1.0 375:1.0 223:1.0 251:1.0 367:1.0 395:1.0 303:1.0 74:1.0 196:1.0 88:1.0 21:1.0 307:1.0 278:1.0 438:1.0 141:1.0 191:1.0 133:1.0 45:1.0 
1.3421737175513353 254:1.0 361:1.0 397:1.0 287:1.0 367:1.0 63:1.0 133:1.0 45:1.0 179:1.0 417:2.0 
4.827589386521757 751:1.0 254:1.0 214:2.0 369:1.0 367:1.0 8:1.0 291:1.0 316:1.0 395:4.0 417:1.0 301:1.0 89:1.0 177:1.0 133:1.0 45:3.0 283:1.0 366:1.0 17:1.0 469:1.0 999:2.0 271:1.0 408:1.0 116:1.0 142:1.0 334:1.0 284:1.0 10:1.0 230:1.0 330:1.0 
7.24 273:1.0 234:1.0 91:1.0 369:1.0 215:1.0 475:1.0 253:1.0 146:1.0 1:1.0 18:1.0 247:1.0 74:1.0 427:1.0 397:1.0 141:1.0 
7.24 150:1.0 861:1.0 
7.24 
3.3235861969415588 214:1.0 628:1.0 425:2.0 156:1.0 367:1.0 258:1.0 288:1.0 189:1.0 435:1.0 356:1.0 408:1.0 324:1.0 438:1.0 38:1.0 139:1.0 45:1.0 285:3.0 
7.24 
3.4183644540216034 355:1.0 308:1.0 14:1.0 367:1.0 341:1.0 5:1.0 37:1.0 417:1.0 83:1.0 177:1.0 340:1.0 470:1.0 212:1.0 318:1.0 485:1.0 113:1.0 356:1.0 276:1.0 238:1.0 257:1.0 
3.5594607754729015 367:2.0 428:1.0 402:1.0 460:1.0 395:2.0 274:1.0 259:1.0 165:1.0 365:1.0 133:1.0 991:4.0 109:1.0 135:1.0 374:1.0 471:1.0 401:1.0 21:1.0 304:1.0 
7.24 499:1.0 159:1.0 365:1.0 334:1.0 284:1.0 395:1.0 417:2.0 
6.495030551764316 366:1.0 31:1.0 91:1.0 397:1.0 131:1.0 278:1.0 334:1.0 258:1.0 915:1.0 395:2.0 173:1.0 417:2.0 
2.5898667832992412 315:1.0 274:2.0 216:3.0 174:1.0 299:1.0 45:1.0 186:1.0 417:1.0 408:1.0 54:1.0 
7.24 44:1.0 457:1.0 5:1.0 356:1.0 417:2.0 431:1.0 210:1.0 133:1.0 230:1.0 
3.6216785174646504 254:1.0 214:2.0 339:1.0 228:1.0 140:1.0 678:1.0 367:2.0 328:1.0 341:2.0 457:1.0 418:1.0 258:1.0 417:2.0 159:1.0 463:1.0 216:1.0 365:1.0 371:1.0 285:1.0 283:1.0 295:1.0 223:1.0 120:1.0 193:1.0 485:1.0 157:2.0 435:1.0 189:1.0 356:1.0 31:1.0 230:1.0 
0.6506268442614614 214:4.0 232:1.0 140:1.0 367:1.0 341:1.0 8:1.0 426:1.0 417:2.0 114:1.0 216:1.0 781:1.0 208:1.0 960:1.0 173:1.0 163:2.0 103:1.0 368:2.0 91:1.0 129:1.0 63:1.0 30:3.0 329:1.0 134:2.0 493:2.0 135:1.0 902:1.0 435:1.0 674:1.0 526:1.0 117:1.0 200:1.0 242:1.0 672:1.0 47:2.0 284:1.0 201:1.0 345:1.0 425:2.0 428:1.0 316:1.0 459:1.0 395:3.0 336:1.0 296:1.0 912:1.0 259:1.0 165:1.0 177:1.0 119:1.0 45:2.0 285:2.0 996:1.0 340:1.0 283:1.0 811:1.0 375:2.0 202:1.0 120:1.0 251:1.0 536:1.0 437:1.0 299:1.0 157:1.0 351:1.0 607:1.0 189:1.0 247:1.0 39:1.0 480:1.0 346:1.0 581:1.0 397:6.0 808:1.0 
6.149905827800236 681:1.0 704:1.0 232:1.0 140:1.0 443:1.0 367:1.0 341:1.0 32:1.0 426:1.0 37:1.0 417:4.0 115:1.0 159:1.0 361:1.0 278:1.0 461:1.0 177:1.0 119:1.0 45:1.0 163:1.0 13:1.0 202:1.0 484:1.0 129:1.0 997:1.0 18:2.0 329:1.0 271:1.0 435:1.0 189:1.0 356:2.0 40:1.0 21:1.0 867:1.0 191:1.0 178:1.0 
7.24 245:1.0 498:1.0 276:1.0 21:1.0 469:1.0 443:1.0 395:1.0 95:1.0 417:1.0 
7.24 254:1.0 196:1.0 282:1.0 46:1.0 299:1.0 1:1.0 22:1.0 
5.836600092539656 214:2.0 46:1.0 678:1.0 428:1.0 418:1.0 114:1.0 172:1.0 278:1.0 42:1.0 133:1.0 283:1.0 366:1.0 103:1.0 63:1.0 144:1.0 303:1.0 456:1.0 74:1.0 276:1.0 238:1.0 397:2.0 191:1.0 80:1.0 
0.1175021465325187 369:2.0 367:2.0 443:1.0 354:1.0 380:1.0 426:1.0 395:1.0 37:1.0 240:1.0 417:2.0 26:1.0 310:1.0 45:2.0 100:1.0 366:1.0 67:1.0 102:1.0 852:1.0 156:1.0 998:1.0 999:1.0 280:1.0 157:1.0 92:1.0 356:1.0 276:1.0 446:1.0 21:1.0 242:1.0 397:1.0 194:1.0 209:1.0 284:1.0 191:1.0 138:1.0 95:1.0 
2.4156654261438804 158:3.0 312:1.0 367:6.0 405:1.0 306:1.0 984:1.0 417:6.0 846:2.0 382:3.0 453:1.0 83:1.0 208:1.0 511:1.0 163:3.0 182:1.0 686:1.0 109:1.0 859:2.0 492:2.0 953:3.0 22:2.0 408:1.0 196:3.0 324:1.0 154:1.0 488:2.0 36:3.0 195:1.0 269:1.0 174:1.0 358:1.0 701:1.0 393:2.0 834:2.0 825:1.0 37:1.0 54:1.0 465:1.0 336:4.0 403:1.0 296:1.0 912:1.0 292:1.0 165:3.0 477:1.0 38:2.0 45:3.0 193:1.0 469:1.0 221:1.0 918:3.0 271:1.0 607:1.0 189:2.0 424:2.0 247:1.0 471:1.0 901:1.0 286:1.0 472:1.0 529:2.0 72:1.0 445:1.0 112:1.0 
2.1159322112492442 452:1.0 175:1.0 397:1.0 129:1.0 140:1.0 266:1.0 334:1.0 284:1.0 122:1.0 177:1.0 416:1.0 371:1.0 395:1.0 285:1.0 417:1.0 
3.097623428749303 241:1.0 480:1.0 64:2.0 168:1.0 177:1.0 386:1.0 417:1.0 
0.9337164926003113 158:1.0 192:1.0 495:1.0 398:1.0 140:2.0 367:1.0 490:1.0 73:1.0 417:7.0 128:1.0 382:1.0 83:1.0 365:1.0 960:1.0 433:1.0 173:2.0 366:2.0 313:1.0 493:1.0 344:1.0 74:1.0 242:1.0 160:1.0 284:1.0 717:1.0 207:2.0 43:1.0 442:1.0 425:3.0 32:1.0 222:1.0 512:1.0 395:1.0 37:2.0 895:1.0 296:2.0 177:1.0 57:2.0 45:1.0 285:3.0 202:1.0 997:1.0 221:1.0 480:1.0 431:1.0 397:1.0 476:1.0 334:1.0 445:1.0 
2.950397533635399 259:1.0 14:1.0 168:1.0 485:1.0 409:1.0 305:1.0 300:1.0 173:1.0 45:1.0 417:1.0 
2.2195876782597557 214:6.0 533:1.0 46:2.0 162:1.0 423:1.0 367:2.0 405:1.0 114:1.0 417:3.0 463:1.0 454:1.0 133:1.0 173:1.0 35:1.0 484:2.0 421:1.0 321:3.0 333:1.0 201:1.0 139:1.0 282:1.0 442:1.0 82:1.0 512:1.0 37:1.0 33:1.0 296:2.0 11:1.0 98:1.0 292:1.0 55:1.0 165:1.0 210:1.0 875:2.0 38:1.0 45:3.0 371:1.0 12:1.0 285:1.0 331:1.0 234:1.0 213:1.0 356:1.0 247:1.0 413:1.0 497:1.0 346:1.0 62:1.0 445:1.0 386:1.0 4:1.0 
2.7882999272400535 355:1.0 473:1.0 499:1.0 367:2.0 306:1.0 341:1.0 494:2.0 8:1.0 395:1.0 417:2.0 11:1.0 259:1.0 38:1.0 42:1.0 310:1.0 305:1.0 133:1.0 45:1.0 71:1.0 67:1.0 202:1.0 999:1.0 351:1.0 902:1.0 189:1.0 397:1.0 72:1.0 440:1.0 284:1.0 27:1.0 191:1.0 111:1.0 
7.24 196:1.0 214:1.0 339:1.0 212:1.0 848:1.0 49:1.0 5:1.0 738:1.0 139:1.0 45:1.0 374:1.0 417:1.0 
6.418258636143482 214:1.0 232:1.0 50:1.0 995:1.0 328:1.0 341:1.0 143:1.0 11:2.0 259:1.0 236:1.0 382:1.0 965:1.0 208:1.0 960:1.0 163:1.0 340:1.0 283:1.0 245:1.0 295:1.0 458:1.0 202:1.0 90:1.0 91:1.0 997:1.0 63:1.0 671:1.0 303:1.0 247:1.0 408:1.0 901:1.0 401:2.0 194:1.0 487:1.0 404:2.0 
6.60840872662134 254:1.0 214:1.0 339:1.0 442:1.0 58:1.0 78:1.0 685:1.0 425:1.0 848:1.0 341:1.0 48:1.0 8:1.0 395:3.0 417:1.0 114:1.0 240:1.0 188:1.0 438:2.0 133:1.0 45:2.0 285:1.0 366:1.0 273:1.0 470:1.0 375:1.0 223:1.0 202:1.0 484:1.0 466:1.0 999:1.0 637:1.0 493:1.0 213:1.0 309:1.0 413:1.0 476:1.0 284:1.0 191:1.0 450:1.0 230:2.0 4:1.0 330:1.0 
4.157783870564828 704:1.0 214:2.0 312:1.0 202:1.0 91:1.0 84:1.0 78:1.0 997:1.0 140:1.0 473:1.0 367:1.0 8:1.0 225:1.0 213:1.0 395:2.0 115:1.0 11:1.0 196:1.0 206:1.0 188:1.0 301:2.0 483:1.0 365:1.0 438:1.0 284:1.0 191:1.0 305:1.0 133:1.0 45:2.0 4:1.0 
1.9954742012432214 441:1.0 214:2.0 192:1.0 710:1.0 495:1.0 15:1.0 367:1.0 341:1.0 222:1.0 225:1.0 143:1.0 395:1.0 159:1.0 535:1.0 453:2.0 373:1.0 433:1.0 177:1.0 133:1.0 294:1.0 45:1.0 124:1.0 202:3.0 176:1.0 997:3.0 107:2.0 18:1.0 492:1.0 351:1.0 435:1.0 74:1.0 901:1.0 257:1.0 16:1.0 152:1.0 267:1.0 330:1.0 
1.0669006474115033 46:1.0 443:1.0 367:1.0 306:1.0 393:2.0 189:1.0 435:1.0 395:1.0 356:1.0 128:1.0 74:1.0 259:1.0 21:1.0 242:1.0 397:1.0 438:1.0 141:1.0 10:1.0 45:2.0 
1.071193875838835 214:1.0 14:1.0 389:1.0 145:1.0 397:1.0 395:1.0 356:1.0 
0.9531703091185328 67:1.0 202:1.0 91:1.0 396:1.0 499:1.0 30:1.0 351:1.0 135:1.0 984:1.0 37:1.0 395:1.0 356:2.0 417:2.0 116:1.0 397:2.0 477:1.0 467:1.0 511:1.0 991:2.0 996:1.0 4:1.0 
7.24 456:1.0 104:1.0 342:1.0 202:1.0 234:1.0 345:1.0 51:1.0 997:1.0 367:2.0 290:1.0 438:1.0 449:1.0 42:1.0 455:2.0 316:1.0 45:2.0 303:1.0 163:1.0 
7.24 17:1.0 429:1.0 369:1.0 140:1.0 367:1.0 866:1.0 395:1.0 74:1.0 286:1.0 21:1.0 497:1.0 302:1.0 433:1.0 28:1.0 45:1.0 4:1.0 
5.977743861992366 113:1.0 159:1.0 341:1.0 436:1.0 
1.3531213154560124 159:1.0 40:1.0 177:1.0 416:1.0 45:1.0 395:1.0 397:1.0 179:1.0 
3.708882887319137 366:1.0 254:1.0 174:1.0 428:1.0 341:1.0 866:1.0 344:1.0 426:1.0 408:1.0 417:2.0 114:1.0 278:1.0 438:3.0 353:1.0 133:2.0 45:3.0 
7.24 283:1.0 26:1.0 103:1.0 92:1.0 285:1.0 176:1.0 
2.9560260716940485 254:1.0 498:1.0 214:4.0 205:1.0 318:1.0 367:2.0 499:1.0 299:1.0 426:1.0 417:2.0 159:1.0 128:1.0 117:1.0 867:1.0 277:1.0 361:1.0 378:1.0 180:1.0 278:2.0 385:1.0 260:1.0 177:1.0 201:1.0 217:1.0 95:1.0 330:2.0 
1.8802253284221813 441:1.0 710:1.0 358:1.0 425:1.0 215:1.0 367:1.0 341:1.0 8:1.0 395:1.0 417:1.0 115:1.0 394:1.0 188:1.0 149:1.0 133:1.0 285:1.0 366:1.0 103:1.0 218:1.0 213:1.0 21:1.0 346:1.0 16:1.0 397:1.0 476:1.0 211:1.0 4:1.0 
2.1228585320242446 366:1.0 159:1.0 282:1.0 81:1.0 116:1.0 210:1.0 184:1.0 1:1.0 177:1.0 213:1.0 
6.432201226162887 366:1.0 74:1.0 367:1.0 315:1.0 45:1.0 
3.788027153419687 154:1.0 312:1.0 202:1.0 120:1.0 451:1.0 78:1.0 997:1.0 499:1.0 280:1.0 222:1.0 258:1.0 329:1.0 492:1.0 395:1.0 73:1.0 247:1.0 417:2.0 895:1.0 115:1.0 74:2.0 31:1.0 276:1.0 376:1.0 6:1.0 81:1.0 361:1.0 165:1.0 110:1.0 397:1.0 278:2.0 438:1.0 97:1.0 141:1.0 163:1.0 
7.24 998:1.0 259:1.0 97:1.0 374:1.0 
7.182730572859515 366:1.0 273:1.0 681:1.0 214:1.0 411:1.0 312:2.0 358:1.0 469:1.0 78:1.0 425:1.0 367:2.0 341:1.0 18:1.0 218:1.0 213:1.0 316:1.0 395:1.0 73:1.0 356:1.0 247:1.0 114:1.0 417:2.0 115:1.0 159:1.0 130:1.0 397:1.0 802:1.0 152:1.0 476:1.0 438:1.0 177:1.0 211:1.0 230:1.0 173:1.0 285:1.0 
0.7720756146638244 214:9.0 897:1.0 367:2.0 341:2.0 306:1.0 258:6.0 233:1.0 417:3.0 463:1.0 350:1.0 535:1.0 343:2.0 141:1.0 104:1.0 183:1.0 484:1.0 129:1.0 493:1.0 277:2.0 993:2.0 230:1.0 154:3.0 751:1.0 262:1.0 44:1.0 442:1.0 345:1.0 168:1.0 51:1.0 425:1.0 66:1.0 300:1.0 395:1.0 632:1.0 220:1.0 260:1.0 362:2.0 177:1.0 45:1.0 245:1.0 170:1.0 811:1.0 411:1.0 24:1.0 536:1.0 351:1.0 444:1.0 247:1.0 31:5.0 323:1.0 293:2.0 837:1.0 414:1.0 379:1.0 925:1.0 172:2.0 159:1.0 389:2.0 133:1.0 100:1.0 434:1.0 880:1.0 135:5.0 265:2.0 401:1.0 409:1.0 266:1.0 486:1.0 201:1.0 404:1.0 165:1.0 477:1.0 438:1.0 311:1.0 285:2.0 273:1.0 331:3.0 212:1.0 202:3.0 286:1.0 497:1.0 480:1.0 267:4.0 204:1.0 
3.4548373630126763 283:1.0 214:1.0 367:1.0 443:1.0 448:1.0 426:1.0 395:1.0 417:3.0 21:1.0 388:1.0 266:1.0 284:1.0 45:1.0 248:1.0 
7.24 751:1.0 202:1.0 78:1.0 997:1.0 405:1.0 341:1.0 107:1.0 492:1.0 417:1.0 376:1.0 242:1.0 349:1.0 397:1.0 438:1.0 449:1.0 440:1.0 230:1.0 
3.2011354981258107 254:1.0 31:1.0 238:1.0 484:1.0 397:1.0 428:1.0 363:1.0 266:1.0 258:1.0 329:1.0 416:1.0 133:1.0 326:1.0 45:1.0 54:1.0 417:1.0 
4.989678413312229 498:1.0 375:1.0 899:1.0 367:1.0 8:1.0 329:1.0 135:1.0 459:2.0 259:1.0 188:1.0 277:1.0 338:1.0 361:1.0 116:1.0 278:3.0 433:1.0 191:1.0 95:1.0 
7.24 
7.223658183252693 36:1.0 451:1.0 369:1.0 949:1.0 367:2.0 402:1.0 341:1.0 426:1.0 395:2.0 417:1.0 128:1.0 68:1.0 165:1.0 278:1.0 385:1.0 217:1.0 45:1.0 669:1.0 163:1.0 67:1.0 107:1.0 289:1.0 30:1.0 52:1.0 309:1.0 22:1.0 180:1.0 378:1.0 97:1.0 284:1.0 191:1.0 386:1.0 126:1.0 
0.29757427001990544 245:1.0 116:1.0 341:1.0 304:1.0 138:1.0 395:1.0 
2.8117054105660126 214:1.0 118:1.0 288:1.0 381:1.0 135:1.0 395:1.0 
4.608377595387861 366:1.0 254:1.0 91:1.0 369:1.0 678:1.0 425:1.0 475:1.0 395:1.0 417:1.0 427:1.0 302:2.0 191:1.0 201:1.0 304:1.0 133:1.0 285:1.0 
2.9887189949888917 214:1.0 46:2.0 379:2.0 140:1.0 499:1.0 367:1.0 341:1.0 821:1.0 984:1.0 114:1.0 172:1.0 159:2.0 216:2.0 781:1.0 81:1.0 965:1.0 373:1.0 449:1.0 310:1.0 173:1.0 898:1.0 163:1.0 223:1.0 91:2.0 999:2.0 218:1.0 421:1.0 265:1.0 74:1.0 116:2.0 266:1.0 284:1.0 487:1.0 450:1.0 717:1.0 138:1.0 230:1.0 496:1.0 330:1.0 262:1.0 369:1.0 288:1.0 395:1.0 54:1.0 150:1.0 259:1.0 477:1.0 461:1.0 325:1.0 119:1.0 45:2.0 996:1.0 226:1.0 452:1.0 17:1.0 212:1.0 202:2.0 90:1.0 997:1.0 871:1.0 156:1.0 52:2.0 21:2.0 346:1.0 431:2.0 334:1.0 
0.8252487803351168 214:1.0 202:1.0 451:1.0 345:1.0 379:1.0 425:1.0 367:1.0 779:2.0 341:1.0 999:1.0 107:1.0 492:1.0 316:1.0 37:1.0 189:1.0 356:1.0 54:1.0 336:1.0 114:1.0 259:1.0 480:1.0 190:1.0 389:1.0 210:1.0 476:1.0 133:1.0 45:1.0 285:1.0 163:1.0 226:2.0 
7.24 367:1.0 98:1.0 286:1.0 362:1.0 431:1.0 226:1.0 
7.24 245:1.0 24:1.0 270:1.0 129:1.0 341:1.0 925:1.0 444:1.0 397:1.0 353:1.0 700:1.0 173:1.0 100:1.0 
7.24 269:1.0 993:1.0 469:1.0 395:1.0 303:1.0 
4.833348108040752 214:2.0 158:1.0 232:1.0 369:1.0 428:1.0 367:1.0 341:2.0 849:1.0 395:1.0 417:2.0 55:1.0 643:1.0 477:1.0 133:2.0 45:1.0 202:1.0 91:1.0 997:1.0 360:1.0 213:1.0 351:1.0 356:1.0 247:2.0 40:1.0 446:1.0 190:2.0 346:1.0 397:1.0 266:1.0 201:1.0 
0.9295202238699949 123:1.0 214:6.0 192:1.0 398:1.0 367:3.0 341:2.0 417:4.0 216:2.0 463:1.0 149:1.0 129:1.0 321:3.0 290:1.0 971:1.0 230:2.0 262:1.0 751:1.0 282:1.0 269:1.0 768:1.0 383:1.0 995:1.0 494:1.0 66:1.0 300:1.0 274:2.0 98:1.0 297:1.0 3:1.0 45:2.0 245:2.0 170:1.0 407:2.0 437:1.0 18:3.0 351:1.0 70:1.0 356:1.0 413:1.0 88:1.0 346:1.0 581:1.0 121:1.0 187:1.0 211:1.0 254:2.0 357:1.0 423:1.0 384:3.0 172:2.0 115:1.0 199:1.0 132:2.0 133:1.0 173:1.0 400:1.0 91:1.0 109:1.0 396:2.0 63:2.0 289:1.0 637:3.0 492:2.0 265:1.0 408:2.0 401:1.0 40:1.0 200:1.0 136:1.0 116:2.0 47:1.0 486:1.0 330:3.0 488:1.0 779:1.0 222:1.0 54:1.0 376:1.0 110:2.0 148:1.0 317:1.0 438:1.0 481:1.0 285:1.0 96:1.0 318:1.0 202:3.0 251:1.0 997:1.0 1:1.0 76:1.0 436:1.0 286:1.0 257:2.0 397:2.0 267:1.0 72:1.0 97:2.0 191:1.0 204:1.0 229:1.0 
0.677021425468474 366:1.0 107:1.0 141:1.0 589:1.0 395:1.0 45:1.0 408:2.0 
7.24 159:1.0 487:1.0 165:1.0 389:1.0 144:1.0 
7.24 396:1.0 122:1.0 393:1.0 25:1.0 344:1.0 361:1.0 16:1.0 181:1.0 45:1.0 163:2.0 404:1.0 
2.0657610461404388 287:1.0 998:1.0 492:1.0 395:1.0 417:1.0 206:1.0 39:1.0 361:1.0 397:1.0 481:1.0 45:1.0 100:1.0 
7.24 375:1.0 177:1.0 861:1.0 356:1.0 417:1.0 
7.24 262:1.0 74:1.0 214:2.0 188:1.0 429:1.0 234:1.0 199:1.0 369:1.0 191:1.0 8:1.0 354:1.0 213:1.0 316:1.0 133:1.0 356:1.0 
7.24 234:1.0 46:1.0 367:1.0 659:1.0 395:1.0 309:1.0 247:1.0 22:1.0 216:1.0 480:1.0 55:1.0 365:1.0 839:1.0 45:1.0 230:1.0 173:1.0 29:3.0 404:2.0 
7.24 383:1.0 176:1.0 140:1.0 499:1.0 443:1.0 367:1.0 364:1.0 426:1.0 950:1.0 953:1.0 417:1.0 21:1.0 165:1.0 266:1.0 112:1.0 589:1.0 198:1.0 29:1.0 
6.897832028135726 256:1.0 214:1.0 387:1.0 484:1.0 334:1.0 284:1.0 76:1.0 395:1.0 45:1.0 417:1.0 172:1.0 
7.24 
7.24 447:1.0 442:1.0 82:1.0 46:2.0 412:1.0 428:1.0 493:1.0 344:1.0 408:1.0 196:1.0 21:1.0 186:1.0 
1.6396135928388105 214:2.0 994:1.0 162:1.0 367:2.0 134:2.0 92:1.0 426:1.0 417:2.0 26:1.0 159:2.0 130:1.0 21:1.0 672:1.0 397:1.0 272:2.0 
4.71568558236756 254:1.0 214:1.0 367:1.0 448:1.0 26:1.0 6:1.0 81:1.0 350:1.0 149:1.0 432:1.0 272:1.0 92:1.0 74:1.0 238:1.0 117:1.0 230:1.0 147:1.0 222:1.0 395:1.0 179:1.0 438:1.0 38:1.0 305:1.0 273:1.0 202:1.0 1:1.0 280:1.0 157:1.0 144:1.0 303:1.0 247:1.0 346:1.0 
7.24 156:1.0 365:1.0 133:1.0 20:1.0 95:1.0 140:1.0 
7.24 158:1.0 101:1.0 423:1.0 367:1.0 166:1.0 37:1.0 417:1.0 159:1.0 199:1.0 535:1.0 208:1.0 173:1.0 45:1.0 264:1.0 13:1.0 186:1.0 366:1.0 484:1.0 485:1.0 372:1.0 468:1.0 999:1.0 464:1.0 144:1.0 346:1.0 62:1.0 257:1.0 431:1.0 
1.4148417410172798 154:1.0 366:1.0 147:1.0 214:2.0 429:1.0 193:1.0 91:1.0 176:1.0 372:1.0 998:1.0 224:1.0 213:1.0 247:1.0 417:2.0 352:1.0 397:1.0 278:1.0 365:1.0 133:1.0 45:3.0 898:1.0 
7.24 533:1.0 369:1.0 106:1.0 410:1.0 367:2.0 539:1.0 417:1.0 26:1.0 305:1.0 133:1.0 45:1.0 13:1.0 163:1.0 245:1.0 103:1.0 407:1.0 484:1.0 91:1.0 156:1.0 637:1.0 279:1.0 92:1.0 671:1.0 144:1.0 435:1.0 374:1.0 303:1.0 247:1.0 408:1.0 196:1.0 74:1.0 436:1.0 209:1.0 641:1.0 198:1.0 151:1.0 
7.24 41:1.0 159:1.0 232:1.0 21:1.0 193:1.0 397:1.0 149:1.0 490:1.0 45:1.0 417:1.0 182:1.0 
6.129246226766503 480:1.0 129:1.0 341:1.0 208:1.0 486:1.0 284:1.0 177:1.0 496:1.0 395:1.0 356:1.0 336:1.0 
0.3259222482694662 214:2.0 158:1.0 171:1.0 312:1.0 58:1.0 215:1.0 410:2.0 341:1.0 114:2.0 417:1.0 115:1.0 361:1.0 454:1.0 141:2.0 264:1.0 366:1.0 91:1.0 129:1.0 74:1.0 500:1.0 201:1.0 416:1.0 139:1.0 298:1.0 422:1.0 994:1.0 358:1.0 168:1.0 78:1.0 155:1.0 848:1.0 300:1.0 395:1.0 179:1.0 403:1.0 474:1.0 274:1.0 275:1.0 399:1.0 302:2.0 278:2.0 438:1.0 177:1.0 45:1.0 273:1.0 24:1.0 234:1.0 299:1.0 213:1.0 144:1.0 247:1.0 480:3.0 397:1.0 
4.806208258489969 262:1.0 273:1.0 470:1.0 375:1.0 368:1.0 327:1.0 419:1.0 345:1.0 85:1.0 418:1.0 122:1.0 393:1.0 426:1.0 105:1.0 417:2.0 159:1.0 480:1.0 165:1.0 116:1.0 988:1.0 454:1.0 278:1.0 433:1.0 133:1.0 
4.793288416967393 214:2.0 686:1.0 24:2.0 129:2.0 341:1.0 464:1.0 30:1.0 351:1.0 127:1.0 54:1.0 417:1.0 159:3.0 274:1.0 362:1.0 
